{"learner":{"attributes":{"scikit_learn":"{\"_estimator_type\": \"classifier\"}"},"feature_names":[],"feature_types":[],"gradient_booster":{"model":{"cats":{"enc":[],"feature_segments":[],"sorted_idx":[]},"gbtree_model_param":{"num_parallel_tree":"1","num_trees":"100"},"iteration_indptr":[0,1,2,3,4,5,6,7,8,9,10,11,12,13,14,15,16,17,18,19,20,21,22,23,24,25,26,27,28,29,30,31,32,33,34,35,36,37,38,39,40,41,42,43,44,45,46,47,48,49,50,51,52,53,54,55,56,57,58,59,60,61,62,63,64,65,66,67,68,69,70,71,72,73,74,75,76,77,78,79,80,81,82,83,84,85,86,87,88,89,90,91,92,93,94,95,96,97,98,99,100],"tree_info":[0,0,0,0,0,0,0,0,0,0,0,0,0,0,0,0,0,0,0,0,0,0,0,0,0,0,0,0,0,0,0,0,0,0,0,0,0,0,0,0,0,0,0,0,0,0,0,0,0,0,0,0,0,0,0,0,0,0,0,0,0,0,0,0,0,0,0,0,0,0,0,0,0,0,0,0,0,0,0,0,0,0,0,0,0,0,0,0,0,0,0,0,0,0,0,0,0,0,0,0],"trees":[{"base_weights":[1.2265907E-8,-1.6558311E0,7.779159E-1,-1.9170369E0,-6.4390343E-1,1.1515354E0,-5.882927E-1,-1.9516016E0,1.8422274E-1,5.059263E-1,-1.2845442E0,6.048966E-1,1.4936867E0,-5.960067E-1,-8.6310124E-1,6.062222E-1,-1.5603539E0,1.2230868E0,-7.541872E-1,1.7623303E0,1.0991607E0,3.4855008E-1,-4.8571432E-1,-3E-1,3.7624863E-1,2.5859442E-1,-1.7318524E0,1.400929E0,-5.04E-1,-1.61808E0,1.6105702E0,6.9725364E-1,1.8057983E0,4.5562246E-1,1.6633217E0,-3.301038E-1,-5.710843E-1,5.4535294E-1,1.3419364E-1,-5.3117496E-1,3.4855008E-1,2.6831198E-1,5.356014E-1,4.8368675E-1,-3.818182E-1,4.3157896E-1,5.6059146E-1,-3.129918E-1,2.2391641E-1,-3E-1,5.212015E-1],"categories":[],"categories_nodes":[],"categories_segments":[],"categories_sizes":[],"default_left":[0,0,0,0,0,0,0,0,0,0,0,0,0,0,0,0,0,0,0,0,0,0,0,0,0,0,0,0,0,0,0,0,0,0,0,0,0,0,0,0,0,0,0,0,0,0,0,0,0,0,0],"id":0,"left_children":[1,3,5,7,9,11,-1,13,-1,-1,15,17,19,-1,21,23,25,27,29,31,33,-1,-1,-1,-1,-1,35,37,-1,39,41,43,45,47,49,-1,-1,-1,-1,-1,-1,-1,-1,-1,-1,-1,-1,-1,-1,-1,-1],"loss_changes":[8.024846E2,5.140094E1,4.3600174E2,1.5001465E1,6.540796E1,6.89751E1,0E0,4.2389526E0,0E0,0E0,1.8569546E1,1.2317501E2,2.2345306E1,0E0,1.2039313E1,6.481069E0,1.3861061E1,5.4187836E1,9.680729E1,4.974304E0,3.390216E1,0E0,0E0,0E0,0E0,0E0,9.5726013E-1,3.7015152E1,0E0,1.6586708E1,1.0311127E-2,1.4505251E1,2.8225708E-1,2.0815525E1,1.1691071E1,0E0,0E0,0E0,0E0,0E0,0E0,0E0,0E0,0E0,0E0,0E0,0E0,0E0,0E0,0E0,0E0],"parents":[2147483647,0,0,1,1,2,2,3,3,4,4,5,5,7,7,10,10,11,11,12,12,14,14,15,15,16,16,17,17,18,18,19,19,20,20,26,26,27,27,29,29,30,30,31,31,32,32,33,33,34,34],"right_children":[2,4,6,8,10,12,-1,14,-1,-1,16,18,20,-1,22,24,26,28,30,32,34,-1,-1,-1,-1,-1,36,38,-1,40,42,44,46,48,50,-1,-1,-1,-1,-1,-1,-1,-1,-1,-1,-1,-1,-1,-1,-1,-1],"split_conditions":[5.7104605E-1,4.186836E-1,-1.7016415E-1,8.474697E-1,-1.3318095E0,7.419116E-1,-5.882927E-1,1.6698723E0,1.8422274E-1,5.059263E-1,-7.2871226E-1,7.795126E-1,-6.8002427E-1,-5.960067E-1,-2.2027833E0,-4.802713E-1,-2.4682207E0,-5.150169E-1,-6.438846E-1,7.48617E-1,6.130614E-1,3.4855008E-1,-4.8571432E-1,-3E-1,3.7624863E-1,2.5859442E-1,2.5320666E-2,-2.8593513E-1,-5.04E-1,1.3070916E0,-6.1434805E-1,-7.3216075E-1,7.6499766E-1,-1.0071492E0,4.6749517E-1,-3.301038E-1,-5.710843E-1,5.4535294E-1,1.3419364E-1,-5.3117496E-1,3.4855008E-1,2.6831198E-1,5.356014E-1,4.8368675E-1,-3.818182E-1,4.3157896E-1,5.6059146E-1,-3.129918E-1,2.2391641E-1,-3E-1,5.212015E-1],"split_indices":[1,1,0,2,4,1,0,0,0,0,0,4,0,0,1,4,3,0,0,1,2,0,0,0,0,0,3,2,0,4,0,0,1,4,3,0,0,0,0,0,0,0,0,0,0,0,0,0,0,0,0],"split_type":[0,0,0,0,0,0,0,0,0,0,0,0,0,0,0,0,0,0,0,0,0,0,0,0,0,0,0,0,0,0,0,0,0,0,0,0,0,0,0,0,0,0,0,0,0,0,0,0,0,0,0],"sum_hessian":[6.21E2,1.9813393E2,4.228661E2,1.5677232E2,4.1361607E1,3.726161E2,5.025E1,1.5488615E2,1.8861607E0,8.566964E0,3.2794643E1,1.4450893E2,2.2810715E2,1.4925E2,5.636161E0,4.0223217E0,2.8772322E1,9.939732E1,4.5111607E1,1.3364062E2,9.446652E1,1.3861607E0,4.25E0,1E0,3.0223215E0,1.6361607E0,2.713616E1,9.414732E1,5.25E0,3.327232E1,1.1839286E1,5.908482E0,1.2773215E2,4.4973213E1,4.9493305E1,7.386161E0,1.975E1,6.4877235E1,2.927009E1,3.188616E1,1.3861607E0,3.5223215E0,8.316964E0,4.158482E0,1.75E0,2.215625E1,1.055759E2,6.886161E0,3.8087055E1,1E0,4.8493305E1],"tree_param":{"num_deleted":"0","num_feature":"6","num_nodes":"51","size_leaf_vector":"1"}},{"base_weights":[-1.6551034E-5,-1.273423E0,5.871186E-1,-1.4820263E0,-4.847453E-1,8.6734277E-1,-4.5668483E-1,-1.5113603E0,1.4902832E-1,3.9451572E-1,-9.794026E-1,4.5726156E-1,1.1245025E0,-4.6192425E-1,-6.580901E-1,4.5315513E-1,-1.1947383E0,9.1172504E-1,-5.542881E-1,1.3459502E0,8.0909836E-1,2.934892E-1,-3.878335E-1,-1.078049E-2,2.895574E-1,2.1289575E-1,-1.3376294E0,1.0489007E0,-4.000837E-1,-1.2275382E0,1.2605338E0,7.288169E-1,1.3948106E0,3.2186678E-1,1.2587677E0,-3.1027508E-1,2.895574E-1,-2.495455E-1,-4.450517E-1,4.17205E-1,9.5739335E-2,-4.0676266E-1,2.934892E-1,4.2996868E-1,1.8793015E-1,4.2436156E-1,-1.5708545E-1,2.3519944E-1,4.239484E-1,2.256385E-1,-1.2312424E-1,3.0150445E-2,4.2995653E-1],"categories":[],"categories_nodes":[],"categories_segments":[],"categories_sizes":[],"default_left":[0,0,0,0,0,0,0,0,0,0,0,0,0,0,0,0,0,0,0,0,0,0,0,0,0,0,0,0,0,0,0,0,0,0,0,0,0,0,0,0,0,0,0,0,0,0,0,0,0,0,0,0,0],"id":1,"left_children":[1,3,5,7,9,11,-1,13,-1,-1,15,17,19,-1,21,23,25,27,29,31,33,-1,-1,35,-1,-1,37,39,-1,41,43,45,47,49,51,-1,-1,-1,-1,-1,-1,-1,-1,-1,-1,-1,-1,-1,-1,-1,-1,-1,-1],"loss_changes":[4.3575903E2,2.9541046E1,2.3711488E2,9.165466E0,3.6861893E1,3.668695E1,0E0,2.4527588E0,0E0,0E0,1.0387081E1,6.3781555E1,1.4006012E1,0E0,7.863721E0,1.1733797E0,8.574345E0,3.0767708E1,5.444177E1,2.7666168E0,1.9675877E1,0E0,0E0,4.551685E0,0E0,0E0,7.1481323E-1,2.210936E1,0E0,1.0409027E1,4.389782E-1,1.0444513E1,1.829834E-1,1.4592119E1,9.416084E0,0E0,0E0,0E0,0E0,0E0,0E0,0E0,0E0,0E0,0E0,0E0,0E0,0E0,0E0,0E0,0E0,0E0,0E0],"parents":[2147483647,0,0,1,1,2,2,3,3,4,4,5,5,7,7,10,10,11,11,12,12,14,14,15,15,16,16,17,17,18,18,19,19,20,20,23,23,26,26,27,27,29,29,30,30,31,31,32,32,33,33,34,34],"right_children":[2,4,6,8,10,12,-1,14,-1,-1,16,18,20,-1,22,24,26,28,30,32,34,-1,-1,36,-1,-1,38,40,-1,42,44,46,48,50,52,-1,-1,-1,-1,-1,-1,-1,-1,-1,-1,-1,-1,-1,-1,-1,-1,-1,-1],"split_conditions":[5.7104605E-1,4.186836E-1,-1.7016415E-1,8.474697E-1,-1.3318095E0,7.419116E-1,-4.5668483E-1,1.6698723E0,1.4902832E-1,3.9451572E-1,-7.2871226E-1,7.795126E-1,-6.8002427E-1,-4.6192425E-1,-2.2027833E0,-7.3063207E-1,-2.4682207E0,-5.150169E-1,-6.438846E-1,7.5100166E-1,6.130614E-1,2.934892E-1,-3.878335E-1,6.849559E-1,2.895574E-1,2.1289575E-1,2.5320666E-2,-2.8593513E-1,-4.000837E-1,1.3070916E0,3.2284403E-1,-1.0462403E0,-1.1739405E0,5.4393315E-1,5.5098766E-1,-3.1027508E-1,2.895574E-1,-2.495455E-1,-4.450517E-1,4.17205E-1,9.5739335E-2,-4.0676266E-1,2.934892E-1,4.2996868E-1,1.8793015E-1,4.2436156E-1,-1.5708545E-1,2.3519944E-1,4.239484E-1,2.256385E-1,-1.2312424E-1,3.0150445E-2,4.2995653E-1],"split_indices":[1,1,0,2,4,1,0,0,0,0,0,4,0,0,1,0,3,0,0,1,2,0,0,2,0,0,3,2,0,4,2,4,2,3,3,0,0,0,0,0,0,0,0,0,0,0,0,0,0,0,0,0,0],"split_type":[0,0,0,0,0,0,0,0,0,0,0,0,0,0,0,0,0,0,0,0,0,0,0,0,0,0,0,0,0,0,0,0,0,0,0,0,0,0,0,0,0,0,0,0,0,0,0,0,0,0,0,0,0],"sum_hessian":[5.808292E2,1.8292468E2,3.9790454E2,1.4396669E2,3.8957996E1,3.5176324E2,4.6141285E1,1.4209644E2,1.8702477E0,8.0413265E0,3.0916668E1,1.3664297E2,2.1512027E2,1.3674268E2,5.3537717E0,3.8956664E0,2.7021002E1,9.43518E1,4.2291176E1,1.2446505E2,9.065523E1,1.3448986E0,4.008873E0,2.5574284E0,1.3382381E0,1.6091098E0,2.5411892E1,8.942157E1,4.9302273E0,3.1083601E1,1.1207576E1,1.0299007E1,1.1416604E2,4.4333836E1,4.632139E1,1.2191902E0,1.3382381E0,7.1885443E0,1.8223349E1,6.0282864E1,2.913871E1,2.9738703E1,1.3448986E0,7.8180885E0,3.389487E0,6.5715714E0,3.727436E0,4.605131E0,1.09560905E2,2.7908638E1,1.64252E1,6.2687845E0,4.0052605E1],"tree_param":{"num_deleted":"0","num_feature":"6","num_nodes":"53","size_leaf_vector":"1"}},{"base_weights":[-1.7440929E-4,5.0441194E-1,-1.0324367E0,-1.1455294E0,7.2732735E-1,-6.962861E-1,-1.3132232E0,-1.2353598E0,2.0050381E-1,9.840664E-1,3.5454422E-1,-3.961863E-1,4.349399E-1,1.20850585E-1,-4.0598455E-1,-5.870404E-1,-3.9500868E-1,1.3220326E0,7.842019E-1,-4.33685E-1,9.2229927E-1,-8.437642E-1,7.870994E-1,-3.3367315E-1,2.5169948E-1,4.1321838E-1,-7.010107E-2,1.1137539E0,-5.859377E-2,-1.0433037E0,9.0339905E-1,-6.004065E-1,9.941277E-1,-4.346662E-1,2.7647558E-1,1.1188352E0,-6.5006375E-1,-1.3259658E-1,3.703585E-1,-2.7591953E-1,3.5708353E-1,-3.7117726E-1,2.3710544E-1,-3.6529136E-1,3.448962E-1,2.7943015E-1,-5.218922E-1,3.7988606E-1,1.8274887E-1,6.504875E-2,3.5517433E-1,-4.450706E-1,2.7943015E-1],"categories":[],"categories_nodes":[],"categories_segments":[],"categories_sizes":[],"default_left":[0,0,0,0,0,0,0,0,0,0,0,0,0,0,0,0,0,0,0,0,0,0,0,0,0,0,0,0,0,0,0,0,0,0,0,0,0,0,0,0,0,0,0,0,0,0,0,0,0,0,0,0,0],"id":2,"left_children":[1,3,5,7,9,11,13,15,-1,17,19,-1,21,-1,-1,23,-1,25,27,29,31,33,35,-1,-1,-1,-1,37,39,41,43,45,47,-1,-1,49,51,-1,-1,-1,-1,-1,-1,-1,-1,-1,-1,-1,-1,-1,-1,-1,-1],"loss_changes":[2.6569476E2,1.2684907E2,1.4893433E1,7.533737E0,2.859842E1,5.5912666E1,6.7406616E0,1.3140259E0,0E0,1.1023224E1,5.6301483E1,0E0,1.3550736E1,0E0,0E0,5.5889225E0,0E0,5.9105988E0,3.1908966E1,4.412869E1,8.573685E0,8.452078E0,1.1671419E1,0E0,0E0,0E0,0E0,1.6041641E1,3.6776997E1,1.4084946E1,1.0345801E1,8.441687E0,6.565048E0,0E0,0E0,8.5967064E-1,7.8903685E0,0E0,0E0,0E0,0E0,0E0,0E0,0E0,0E0,0E0,0E0,0E0,0E0,0E0,0E0,0E0,0E0],"parents":[2147483647,0,0,1,1,2,2,3,3,4,4,5,5,6,6,7,7,9,9,10,10,12,12,15,15,17,17,18,18,19,19,20,20,21,21,22,22,27,27,28,28,29,29,30,30,31,31,32,32,35,35,36,36],"right_children":[2,4,6,8,10,12,14,16,-1,18,20,-1,22,-1,-1,24,-1,26,28,30,32,34,36,-1,-1,-1,-1,38,40,42,44,46,48,-1,-1,50,52,-1,-1,-1,-1,-1,-1,-1,-1,-1,-1,-1,-1,-1,-1,-1,-1],"split_conditions":[-5.703746E-1,5.1296955E-1,-1.11546874E-1,8.474697E-1,7.719744E-1,3.897341E-1,-2.2027833E0,-7.2871226E-1,2.0050381E-1,3.940282E-2,7.601177E-1,-3.961863E-1,-7.990975E-1,1.20850585E-1,-4.0598455E-1,-7.337586E-1,-3.9500868E-1,-3.6050454E-1,-6.6342086E-1,-6.5191156E-1,8.5058635E-1,-2.3096035E-1,6.8809766E-1,-3.3367315E-1,2.5169948E-1,4.1321838E-1,-7.010107E-2,6.456595E-1,6.035671E-1,1.3176168E0,6.93422E-1,7.84649E-1,-6.8435055E-1,-4.346662E-1,2.7647558E-1,-5.6315756E-1,-2.7862883E-1,-1.3259658E-1,3.703585E-1,-2.7591953E-1,3.5708353E-1,-3.7117726E-1,2.3710544E-1,-3.6529136E-1,3.448962E-1,2.7943015E-1,-5.218922E-1,3.7988606E-1,1.8274887E-1,6.504875E-2,3.5517433E-1,-4.450706E-1,2.7943015E-1],"split_indices":[0,1,0,2,4,1,1,0,0,3,1,0,3,0,0,0,0,2,0,0,4,0,1,0,0,0,0,1,2,4,1,4,0,0,0,0,0,0,0,0,0,0,0,0,0,0,0,0,0,0,0,0,0],"split_type":[0,0,0,0,0,0,0,0,0,0,0,0,0,0,0,0,0,0,0,0,0,0,0,0,0,0,0,0,0,0,0,0,0,0,0,0,0,0,0,0,0,0,0,0,0,0,0,0,0,0,0,0,0],"sum_hessian":[5.081027E2,3.4162317E2,1.6647952E2,4.0168827E1,3.0145435E2,7.735355E1,8.912598E1,3.8577267E1,1.5915622E0,1.775407E2,1.23913635E2,4.9736217E1,2.7617334E1,1.8264616E0,8.7299515E1,5.2162867E0,3.3360977E1,6.3889847E1,1.13650856E2,5.198192E1,7.193172E1,5.662093E0,2.195524E1,3.9730701E0,1.2432165E0,6.1805042E1,2.084806E0,8.1471985E1,3.217887E1,3.5854458E1,1.612746E1,2.9087903E0,6.902293E1,4.3502026E0,1.3118907E0,1.8017757E1,3.9374847E0,5.677555E0,7.5794426E1,1.9202011E1,1.297686E1,3.2718887E1,3.1355689E0,1.2673056E0,1.4860154E1,1.3184183E0,1.5903721E0,3.909472E1,2.992821E1,1.5039914E0,1.6513765E1,2.6190665E0,1.3184183E0],"tree_param":{"num_deleted":"0","num_feature":"6","num_nodes":"53","size_leaf_vector":"1"}},{"base_weights":[-2.0383082E-3,-1.1586101E0,3.3789465E-1,-1.1895205E0,1.0134889E-1,5.604595E-1,-3.664716E-1,-3.6635685E-1,-3.799047E-1,1.0664532E0,4.227371E-1,2.4017325E-1,-2.8499183E-1,1.137913E0,5.3979E-1,-7.3969793E-1,5.208538E-1,-5.669888E-3,3.582726E-1,-3.734997E-1,1.018719E0,7.2494256E-1,-1.3018197E0,9.797786E-1,3.7082443E-1,-3.7155533E-1,3.3205634E-1,9.5191784E-2,3.2828617E-1,7.127587E-2,2.7824304E-1,2.288358E-1,-4.655579E-1,9.332785E-2,3.6856177E-1,-1.2987126E-1,1.6006494E-1],"categories":[],"categories_nodes":[],"categories_segments":[],"categories_sizes":[],"default_left":[0,0,0,0,0,0,0,0,0,0,0,0,0,0,0,0,0,0,0,0,0,0,0,0,0,0,0,0,0,0,0,0,0,0,0,0,0],"id":3,"left_children":[1,3,5,7,-1,9,-1,-1,11,13,15,-1,-1,17,19,21,23,25,-1,-1,27,29,31,33,35,-1,-1,-1,-1,-1,-1,-1,-1,-1,-1,-1,-1],"loss_changes":[1.7068842E2,4.96344E0,1.1714318E2,2.0190582E0,0E0,2.0058998E1,0E0,0E0,4.190633E0,1.7308884E0,2.6960289E1,0E0,0E0,3.4830017E0,9.258053E0,1.6215506E1,1.4471149E1,6.210594E0,0E0,0E0,7.254696E-2,3.5085368E-1,8.288322E0,8.346298E0,2.1677559E1,0E0,0E0,0E0,0E0,0E0,0E0,0E0,0E0,0E0,0E0,0E0,0E0],"parents":[2147483647,0,0,1,1,2,2,3,3,5,5,8,8,9,9,10,10,13,13,14,14,15,15,16,16,17,17,20,20,21,21,22,22,23,23,24,24],"right_children":[2,4,6,8,-1,10,-1,-1,12,14,16,-1,-1,18,20,22,24,26,-1,-1,28,30,32,34,36,-1,-1,-1,-1,-1,-1,-1,-1,-1,-1,-1,-1],"split_conditions":[4.186836E-1,8.474697E-1,-1.11546874E-1,1.6698723E0,1.0134889E-1,-1.2419058E0,-3.664716E-1,-3.6635685E-1,-2.2027833E0,-6.456619E-1,-9.298393E-1,2.4017325E-1,-2.8499183E-1,6.93422E-1,5.1412195E-1,-2.296787E0,4.9979277E-2,2.614093E-1,3.582726E-1,-3.734997E-1,-6.11234E-1,7.0699203E-1,-1.7191356E0,-6.559622E-1,6.7617387E-1,-3.7155533E-1,3.3205634E-1,9.5191784E-2,3.2828617E-1,7.127587E-2,2.7824304E-1,2.288358E-1,-4.655579E-1,9.332785E-2,3.6856177E-1,-1.2987126E-1,1.6006494E-1],"split_indices":[1,2,0,0,0,4,0,0,1,0,3,0,0,1,2,3,3,2,0,0,0,1,2,0,1,0,0,0,0,0,0,0,0,0,0,0,0],"split_type":[0,0,0,0,0,0,0,0,0,0,0,0,0,0,0,0,0,0,0,0,0,0,0,0,0,0,0,0,0,0,0,0,0,0,0,0,0],"sum_hessian":[4.3215265E2,9.761697E1,3.3453568E2,9.584235E1,1.7746152E0,2.9331482E2,4.122087E1,9.174527E1,4.0970793E0,6.1311653E1,2.3200316E2,1.2025387E0,2.8945405E0,5.296459E1,8.347065E0,1.7549305E1,2.1445386E2,2.5286014E0,5.0435986E1,1.4275545E0,6.91951E0,4.786958E0,1.2762346E1,5.147289E1,1.6298096E2,1.1457189E0,1.3828826E0,1.1786255E0,5.740885E0,2.0432854E0,2.7436728E0,1.1571316E0,1.1605215E1,1.4566827E1,3.690606E1,2.716214E1,1.3581882E2],"tree_param":{"num_deleted":"0","num_feature":"6","num_nodes":"37","size_leaf_vector":"1"}},{"base_weights":[-6.089163E-3,-1.0782776E0,2.7430955E-1,-1.1127336E0,8.3424546E-2,4.5117143E-1,-3.42053E-1,-3.439882E-1,-3.21432E-1,9.49352E-1,3.3011428E-1,2.1370986E-1,-2.570639E-1,1.0580126E0,5.329546E-1,-6.068157E-1,4.042725E-1,-1.26694795E-2,3.3877128E-1,-3.7512136E-1,1.0111773E0,6.254429E-1,-1.1125611E0,8.078827E-1,2.58191E-1,-3.1193513E-1,2.8217617E-1,6.369238E-2,3.2271242E-1,2.7083933E-1,5.648251E-2,2.0459303E-1,-4.0473652E-1,5.0568897E-2,3.011144E-1,-1.9232318E-2,2.1621168E-1],"categories":[],"categories_nodes":[],"categories_segments":[],"categories_sizes":[],"default_left":[0,0,0,0,0,0,0,0,0,0,0,0,0,0,0,0,0,0,0,0,0,0,0,0,0,0,0,0,0,0,0,0,0,0,0,0,0],"id":4,"left_children":[1,3,5,7,-1,9,-1,-1,11,13,15,-1,-1,17,19,21,23,25,-1,-1,27,29,31,33,35,-1,-1,-1,-1,-1,-1,-1,-1,-1,-1,-1,-1],"loss_changes":[1.1307157E2,3.9532013E0,7.510266E1,1.6760864E0,0E0,1.57124405E1,0E0,0E0,3.1128707E0,1.7624893E0,1.5205706E1,0E0,0E0,3.0463943E0,1.2057559E1,1.0786961E1,1.1590706E1,4.3744164E0,0E0,0E0,3.1457806E-1,4.7895122E-1,5.946456E0,6.430504E0,2.2169403E1,0E0,0E0,0E0,0E0,0E0,0E0,0E0,0E0,0E0,0E0,0E0,0E0],"parents":[2147483647,0,0,1,1,2,2,3,3,5,5,8,8,9,9,10,10,13,13,14,14,15,15,16,16,17,17,20,20,21,21,22,22,23,23,24,24],"right_children":[2,4,6,8,-1,10,-1,-1,12,14,16,-1,-1,18,20,22,24,26,-1,-1,28,30,32,34,36,-1,-1,-1,-1,-1,-1,-1,-1,-1,-1,-1,-1],"split_conditions":[4.186836E-1,8.474697E-1,-1.11546874E-1,1.6698723E0,8.3424546E-2,-1.2419058E0,-3.42053E-1,-3.439882E-1,-2.2027833E0,-6.6342086E-1,-9.298393E-1,2.1370986E-1,-2.570639E-1,6.93422E-1,5.1412195E-1,-2.296787E0,-2.5554764E-1,2.614093E-1,3.3877128E-1,-3.7512136E-1,5.3033316E-1,-2.357948E0,-1.7191356E0,-6.554344E-1,6.276517E-1,-3.1193513E-1,2.8217617E-1,6.369238E-2,3.2271242E-1,2.7083933E-1,5.648251E-2,2.0459303E-1,-4.0473652E-1,5.0568897E-2,3.011144E-1,-1.9232318E-2,2.1621168E-1],"split_indices":[1,2,0,0,0,4,0,0,1,0,3,0,0,1,2,3,2,2,0,0,2,2,2,0,2,0,0,0,0,0,0,0,0,0,0,0,0],"split_type":[0,0,0,0,0,0,0,0,0,0,0,0,0,0,0,0,0,0,0,0,0,0,0,0,0,0,0,0,0,0,0,0,0,0,0,0,0],"sum_hessian":[3.7411877E2,7.696698E1,2.971518E2,7.523537E1,1.7316101E0,2.6473178E2,3.2420002E1,7.171458E1,3.520788E0,5.041582E1,2.1431596E2,1.0885988E0,2.4321892E0,3.876029E1,1.1655532E1,1.5192181E1,1.9912378E2,2.4688976E0,3.6291393E1,2.1231856E0,9.532346E0,4.351934E0,1.0840247E1,5.1713528E1,1.4741026E2,1.1447179E0,1.3241796E0,1.0330889E0,8.499257E0,2.010987E0,2.3409467E0,1.0432577E0,9.796989E0,1.2562454E1,3.9151073E1,8.7381035E1,6.002922E1],"tree_param":{"num_deleted":"0","num_feature":"6","num_nodes":"37","size_leaf_vector":"1"}},{"base_weights":[-8.1898505E-3,2.8649846E-1,-8.158927E-1,-6.364794E-1,4.390252E-1,-3.0400667E-1,-9.799817E-1,-7.4832284E-1,1.8397985E-1,6.94604E-1,1.9420539E-1,-6.639096E-1,4.9995607E-1,1.674321E-1,-3.3388793E-1,-1.3778362E-1,-9.73267E-1,9.2698264E-1,2.717546E-1,-4.4687033E-1,4.6643275E-1,3.665296E-1,-9.44422E-1,2.6684666E-1,-1.9959141E-1,-2.3586456E-1,2.2284344E-1,-2.9903153E-1,6.4917105E-1,-3.4004644E-1,-1.500041E-1,-2.4350682E-1,9.8144585E-1,3.253557E-1,-3.4121156E-1,-9.7046274E-1,8.844516E-1,2.3788999E-1,9.097305E-1,-5.877067E-2,2.1766822E-1,1.3638438E-1,-3.3785152E-1,6.5159793E-3,3.0660293E-1,-3.9389113E-1,1.728627E-1,2.462009E-1,-3.3238494E-1,3.239143E-1,1.513497E-1,-2.7670372E-1,2.7789643E-1,-3.496262E-1,3.140878E-2,3.0169734E-1,1.1110144E-1,-4.8453668E-1,9.5735565E-2,-2.046897E-1,3.204438E-1],"categories":[],"categories_nodes":[],"categories_segments":[],"categories_sizes":[],"default_left":[0,0,0,0,0,0,0,0,0,0,0,0,0,0,0,0,0,0,0,0,0,0,0,0,0,0,0,0,0,0,0,0,0,0,0,0,0,0,0,0,0,0,0,0,0,0,0,0,0,0,0,0,0,0,0,0,0,0,0,0,0],"id":5,"left_children":[1,3,5,7,9,11,13,15,-1,17,19,21,23,25,-1,27,29,31,33,35,37,39,41,-1,-1,-1,-1,-1,43,-1,45,47,49,-1,51,53,55,57,59,-1,-1,-1,-1,-1,-1,-1,-1,-1,-1,-1,-1,-1,-1,-1,-1,-1,-1,-1,-1,-1,-1],"loss_changes":[7.8230606E1,3.4183544E1,7.0816154E0,5.289963E0,1.2834129E1,6.922274E0,1.0268959E1,4.284607E0,0E0,9.674286E0,1.892574E1,5.018054E0,4.047662E0,4.8267217E0,0E0,7.2902646E0,2.9094963E0,4.368454E0,1.8923548E1,2.3498451E1,7.4602604E0,9.8598236E-1,3.8134718E0,0E0,0E0,0E0,0E0,0E0,1.3192844E0,0E0,4.9421706E0,4.295768E0,2.365654E0,0E0,1.7052937E1,5.108202E0,2.3145676E-1,8.244573E0,7.140192E0,0E0,0E0,0E0,0E0,0E0,0E0,0E0,0E0,0E0,0E0,0E0,0E0,0E0,0E0,0E0,0E0,0E0,0E0,0E0,0E0,0E0,0E0],"parents":[2147483647,0,0,1,1,2,2,3,3,4,4,5,5,6,6,7,7,9,9,10,10,11,11,12,12,13,13,15,15,16,16,17,17,18,18,19,19,20,20,21,21,22,22,28,28,30,30,31,31,32,32,34,34,35,35,36,36,37,37,38,38],"right_children":[2,4,6,8,10,12,14,16,-1,18,20,22,24,26,-1,28,30,32,34,36,38,40,42,-1,-1,-1,-1,-1,44,-1,46,48,50,-1,52,54,56,58,60,-1,-1,-1,-1,-1,-1,-1,-1,-1,-1,-1,-1,-1,-1,-1,-1,-1,-1,-1,-1,-1,-1],"split_conditions":[-5.703746E-1,5.9984183E-1,-6.141159E-1,-5.7266134E-1,-7.266714E-2,6.74072E-1,-1.3318095E0,-7.1185845E-1,1.8397985E-1,-6.6342086E-1,7.473998E-1,-5.301321E-1,8.168203E-1,1.7448631E-1,-3.3388793E-1,4.5356545E-1,5.630729E-1,6.456595E-1,6.896322E-2,-6.438846E-1,6.456437E-1,6.10659E-1,-2.2027833E0,2.6684666E-1,-1.9959141E-1,-2.3586456E-1,2.2284344E-1,-2.9903153E-1,7.221607E-1,-3.4004644E-1,-6.3034976E-1,-1.274757E0,6.8438154E-1,3.253557E-1,-9.082905E-1,6.869901E-1,1.0069108E0,-5.7191353E-2,5.2033544E-1,-5.877067E-2,2.1766822E-1,1.3638438E-1,-3.3785152E-1,6.5159793E-3,3.0660293E-1,-3.9389113E-1,1.728627E-1,2.462009E-1,-3.3238494E-1,3.239143E-1,1.513497E-1,-2.7670372E-1,2.7789643E-1,-3.496262E-1,3.140878E-2,3.0169734E-1,1.1110144E-1,-4.8453668E-1,9.5735565E-2,-2.046897E-1,3.204438E-1],"split_indices":[0,1,2,0,4,4,4,0,0,0,1,0,4,1,0,2,1,1,3,0,2,1,1,0,0,0,0,0,2,0,0,4,3,0,4,3,4,4,3,0,0,0,0,0,0,0,0,0,0,0,0,0,0,0,0,0,0,0,0,0,0],"split_type":[0,0,0,0,0,0,0,0,0,0,0,0,0,0,0,0,0,0,0,0,0,0,0,0,0,0,0,0,0,0,0,0,0,0,0,0,0,0,0,0,0,0,0,0,0,0,0,0,0,0,0,0,0,0,0,0,0,0,0,0,0],"sum_hessian":[3.2668954E2,2.3983255E2,8.6856995E1,3.356278E1,2.0626976E2,2.1776505E1,6.508049E1,3.1174131E1,2.3886468E0,1.0001854E2,1.0625122E2,1.5162876E1,6.6136284E0,6.732173E0,5.8348316E1,8.827424E0,2.2346706E1,6.377726E1,3.6241283E1,3.147898E1,7.477225E1,3.1788797E0,1.1983996E1,5.134041E0,1.4795876E0,2.3954568E0,4.336716E0,4.0930743E0,4.73435E0,1.8390732E1,3.955976E0,2.6813064E0,6.109595E1,1.5250515E1,2.0990767E1,2.2787853E1,8.691126E0,5.0350574E1,2.442167E1,1.4156246E0,1.7632551E0,1.205237E0,1.0778759E1,2.1590817E0,2.5752685E0,1.210115E0,2.745861E0,1.2245078E0,1.4567987E0,4.961056E1,1.1485391E1,1.4578978E1,6.4117894E0,1.921894E1,3.568912E0,6.259338E0,2.4317882E0,1.3214533E0,4.902912E1,1.910878E0,2.2510794E1],"tree_param":{"num_deleted":"0","num_feature":"6","num_nodes":"61","size_leaf_vector":"1"}},{"base_weights":[-8.785687E-3,-9.7436845E-1,1.8845266E-1,-1.0166501E0,4.977446E-2,3.0504405E-1,-3.1177658E-1,-3.1806234E-1,-1.793726E-1,1.3591987E-1,6.549256E-1,1.3364825E-1,-1.9497418E-1,3.7387097E-1,-2.2107874E-1,7.5385475E-1,-4.343793E-1,8.8703173E-1,1.5103284E-1,-5.572799E-1,7.0886624E-1,8.842039E-1,2.1437168E-1,-2.333541E-1,3.0168265E-1,1.3240312E-1,-1.0750842E-1,-2.2402062E-1,1.8977998E-1,-2.0814748E-1,2.6675525E-1,-1.354678E-3,2.881918E-1,1.8040788E-1,-5.417023E-1],"categories":[],"categories_nodes":[],"categories_segments":[],"categories_sizes":[],"default_left":[0,0,0,0,0,0,0,0,0,0,0,0,0,0,0,0,0,0,0,0,0,0,0,0,0,0,0,0,0,0,0,0,0,0,0],"id":6,"left_children":[1,3,5,7,-1,9,-1,-1,11,13,15,-1,-1,17,19,21,-1,23,25,27,29,31,33,-1,-1,-1,-1,-1,-1,-1,-1,-1,-1,-1,-1],"loss_changes":[5.3573517E1,2.4690514E0,3.3757835E1,1.4928093E0,0E0,1.2582012E1,0E0,0E0,1.3143984E0,1.245261E1,1.5553234E1,0E0,0E0,9.900307E0,1.880016E1,4.525509E0,0E0,5.9866123E0,9.384061E0,1.0345477E1,4.6819153E0,3.6509514E0,1.2317813E1,0E0,0E0,0E0,0E0,0E0,0E0,0E0,0E0,0E0,0E0,0E0,0E0],"parents":[2147483647,0,0,1,1,2,2,3,3,5,5,8,8,9,9,10,10,13,13,14,14,15,15,17,17,18,18,19,19,20,20,21,21,22,22],"right_children":[2,4,6,8,-1,10,-1,-1,12,14,16,-1,-1,18,20,22,-1,24,26,28,30,32,34,-1,-1,-1,-1,-1,-1,-1,-1,-1,-1,-1,-1],"split_conditions":[4.186836E-1,8.474697E-1,-1.11546874E-1,1.6698723E0,4.977446E-2,7.781026E-1,-3.1177658E-1,-3.1806234E-1,-2.3183103E-1,7.7492845E-1,-6.280688E-1,1.3364825E-1,-1.9497418E-1,-7.069583E-1,-6.438846E-1,-6.6138476E-1,-4.343793E-1,5.284548E-1,6.917231E-1,1.3353543E0,5.592102E-1,-7.2871226E-1,1.1598234E0,-2.333541E-1,3.0168265E-1,1.3240312E-1,-1.0750842E-1,-2.2402062E-1,1.8977998E-1,-2.0814748E-1,2.6675525E-1,-1.354678E-3,2.881918E-1,1.8040788E-1,-5.417023E-1],"split_indices":[1,2,0,0,0,1,0,0,3,4,0,0,0,0,0,0,0,1,1,4,1,0,4,0,0,0,0,0,0,0,0,0,0,0,0],"split_type":[0,0,0,0,0,0,0,0,0,0,0,0,0,0,0,0,0,0,0,0,0,0,0,0,0,0,0,0,0,0,0,0,0,0,0],"sum_hessian":[2.7933557E2,4.6712734E1,2.3262283E2,4.5147106E1,1.5656278E0,2.1313376E2,1.9489082E1,4.2661472E1,2.4856343E0,1.4461761E2,6.851614E1,1.0905896E0,1.3950446E0,8.67492E1,5.7868404E1,6.605031E1,2.4658356E0,2.5362585E1,6.1386616E1,4.2796875E1,1.5071529E1,5.2682297E1,1.3368011E1,1.316629E0,2.4045958E1,3.9186993E1,2.2199623E1,3.7239883E1,5.556993E0,1.3923861E0,1.3679144E1,4.2466846E0,4.8435616E1,1.1808178E1,1.5598338E0],"tree_param":{"num_deleted":"0","num_feature":"6","num_nodes":"35","size_leaf_vector":"1"}},{"base_weights":[-1.1415958E-2,-9.3018246E-1,1.518501E-1,-9.801262E-1,4.116763E-2,2.456039E-1,-3.0032635E-1,-3.09046E-1,-1.5962982E-1,8.389522E-1,1.5995328E-1,1.16022065E-1,-1.7863518E-1,6.0881406E-1,3.109526E-1,4.137333E-1,-2.4362717E-2,8.5917634E-1,-5.266336E-1,-2.9140398E-1,7.1115816E-1,-4.262899E-1,7.3497005E-2,2.7402735E-1,4.6845797E-2,-2.2310948E-2,-2.1821582E-1,3.0363055E-2,-3.050259E-1,1.4533955E-1,3.746766E-1,-1.1721966E-1,1.0722219E-1],"categories":[],"categories_nodes":[],"categories_segments":[],"categories_sizes":[],"default_left":[0,0,0,0,0,0,0,0,0,0,0,0,0,0,0,0,0,0,0,0,0,0,0,0,0,0,0,0,0,0,0,0,0],"id":7,"left_children":[1,3,5,7,-1,9,-1,-1,11,13,15,-1,-1,17,-1,19,21,23,25,27,29,-1,31,-1,-1,-1,-1,-1,-1,-1,-1,-1,-1],"loss_changes":[3.6960835E1,2.1164207E0,2.2867563E1,1.2984009E0,0E0,9.742589E0,0E0,0E0,9.9974847E-1,4.7284317E-1,8.011822E0,0E0,0E0,4.3295364E0,0E0,1.5313047E1,1.3776957E1,2.980337E-1,2.259041E-1,6.3900743E0,5.606064E0,0E0,1.2586734E1,0E0,0E0,0E0,0E0,0E0,0E0,0E0,0E0,0E0,0E0],"parents":[2147483647,0,0,1,1,2,2,3,3,5,5,8,8,9,9,10,10,13,13,15,15,16,16,17,17,18,18,19,19,20,20,22,22],"right_children":[2,4,6,8,-1,10,-1,-1,12,14,16,-1,-1,18,-1,20,22,24,26,28,30,-1,32,-1,-1,-1,-1,-1,-1,-1,-1,-1,-1],"split_conditions":[4.186836E-1,8.474697E-1,-1.11546874E-1,1.6698723E0,4.116763E-2,-1.3232038E0,-3.0032635E-1,-3.09046E-1,-2.3183103E-1,5.7531554E-1,-6.82926E-1,1.16022065E-1,-1.7863518E-1,-6.688673E-1,3.109526E-1,7.168413E-1,-1.0482988E0,4.1736773E-1,7.30283E-1,8.010259E-1,6.4335793E-1,-4.262899E-1,-6.537535E-1,2.7402735E-1,4.6845797E-2,-2.2310948E-2,-2.1821582E-1,3.0363055E-2,-3.050259E-1,1.4533955E-1,3.746766E-1,-1.1721966E-1,1.0722219E-1],"split_indices":[1,2,0,0,0,4,0,0,3,2,0,0,0,0,0,1,4,2,1,4,2,0,0,0,0,0,0,0,0,0,0,0,0],"split_type":[0,0,0,0,0,0,0,0,0,0,0,0,0,0,0,0,0,0,0,0,0,0,0,0,0,0,0,0,0,0,0,0,0],"sum_hessian":[2.4445836E2,3.617713E1,2.0828122E2,3.463819E1,1.5389427E0,1.9334584E2,1.4935388E1,3.240677E1,2.2314203E0,2.32797E1,1.7006613E2,1.0401032E0,1.191317E0,1.2638517E1,1.0641182E1,7.102664E1,9.903949E1,1.0554584E1,2.083934E0,2.1077108E1,4.9949535E1,5.599917E0,9.3439575E1,9.520651E0,1.0339324E0,1.06196E0,1.021974E0,1.4233382E1,6.843725E0,3.647463E1,1.3474907E1,3.531646E1,5.8123116E1],"tree_param":{"num_deleted":"0","num_feature":"6","num_nodes":"33","size_leaf_vector":"1"}},{"base_weights":[-1.3540783E-2,1.6590047E-1,-6.783233E-1,-5.0273395E-1,2.657293E-1,-2.1347329E-1,-8.6651444E-1,-1.124188E0,-1.7941351E-1,6.916005E-1,1.6702697E-1,-8.109331E-1,2.5052333E-1,2.2024061E-1,-1.0188118E0,-6.978573E-2,-3.7431827E-1,2.4562877E-1,-7.228842E-1,7.787818E-1,-2.2745976E-1,-1.0125955E0,2.4595885E-1,8.6190484E-2,-3.212564E-1,5.2969503E-1,-1.9574772E-1,-1.6768152E-1,1.818791E-1,-5.447799E-1,-3.2445785E-1,-2.2105312E-1,5.396192E-1,1.09459005E-1,-3.0478495E-1,-2.490665E-1,8.753492E-1,-4.6645457E-1,-4.65063E-1,7.389628E-1,1.12974875E-1,-2.9632391E-2,7.44807E-1,-2.5293934E-1,1.0982874E-1,-1.9738393E-2,2.4789095E-1,-3.0741826E-1,2.016809E-1,2.7289116E-1,1.629336E-2,-2.9782927E-1,1.9868012E-1,-1.3122109E-1,2.4336325E-1,-1.9809172E-1,7.828659E-2,6.5868214E-2,2.4634303E-1],"categories":[],"categories_nodes":[],"categories_segments":[],"categories_sizes":[],"default_left":[0,0,0,0,0,0,0,0,0,0,0,0,0,0,0,0,0,0,0,0,0,0,0,0,0,0,0,0,0,0,0,0,0,0,0,0,0,0,0,0,0,0,0,0,0,0,0,0,0,0,0,0,0,0,0,0,0,0,0],"id":8,"left_children":[1,3,5,7,9,11,13,15,17,19,21,23,25,27,29,-1,-1,31,33,35,-1,37,39,-1,-1,41,-1,-1,-1,43,-1,-1,45,-1,-1,47,49,51,-1,53,55,-1,57,-1,-1,-1,-1,-1,-1,-1,-1,-1,-1,-1,-1,-1,-1,-1,-1],"loss_changes":[2.6389353E1,1.1765335E1,3.9280987E0,4.416359E0,6.285388E0,4.327094E0,5.70953E0,5.551672E-1,3.9446805E0,4.1717215E0,1.1882544E1,2.2312899E0,2.6490898E0,1.8114107E0,2.8022194E-1,0E0,0E0,3.256371E0,2.7330325E0,2.9197712E0,0E0,1.6350346E0,7.647035E0,0E0,0E0,1.0917532E0,0E0,0E0,0E0,1.7848762E0,0E0,0E0,1.4767385E0,0E0,0E0,2.9158661E0,6.573067E-1,3.8740153E0,0E0,2.4684143E0,1.0933757E1,0E0,4.9376726E-2,0E0,0E0,0E0,0E0,0E0,0E0,0E0,0E0,0E0,0E0,0E0,0E0,0E0,0E0,0E0,0E0],"parents":[2147483647,0,0,1,1,2,2,3,3,4,4,5,5,6,6,7,7,8,8,9,9,10,10,11,11,12,12,13,13,14,14,17,17,18,18,19,19,21,21,22,22,25,25,29,29,32,32,35,35,36,36,37,37,39,39,40,40,42,42],"right_children":[2,4,6,8,10,12,14,16,18,20,22,24,26,28,30,-1,-1,32,34,36,-1,38,40,-1,-1,42,-1,-1,-1,44,-1,-1,46,-1,-1,48,50,52,-1,54,56,-1,58,-1,-1,-1,-1,-1,-1,-1,-1,-1,-1,-1,-1,-1,-1,-1,-1],"split_conditions":[-5.703746E-1,5.9984183E-1,-6.141159E-1,-9.160055E-1,-1.1086446E0,-7.990975E-1,-1.3318095E0,-7.0337325E-1,3.8470277E-1,-6.3034976E-1,-1.0138394E0,-3.6601071E0,1.6887896E0,1.7448631E-1,-2.8593513E-1,-6.978573E-2,-3.7431827E-1,-7.090004E-1,-7.49577E-1,6.93422E-1,-2.2745976E-1,6.0673946E-1,-8.884073E-1,8.6190484E-2,-3.212564E-1,5.7104605E-1,-1.9574772E-1,-1.6768152E-1,1.818791E-1,-1.0943795E-1,-3.2445785E-1,-2.2105312E-1,4.186836E-1,1.09459005E-1,-3.0478495E-1,1.7940116E-1,-6.456619E-1,5.859932E-1,-4.65063E-1,6.1323196E-1,7.217771E-1,-2.9632391E-2,-9.548591E-1,-2.5293934E-1,1.0982874E-1,-1.9738393E-2,2.4789095E-1,-3.0741826E-1,2.016809E-1,2.7289116E-1,1.629336E-2,-2.9782927E-1,1.9868012E-1,-1.3122109E-1,2.4336325E-1,-1.9809172E-1,7.828659E-2,6.5868214E-2,2.4634303E-1],"split_indices":[0,1,2,4,4,3,4,3,3,0,4,2,0,1,2,0,0,2,0,1,0,3,4,0,0,1,0,0,0,4,0,0,1,0,0,2,0,3,0,1,1,0,4,0,0,0,0,0,0,0,0,0,0,0,0,0,0,0,0],"split_type":[0,0,0,0,0,0,0,0,0,0,0,0,0,0,0,0,0,0,0,0,0,0,0,0,0,0,0,0,0,0,0,0,0,0,0,0,0,0,0,0,0,0,0,0,0,0,0,0,0,0,0,0,0,0,0,0,0,0,0],"sum_hessian":[2.192779E2,1.7326093E2,4.6016968E1,2.198353E1,1.512774E2,1.3876078E1,3.214089E1,6.6755157E0,1.5308015E1,2.7333704E1,1.23943695E2,5.7388287E0,8.137249E0,3.8957431E0,2.8245146E1,1.1632737E0,5.512242E0,8.897453E0,6.410561E0,2.621985E1,1.1138526E0,7.0314374E0,1.16912254E2,1.078127E0,4.6607013E0,6.5314384E0,1.6058108E0,1.1422321E0,2.7535112E0,4.432017E0,2.381313E1,1.7022923E0,7.1951613E0,1.3085893E0,5.1019716E0,2.1161966E0,2.4103655E1,4.414531E0,2.6169064E0,2.3868635E1,9.3043625E1,1.803415E0,4.7280235E0,3.3945332E0,1.0374836E0,2.5598385E0,4.6353226E0,1.0880024E0,1.0281942E0,2.3033813E1,1.0698411E0,3.092832E0,1.321699E0,1.0886503E0,2.2779984E1,1.4389307E1,7.865431E1,1.0918156E0,3.6362078E0],"tree_param":{"num_deleted":"0","num_feature":"6","num_nodes":"59","size_leaf_vector":"1"}},{"base_weights":[-2.2091703E-2,1.2322332E-1,-6.2711656E-1,-4.4795448E-1,2.043374E-1,-1.901317E-1,-8.1919414E-1,-9.992028E-1,-1.6346978E-1,9.777226E-2,6.031637E-1,-5.157434E-1,4.917365E-1,1.759882E-1,-9.7655517E-1,-5.8898486E-2,-3.3930582E-1,5.4382217E-1,-4.0100536E-1,4.2053127E-1,-1.9446282E-1,-6.7246836E-1,8.603536E-1,-3.0191997E-1,2.3827534E-2,2.1134718E-1,-3.274851E-2,-5.387815E-2,1.2501386E-1,-4.8660818E-1,-3.1393045E-1,3.1870767E-2,2.1879564E-1,3.3363512E-1,-2.9341218E-1,7.519048E-1,-8.0852404E-2,2.0657496E-1,-4.9735835E-1,2.6311578E-2,-3.2206154E-1,1.1965524E-1,1.0228862E0,1.7683129E-1,-2.2689429E-1,-2.3642875E-1,9.487034E-2,-1.7427388E-1,2.0813757E-1,2.547625E-1,-4.725445E-2,-3.193341E-1,2.375011E-1,-1.3111754E-1,1.4752874E-1,-2.2558492E-1,1.42853E-1,2.1474989E-1,-3.5918337E-1,4.5819405E-2,3.4295502E-1],"categories":[],"categories_nodes":[],"categories_segments":[],"categories_sizes":[],"default_left":[0,0,0,0,0,0,0,0,0,0,0,0,0,0,0,0,0,0,0,0,0,0,0,0,0,0,0,0,0,0,0,0,0,0,0,0,0,0,0,0,0,0,0,0,0,0,0,0,0,0,0,0,0,0,0,0,0,0,0,0,0],"id":9,"left_children":[1,3,5,7,9,11,13,15,17,19,21,23,25,27,29,-1,-1,31,33,35,37,39,41,-1,43,-1,-1,-1,-1,45,-1,-1,-1,47,-1,49,51,53,55,-1,-1,57,59,-1,-1,-1,-1,-1,-1,-1,-1,-1,-1,-1,-1,-1,-1,-1,-1,-1,-1],"loss_changes":[1.7415873E1,7.497636E0,3.0637503E0,3.0031152E0,5.9193025E0,3.143076E0,4.297243E0,4.8465204E-1,2.656502E0,1.0664269E1,1.0245777E1,2.4850838E0,6.800724E-1,4.5523417E-1,2.7479362E-1,0E0,0E0,2.5315225E-1,5.1761103E0,8.971144E0,7.3383856E0,1.7726436E0,2.8825684E0,0E0,2.8304653E0,0E0,0E0,0E0,0E0,1.3935109E0,0E0,0E0,0E0,2.3063889E0,0E0,2.9996262E0,1.9932245E1,5.049291E0,8.8418045E0,0E0,0E0,5.2726374E0,1.9541855E0,0E0,0E0,0E0,0E0,0E0,0E0,0E0,0E0,0E0,0E0,0E0,0E0,0E0,0E0,0E0,0E0,0E0,0E0],"parents":[2147483647,0,0,1,1,2,2,3,3,4,4,5,5,6,6,7,7,8,8,9,9,10,10,11,11,12,12,13,13,14,14,17,17,18,18,19,19,20,20,21,21,22,22,24,24,29,29,33,33,35,35,36,36,37,37,38,38,41,41,42,42],"right_children":[2,4,6,8,10,12,14,16,18,20,22,24,26,28,30,-1,-1,32,34,36,38,40,42,-1,44,-1,-1,-1,-1,46,-1,-1,-1,48,-1,50,52,54,56,-1,-1,58,60,-1,-1,-1,-1,-1,-1,-1,-1,-1,-1,-1,-1,-1,-1,-1,-1,-1,-1],"split_conditions":[-5.703746E-1,5.9984183E-1,-6.141159E-1,-9.160055E-1,6.8954927E-1,6.74072E-1,-1.3318095E0,-7.0337325E-1,-8.97811E-1,4.488427E-1,5.211123E-1,-6.9486076E-1,7.795126E-1,4.3128315E-1,-2.8593513E-1,-5.8898486E-2,-3.3930582E-1,-6.0515726E-1,-7.1185845E-1,7.548471E-1,-6.82926E-1,9.4489974E-1,7.21348E-1,-3.0191997E-1,-1.5632424E-1,2.1134718E-1,-3.274851E-2,-5.387815E-2,1.2501386E-1,-1.0943795E-1,-3.1393045E-1,3.1870767E-2,2.1879564E-1,4.5356545E-1,-2.9341218E-1,2.08219E-1,1.0710677E0,-7.230658E-1,8.086578E-1,2.6311578E-2,-3.2206154E-1,6.8610066E-1,5.5098766E-1,1.7683129E-1,-2.2689429E-1,-2.3642875E-1,9.487034E-2,-1.7427388E-1,2.0813757E-1,2.547625E-1,-4.725445E-2,-3.193341E-1,2.375011E-1,-1.3111754E-1,1.4752874E-1,-2.2558492E-1,1.42853E-1,2.1474989E-1,-3.5918337E-1,4.5819405E-2,3.4295502E-1],"split_indices":[0,1,2,4,2,4,4,3,4,3,3,3,4,1,2,0,0,0,0,4,0,4,1,0,3,0,0,0,0,4,0,0,0,2,0,2,4,0,1,0,0,3,3,0,0,0,0,0,0,0,0,0,0,0,0,0,0,0,0,0,0],"split_type":[0,0,0,0,0,0,0,0,0,0,0,0,0,0,0,0,0,0,0,0,0,0,0,0,0,0,0,0,0,0,0,0,0,0,0,0,0,0,0,0,0,0,0,0,0,0,0,0,0,0,0,0,0,0,0,0,0,0,0,0,0],"sum_hessian":[1.9621059E2,1.5885345E2,3.7357132E1,1.919143E1,1.3966203E2,1.201419E1,2.5342941E1,5.6775904E0,1.3513838E1,1.1119596E2,2.8466066E1,8.296164E0,3.7180254E0,3.4440045E0,2.1898937E1,1.1517656E0,4.525825E0,3.0732918E0,1.0440546E1,5.2629883E1,5.8566082E1,4.505355E0,2.3960712E1,3.891898E0,4.404266E0,2.6185174E0,1.099508E0,1.4928353E0,1.9511694E0,3.727541E0,1.8171396E1,1.3831512E0,1.6901407E0,4.778592E0,5.6619544E0,3.138639E1,2.1243492E1,2.5337236E1,3.3228848E1,1.8259112E0,2.6794434E0,4.6240473E0,1.9336664E1,2.6948922E0,1.7093738E0,2.7232573E0,1.0042837E0,1.1769675E0,3.6016247E0,2.8412588E1,2.9738016E0,9.8827305E0,1.1360762E1,7.616099E0,1.7721138E1,2.652091E1,6.707935E0,3.497268E0,1.1267792E0,2.624231E0,1.6712433E1],"tree_param":{"num_deleted":"0","num_feature":"6","num_nodes":"61","size_leaf_vector":"1"}},{"base_weights":[-2.0614915E-2,-7.97682E-1,7.263042E-2,2.8257133E-2,-8.973728E-1,1.2579001E-1,-2.732762E-1,1.215198E-2,-2.9498744E-1,6.998866E-1,6.785114E-2,4.326556E-1,2.7275106E-1,5.210327E-3,5.8671093E-1,7.414605E-1,-1.2658615E-1,8.884621E-2,-6.9862384E-1,7.459063E-1,-2.232174E-1,2.620777E-1,1.8845059E-2,-3.749614E-2,9.6835084E-2,-3.1082976E-1,2.4093549E-1,2.988765E-1,-1.0064233E-1],"categories":[],"categories_nodes":[],"categories_segments":[],"categories_sizes":[],"default_left":[0,0,0,0,0,0,0,0,0,0,0,0,0,0,0,0,0,0,0,0,0,0,0,0,0,0,0,0,0],"id":10,"left_children":[1,3,5,-1,7,9,-1,-1,-1,11,13,15,-1,17,19,21,-1,23,25,27,-1,-1,-1,-1,-1,-1,-1,-1,-1],"loss_changes":[1.2798954E1,1.7669964E0,8.37132E0,0E0,1.4190178E0,4.9651203E0,0E0,0E0,0E0,3.7324715E-1,4.481906E0,2.4051533E0,0E0,7.3693986E0,3.7022367E0,4.9986482E-1,0E0,5.6349015E0,7.571062E0,4.061505E0,0E0,0E0,0E0,0E0,0E0,0E0,0E0,0E0,0E0],"parents":[2147483647,0,0,1,1,2,2,4,4,5,5,9,9,10,10,11,11,13,13,14,14,15,15,17,17,18,18,19,19],"right_children":[2,4,6,-1,8,10,-1,-1,-1,12,14,16,-1,18,20,22,-1,24,26,28,-1,-1,-1,-1,-1,-1,-1,-1,-1],"split_conditions":[4.186836E-1,-7.1185845E-1,-1.11546874E-1,2.8257133E-2,-2.2027833E0,-1.3434162E0,-2.732762E-1,1.215198E-2,-2.9498744E-1,5.7531554E-1,1.3353543E0,-6.688673E-1,2.7275106E-1,1.1951492E0,6.9896734E-1,6.57962E-1,-1.2658615E-1,7.419116E-1,7.1397215E-1,-6.6342086E-1,-2.232174E-1,2.620777E-1,1.8845059E-2,-3.749614E-2,9.6835084E-2,-3.1082976E-1,2.4093549E-1,2.988765E-1,-1.0064233E-1],"split_indices":[1,0,0,0,1,4,0,0,0,2,4,0,0,4,3,3,0,1,3,0,0,0,0,0,0,0,0,0,0],"split_type":[0,0,0,0,0,0,0,0,0,0,0,0,0,0,0,0,0,0,0,0,0,0,0,0,0,0,0,0,0],"sum_hessian":[1.7484033E2,1.7922998E1,1.5691733E2,1.8075078E0,1.611549E1,1.4969844E2,7.2188907E0,1.3967924E0,1.47186985E1,1.2707217E1,1.3699123E2,6.9281216E0,5.7790956E0,1.2313539E2,1.3855825E1,5.186447E0,1.7416744E0,1.10838356E2,1.2297038E1,1.2767934E1,1.0878922E0,4.1007667E0,1.0856804E0,5.815071E1,5.268765E1,1.0293847E1,2.0031915E0,1.0431641E1,2.336293E0],"tree_param":{"num_deleted":"0","num_feature":"6","num_nodes":"29","size_leaf_vector":"1"}},{"base_weights":[-1.5148979E-2,-7.372797E-1,5.8535356E-2,-1.5895319E-1,-2.8508312E-1,1.0022874E-1,-2.6169991E-1,-4.388502E-1,1.5564898E-1,7.92085E-3,4.142253E-1,-2.148493E-1,6.9245175E-2,2.6832098E-1,-3.0846328E-1,-6.375474E-1,5.9349614E-1,-2.6033947E-1,3.8118196E-1,-4.4853726E-1,6.7143375E-1,-3.0541432E-1,3.033297E-2,-1.0621668E-1,8.097899E-1,2.0692696E-1,-2.0821513E-1,2.1946251E-2,1.7477117E-1,-1.8056768E-1,1.6633178E-1,2.4740003E-1,-3.1006692E-2,1.686059E-1,-2.3831013E-1,3.4437093E-1,1.049443E-1],"categories":[],"categories_nodes":[],"categories_segments":[],"categories_sizes":[],"default_left":[0,0,0,0,0,0,0,0,0,0,0,0,0,0,0,0,0,0,0,0,0,0,0,0,0,0,0,0,0,0,0,0,0,0,0,0,0],"id":11,"left_children":[1,3,5,7,-1,9,-1,11,-1,13,15,-1,-1,17,19,21,23,25,27,29,31,-1,-1,33,35,-1,-1,-1,-1,-1,-1,-1,-1,-1,-1,-1,-1],"loss_changes":[8.857626E0,1.7473736E0,5.95736E0,1.2424686E0,0E0,4.2184906E0,0E0,9.689586E-1,0E0,9.440613E0,6.614204E0,0E0,0E0,3.848568E0,7.403606E0,1.5920548E0,4.440757E0,5.279046E0,3.194912E0,7.389497E0,9.0112686E-1,0E0,0E0,3.9773095E0,3.034833E0,0E0,0E0,0E0,0E0,0E0,0E0,0E0,0E0,0E0,0E0,0E0,0E0],"parents":[2147483647,0,0,1,1,2,2,3,3,5,5,7,7,9,9,10,10,13,13,14,14,15,15,16,16,17,17,18,18,19,19,20,20,23,23,24,24],"right_children":[2,4,6,8,-1,10,-1,12,-1,14,16,-1,-1,18,20,22,24,26,28,30,32,-1,-1,34,36,-1,-1,-1,-1,-1,-1,-1,-1,-1,-1,-1,-1],"split_conditions":[4.186836E-1,-1.9199114E0,-1.11546874E-1,-1.9346213E0,-2.8508312E-1,6.4335793E-1,-2.6169991E-1,-2.7862883E-1,1.5564898E-1,4.7207388E-1,5.211123E-1,-2.148493E-1,6.9245175E-2,-9.298393E-1,7.1864927E-1,8.182759E-1,7.21348E-1,-1.7191356E0,-9.082905E-1,1.3480136E0,7.806392E-1,-3.0541432E-1,3.033297E-2,6.898821E-1,-6.7122877E-1,2.0692696E-1,-2.0821513E-1,2.1946251E-2,1.7477117E-1,-1.8056768E-1,1.6633178E-1,2.4740003E-1,-3.1006692E-2,1.686059E-1,-2.3831013E-1,3.4437093E-1,1.049443E-1],"split_indices":[1,1,0,1,0,2,0,0,0,3,3,0,0,3,3,2,1,2,4,4,1,0,0,1,0,0,0,0,0,0,0,0,0,0,0,0,0],"split_type":[0,0,0,0,0,0,0,0,0,0,0,0,0,0,0,0,0,0,0,0,0,0,0,0,0,0,0,0,0,0,0,0,0,0,0,0,0],"sum_hessian":[1.6465523E2,1.4411532E1,1.502437E2,4.349127E0,1.0062407E1,1.4465688E2,5.586821E0,3.3275175E0,1.021609E0,1.1258473E2,3.207214E1,2.303987E0,1.0235305E0,6.183956E1,5.074517E1,4.298241E0,2.77739E1,1.0649364E1,5.1190197E1,4.4872948E1,5.872222E0,2.5872464E0,1.7109946E0,6.678335E0,2.1095564E1,3.1526804E0,7.4966846E0,2.077606E1,3.0414139E1,3.926867E1,5.60428E0,4.848868E0,1.023354E0,3.4811826E0,3.1971526E0,1.1296385E1,9.799179E0],"tree_param":{"num_deleted":"0","num_feature":"6","num_nodes":"37","size_leaf_vector":"1"}},{"base_weights":[-9.254472E-3,2.5689036E-1,-1.6276924E-1,-2.2923906E-1,4.54507E-1,-1.1046087E0,-1.0081556E-1,-4.3885943E-1,2.3250465E-1,3.3631396E-1,3.1426674E-1,-5.845161E-2,-3.9631078E-1,-8.0078495E-1,-1.1435489E-2,-7.824522E-1,5.52722E-1,-2.9811636E-2,5.832306E-1,4.5377497E-2,-2.7763543E-1,4.3587677E-2,-2.4936268E-1,-1.0047178E-2,-1.022848E0,-2.122409E-2,2.6135764E-1,7.809961E-1,-8.2871735E-1,8.940984E-1,1.8775873E-1,6.340047E-1,-2.4968168E-2,-1.0992383E-1,1.4199348E-1,-3.6186707E-1,4.9394164E-2,2.852166E-1,-4.043246E-2,-1.19474925E-1,-5.0985986E-1,2.9163975E-1,3.5390332E-2,-4.7361657E-1,2.325809E-1,-2.5413448E-2,2.3102781E-1,-1.0571743E-1,3.0613294E-2],"categories":[],"categories_nodes":[],"categories_segments":[],"categories_sizes":[],"default_left":[0,0,0,0,0,0,0,0,0,0,0,0,0,0,0,0,0,0,0,0,0,0,0,0,0,0,0,0,0,0,0,0,0,0,0,0,0,0,0,0,0,0,0,0,0,0,0,0,0],"id":12,"left_children":[1,3,5,7,9,11,13,15,-1,17,-1,-1,-1,19,21,23,25,27,29,-1,-1,31,-1,33,35,-1,-1,37,39,41,43,45,47,-1,-1,-1,-1,-1,-1,-1,-1,-1,-1,-1,-1,-1,-1,-1,-1],"loss_changes":[6.3793664E0,5.592521E0,5.664441E0,3.9559858E0,2.5183048E0,9.2575026E-1,5.870285E0,5.4914703E0,0E0,3.2375998E0,0E0,0E0,0E0,1.4012351E0,3.8409324E0,2.1142325E0,9.367136E-1,1.0556947E1,2.4534864E0,0E0,0E0,3.2537103E0,0E0,8.151825E-1,2.0965605E0,0E0,0E0,1.3882828E0,2.3936105E0,5.922508E-1,1.2276817E1,8.8291764E-1,3.0565774E0,0E0,0E0,0E0,0E0,0E0,0E0,0E0,0E0,0E0,0E0,0E0,0E0,0E0,0E0,0E0,0E0],"parents":[2147483647,0,0,1,1,2,2,3,3,4,4,5,5,6,6,7,7,9,9,13,13,14,14,15,15,16,16,17,17,18,18,21,21,23,23,24,24,27,27,28,28,29,29,30,30,31,31,32,32],"right_children":[2,4,6,8,10,12,14,16,-1,18,-1,-1,-1,20,22,24,26,28,30,-1,-1,32,-1,34,36,-1,-1,38,40,42,44,46,48,-1,-1,-1,-1,-1,-1,-1,-1,-1,-1,-1,-1,-1,-1,-1,-1],"split_conditions":[-6.82926E-1,7.125722E-1,-6.777547E-1,7.4115264E-1,6.794294E-1,1.3835722E-1,4.186836E-1,-6.912803E-1,2.3250465E-1,7.6499766E-1,3.1426674E-1,-5.845161E-2,-3.9631078E-1,-2.2027833E0,-1.11546874E-1,-1.1791087E-1,5.7386357E-1,-8.94058E-1,3.0459735E-1,4.5377497E-2,-2.7763543E-1,-1.337355E0,-2.4936268E-1,-6.6800874E-1,7.125408E-1,-2.122409E-2,2.6135764E-1,4.3556806E-1,5.052766E-1,5.885941E-1,8.5058635E-1,-1.3123024E0,-9.160055E-1,-1.0992383E-1,1.4199348E-1,-3.6186707E-1,4.9394164E-2,2.852166E-1,-4.043246E-2,-1.19474925E-1,-5.0985986E-1,2.9163975E-1,3.5390332E-2,-4.7361657E-1,2.325809E-1,-2.5413448E-2,2.3102781E-1,-1.0571743E-1,3.0613294E-2],"split_indices":[0,1,0,2,2,2,1,0,0,1,0,0,0,1,0,3,3,4,2,0,0,2,0,3,3,0,0,2,2,3,4,3,4,0,0,0,0,0,0,0,0,0,0,0,0,0,0,0,0],"split_type":[0,0,0,0,0,0,0,0,0,0,0,0,0,0,0,0,0,0,0,0,0,0,0,0,0,0,0,0,0,0,0,0,0,0,0,0,0,0,0,0,0,0,0,0,0,0,0,0,0],"sum_hessian":[1.5411485E2,5.613009E1,9.798476E1,1.6176498E1,3.995359E1,5.0088634E0,9.297589E1,1.3848805E1,2.3276935E0,3.4620842E1,5.332747E0,1.3277608E0,3.6811025E0,9.626645E0,8.334925E1,1.0441594E1,3.4072113E0,1.4298471E1,2.032237E1,1.0899198E0,8.536725E0,7.8994E1,4.3552456E0,2.7256672E0,7.7159266E0,1.4149728E0,1.9922385E0,7.1075015E0,7.1909704E0,1.0672343E1,9.650028E0,7.360018E0,7.163399E1,1.7082049E0,1.0174624E0,6.6701384E0,1.045788E0,5.96399E0,1.1435113E0,5.787421E0,1.4035494E0,9.467882E0,1.204461E0,1.9873842E0,7.662644E0,1.2318453E0,6.128173E0,1.9525381E1,5.2108604E1],"tree_param":{"num_deleted":"0","num_feature":"6","num_nodes":"49","size_leaf_vector":"1"}},{"base_weights":[-7.0583723E-3,5.508195E-1,-6.385262E-2,1.9959809E-1,7.7271944E-1,6.748585E-3,-5.7532E-1,-1.3368282E-1,4.9691993E-1,4.3927543E-2,2.6036504E-1,-6.719095E-2,3.4246922E-1,2.1248682E-1,-7.945164E-1,1.8615094E-1,4.9002107E-2,1.1973647E-1,-2.88515E-1,-2.4723366E-1,7.08254E-1,1.3115527E-1,-1.9471971E-2,-2.892105E-1,-3.288916E-1,-1.6884974E-1,4.1848615E-1,1.1863519E-2,-8.388548E-1,1.9547078E-1,-6.43435E-1,8.747687E-2,2.976145E-1,1.2629443E-1,-2.3343146E-1,-1.4692286E-1,1.8991359E-1,-2.2600906E-1,1.8940403E-1,-3.9982513E-2,2.3572347E-1,-3.3859777E-1,1.5923676E-1,1.6209903E-3,-2.9284564E-1,-1.03741065E-1,1.9900486E-1],"categories":[],"categories_nodes":[],"categories_segments":[],"categories_sizes":[],"default_left":[0,0,0,0,0,0,0,0,0,0,0,0,0,0,0,0,0,0,0,0,0,0,0,0,0,0,0,0,0,0,0,0,0,0,0,0,0,0,0,0,0,0,0,0,0,0,0],"id":13,"left_children":[1,3,5,7,9,11,13,-1,15,-1,-1,17,19,21,23,-1,-1,25,27,29,31,-1,-1,-1,33,35,37,39,41,-1,43,45,-1,-1,-1,-1,-1,-1,-1,-1,-1,-1,-1,-1,-1,-1,-1],"loss_changes":[4.5960264E0,8.9044E-1,4.753921E0,1.4756627E0,3.4174824E-1,2.9167778E0,2.9260592E0,0E0,1.026448E-1,0E0,0E0,4.0215664E0,4.74907E0,2.9418296E-1,6.855593E-1,0E0,0E0,4.635926E0,7.352875E0,3.573986E0,2.264391E0,0E0,0E0,0E0,1.980861E0,7.4241495E0,7.03726E0,3.4430132E0,6.829982E0,0E0,1.4412513E0,1.547756E0,0E0,0E0,0E0,0E0,0E0,0E0,0E0,0E0,0E0,0E0,0E0,0E0,0E0,0E0,0E0],"parents":[2147483647,0,0,1,1,2,2,3,3,4,4,5,5,6,6,8,8,11,11,12,12,13,13,14,14,17,17,18,18,19,19,20,20,24,24,25,25,26,26,27,27,28,28,30,30,31,31],"right_children":[2,4,6,8,10,12,14,-1,16,-1,-1,18,20,22,24,-1,-1,26,28,30,32,-1,-1,-1,34,36,38,40,42,-1,44,46,-1,-1,-1,-1,-1,-1,-1,-1,-1,-1,-1,-1,-1,-1,-1],"split_conditions":[-1.3318095E0,7.8269905E-1,-5.5568814E-1,-1.4609092E0,5.5098766E-1,6.8954927E-1,-1.4652752E0,-1.3368282E-1,-1.4053526E0,4.3927543E-2,2.6036504E-1,5.165029E-1,5.9625447E-1,4.4541985E-1,7.758468E-1,1.8615094E-1,4.9002107E-2,-6.537535E-1,-6.7015797E-1,-7.0039827E-1,7.21348E-1,1.3115527E-1,-1.9471971E-2,-2.892105E-1,-2.8593513E-1,7.7007395E-1,-9.751554E-1,1.3480136E0,7.2173595E-1,1.9547078E-1,7.322067E-1,-5.919841E-1,2.976145E-1,1.2629443E-1,-2.3343146E-1,-1.4692286E-1,1.8991359E-1,-2.2600906E-1,1.8940403E-1,-3.9982513E-2,2.3572347E-1,-3.3859777E-1,1.5923676E-1,1.6209903E-3,-2.9284564E-1,-1.03741065E-1,1.9900486E-1],"split_indices":[4,1,0,4,3,2,2,0,4,0,0,3,3,1,4,0,0,0,0,0,1,0,0,0,2,1,4,4,3,0,2,0,0,0,0,0,0,0,0,0,0,0,0,0,0,0,0],"split_type":[0,0,0,0,0,0,0,0,0,0,0,0,0,0,0,0,0,0,0,0,0,0,0,0,0,0,0,0,0,0,0,0,0,0,0,0,0,0,0,0,0,0,0,0,0,0,0],"sum_hessian":[1.4294705E2,1.2404248E1,1.305428E2,5.538094E0,6.8661537E0,1.1557591E2,1.4966898E1,1.589668E0,3.948426E0,1.2405429E0,5.625611E0,9.537112E1,2.0204794E1,3.2645378E0,1.170236E1,2.2534442E0,1.6949818E0,5.1952072E1,4.3419044E1,7.8589783E0,1.2345815E1,1.4853297E0,1.7792081E0,7.7943025E0,3.9080575E0,2.6646702E1,2.5305368E1,2.8721264E1,1.4697782E1,2.2072282E0,5.65175E0,4.2837343E0,8.062081E0,1.4876186E0,2.420439E0,1.9309084E1,7.337619E0,3.4996576E0,2.180571E1,2.4882439E1,3.838825E0,1.2276196E1,2.4215858E0,2.2492337E0,3.4025164E0,2.672493E0,1.6112412E0],"tree_param":{"num_deleted":"0","num_feature":"6","num_nodes":"47","size_leaf_vector":"1"}},{"base_weights":[1.2126537E-3,2.3564993E-1,-1.2945656E-1,-1.1866165E-1,3.814572E-1,-8.960912E-1,-7.4812E-2,-3.427433E-1,5.303262E-1,2.579082E-1,8.2256603E-1,-1.2144861E-2,-1.0849253E0,-7.290378E-1,-7.365347E-3,-6.045838E-1,1.9897482E-1,6.6466755E-3,2.3473069E-1,4.367429E-1,-2.4679278E-1,2.9302514E-1,2.1392968E-2,-7.301288E-2,-3.808874E-1,-2.6179022E-1,3.295957E-2,3.251187E-2,-2.2597136E-1,1.0192586E-1,-8.741832E-1,7.964965E-1,-1.04272366E-1,-4.98835E-1,3.2589266E-1,-1.8176916E-1,1.6980226E-1,-7.100449E-2,1.4653742E-1,-3.230615E-1,4.799212E-2,2.8052962E-1,-9.696732E-2,-1.730259E-1,3.402809E-1,-2.1118195E-1,2.640575E-1,-1.8647444E-1,1.10749245E-1,-5.583794E-2,1.3202287E-1],"categories":[],"categories_nodes":[],"categories_segments":[],"categories_sizes":[],"default_left":[0,0,0,0,0,0,0,0,0,0,0,0,0,0,0,0,0,0,0,0,0,0,0,0,0,0,0,0,0,0,0,0,0,0,0,0,0,0,0,0,0,0,0,0,0,0,0,0,0,0,0],"id":14,"left_children":[1,3,5,7,9,11,13,15,17,19,21,-1,23,25,27,29,-1,-1,-1,31,33,-1,-1,-1,-1,-1,-1,35,-1,37,39,41,43,-1,45,47,49,-1,-1,-1,-1,-1,-1,-1,-1,-1,-1,-1,-1,-1,-1],"loss_changes":[4.1283526E0,2.5368662E0,3.5583067E0,2.3375442E0,1.6629195E0,8.716674E-1,3.607285E0,3.4635477E0,5.203948E-1,2.665196E0,7.4943686E-1,0E0,4.0655088E-1,1.0163932E0,2.26211E0,1.9459505E0,0E0,0E0,0E0,4.225274E0,7.071507E0,0E0,0E0,0E0,0E0,0E0,0E0,2.1599464E0,0E0,5.852301E-1,1.6731815E0,2.303996E0,6.1456323E0,0E0,4.369683E0,7.1944585E0,4.374967E0,0E0,0E0,0E0,0E0,0E0,0E0,0E0,0E0,0E0,0E0,0E0,0E0,0E0,0E0],"parents":[2147483647,0,0,1,1,2,2,3,3,4,4,5,5,6,6,7,7,8,8,9,9,10,10,12,12,13,13,14,14,15,15,19,19,20,20,27,27,29,29,30,30,31,31,32,32,34,34,35,35,36,36],"right_children":[2,4,6,8,10,12,14,16,18,20,22,-1,24,26,28,30,-1,-1,-1,32,34,-1,-1,-1,-1,-1,-1,36,-1,38,40,42,44,-1,46,48,50,-1,-1,-1,-1,-1,-1,-1,-1,-1,-1,-1,-1,-1,-1],"split_conditions":[-6.82926E-1,7.125722E-1,-6.777547E-1,-6.912803E-1,6.4335793E-1,-9.160055E-1,4.186836E-1,7.4115264E-1,5.7386357E-1,5.052766E-1,-6.9508886E-1,-1.2144861E-2,2.1888238E-1,1.4436821E0,-1.11546874E-1,-1.1791087E-1,1.9897482E-1,6.6466755E-3,2.3473069E-1,-1.7497372E-2,-1.7497372E-2,2.9302514E-1,2.1392968E-2,-7.301288E-2,-3.808874E-1,-2.6179022E-1,3.295957E-2,-6.5191156E-1,-2.2597136E-1,-5.8438015E-1,7.125408E-1,8.100079E-1,4.7983038E-1,-4.98835E-1,7.7007395E-1,7.8697604E-1,-9.082905E-1,-7.100449E-2,1.4653742E-1,-3.230615E-1,4.799212E-2,2.8052962E-1,-9.696732E-2,-1.730259E-1,3.402809E-1,-2.1118195E-1,2.640575E-1,-1.8647444E-1,1.10749245E-1,-5.583794E-2,1.3202287E-1],"split_indices":[0,1,0,0,2,4,1,2,3,2,0,0,2,0,0,3,0,0,0,4,4,0,0,0,0,0,0,0,0,3,3,1,2,0,1,1,4,0,0,0,0,0,0,0,0,0,0,0,0,0,0],"split_type":[0,0,0,0,0,0,0,0,0,0,0,0,0,0,0,0,0,0,0,0,0,0,0,0,0,0,0,0,0,0,0,0,0,0,0,0,0,0,0,0,0,0,0,0,0,0,0,0,0,0,0],"sum_hessian":[1.3276907E2,4.722965E1,8.553943E1,1.3823857E1,3.340579E1,4.6668878E0,8.087254E1,1.0626599E1,3.1972582E0,2.7334438E1,6.07135E0,1.0633274E0,3.6035602E0,6.641505E0,7.423104E1,8.748541E0,1.8780586E0,1.4209555E0,1.7763028E0,2.02823E1,7.0521393E0,4.7884364E0,1.2829133E0,1.0656782E0,2.5378819E0,5.6364903E0,1.0050145E0,7.137165E1,2.8593922E0,2.5881069E0,6.160434E0,1.1898227E1,8.384073E0,1.4826747E0,5.5694647E0,2.774447E1,4.362718E1,1.5862285E0,1.0018784E0,5.1163554E0,1.0440784E0,1.0734379E1,1.1638486E0,6.4556804E0,1.9283924E0,1.8543333E0,3.7151313E0,1.5356823E1,1.2387647E1,1.8964207E1,2.466297E1],"tree_param":{"num_deleted":"0","num_feature":"6","num_nodes":"51","size_leaf_vector":"1"}},{"base_weights":[1.2670495E-3,4.9808463E-1,-4.841959E-2,2.0027761E-1,2.2885646E-1,1.6470334E-1,-1.5838489E-1,5.299787E-1,-1.1530002E-1,-3.6337253E-1,2.6012555E-1,1.5320345E-2,-4.268063E-1,-6.4115454E-3,2.2141436E-1,1.7335223E-1,-7.075123E-1,3.4599718E-1,-2.8585902E-1,-6.764261E-1,1.2442933E-1,-5.7061505E-1,5.1874363E-1,-2.6890028E-1,-1.1449672E-3,1.878968E-1,7.1649927E-1,-2.378216E-1,2.4668081E-1,8.915609E-2,-3.0617246E-1,-3.479481E-1,3.060873E-1,-2.3249349E-1,-9.3807495E-1,2.1495858E-2,2.0005843E-1,-5.406059E-2,1.7985088E-1,1.8170975E-2,2.5946277E-1,-3.570127E-2,1.621403E-1,-3.1423524E-1,2.7891535E-2,-1.2438218E-1,1.4695804E-1,1.3207915E-1,-2.0629396E-1,-3.775988E-1,6.7268506E-2],"categories":[],"categories_nodes":[],"categories_segments":[],"categories_sizes":[],"default_left":[0,0,0,0,0,0,0,0,0,0,0,0,0,0,0,0,0,0,0,0,0,0,0,0,0,0,0,0,0,0,0,0,0,0,0,0,0,0,0,0,0,0,0,0,0,0,0,0,0,0,0],"id":15,"left_children":[1,3,5,7,-1,9,11,13,-1,15,17,19,21,-1,-1,-1,23,25,27,29,31,33,35,-1,-1,37,39,-1,41,-1,-1,43,45,47,49,-1,-1,-1,-1,-1,-1,-1,-1,-1,-1,-1,-1,-1,-1,-1,-1],"loss_changes":[3.112361E0,7.510643E-1,2.7128572E0,1.5048902E0,0E0,2.085413E0,3.556321E0,5.5917835E-1,0E0,2.5025344E0,1.695122E0,3.6456149E0,4.368029E0,0E0,0E0,0E0,6.8523335E-1,1.615119E0,1.5923299E0,2.509423E0,3.676463E0,3.0705814E0,2.48698E-1,0E0,0E0,3.4855895E0,7.825351E-1,0E0,4.1735095E-1,0E0,0E0,3.8055973E0,4.2531676E0,4.930868E0,4.885848E0,0E0,0E0,0E0,0E0,0E0,0E0,0E0,0E0,0E0,0E0,0E0,0E0,0E0,0E0,0E0,0E0],"parents":[2147483647,0,0,1,1,2,2,3,3,5,5,6,6,7,7,9,9,10,10,11,11,12,12,16,16,17,17,18,18,19,19,20,20,21,21,22,22,25,25,26,26,28,28,31,31,32,32,33,33,34,34],"right_children":[2,4,6,8,-1,10,12,14,-1,16,18,20,22,-1,-1,-1,24,26,28,30,32,34,36,-1,-1,38,40,-1,42,-1,-1,44,46,48,50,-1,-1,-1,-1,-1,-1,-1,-1,-1,-1,-1,-1,-1,-1,-1,-1],"split_conditions":[-1.3318095E0,5.7531554E-1,-6.82926E-1,-6.688673E-1,2.2885646E-1,-4.0846297E-1,5.4393315E-1,-7.163258E-1,-1.1530002E-1,-1.2313316E0,7.0037174E-1,-9.6438694E-1,7.2173595E-1,-6.4115454E-3,2.2141436E-1,1.7335223E-1,7.555557E-1,6.3297933E-1,7.1864927E-1,-1.337355E0,-6.537535E-1,1.0069108E0,5.784493E-1,-2.6890028E-1,-1.1449672E-3,-6.981434E-1,-1.8887937E-1,-2.378216E-1,7.142729E-1,8.915609E-2,-3.0617246E-1,7.5474274E-1,5.7104605E-1,-6.559622E-1,1.3480136E0,2.1495858E-2,2.0005843E-1,-5.406059E-2,1.7985088E-1,1.8170975E-2,2.5946277E-1,-3.570127E-2,1.621403E-1,-3.1423524E-1,2.7891535E-2,-1.2438218E-1,1.4695804E-1,1.3207915E-1,-2.0629396E-1,-3.775988E-1,6.7268506E-2],"split_indices":[4,2,0,0,0,3,3,0,0,4,3,4,3,0,0,0,1,2,3,2,0,4,2,0,0,0,4,0,1,0,0,1,1,0,4,0,0,0,0,0,0,0,0,0,0,0,0,0,0,0,0],"split_type":[0,0,0,0,0,0,0,0,0,0,0,0,0,0,0,0,0,0,0,0,0,0,0,0,0,0,0,0,0,0,0,0,0,0,0,0,0,0,0,0,0,0,0,0,0,0,0,0,0,0,0],"sum_hessian":[1.2410509E2,1.0462805E1,1.1364228E2,5.7508316E0,4.711973E0,3.850951E1,7.5132774E1,3.736833E0,2.0139983E0,5.4638686E0,3.304564E1,4.6186646E1,2.8946129E1,1.2696764E0,2.467157E0,1.281075E0,4.1827936E0,2.887112E1,4.1745195E0,5.5841055E0,4.060254E1,2.5469063E1,3.4770656E0,3.0820405E0,1.1007531E0,2.1292389E1,7.5787315E0,1.8884572E0,2.2860625E0,1.4939914E0,4.090114E0,1.1023079E1,2.957946E1,1.4114334E1,1.1354729E1,1.2345014E0,2.2425642E0,1.1537034E1,9.755355E0,1.6578923E0,5.9208393E0,1.2834476E0,1.0026147E0,3.729989E0,7.2930903E0,5.7548423E0,2.382462E1,5.7088494E0,8.405484E0,8.834958E0,2.5197706E0],"tree_param":{"num_deleted":"0","num_feature":"6","num_nodes":"51","size_leaf_vector":"1"}},{"base_weights":[1.2668989E-3,-5.530871E-1,3.6285225E-2,-6.981313E-1,4.391725E-2,4.1359067E-1,-2.7935514E-2,-2.1445472E-2,-2.4392588E-1,1.9043303E-1,2.3498057E-1,-6.7851776E-1,1.4211865E-2,2.4312417E-1,-2.2231866E-1,-3.748404E-2,-2.6606438E-1,-5.490452E-1,5.362234E-2,-7.2240263E-1,1.490288E-1,8.921778E-2,-2.5489736E-1,4.1169554E-1,-2.9406259E-2,-2.243822E-3,-3.072585E-1,1.4244206E-1,-8.656342E-2,-3.380647E-2,2.0750909E-1,-3.2469016E-1,7.5849723E-3],"categories":[],"categories_nodes":[],"categories_segments":[],"categories_sizes":[],"default_left":[0,0,0,0,0,0,0,0,0,0,0,0,0,0,0,0,0,0,0,0,0,0,0,0,0,0,0,0,0,0,0,0,0],"id":16,"left_children":[1,3,5,7,-1,9,11,-1,-1,13,-1,15,17,-1,19,-1,-1,21,23,25,27,-1,-1,29,31,-1,-1,-1,-1,-1,-1,-1,-1],"loss_changes":[2.2822585E0,8.1091404E-1,2.6901963E0,3.711462E-1,0E0,1.1825383E0,2.6256623E0,0E0,0E0,3.0941577E0,0E0,5.610831E-1,2.040139E0,0E0,1.5228913E0,0E0,0E0,1.7824993E0,2.5560384E0,7.2991705E-1,8.7860525E-1,0E0,0E0,2.4525883E0,4.0808105E0,0E0,0E0,0E0,0E0,0E0,0E0,0E0,0E0],"parents":[2147483647,0,0,1,1,2,2,3,3,5,5,6,6,9,9,11,11,12,12,14,14,17,17,18,18,19,19,20,20,23,23,24,24],"right_children":[2,4,6,8,-1,10,12,-1,-1,14,-1,16,18,-1,20,-1,-1,22,24,26,28,-1,-1,30,32,-1,-1,-1,-1,-1,-1,-1,-1],"split_conditions":[4.186836E-1,1.3694379E0,-1.1086446E0,-7.069583E-1,4.391725E-2,5.7531554E-1,-1.0138394E0,-2.1445472E-2,-2.4392588E-1,-7.241723E-1,2.3498057E-1,3.0459735E-1,-9.298393E-1,2.4312417E-1,2.08219E-1,-3.748404E-2,-2.6606438E-1,-2.296787E0,4.9979277E-2,3.2541555E-1,-6.688673E-1,8.921778E-2,-2.5489736E-1,-6.559622E-1,-6.354097E-1,-2.243822E-3,-3.072585E-1,1.4244206E-1,-8.656342E-2,-3.380647E-2,2.0750909E-1,-3.2469016E-1,7.5849723E-3],"split_indices":[1,0,4,0,0,2,4,0,0,0,0,2,3,0,2,0,0,3,3,3,0,0,0,0,2,0,0,0,0,0,0,0,0],"split_type":[0,0,0,0,0,0,0,0,0,0,0,0,0,0,0,0,0,0,0,0,0,0,0,0,0,0,0,0,0,0,0,0,0],"sum_hessian":[1.15532326E2,5.9854865E0,1.09546844E2,4.959091E0,1.0263952E0,1.5142498E1,9.440434E1,1.0201058E0,3.938985E0,1.0387295E1,4.7552032E0,4.8251514E0,8.957919E1,3.7664266E0,6.6208687E0,1.7569691E0,3.0681822E0,5.012255E0,8.456694E1,2.4185352E0,4.2023335E0,1.3163911E0,3.6958644E0,1.5172931E1,6.9394005E1,1.0220823E0,1.3964528E0,2.3601136E0,1.8422197E0,5.4896026E0,9.683329E0,2.4986932E0,6.689531E1],"tree_param":{"num_deleted":"0","num_feature":"6","num_nodes":"33","size_leaf_vector":"1"}},{"base_weights":[-4.0610074E-3,1.7111312E-1,-9.60198E-2,1.41618345E-2,4.016646E-1,3.7352034E-1,-1.4666277E-1,4.347442E-1,-3.525492E-1,-6.44096E-2,7.3772734E-1,-6.138218E-2,5.39457E-1,-7.5557256E-1,-8.605197E-2,-4.5359364E-1,7.108833E-1,-5.833976E-1,4.2569405E-1,6.019184E-1,-8.7473613E-1,2.7350476E-1,1.4090939E-1,2.347407E-1,7.736564E-3,-9.0284395E-1,-1.8630192E-2,3.2669696E-1,-1.5070468E-1,-2.0077655E-1,7.8037395E-3,1.7554298E-2,2.399141E-1,-9.489944E-2,-3.2322884E-1,-4.0297966E-2,2.2315972E-1,2.2614129E-1,9.504679E-3,-5.039469E-1,1.6459563E-1,1.6781916E-1,-9.9355556E-2,-6.1670348E-2,-3.1171343E-1,-3.5493886E-1,6.290842E-1,-5.231266E-1,3.9803617E-2,-1.4893626E-1,2.5013712E-1,4.9507514E-2,-2.0438875E-1,2.2302888E-2,2.1623738E-1,8.475731E-2,-1.9283362E-1,7.346359E-2,-9.580125E-2],"categories":[],"categories_nodes":[],"categories_segments":[],"categories_sizes":[],"default_left":[0,0,0,0,0,0,0,0,0,0,0,0,0,0,0,0,0,0,0,0,0,0,0,0,0,0,0,0,0,0,0,0,0,0,0,0,0,0,0,0,0,0,0,0,0,0,0,0,0,0,0,0,0,0,0,0,0,0,0],"id":17,"left_children":[1,3,5,7,9,11,13,15,17,19,21,-1,23,25,27,29,31,33,35,37,39,-1,41,-1,-1,43,-1,45,47,-1,-1,-1,-1,49,-1,-1,-1,-1,-1,-1,-1,-1,-1,-1,-1,51,53,55,57,-1,-1,-1,-1,-1,-1,-1,-1,-1,-1],"loss_changes":[1.8047881E0,1.3902153E0,1.8011272E0,3.8530362E0,2.4890985E0,8.2333493E-1,2.408053E0,3.173197E0,2.649825E0,4.549378E0,8.202038E-1,0E0,7.3495877E-1,5.5034304E-1,1.7056302E0,3.6559242E-1,4.8953152E-1,2.487493E0,7.4781173E-1,3.815354E-1,5.241426E0,0E0,8.2638264E-1,0E0,0E0,2.4451542E-1,0E0,2.0210004E0,3.8768988E0,0E0,0E0,0E0,0E0,2.8350399E0,0E0,0E0,0E0,0E0,0E0,0E0,0E0,0E0,0E0,0E0,0E0,6.7572486E-1,2.7212262E-1,1.9614735E0,2.7948675E0,0E0,0E0,0E0,0E0,0E0,0E0,0E0,0E0,0E0,0E0],"parents":[2147483647,0,0,1,1,2,2,3,3,4,4,5,5,6,6,7,7,8,8,9,9,10,10,12,12,13,13,14,14,15,15,16,16,17,17,18,18,19,19,20,20,22,22,25,25,27,27,28,28,33,33,45,45,46,46,47,47,48,48],"right_children":[2,4,6,8,10,12,14,16,18,20,22,-1,24,26,28,30,32,34,36,38,40,-1,42,-1,-1,44,-1,46,48,-1,-1,-1,-1,50,-1,-1,-1,-1,-1,-1,-1,-1,-1,-1,-1,52,54,56,58,-1,-1,-1,-1,-1,-1,-1,-1,-1,-1],"split_conditions":[-6.82926E-1,7.6499766E-1,-1.337355E0,-4.802713E-1,8.5058635E-1,-1.3123024E0,-3.8217014E-1,6.456595E-1,7.0770293E-1,3.0459735E-1,-6.9361144E-1,-6.138218E-2,-5.329158E-1,8.0379975E-1,-2.8593513E-1,4.748122E-1,-1.5752103E0,8.287458E-1,6.8864596E-1,8.007328E-1,-7.069583E-1,2.7350476E-1,-1.6488731E-1,2.347407E-1,7.736564E-3,-9.3166363E-1,-1.8630192E-2,-6.251572E-1,7.3840266E-1,-2.0077655E-1,7.8037395E-3,1.7554298E-2,2.399141E-1,8.23907E-1,-3.2322884E-1,-4.0297966E-2,2.2315972E-1,2.2614129E-1,9.504679E-3,-5.039469E-1,1.6459563E-1,1.6781916E-1,-9.9355556E-2,-6.1670348E-2,-3.1171343E-1,-6.416194E-1,5.592102E-1,-1.3318095E0,1.1951492E0,-1.4893626E-1,2.5013712E-1,4.9507514E-2,-2.0438875E-1,2.2302888E-2,2.1623738E-1,8.475731E-2,-1.9283362E-1,7.346359E-2,-9.580125E-2],"split_indices":[0,1,2,4,4,3,3,1,2,2,0,0,0,4,2,2,3,4,3,1,0,0,2,0,0,4,0,0,1,0,0,0,0,4,0,0,0,0,0,0,0,0,0,0,0,0,1,4,4,0,0,0,0,0,0,0,0,0,0],"split_type":[0,0,0,0,0,0,0,0,0,0,0,0,0,0,0,0,0,0,0,0,0,0,0,0,0,0,0,0,0,0,0,0,0,0,0,0,0,0,0,0,0,0,0,0,0,0,0,0,0,0,0,0,0,0,0,0,0,0,0],"sum_hessian":[1.1001744E2,3.757649E1,7.2440956E1,2.2988297E1,1.4588192E1,6.4318657E0,6.600909E1,1.0621235E1,1.2367062E1,6.450521E0,8.1376705E0,1.3824235E0,5.0494423E0,4.937715E0,6.1071377E1,2.3662844E0,8.254951E0,9.730957E0,2.6361046E0,3.6809127E0,2.7696083E0,5.892582E0,2.245089E0,3.0725503E0,1.976892E0,3.8237529E0,1.1139622E0,7.7217703E0,5.3349606E1,1.3595275E0,1.0067569E0,1.1881218E0,7.066829E0,5.4922833E0,4.238673E0,1.1644133E0,1.4716913E0,2.65249E0,1.0284228E0,1.653953E0,1.1156553E0,1.0920851E0,1.1530038E0,1.0349017E0,2.7888513E0,2.3194716E0,5.4022985E0,1.746384E1,3.5885765E1,4.1592827E0,1.3330007E0,1.0850585E0,1.2344133E0,1.02325E0,4.3790483E0,2.08225E0,1.5381591E1,2.304492E1,1.2840843E1],"tree_param":{"num_deleted":"0","num_feature":"6","num_nodes":"59","size_leaf_vector":"1"}},{"base_weights":[7.628694E-4,4.964131E-2,-3.3125418E-1,-1.7798878E-2,3.5451037E-1,-2.602181E-2,-6.502963E-1,1.7848113E-1,-2.06748E-1,-2.7500293E-1,6.8300885E-1,-4.1687852E-1,2.776807E-1,2.1951238E-2,-2.548078E-1,3.9305344E-2,5.340042E-1,-1.1111341E-2,-6.0598123E-1,-6.1100554E-1,1.3574019E-1,2.278548E-1,2.5779814E-1,3.999994E-2,-1.9689141E-1,-5.4134402E-2,5.1072204E-1,2.2779982E-1,-4.5999378E-1,1.2943602E-1,2.97646E-1,-3.3388582E-1,4.2658475E-1,-1.0160741E0,2.770117E-1,4.4533834E-3,-2.988847E-1,-9.033268E-2,2.1668063E-1,1.8615341E-1,5.1832E-2,1.1200904E-1,-2.4405248E-1,1.3356884E-1,-2.0288466E-1,1.5914041E-1,-2.1600847E-1,6.2302496E-2,-2.7231514E-1,2.0806417E-1,-9.216966E-2,6.746795E-2,-4.0040046E-1,-1.9860661E-1,2.374037E-1],"categories":[],"categories_nodes":[],"categories_segments":[],"categories_sizes":[],"default_left":[0,0,0,0,0,0,0,0,0,0,0,0,0,0,0,0,0,0,0,0,0,0,0,0,0,0,0,0,0,0,0,0,0,0,0,0,0,0,0,0,0,0,0,0,0,0,0,0,0,0,0,0,0,0,0],"id":18,"left_children":[1,3,5,7,9,11,13,15,17,19,21,23,25,-1,-1,27,29,31,33,35,-1,37,-1,-1,-1,-1,39,41,43,45,-1,47,49,51,53,-1,-1,-1,-1,-1,-1,-1,-1,-1,-1,-1,-1,-1,-1,-1,-1,-1,-1,-1,-1],"loss_changes":[1.7000251E0,1.8834628E0,1.2921919E0,2.8448832E0,3.6176736E0,1.054936E0,1.0027373E0,1.8430805E0,3.0425107E0,1.8408597E0,7.0186806E-1,5.959189E-1,6.3158476E-1,0E0,0E0,2.7544827E0,1.8213525E0,3.9879665E0,4.9239507E0,1.1730342E0,0E0,1.3901846E0,0E0,0E0,0E0,0E0,2.6737154E-2,3.503037E0,1.8766043E0,2.6767642E0,0E0,5.231463E0,2.5623782E0,3.8461533E0,2.8671772E0,0E0,0E0,0E0,0E0,0E0,0E0,0E0,0E0,0E0,0E0,0E0,0E0,0E0,0E0,0E0,0E0,0E0,0E0,0E0,0E0],"parents":[2147483647,0,0,1,1,2,2,3,3,4,4,5,5,6,6,7,7,8,8,9,9,10,10,11,11,12,12,15,15,16,16,17,17,18,18,19,19,21,21,26,26,27,27,28,28,29,29,31,31,32,32,33,33,34,34],"right_children":[2,4,6,8,10,12,14,16,18,20,22,24,26,-1,-1,28,30,32,34,36,-1,38,-1,-1,-1,-1,40,42,44,46,-1,48,50,52,54,-1,-1,-1,-1,-1,-1,-1,-1,-1,-1,-1,-1,-1,-1,-1,-1,-1,-1,-1,-1],"split_conditions":[-5.703746E-1,6.8954927E-1,6.10659E-1,5.1429147E-1,5.5879444E-1,4.186836E-1,-1.3745261E0,1.0710677E0,-6.681976E-1,8.2224625E-1,7.21348E-1,-8.7174314E-1,-1.0069182E0,2.1951238E-2,-2.548078E-1,7.548471E-1,4.0580612E-1,7.850491E-1,5.666078E-1,7.322067E-1,1.3574019E-1,-5.919841E-1,2.5779814E-1,3.999994E-2,-1.9689141E-1,-5.4134402E-2,-1.3318095E0,4.4247344E-1,4.3585607E-1,3.1498313E-1,2.97646E-1,5.1412195E-1,8.117472E-1,8.847194E-2,6.9495666E-1,4.4533834E-3,-2.988847E-1,-9.033268E-2,2.1668063E-1,1.8615341E-1,5.1832E-2,1.1200904E-1,-2.4405248E-1,1.3356884E-1,-2.0288466E-1,1.5914041E-1,-2.1600847E-1,6.2302496E-2,-2.7231514E-1,2.0806417E-1,-9.216966E-2,6.746795E-2,-4.0040046E-1,-1.9860661E-1,2.374037E-1],"split_indices":[0,2,1,3,3,1,2,4,0,2,1,2,2,0,0,4,2,1,2,2,0,0,0,0,0,0,4,3,1,2,0,2,1,2,3,0,0,0,0,0,0,0,0,0,0,0,0,0,0,0,0,0,0,0,0],"split_type":[0,0,0,0,0,0,0,0,0,0,0,0,0,0,0,0,0,0,0,0,0,0,0,0,0,0,0,0,0,0,0,0,0,0,0,0,0,0,0,0,0,0,0,0,0,0,0,0,0,0,0,0,0,0,0],"sum_hessian":[1.027424E2,9.029932E1,1.2443079E1,7.471353E1,1.5585789E1,6.911911E0,5.5311675E0,3.6673042E1,3.804049E1,5.4001465E0,1.0185642E1,2.8593512E0,4.05256E0,1.3299763E0,4.2011914E0,2.7153774E1,9.519267E0,2.6219807E1,1.18206835E1,3.8034918E0,1.5966544E0,3.4840603E0,6.701582E0,1.0013405E0,1.8580106E0,1.442492E0,2.6100678E0,2.0106838E1,7.0469356E0,5.736326E0,3.7829404E0,1.5227568E1,1.0992238E1,7.9689217E0,3.851762E0,1.8156267E0,1.9878651E0,1.8721075E0,1.6119529E0,1.3389668E0,1.271101E0,1.8203617E1,1.9032217E0,1.154896E0,5.8920393E0,4.151792E0,1.5845342E0,8.162341E0,7.065226E0,8.100247E0,2.8919914E0,1.6880084E0,6.2809134E0,1.2614868E0,2.5902753E0],"tree_param":{"num_deleted":"0","num_feature":"6","num_nodes":"55","size_leaf_vector":"1"}},{"base_weights":[-3.9173453E-4,-2.2859422E-2,2.0202991E-1,-9.8884255E-2,1.6207944E-1,6.258942E-2,-3.5674602E-1,3.343994E-1,-1.8649678E-1,-1.9814141E-1,2.3847592E-1,-8.372366E-2,-7.888465E-1,4.6337017E-1,-1.449207E-1,-7.0464474E-1,3.0709705E-1,1.9002154E-1,-7.0644015E-1,-3.5705173E-1,4.550874E-1,1.7860886E-1,-5.832119E-1,4.5614418E-2,-1.0076404E0,2.1873282E-1,2.546964E-1,-2.987813E-1,5.640047E-2,2.3298006E-1,-2.243492E-1,-1.2816127E-1,1.7731106E-1,1.9898739E-2,-3.5479555E-1,-1.9551371E-1,5.928391E-2,1.9236171E-1,1.6932224E-3,-1.2075118E-1,2.4251316E-1,-3.2852212E-1,7.317818E-2,-3.4916234E-1,1.4509017E-2,-2.2422175E-1,1.2987989E-1,-2.4626602E-1,1.66169E-1],"categories":[],"categories_nodes":[],"categories_segments":[],"categories_sizes":[],"default_left":[0,0,0,0,0,0,0,0,0,0,0,0,0,0,0,0,0,0,0,0,0,0,0,0,0,0,0,0,0,0,0,0,0,0,0,0,0,0,0,0,0,0,0,0,0,0,0,0,0],"id":19,"left_children":[1,3,-1,5,7,9,11,13,15,17,19,21,23,25,-1,27,29,31,33,35,37,39,41,-1,43,45,-1,-1,-1,-1,47,-1,-1,-1,-1,-1,-1,-1,-1,-1,-1,-1,-1,-1,-1,-1,-1,-1,-1],"loss_changes":[1.4726446E0,1.3393131E0,0E0,2.825387E0,1.7320687E0,1.9846923E0,3.0097682E0,2.222756E0,2.7324553E0,3.5999067E0,3.4754853E0,2.3442638E0,2.2069635E0,1.4073131E0,0E0,1.5141411E0,1.6051373E0,2.91271E0,2.9553401E0,1.3399143E0,1.6084919E0,4.7076116E0,2.8587933E0,0E0,1.4133244E0,2.7405038E0,0E0,0E0,0E0,0E0,2.0636885E0,0E0,0E0,0E0,0E0,0E0,0E0,0E0,0E0,0E0,0E0,0E0,0E0,0E0,0E0,0E0,0E0,0E0,0E0],"parents":[2147483647,0,0,1,1,3,3,4,4,5,5,6,6,7,7,8,8,9,9,10,10,11,11,12,12,13,13,15,15,16,16,17,17,18,18,19,19,20,20,21,21,22,22,24,24,25,25,30,30],"right_children":[2,4,-1,6,8,10,12,14,16,18,20,22,24,26,-1,28,30,32,34,36,38,40,42,-1,44,46,-1,-1,-1,-1,48,-1,-1,-1,-1,-1,-1,-1,-1,-1,-1,-1,-1,-1,-1,-1,-1,-1,-1],"split_conditions":[1.378979E0,6.130614E-1,2.0202991E-1,5.1429147E-1,1.0864124E0,-9.082905E-1,-6.688673E-1,-5.779314E-1,7.7007395E-1,1.0161687E-1,-2.5144005E-1,5.259363E-1,8.847194E-2,8.4545887E-1,-1.449207E-1,-6.438846E-1,6.853267E-1,6.3399345E-1,-1.1541376E0,-5.919841E-1,7.62475E-1,4.7983038E-1,7.914339E-1,4.5614418E-2,7.178662E-1,5.5363685E-1,2.546964E-1,-2.987813E-1,5.640047E-2,2.3298006E-1,-6.681976E-1,-1.2816127E-1,1.7731106E-1,1.9898739E-2,-3.5479555E-1,-1.9551371E-1,5.928391E-2,1.9236171E-1,1.6932224E-3,-1.2075118E-1,2.4251316E-1,-3.2852212E-1,7.317818E-2,-3.4916234E-1,1.4509017E-2,-2.2422175E-1,1.2987989E-1,-2.4626602E-1,1.66169E-1],"split_indices":[4,2,0,3,4,4,0,0,1,3,3,2,2,4,0,0,3,1,4,0,1,2,1,0,3,3,0,0,0,0,0,0,0,0,0,0,0,0,0,0,0,0,0,0,0,0,0,0,0],"split_type":[0,0,0,0,0,0,0,0,0,0,0,0,0,0,0,0,0,0,0,0,0,0,0,0,0,0,0,0,0,0,0,0,0,0,0,0,0,0,0,0,0,0,0,0,0,0,0,0,0],"sum_hessian":[9.525622E1,9.311743E1,2.1387877E0,6.63199E1,2.679753E1,4.1247738E1,2.507216E1,1.7959738E1,8.837792E0,1.6565228E1,2.4682512E1,1.60958E1,8.97636E0,1.5886511E1,2.0732267E0,4.1030517E0,4.7347407E0,9.747613E0,6.8176146E0,6.410324E0,1.8272188E1,1.09744215E1,5.121379E0,1.7510898E0,7.2252707E0,1.0678964E1,5.2075467E0,3.0063052E0,1.0967464E0,2.2689521E0,2.4657886E0,3.813196E0,5.934417E0,2.9275944E0,3.8900201E0,4.0720944E0,2.3382297E0,1.2619627E1,5.65256E0,5.895383E0,5.079039E0,2.9635215E0,2.1578572E0,6.205088E0,1.0201828E0,1.4862089E0,9.192755E0,1.3648324E0,1.1009562E0],"tree_param":{"num_deleted":"0","num_feature":"6","num_nodes":"49","size_leaf_vector":"1"}},{"base_weights":[-5.718343E-3,3.9933842E-1,-3.8950942E-2,-8.522861E-2,6.2648535E-1,-6.1075423E-2,1.8084234E-1,5.2765973E-2,2.0654757E-1,3.228318E-1,-9.568868E-2,2.014759E-2,1.73532E-1,3.3031455E-1,-1.3606817E-1,-9.3901575E-2,1.13234036E-1,5.443631E-1,7.61051E-3,-4.9132732E-1,-4.6074633E-2,2.037774E-2,2.0410843E-1,-1.2413933E-1,1.0427738E-1,-2.282385E-1,3.2651147E-3,-2.9129672E-1,3.7486367E-3],"categories":[],"categories_nodes":[],"categories_segments":[],"categories_sizes":[],"default_left":[0,0,0,0,0,0,0,0,0,0,0,0,0,0,0,0,0,0,0,0,0,0,0,0,0,0,0,0,0],"id":20,"left_children":[1,3,5,-1,7,9,-1,-1,-1,11,13,15,-1,17,19,-1,-1,21,23,25,27,-1,-1,-1,-1,-1,-1,-1,-1],"loss_changes":[1.2120111E0,1.2379984E0,1.21607E0,0E0,3.081131E-2,1.1098264E0,0E0,0E0,0E0,5.2557224E-1,1.3393929E0,6.199003E-1,0E0,4.6604407E-1,2.197551E0,0E0,0E0,2.1803677E-1,6.780449E-1,1.8937399E0,3.0734878E0,0E0,0E0,0E0,0E0,0E0,0E0,0E0,0E0],"parents":[2147483647,0,0,1,1,2,2,4,4,5,5,9,9,10,10,11,11,13,13,14,14,17,17,18,18,19,19,20,20],"right_children":[2,4,6,-1,8,10,-1,-1,-1,12,14,16,-1,18,20,-1,-1,22,24,26,28,-1,-1,-1,-1,-1,-1,-1,-1],"split_conditions":[-7.371441E-1,6.8809766E-1,1.378979E0,-8.522861E-2,1.11805834E-1,-1.3318095E0,1.8084234E-1,5.2765973E-2,2.0654757E-1,7.921138E-1,-1.337355E0,-2.7862883E-1,1.73532E-1,-5.329158E-1,-9.1767365E-1,-9.3901575E-2,1.13234036E-1,-8.9851713E-1,-8.675649E-1,4.313901E-1,-8.5935825E-1,2.037774E-2,2.0410843E-1,-1.2413933E-1,1.0427738E-1,-2.282385E-1,3.2651147E-3,-2.9129672E-1,3.7486367E-3],"split_indices":[0,1,4,0,3,4,0,0,0,1,2,0,0,0,4,0,0,3,4,2,2,0,0,0,0,0,0,0,0],"split_type":[0,0,0,0,0,0,0,0,0,0,0,0,0,0,0,0,0,0,0,0,0,0,0,0,0,0,0,0,0],"sum_hessian":[8.788258E1,5.828252E0,8.205434E1,1.3913329E0,4.436919E0,8.019448E1,1.8598546E0,1.0007919E0,3.4361274E0,5.9437323E0,7.425075E1,3.215201E0,2.7285314E0,5.8069725E0,6.844377E1,1.7279732E0,1.4872277E0,3.0782797E0,2.728693E0,1.2932349E1,5.5511425E1,1.0165396E0,2.0617402E0,1.1214845E0,1.6072084E0,8.081323E0,4.8510265E0,2.378167E0,5.313326E1],"tree_param":{"num_deleted":"0","num_feature":"6","num_nodes":"29","size_leaf_vector":"1"}},{"base_weights":[-8.5237477E-4,2.5727995E-2,-5.3661245E-1,-5.4762256E-1,5.102103E-2,-7.5182463E-3,-2.0770197E-1,-1.8833388E-1,-5.1171936E-2,1.8873474E-1,2.823215E-2,-5.214999E-1,5.8726396E-2,-2.3398148E-1,3.4872424E-2,4.0560508E-1,-1.2394314E-3,-5.373002E-3,1.9564794E-1,-2.5546706E-1,9.928519E-3],"categories":[],"categories_nodes":[],"categories_segments":[],"categories_sizes":[],"default_left":[0,0,0,0,0,0,0,0,0,0,0,0,0,0,0,0,0,0,0,0,0],"id":21,"left_children":[1,3,5,7,9,-1,-1,-1,-1,-1,11,13,15,-1,-1,17,19,-1,-1,-1,-1],"loss_changes":[1.2440313E0,1.235342E0,3.1158304E-1,1.8105507E-3,1.0448104E0,0E0,0E0,0E0,0E0,0E0,1.348987E0,7.8856313E-1,1.5690873E0,0E0,0E0,1.172602E0,1.9343883E0,0E0,0E0,0E0,0E0],"parents":[2147483647,0,0,1,1,2,2,3,3,4,4,10,10,11,11,12,12,15,15,16,16],"right_children":[2,4,6,8,10,-1,-1,-1,-1,-1,12,14,16,-1,-1,18,20,-1,-1,-1,-1],"split_conditions":[-1.11546874E-1,4.186836E-1,5.160938E-2,8.737563E-1,-1.7191356E0,-7.5182463E-3,-2.0770197E-1,-1.8833388E-1,-5.1171936E-2,1.8873474E-1,-9.298393E-1,7.522534E-1,4.9979277E-2,-2.3398148E-1,3.4872424E-2,-6.559622E-1,-6.354097E-1,-5.373002E-3,1.9564794E-1,-2.5546706E-1,9.928519E-3],"split_indices":[0,1,1,4,2,0,0,0,0,0,3,1,3,0,0,0,2,0,0,0,0],"split_type":[0,0,0,0,0,0,0,0,0,0,0,0,0,0,0,0,0,0,0,0,0],"sum_hessian":[8.538798E1,8.2258896E1,3.129087E0,2.6029634E0,7.965593E1,1.0011895E0,2.1278975E0,1.5982182E0,1.0047452E0,2.0119412E0,7.764399E1,3.2344096E0,7.440958E1,2.1430073E0,1.0914023E0,1.0117853E1,6.4291725E1,4.064127E0,6.0537257E0,1.5714675E0,6.2720257E1],"tree_param":{"num_deleted":"0","num_feature":"6","num_nodes":"21","size_leaf_vector":"1"}},{"base_weights":[-7.0952494E-3,1.4945846E-2,-4.8336974E-1,3.7485158E-1,-1.5908683E-2,-6.3940557E-3,-1.9327152E-1,1.3503158E-1,1.8531388E-1,-3.6012772E-2,1.7024073E-1,1.3752788E-1,-1.462496E-1,1.3434963E-1,-1.1197991E-1,1.8151434E-2,-8.396372E-2,-1.969787E-1,3.865837E-1,-5.5499583E-1,1.9755485E-2,9.3330696E-2,-2.849502E-1,-6.809391E-2,2.3178549E-1,-3.2324184E-2,-3.6104292E-1,-9.5725544E-2,5.5663835E-2],"categories":[],"categories_nodes":[],"categories_segments":[],"categories_sizes":[],"default_left":[0,0,0,0,0,0,0,0,0,0,0,0,0,0,0,0,0,0,0,0,0,0,0,0,0,0,0,0,0],"id":22,"left_children":[1,3,5,7,9,-1,-1,11,-1,13,-1,-1,15,17,19,-1,-1,21,23,25,27,-1,-1,-1,-1,-1,-1,-1,-1],"loss_changes":[8.877489E-1,9.0698415E-1,2.642678E-1,2.92107E-1,9.0816236E-1,0E0,0E0,4.7854972E-1,0E0,9.741704E-1,0E0,0E0,1.04725115E-1,2.024203E0,3.0340614E0,0E0,0E0,4.402786E0,3.390017E0,3.3237877E0,2.3564293E0,0E0,0E0,0E0,0E0,0E0,0E0,0E0,0E0],"parents":[2147483647,0,0,1,1,2,2,3,3,4,4,7,7,9,9,12,12,13,13,14,14,17,17,18,18,19,19,20,20],"right_children":[2,4,6,8,10,-1,-1,12,-1,14,-1,-1,16,18,20,-1,-1,22,24,26,28,-1,-1,-1,-1,-1,-1,-1,-1],"split_conditions":[-1.11546874E-1,-1.3318095E0,5.160938E-2,5.7531554E-1,1.378979E0,-6.3940557E-3,-1.9327152E-1,3.1779957E-1,1.8531388E-1,8.847194E-2,1.7024073E-1,1.3752788E-1,-1.5058104E0,-9.082905E-1,4.238496E-1,1.8151434E-2,-8.396372E-2,1.0161687E-1,-6.226324E-2,7.5474274E-1,5.074168E-1,9.3330696E-2,-2.849502E-1,-6.809391E-2,2.3178549E-1,-3.2324184E-2,-3.6104292E-1,-9.5725544E-2,5.5663835E-2],"split_indices":[0,4,1,2,4,0,0,3,0,2,0,0,4,4,2,0,0,3,3,1,4,0,0,0,0,0,0,0,0],"split_type":[0,0,0,0,0,0,0,0,0,0,0,0,0,0,0,0,0,0,0,0,0,0,0,0,0,0,0,0,0],"sum_hessian":[8.287857E1,8.013853E1,2.7400424E0,5.447431E0,7.469109E1,1.0000708E0,1.7399715E0,3.5237808E0,1.9236501E0,7.3109886E1,1.5812101E0,1.3462223E0,2.1775584E0,2.2309814E1,5.080007E1,1.0697058E0,1.1078526E0,9.737691E0,1.2572123E1,1.0907165E1,3.989291E1,6.164328E0,3.5733628E0,5.0143447E0,7.5577774E0,7.1452985E0,3.7618659E0,1.2802568E1,2.709034E1],"tree_param":{"num_deleted":"0","num_feature":"6","num_nodes":"29","size_leaf_vector":"1"}},{"base_weights":[-6.1532846E-3,3.8393196E-1,-3.807197E-2,-7.377519E-2,1.800537E-1,-7.3788114E-2,2.3188089E-1,-1.2399715E-2,-4.704466E-1,4.659766E-1,-1.2299322E-1,-1.2028526E-1,1.595723E-1,1.4276831E-1,-6.555687E-1,7.66411E-1,-8.884972E-2,1.473641E-2,-5.8090454E-1,-2.9586276E-1,3.155138E-1,-8.7635046E-1,1.1538986E-1,8.318724E-2,2.6891786E-1,-2.051204E-2,1.3522556E-1,5.8609422E-2,-2.2759815E-1,-1.9962527E-1,1.713332E-1,-1.7498015E-1,1.2913708E-1,-3.8270164E-1,-3.2186158E-2],"categories":[],"categories_nodes":[],"categories_segments":[],"categories_sizes":[],"default_left":[0,0,0,0,0,0,0,0,0,0,0,0,0,0,0,0,0,0,0,0,0,0,0,0,0,0,0,0,0,0,0,0,0,0,0],"id":23,"left_children":[1,3,5,-1,-1,7,9,11,13,15,-1,17,19,-1,21,23,-1,25,27,29,31,33,-1,-1,-1,-1,-1,-1,-1,-1,-1,-1,-1,-1,-1],"loss_changes":[1.0253451E0,9.9614906E-1,7.4935997E-1,0E0,0E0,1.645865E0,1.5606873E0,1.1280715E0,1.8998511E0,1.863548E0,0E0,2.3281949E0,1.7602272E0,0E0,2.17466E0,9.5086575E-2,0E0,1.111328E0,1.3182487E0,2.4633932E0,2.1072836E0,1.9838414E0,0E0,0E0,0E0,0E0,0E0,0E0,0E0,0E0,0E0,0E0,0E0,0E0,0E0],"parents":[2147483647,0,0,1,1,2,2,5,5,6,6,7,7,8,8,9,9,11,11,12,12,14,14,15,15,17,17,18,18,19,19,20,20,21,21],"right_children":[2,4,6,-1,-1,8,10,12,14,16,-1,18,20,-1,22,24,-1,26,28,30,32,34,-1,-1,-1,-1,-1,-1,-1,-1,-1,-1,-1,-1,-1],"split_conditions":[-7.371441E-1,6.8809766E-1,1.3353543E0,-7.377519E-2,1.800537E-1,1.1951492E0,-6.6342086E-1,5.868089E-1,3.2284403E-1,5.1412195E-1,-1.2299322E-1,5.010056E-1,-7.0039827E-1,1.4276831E-1,7.045395E-1,4.3360516E-1,-8.884972E-2,7.7663535E-1,8.847194E-2,8.287458E-1,4.313901E-1,7.921138E-1,1.1538986E-1,8.318724E-2,2.6891786E-1,-2.051204E-2,1.3522556E-1,5.8609422E-2,-2.2759815E-1,-1.9962527E-1,1.713332E-1,-1.7498015E-1,1.2913708E-1,-3.8270164E-1,-3.2186158E-2],"split_indices":[0,1,4,0,0,4,0,3,2,2,0,3,0,0,3,3,0,1,2,4,2,1,0,0,0,0,0,0,0,0,0,0,0,0,0],"split_type":[0,0,0,0,0,0,0,0,0,0,0,0,0,0,0,0,0,0,0,0,0,0,0,0,0,0,0,0,0,0,0,0,0,0,0],"sum_hessian":[8.01764E1,5.2300744E0,7.494633E1,1.3016458E0,3.9284286E0,6.683092E1,8.11541E0,5.8767147E1,8.063771E0,6.147383E0,1.9680265E0,3.6297005E1,2.247014E1,1.0623504E0,7.0014205E0,4.4052463E0,1.7421368E0,2.8817669E1,7.4793367E0,5.50251E0,1.6967628E1,5.9055023E0,1.0959184E0,1.5827354E0,2.822511E0,2.4912271E1,3.905398E0,1.3751075E0,6.104229E0,4.0210047E0,1.4815053E0,1.4619251E0,1.5505704E1,3.4535675E0,2.4519348E0],"tree_param":{"num_deleted":"0","num_feature":"6","num_nodes":"35","size_leaf_vector":"1"}},{"base_weights":[-3.6737677E-3,-4.294032E-1,2.259132E-2,3.5016066E-3,-2.0240644E-1,3.0967906E-1,-2.2229021E-2,-1.8768865E-1,4.9438372E-1,-5.299885E-1,1.2970995E-2,1.6340545E-1,-2.3851842E-1,1.5438809E-2,1.977217E-1,-2.0994458E-2,-2.0217173E-1,4.915455E-2,-3.8040507E-1,-6.229999E-2,3.5436627E-1,6.442322E-2,-6.3333017E-1,1.5986419E-1,-4.2747874E-2,-1.4289947E-1,1.4607586E-1,-1.3788545E-2,-2.5085464E-1],"categories":[],"categories_nodes":[],"categories_segments":[],"categories_sizes":[],"default_left":[0,0,0,0,0,0,0,0,0,0,0,0,0,0,0,0,0,0,0,0,0,0,0,0,0,0,0,0,0],"id":24,"left_children":[1,3,5,-1,-1,7,9,11,13,15,17,-1,-1,-1,-1,-1,-1,19,21,23,25,-1,27,-1,-1,-1,-1,-1,-1],"loss_changes":[8.844219E-1,5.050798E-1,9.671933E-1,0E0,0E0,1.0247791E0,1.1773204E0,1.977532E0,5.257801E-1,2.3548305E-1,9.042786E-1,0E0,0E0,0E0,0E0,0E0,0E0,1.9903723E0,9.421145E-1,2.139492E0,1.9526519E0,0E0,4.395113E-1,0E0,0E0,0E0,0E0,0E0,0E0],"parents":[2147483647,0,0,1,1,2,2,5,5,6,6,7,7,8,8,9,9,10,10,17,17,18,18,19,19,20,20,22,22],"right_children":[2,4,6,-1,-1,8,10,12,14,16,18,-1,-1,-1,-1,-1,-1,20,22,24,26,-1,28,-1,-1,-1,-1,-1,-1],"split_conditions":[4.186836E-1,-1.9199114E0,-1.1086446E0,3.5016066E-3,-2.0240644E-1,1.7940116E-1,-1.0138394E0,-7.132186E-1,-1.4751545E0,3.0459735E-1,-5.5568814E-1,1.6340545E-1,-2.3851842E-1,1.5438809E-2,1.977217E-1,-2.0994458E-2,-2.0217173E-1,-6.416194E-1,5.887591E-1,-8.94058E-1,5.592102E-1,6.442322E-2,-1.337355E0,1.5986419E-1,-4.2747874E-2,-1.4289947E-1,1.4607586E-1,-1.3788545E-2,-2.5085464E-1],"split_indices":[1,1,4,0,0,2,4,0,4,2,0,0,0,0,0,0,0,0,1,4,1,0,2,0,0,0,0,0,0],"split_type":[0,0,0,0,0,0,0,0,0,0,0,0,0,0,0,0,0,0,0,0,0,0,0,0,0,0,0,0,0],"sum_hessian":[7.7227066E1,3.5957024E0,7.363136E1,1.6253632E0,1.9703392E0,9.145075E0,6.448629E1,2.4721043E0,6.672971E0,3.2693596E0,6.121693E1,1.1675172E0,1.3045872E0,2.1644053E0,4.508565E0,1.133281E0,2.1360786E0,5.6861713E1,4.355215E0,4.22347E1,1.4627017E1,1.3438966E0,3.0113184E0,4.344612E0,3.7890087E1,1.6559337E0,1.2971084E1,1.087881E0,1.9234375E0],"tree_param":{"num_deleted":"0","num_feature":"6","num_nodes":"29","size_leaf_vector":"1"}},{"base_weights":[-6.611068E-3,1.3614193E-1,-8.5696876E-2,3.3266172E-1,1.3189656E-2,-5.3832036E-1,-4.564938E-2,-7.129733E-2,4.575206E-1,-2.8072518E-1,3.2862493E-1,-5.2923497E-2,-2.1375363E-1,1.8303576E-1,-8.271545E-2,5.659831E-1,-5.2628104E-2,1.3424975E-1,-5.143362E-1,-2.8072354E-1,6.1971956E-1,4.1378275E-2,-2.692031E-1,2.1866693E-1,-3.0051768E-3,-2.5355867E-1,-2.0354597E-1,1.5890725E-1,-2.4571182E-1,2.4779828E-1,1.3071452E-2,-3.135543E-1,2.3255932E-1,-2.749679E-1,-7.473084E-2,-1.8916617E-1,8.8737965E-2,3.369275E-2,-2.1519808E-1,-5.1516917E-2,1.3220026E-1,-1.0118467E-1,8.667115E-2],"categories":[],"categories_nodes":[],"categories_segments":[],"categories_sizes":[],"default_left":[0,0,0,0,0,0,0,0,0,0,0,0,0,0,0,0,0,0,0,0,0,0,0,0,0,0,0,0,0,0,0,0,0,0,0,0,0,0,0,0,0,0,0],"id":25,"left_children":[1,3,5,7,9,11,13,-1,15,17,19,-1,-1,-1,21,23,-1,-1,25,27,29,31,33,-1,-1,-1,35,-1,-1,-1,-1,37,39,-1,41,-1,-1,-1,-1,-1,-1,-1,-1],"loss_changes":[8.6441207E-1,6.555843E-1,8.6759007E-1,8.54349E-1,1.7465066E0,1.2068224E-1,1.1761315E0,0E0,7.124791E-1,1.8932594E0,1.7822855E0,0E0,0E0,0E0,1.0459034E0,7.4501896E-1,0E0,0E0,6.368904E-1,2.012861E0,7.302854E-1,1.9535621E0,2.1974206E0,0E0,0E0,0E0,1.3322932E0,0E0,0E0,0E0,0E0,1.8221271E0,1.639466E0,0E0,1.5228138E0,0E0,0E0,0E0,0E0,0E0,0E0,0E0,0E0],"parents":[2147483647,0,0,1,1,2,2,3,3,4,4,5,5,6,6,8,8,9,9,10,10,14,14,15,15,18,18,19,19,20,20,21,21,22,22,26,26,31,31,32,32,34,34],"right_children":[2,4,6,8,10,12,14,-1,16,18,20,-1,-1,-1,22,24,-1,-1,26,28,30,32,34,-1,-1,-1,36,-1,-1,-1,-1,38,40,-1,42,-1,-1,-1,-1,-1,-1,-1,-1],"split_conditions":[-6.82926E-1,-4.802713E-1,-6.777547E-1,6.456595E-1,7.6499766E-1,7.4983263E-1,-6.765626E-1,-7.129733E-2,8.0670744E-1,5.405235E-1,8.5058635E-1,-5.2923497E-2,-2.1375363E-1,1.8303576E-1,5.4393315E-1,4.8732072E-1,-5.2628104E-2,1.3424975E-1,7.217771E-1,2.6671776E-1,-6.9361144E-1,-9.082905E-1,6.1139745E-1,2.1866693E-1,-3.0051768E-3,-2.5355867E-1,5.623752E-1,1.5890725E-1,-2.4571182E-1,2.4779828E-1,1.3071452E-2,6.896322E-2,-6.537535E-1,-2.749679E-1,6.553416E-1,-1.8916617E-1,8.8737965E-2,3.369275E-2,-2.1519808E-1,-5.1516917E-2,1.3220026E-1,-1.0118467E-1,8.667115E-2],"split_indices":[0,4,0,1,1,4,0,0,1,1,4,0,0,0,3,2,0,0,1,2,0,4,3,0,0,0,3,0,0,0,0,3,0,0,2,0,0,0,0,0,0,0,0],"split_type":[0,0,0,0,0,0,0,0,0,0,0,0,0,0,0,0,0,0,0,0,0,0,0,0,0,0,0,0,0,0,0,0,0,0,0,0,0,0,0,0,0,0,0],"sum_hessian":[7.453279E1,2.6313835E1,4.8218952E1,9.470737E0,1.6843098E1,2.9081793E0,4.5310772E1,1.5387517E0,7.931986E0,8.775935E0,8.0671625E0,1.5989245E0,1.3092546E0,1.5969748E0,4.37138E1,6.861919E0,1.0700669E0,1.9091285E0,6.8668065E0,2.6194644E0,5.4476976E0,2.6715036E1,1.6998762E1,5.142161E0,1.7197583E0,2.4931543E0,4.3736525E0,1.0518961E0,1.5675683E0,3.6921654E0,1.7555323E0,9.1282015E0,1.7586834E1,3.0691516E0,1.3929611E1,2.2159312E0,2.1577213E0,4.7938867E0,4.334315E0,6.035933E0,1.15509E1,8.131197E0,5.7984147E0],"tree_param":{"num_deleted":"0","num_feature":"6","num_nodes":"43","size_leaf_vector":"1"}},{"base_weights":[-9.452972E-3,-4.3276346E-1,1.7365146E-2,-1.5799714E-2,-1.9162923E-1,3.5881888E-2,-1.6593598E-1,1.391644E-2,1.7958762E-1,-2.6376862E-2,2.9322568E-1,-1.3593999E-1,1.9873984E-1,6.8898034E-1,-1.1968883E-1,1.8856734E-2,-1.0477101E-1,-1.3810775E-1,8.745992E-2,2.4595809E-1,5.9447013E-2,2.240127E-1,-3.486581E-1],"categories":[],"categories_nodes":[],"categories_segments":[],"categories_sizes":[],"default_left":[0,0,0,0,0,0,0,0,0,0,0,0,0,0,0,0,0,0,0,0,0,0,0],"id":26,"left_children":[1,3,5,-1,-1,7,-1,9,-1,11,13,15,17,19,21,-1,-1,-1,-1,-1,-1,-1,-1],"loss_changes":[8.18139E-1,3.0248976E-1,7.3935765E-1,0E0,0E0,8.1874454E-1,0E0,7.439984E-1,0E0,1.4597869E0,1.4437459E0,1.7039454E0,1.3221223E0,1.20290756E-1,5.319607E0,0E0,0E0,0E0,0E0,0E0,0E0,0E0,0E0],"parents":[2147483647,0,0,1,1,2,2,5,5,7,7,9,9,10,10,11,11,12,12,13,13,14,14],"right_children":[2,4,6,-1,-1,8,-1,10,-1,12,14,16,18,20,22,-1,-1,-1,-1,-1,-1,-1,-1],"split_conditions":[4.186836E-1,-1.9199114E0,-1.11546874E-1,-1.5799714E-2,-1.9162923E-1,-2.7862883E-1,-1.6593598E-1,1.3353543E0,1.7958762E-1,6.130614E-1,7.6499766E-1,4.488427E-1,5.211123E-1,4.313901E-1,-6.7424977E-1,1.8856734E-2,-1.0477101E-1,-1.3810775E-1,8.745992E-2,2.4595809E-1,5.9447013E-2,2.240127E-1,-3.486581E-1],"split_indices":[1,1,0,0,0,0,0,4,0,2,1,3,3,2,0,0,0,0,0,0,0,0,0],"split_type":[0,0,0,0,0,0,0,0,0,0,0,0,0,0,0,0,0,0,0,0,0,0,0],"sum_hessian":[7.040558E1,3.2928362E0,6.711274E1,1.5986953E0,1.694141E0,6.591053E1,1.202214E0,6.442074E1,1.4897915E0,5.709041E1,7.3303294E0,3.8667347E1,1.842306E1,3.401556E0,3.9287734E0,2.0379065E1,1.8288284E1,1.7847891E0,1.6638271E1,2.1562166E0,1.2453395E0,2.3005686E0,1.6282051E0],"tree_param":{"num_deleted":"0","num_feature":"6","num_nodes":"23","size_leaf_vector":"1"}},{"base_weights":[-7.880918E-3,-7.681238E-2,1.5110588E-1,4.2218837E-1,-1.4784206E-1,3.2645568E-1,-2.5759315E-1,2.3939377E-2,5.5419105E-1,-7.468877E-2,-6.1631644E-1,5.680422E-1,-2.6030874E-1,1.813672E-1,-5.327505E-1,5.9623085E-3,2.1822393E-1,-1.542171E-1,4.942852E-1,4.749715E-2,-8.360353E-1,-2.5308955E-1,8.00658E-1,-2.0279366E-1,1.2728535E-1,-2.8048202E-1,6.2822096E-2,-6.3086875E-2,-6.488358E-1,1.9783747E-1,1.5642336E-2,-2.8350613E-1,-7.312553E-2,8.8420935E-2,-1.9703975E-1,2.6704684E-1,9.3111075E-2,-1.6434929E-1,1.8991438E-1,-6.311532E-2,9.901024E-2,-1.4683203E-3,-1.7153141E-1,-2.7945173E-1,5.753356E-2],"categories":[],"categories_nodes":[],"categories_segments":[],"categories_sizes":[],"default_left":[0,0,0,0,0,0,0,0,0,0,0,0,0,0,0,0,0,0,0,0,0,0,0,0,0,0,0,0,0,0,0,0,0,0,0,0,0,0,0,0,0,0,0,0,0],"id":27,"left_children":[1,3,5,7,9,11,13,-1,15,17,19,21,23,-1,25,-1,-1,27,29,-1,31,33,35,-1,37,-1,39,41,43,-1,-1,-1,-1,-1,-1,-1,-1,-1,-1,-1,-1,-1,-1,-1,-1],"loss_changes":[7.682407E-1,1.7929032E0,1.6046689E0,2.4246109E-1,1.4440542E0,2.315087E0,1.9658684E0,0E0,3.9370012E-1,1.8294477E0,1.1084151E0,2.3312213E0,9.14899E-1,0E0,1.4442719E0,0E0,0E0,1.5256959E0,3.2998705E-1,0E0,6.830311E-2,9.05694E-1,1.1530924E-1,0E0,1.5431566E0,0E0,3.080587E-1,8.987665E-1,1.4379237E0,0E0,0E0,0E0,0E0,0E0,0E0,0E0,0E0,0E0,0E0,0E0,0E0,0E0,0E0,0E0,0E0],"parents":[2147483647,0,0,1,1,2,2,3,3,4,4,5,5,6,6,8,8,9,9,10,10,11,11,12,12,14,14,17,17,18,18,20,20,21,21,22,22,24,24,26,26,27,27,28,28],"right_children":[2,4,6,8,10,12,14,-1,16,18,20,22,24,-1,26,-1,-1,28,30,-1,32,34,36,-1,38,-1,40,42,44,-1,-1,-1,-1,-1,-1,-1,-1,-1,-1,-1,-1,-1,-1,-1,-1],"split_conditions":[7.781026E-1,-7.2871226E-1,-6.6138476E-1,6.8809766E-1,7.66358E-1,6.8438154E-1,7.795007E-1,2.3939377E-2,4.1636923E-1,1.2955688E0,-6.875517E-1,-7.069583E-1,6.9601077E-1,1.813672E-1,8.035853E-1,5.9623085E-3,2.1822393E-1,1.0710677E0,4.313901E-1,4.749715E-2,-6.6138476E-1,3.994797E-1,1.2878565E0,-2.0279366E-1,5.666078E-1,-2.8048202E-1,6.0206234E-1,7.548905E-1,-6.373087E-1,1.9783747E-1,1.5642336E-2,-2.8350613E-1,-7.312553E-2,8.8420935E-2,-1.9703975E-1,2.6704684E-1,9.3111075E-2,-1.6434929E-1,1.8991438E-1,-6.311532E-2,9.901024E-2,-1.4683203E-3,-1.7153141E-1,-2.7945173E-1,5.753356E-2],"split_indices":[1,0,0,1,1,3,1,0,3,4,0,0,3,0,1,0,0,4,2,0,0,2,4,0,2,0,2,1,0,0,0,0,0,0,0,0,0,0,0,0,0,0,0,0,0],"split_type":[0,0,0,0,0,0,0,0,0,0,0,0,0,0,0,0,0,0,0,0,0,0,0,0,0,0,0,0,0,0,0,0,0,0,0,0,0,0,0,0,0,0,0,0,0],"sum_hessian":[6.804103E1,4.7823288E1,2.0217745E1,5.3430734E0,4.2480213E1,1.4288559E1,5.929186E0,1.933208E0,3.4098651E0,3.774559E1,4.734626E0,1.0143937E1,4.1446223E0,1.1448605E0,4.784325E0,1.1077274E0,2.3021379E0,3.3756264E1,3.9893255E0,1.1079311E0,3.6266944E0,2.219854E0,7.9240828E0,1.6408628E0,2.5037594E0,2.5156753E0,2.26865E0,2.9456621E1,4.299641E0,2.5465155E0,1.44281E0,2.560067E0,1.0666275E0,1.0563447E0,1.1635095E0,6.0112066E0,1.9128762E0,1.0367188E0,1.4670405E0,1.2268977E0,1.0417523E0,2.7338745E1,2.1178756E0,3.1367385E0,1.1629028E0],"tree_param":{"num_deleted":"0","num_feature":"6","num_nodes":"45","size_leaf_vector":"1"}},{"base_weights":[-6.948958E-3,-1.2394668E-1,8.944699E-2,1.8179104E-1,-1.9811043E-1,2.1123913E-1,-1.9134322E-1,-4.684481E-2,1.6628629E-1,-2.6206914E-1,-9.1367364E-2,2.7298525E-2,5.165977E-1,1.8901278E-1,-3.8859862E-1,2.8160712E-1,-1.697801E-1,1.3029145E-1,-1.5980579E-1,5.9535146E-1,-1.2509821E-1,-4.570857E-2,6.117264E-1,-8.473126E-1,-1.4805241E-1,1.19761765E-1,9.181417E-3,-2.4021174E-1,-3.67981E-2,3.171845E-2,2.2740294E-1,1.4838756E-2,-1.9239295E-1,3.177109E-2,2.516665E-1,-3.2253483E-1,-5.6354515E-2,-2.5602347E-1,1.425501E-1,2.63034E-2,-1.08995385E-1,6.8438746E-2,-8.179171E-2,1.1837347E-1,-1.2288085E-1,1.5797567E-1,-5.4898072E-2],"categories":[],"categories_nodes":[],"categories_segments":[],"categories_sizes":[],"default_left":[0,0,0,0,0,0,0,0,0,0,0,0,0,0,0,0,0,0,0,0,0,0,0,0,0,0,0,0,0,0,0,0,0,0,0,0,0,0,0,0,0,0,0,0,0,0,0],"id":28,"left_children":[1,3,5,7,9,11,13,15,-1,-1,17,19,21,-1,23,25,-1,-1,27,29,31,-1,33,35,37,-1,-1,-1,39,-1,-1,41,-1,43,-1,-1,-1,-1,45,-1,-1,-1,-1,-1,-1,-1,-1],"loss_changes":[7.5141627E-1,7.1788675E-1,1.2910784E0,5.7035416E-1,1.6996052E0,1.4452853E0,2.1224282E0,9.9189806E-1,0E0,0E0,8.7630534E-1,1.569605E0,7.112341E-1,0E0,9.7388077E-1,9.576914E-2,0E0,0E0,1.5926652E0,2.2463965E-1,1.0529021E0,0E0,1.1197896E0,2.8110385E-1,1.7097073E0,0E0,0E0,0E0,7.7608633E-1,0E0,0E0,8.188907E-1,0E0,7.202536E-1,0E0,0E0,0E0,0E0,8.8945603E-1,0E0,0E0,0E0,0E0,0E0,0E0,0E0,0E0],"parents":[2147483647,0,0,1,1,2,2,3,3,4,4,5,5,6,6,7,7,10,10,11,11,12,12,14,14,15,15,18,18,19,19,20,20,22,22,23,23,24,24,28,28,31,31,33,33,38,38],"right_children":[2,4,6,8,10,12,14,16,-1,-1,18,20,22,-1,24,26,-1,-1,28,30,32,-1,34,36,38,-1,-1,-1,40,-1,-1,42,-1,44,-1,-1,-1,-1,46,-1,-1,-1,-1,-1,-1,-1,-1],"split_conditions":[7.419116E-1,-7.1185845E-1,1.1951492E0,7.221607E-1,-6.9289166E-1,6.0206234E-1,2.9380238E-1,8.010259E-1,1.6628629E-1,-2.6206914E-1,-6.82926E-1,7.4954635E-1,-7.249488E-1,1.8901278E-1,1.2614254E0,3.457042E-1,-1.697801E-1,1.3029145E-1,-6.537535E-1,5.1429147E-1,5.536557E-1,-4.570857E-2,5.654202E-1,6.456437E-1,4.1896245E-1,1.19761765E-1,9.181417E-3,-2.4021174E-1,5.010056E-1,3.171845E-2,2.2740294E-1,-6.734583E-1,-1.9239295E-1,7.322067E-1,2.516665E-1,-3.2253483E-1,-5.6354515E-2,-2.5602347E-1,5.259363E-1,2.63034E-2,-1.08995385E-1,6.8438746E-2,-8.179171E-2,1.1837347E-1,-1.2288085E-1,1.5797567E-1,-5.4898072E-2],"split_indices":[1,0,4,2,0,2,2,4,0,0,0,1,0,0,4,2,0,0,0,3,2,0,3,2,2,0,0,0,3,0,0,0,0,2,0,0,0,0,2,0,0,0,0,0,0,0,0],"split_type":[0,0,0,0,0,0,0,0,0,0,0,0,0,0,0,0,0,0,0,0,0,0,0,0,0,0,0,0,0,0,0,0,0,0,0,0,0,0,0,0,0,0,0,0,0,0,0],"sum_hessian":[6.4643074E1,2.9071995E1,3.557108E1,5.392084E0,2.367991E1,2.498262E1,1.0588459E1,3.8829792E0,1.5091052E0,2.2511554E0,2.1428755E1,1.6270851E1,8.711768E0,1.6255416E0,8.962917E0,2.6583889E0,1.2245903E0,1.8526583E0,1.9576097E1,2.826943E0,1.3443909E1,1.0097079E0,7.7020607E0,2.2155263E0,6.7473907E0,1.4081848E0,1.2502041E0,2.2650805E0,1.7311016E1,1.116408E0,1.7105349E0,1.13408375E1,2.1030712E0,2.488545E0,5.2135158E0,1.1782339E0,1.0372925E0,1.4036682E0,5.343723E0,1.3062717E1,4.2482996E0,6.62899E0,4.7118473E0,1.4240259E0,1.0645192E0,2.1682897E0,3.1754332E0],"tree_param":{"num_deleted":"0","num_feature":"6","num_nodes":"47","size_leaf_vector":"1"}},{"base_weights":[-1.0214962E-2,-3.7528855E-1,2.1616522E-2,4.1264463E-2,-1.7560096E-1,4.2830202E-1,-2.6099891E-3,1.601053E-1,2.8898263E-2,-4.6330652E-1,2.6990289E-2,-6.6347383E-3,-2.1056964E-1,-1.425966E-1,5.4288924E-2,3.851956E-1,1.5222591E-2,-7.89393E-3,1.866461E-1,1.107673E-1,-7.341917E-3],"categories":[],"categories_nodes":[],"categories_segments":[],"categories_sizes":[],"default_left":[0,0,0,0,0,0,0,0,0,0,0,0,0,0,0,0,0,0,0,0,0],"id":29,"left_children":[1,3,5,-1,-1,7,9,-1,-1,11,13,-1,-1,-1,15,17,19,-1,-1,-1,-1],"loss_changes":[7.277614E-1,6.213756E-1,5.716455E-1,0E0,0E0,6.269765E-2,7.713192E-1,0E0,0E0,3.4389764E-1,7.557232E-1,0E0,0E0,0E0,6.5839505E-1,5.4142755E-1,6.694885E-1,0E0,0E0,0E0,0E0],"parents":[2147483647,0,0,1,1,2,2,5,5,6,6,9,9,10,10,14,14,15,15,16,16],"right_children":[2,4,6,-1,-1,8,10,-1,-1,12,14,-1,-1,-1,16,18,20,-1,-1,-1,-1],"split_conditions":[-9.298393E-1,-2.296787E0,-1.337355E0,4.1264463E-2,-1.7560096E-1,-5.301321E-1,-9.29835E-1,1.601053E-1,2.8898263E-2,-9.1767365E-1,4.186836E-1,-6.6347383E-3,-2.1056964E-1,-1.425966E-1,-2.8593513E-1,-6.152613E-1,-1.3318095E0,-7.89393E-3,1.866461E-1,1.107673E-1,-7.341917E-3],"split_indices":[3,3,2,0,0,0,2,0,0,4,1,0,0,0,2,0,4,0,0,0,0],"split_type":[0,0,0,0,0,0,0,0,0,0,0,0,0,0,0,0,0,0,0,0,0],"sum_hessian":[6.0927475E1,4.020999E0,5.6906475E1,1.2686706E0,2.7523286E0,2.2616448E0,5.4644833E1,1.2554934E0,1.0061514E0,2.4144478E0,5.2230385E1,1.2309465E0,1.1835011E0,1.8462514E0,5.0384132E1,4.384628E0,4.5999504E1,1.9270343E0,2.4575934E0,3.8010197E0,4.2198486E1],"tree_param":{"num_deleted":"0","num_feature":"6","num_nodes":"21","size_leaf_vector":"1"}},{"base_weights":[-7.3746066E-3,3.1102903E-2,-2.682628E-1,-1.8538907E-2,2.7448732E-1,-8.645444E-3,-5.150015E-1,-4.0221214E-1,3.703493E-2,-7.450532E-2,4.8692575E-1,-8.2803875E-2,1.9718319E-1,-4.4976123E-2,-2.0714973E-1,9.612285E-2,-2.1099098E-1,2.4055304E-1,-1.1501334E-1,-1.14569336E-1,1.1929203E-1,1.6523063E-1,2.1115223E-1,1.2103041E-1,-3.0835968E-2,6.8411715E-2,-2.3009485E-2,5.5097604E-1,1.3780323E-1,-5.705617E-1,3.1240167E-2,1.0820682E-1,-4.165469E-2,2.0728824E-1,2.9771974E-2,-1.1827523E-1,8.384781E-2,1.3157572E-2,-2.630148E-1,1.5892589E-1,-4.409303E-2],"categories":[],"categories_nodes":[],"categories_segments":[],"categories_sizes":[],"default_left":[0,0,0,0,0,0,0,0,0,0,0,0,0,0,0,0,0,0,0,0,0,0,0,0,0,0,0,0,0,0,0,0,0,0,0,0,0,0,0,0,0],"id":30,"left_children":[1,3,5,7,9,11,13,15,17,19,21,-1,23,-1,-1,25,-1,27,29,-1,-1,31,-1,-1,-1,-1,-1,33,35,37,39,-1,-1,-1,-1,-1,-1,-1,-1,-1,-1],"loss_changes":[6.185974E-1,6.560065E-1,5.027269E-1,9.889912E-1,7.1763796E-1,3.2271427E-1,1.554792E-1,9.4751644E-1,1.2908309E0,7.8243077E-1,2.9160428E-1,0E0,2.4797963E-1,0E0,0E0,8.790101E-2,0E0,4.911549E-1,1.6195756E0,0E0,0E0,2.6766863E-1,0E0,0E0,0E0,0E0,0E0,1.8993032E-1,1.2177111E0,1.1472548E0,1.7789085E0,0E0,0E0,0E0,0E0,0E0,0E0,0E0,0E0,0E0,0E0],"parents":[2147483647,0,0,1,1,2,2,3,3,4,4,5,5,6,6,7,7,8,8,9,9,10,10,12,12,15,15,17,17,18,18,21,21,27,27,28,28,29,29,30,30],"right_children":[2,4,6,8,10,12,14,16,18,20,22,-1,24,-1,-1,26,-1,28,30,-1,-1,32,-1,-1,-1,-1,-1,34,36,38,40,-1,-1,-1,-1,-1,-1,-1,-1,-1,-1],"split_conditions":[-5.703746E-1,7.0292395E-1,6.10659E-1,6.1323196E-1,5.5879444E-1,4.186836E-1,-6.141159E-1,2.5320666E-2,3.457042E-1,8.2097864E-1,7.3359084E-1,-8.2803875E-2,4.901837E-1,-4.4976123E-2,-2.0714973E-1,4.3585607E-1,-2.1099098E-1,-7.146947E-1,4.7983038E-1,-1.14569336E-1,1.1929203E-1,7.012189E-1,2.1115223E-1,1.2103041E-1,-3.0835968E-2,6.8411715E-2,-2.3009485E-2,-9.160055E-1,-9.751554E-1,7.588307E-1,5.259363E-1,1.0820682E-1,-4.165469E-2,2.0728824E-1,2.9771974E-2,-1.1827523E-1,8.384781E-2,1.3157572E-2,-2.630148E-1,1.5892589E-1,-4.409303E-2],"split_indices":[0,2,1,1,3,1,2,3,2,2,1,0,1,0,0,1,0,0,2,0,0,1,0,0,0,0,0,4,4,1,2,0,0,0,0,0,0,0,0,0,0],"split_type":[0,0,0,0,0,0,0,0,0,0,0,0,0,0,0,0,0,0,0,0,0,0,0,0,0,0,0,0,0,0,0,0,0,0,0,0,0,0,0,0,0],"sum_hessian":[5.979236E1,5.2874813E1,6.9175453E0,4.468457E1,8.190243E0,3.8751588E0,3.0423865E0,4.8643575E0,3.9820213E1,3.3447657E0,4.8454776E0,1.5372789E0,2.33788E0,1.5896845E0,1.4527019E0,2.088477E0,2.7758806E0,1.6779118E1,2.3041098E1,2.1416066E0,1.2031592E0,2.6609273E0,2.18455E0,1.1809626E0,1.1569173E0,1.0032084E0,1.0852685E0,3.087872E0,1.3691245E1,4.8945227E0,1.8146574E1,1.5064385E0,1.1544888E0,1.9530811E0,1.1347909E0,2.5044312E0,1.1186814E1,1.9126908E0,2.9818318E0,4.259442E0,1.3887133E1],"tree_param":{"num_deleted":"0","num_feature":"6","num_nodes":"41","size_leaf_vector":"1"}},{"base_weights":[-5.775853E-3,-2.8050035E-1,3.9142657E-2,-1.323898E-2,-2.1349157E-1,4.577084E-1,-1.1655967E-2,-3.9891952E-1,3.279047E-1,5.181575E-1,5.1561605E-2,-2.0393814E-1,2.078027E-2,-3.4746196E-2,-1.5772791E-1,1.6731349E-1,-3.3696182E-2,4.093242E-2,1.837365E-1,1.3449565E-1,-5.669697E-3,5.0364584E-2,-3.1993318E-1,-2.860538E-3,1.4886528E-1,-1.9626491E-1,1.618069E-2],"categories":[],"categories_nodes":[],"categories_segments":[],"categories_sizes":[],"default_left":[0,0,0,0,0,0,0,0,0,0,0,0,0,0,0,0,0,0,0,0,0,0,0,0,0,0,0],"id":31,"left_children":[1,3,5,7,-1,9,11,13,15,17,-1,-1,19,-1,-1,-1,-1,-1,-1,-1,21,23,25,-1,-1,-1,-1],"loss_changes":[7.305995E-1,9.489528E-1,1.0896776E0,9.40428E-1,0E0,6.7397356E-3,1.0208606E0,5.901581E-2,4.4850197E-1,6.329799E-2,0E0,0E0,5.1450664E-1,0E0,0E0,0E0,0E0,0E0,0E0,0E0,7.8429186E-1,1.0165265E0,8.772783E-1,0E0,0E0,0E0,0E0],"parents":[2147483647,0,0,1,1,2,2,3,3,5,5,6,6,7,7,8,8,9,9,12,12,20,20,21,21,22,22],"right_children":[2,4,6,8,-1,10,12,14,16,18,-1,-1,20,-1,-1,-1,-1,-1,-1,-1,22,24,26,-1,-1,-1,-1],"split_conditions":[-3.7064713E-1,-7.29921E-1,4.9979277E-2,6.456595E-1,-2.1349157E-1,-3.4689125E-1,-6.354097E-1,-1.4413993E0,7.548471E-1,5.5494547E-1,5.1561605E-2,-2.0393814E-1,-1.6839549E-1,-3.4746196E-2,-1.5772791E-1,1.6731349E-1,-3.3696182E-2,4.093242E-2,1.837365E-1,1.3449565E-1,-6.224355E-1,-6.373087E-1,5.1412195E-1,-2.860538E-3,1.4886528E-1,-1.9626491E-1,1.618069E-2],"split_indices":[3,2,3,1,0,2,2,2,4,1,0,0,2,0,0,0,0,0,0,0,0,0,2,0,0,0,0],"split_type":[0,0,0,0,0,0,0,0,0,0,0,0,0,0,0,0,0,0,0,0,0,0,0,0,0,0,0],"sum_hessian":[5.7315025E1,7.3173E0,4.9997726E1,5.1534176E0,2.1638823E0,4.544244E0,4.5453484E1,2.3393278E0,2.81409E0,3.080086E0,1.4641576E0,1.1804355E0,4.427305E1,1.3157605E0,1.0235673E0,1.6735722E0,1.1405177E0,1.0948917E0,1.9851944E0,1.6501561E0,4.262289E1,3.688577E1,5.737124E0,3.337985E1,3.5059206E0,2.633028E0,3.104096E0],"tree_param":{"num_deleted":"0","num_feature":"6","num_nodes":"27","size_leaf_vector":"1"}},{"base_weights":[-6.002512E-3,-3.1977165E-1,2.442142E-2,-1.7255741E-1,2.0919763E-2,4.5467237E-1,-4.638896E-3,1.602066E-1,4.4877805E-2,-1.4690313E-1,2.0214092E-2,-1.4385757E-1,4.106152E-2,4.235477E-1,3.7429337E-3,2.461111E-2,1.5138538E-1,1.3552429E-2,-8.683626E-2],"categories":[],"categories_nodes":[],"categories_segments":[],"categories_sizes":[],"default_left":[0,0,0,0,0,0,0,0,0,0,0,0,0,0,0,0,0,0,0],"id":32,"left_children":[1,3,5,-1,-1,7,9,-1,-1,-1,11,-1,13,15,17,-1,-1,-1,-1],"loss_changes":[5.487826E-1,5.455135E-1,6.5964806E-1,0E0,0E0,9.05931E-4,6.1567E-1,0E0,0E0,0E0,5.277177E-1,0E0,6.7972606E-1,7.583153E-2,5.536153E-1,0E0,0E0,0E0,0E0],"parents":[2147483647,0,0,1,1,2,2,5,5,6,6,10,10,12,12,13,13,14,14],"right_children":[2,4,6,-1,-1,8,10,-1,-1,-1,12,-1,14,16,18,-1,-1,-1,-1],"split_conditions":[-8.491406E-1,6.9498366E-1,-1.1739405E0,-1.7255741E-1,2.0919763E-2,-5.301321E-1,-3.7064713E-1,1.602066E-1,4.4877805E-2,-1.4690313E-1,-9.5271236E-1,-1.4385757E-1,-1.6839549E-1,-9.1499054E-1,-6.139417E-1,2.461111E-2,1.5138538E-1,1.3552429E-2,-8.683626E-2],"split_indices":[3,1,2,0,0,0,3,0,0,0,2,0,2,4,0,0,0,0,0],"split_type":[0,0,0,0,0,0,0,0,0,0,0,0,0,0,0,0,0,0,0],"sum_hessian":[5.5669624E1,4.0800977E0,5.1589527E1,2.1762688E0,1.9038286E0,2.337404E0,4.9252125E1,1.2594049E0,1.0779991E0,1.4890203E0,4.7763103E1,1.0316441E0,4.673146E1,3.2341774E0,4.3497284E1,1.0064412E0,2.2277362E0,3.8852886E1,4.644397E0],"tree_param":{"num_deleted":"0","num_feature":"6","num_nodes":"19","size_leaf_vector":"1"}},{"base_weights":[-6.716216E-3,-3.1451315E-2,3.3847386E-1,9.291808E-3,-4.29101E-1,2.3433374E-2,1.4491819E-1,-2.8426385E-2,2.943419E-1,-5.9459466E-1,2.6572596E-2,4.060324E-2,-4.7804797E-1,1.5990542E-1,-8.1027605E-2,-2.2760266E-1,-4.517404E-2,-1.07214645E-1,2.026075E-1,1.7937532E-1,-8.6764103E-1,9.877629E-3,-2.227784E-1,1.5160288E-1,2.2775251E-2,1.3947201E-1,-5.735349E-2,-3.2194492E-1,-5.8023654E-2],"categories":[],"categories_nodes":[],"categories_segments":[],"categories_sizes":[],"default_left":[0,0,0,0,0,0,0,0,0,0,0,0,0,0,0,0,0,0,0,0,0,0,0,0,0,0,0,0,0],"id":33,"left_children":[1,3,5,7,9,-1,-1,11,13,15,-1,17,19,-1,-1,-1,-1,21,23,25,27,-1,-1,-1,-1,-1,-1,-1,-1],"loss_changes":[4.861899E-1,8.608236E-1,1.05661064E-1,5.3465635E-1,4.7557104E-1,0E0,0E0,1.389445E0,9.264384E-1,1.6771746E-1,0E0,9.601715E-1,1.6804379E0,0E0,0E0,0E0,0E0,1.9072769E0,6.920041E-1,4.1093817E-1,3.341267E-1,0E0,0E0,0E0,0E0,0E0,0E0,0E0,0E0],"parents":[2147483647,0,0,1,1,2,2,3,3,4,4,7,7,8,8,9,9,11,11,12,12,17,17,18,18,19,19,20,20],"right_children":[2,4,6,8,10,-1,-1,12,14,16,-1,18,20,-1,-1,-1,-1,22,24,26,28,-1,-1,-1,-1,-1,-1,-1,-1],"split_conditions":[7.2173595E-1,7.0037174E-1,-6.666256E-1,1.3353543E0,6.6448265E-1,2.3433374E-2,1.4491819E-1,1.1951492E0,-6.6342086E-1,7.7663535E-1,2.6572596E-2,4.628098E-1,5.7386357E-1,1.5990542E-1,-8.1027605E-2,-2.2760266E-1,-4.517404E-2,8.058316E-1,5.329046E-1,-6.7577416E-1,1.2903727E0,9.877629E-3,-2.227784E-1,1.5160288E-1,2.2775251E-2,1.3947201E-1,-5.735349E-2,-3.2194492E-1,-5.8023654E-2],"split_indices":[3,3,0,4,2,0,0,4,0,1,0,2,3,0,0,0,0,4,2,0,4,0,0,0,0,0,0,0,0],"split_type":[0,0,0,0,0,0,0,0,0,0,0,0,0,0,0,0,0,0,0,0,0,0,0,0,0,0,0,0,0],"sum_hessian":[5.4695385E1,5.1886284E1,2.8091004E0,4.794997E1,3.9363132E0,1.5529268E0,1.2561735E0,4.314168E1,4.808287E0,2.8701756E0,1.0661377E0,3.818838E1,4.9533014E0,3.4184308E0,1.3898563E0,1.5782697E0,1.2919058E0,2.0145332E1,1.8043049E1,2.043893E0,2.909408E0,1.7281816E1,2.8635156E0,4.441332E0,1.3601717E1,1.0105687E0,1.0333245E0,1.7763096E0,1.1330986E0],"tree_param":{"num_deleted":"0","num_feature":"6","num_nodes":"29","size_leaf_vector":"1"}},{"base_weights":[-1.1375505E-2,2.6075038E-1,-3.7702087E-2,-1.4471134E-2,1.3759118E-1,-1.5507622E-1,5.277438E-2,-6.69705E-2,-6.047092E-1,-7.402287E-2,2.7038038E-1,2.8972113E-1,-1.629078E-1,-5.1666446E-2,-2.2350621E-1,-5.2495176E-1,1.2565944E-1,-9.733916E-2,4.2501596E-1,1.8926312E-1,-8.7422326E-2,-2.0113173E-1,-5.567451E-2,-2.3486006E-1,1.02775045E-1,5.931083E-1,-1.7394005E-1,5.3310287E-1,-4.845059E-2,-7.240196E-2,1.0922149E-1,5.6747984E-2,2.1746781E-1,-2.3471114E-1,2.3527503E-2,2.720014E-2,1.8720794E-1],"categories":[],"categories_nodes":[],"categories_segments":[],"categories_sizes":[],"default_left":[0,0,0,0,0,0,0,0,0,0,0,0,0,0,0,0,0,0,0,0,0,0,0,0,0,0,0,0,0,0,0,0,0,0,0,0,0],"id":34,"left_children":[1,3,5,-1,-1,7,9,11,13,15,17,19,21,-1,-1,23,25,-1,27,-1,-1,-1,29,-1,-1,31,33,35,-1,-1,-1,-1,-1,-1,-1,-1,-1],"loss_changes":[3.971413E-1,3.2143706E-1,5.4093915E-1,0E0,0E0,8.346606E-1,8.222667E-1,7.177881E-1,8.378041E-2,1.79083E0,1.142331E0,1.0786668E0,8.3797514E-1,0E0,0E0,1.6269084E0,2.0755486E0,0E0,6.629615E-1,0E0,0E0,0E0,1.2076086E0,0E0,0E0,1.6778636E-1,1.4979398E0,2.6186776E-1,0E0,0E0,0E0,0E0,0E0,0E0,0E0,0E0,0E0],"parents":[2147483647,0,0,1,1,2,2,5,5,6,6,7,7,8,8,9,9,10,10,11,11,12,12,15,15,16,16,18,18,22,22,25,25,26,26,27,27],"right_children":[2,4,6,-1,-1,8,10,12,14,16,18,20,22,-1,-1,24,26,-1,28,-1,-1,-1,30,-1,-1,32,34,36,-1,-1,-1,-1,-1,-1,-1,-1,-1],"split_conditions":[-1.3318095E0,7.8269905E-1,6.74072E-1,-1.4471134E-2,1.3759118E-1,-6.6265024E-2,-6.5191156E-1,-7.053707E-1,6.118698E-1,4.238496E-1,5.854443E-1,4.0580612E-1,-6.9289166E-1,-5.1666446E-2,-2.2350621E-1,7.850491E-1,-6.9508886E-1,-9.733916E-2,7.795007E-1,1.8926312E-1,-8.7422326E-2,-2.0113173E-1,6.167901E-1,-2.3486006E-1,1.02775045E-1,5.6436485E-1,7.56841E-1,-6.438846E-1,-4.845059E-2,-7.240196E-2,1.0922149E-1,5.6747984E-2,2.1746781E-1,-2.3471114E-1,2.3527503E-2,2.720014E-2,1.8720794E-1],"split_indices":[4,1,4,0,0,4,0,0,3,2,1,2,0,0,0,1,0,0,1,0,0,0,3,0,0,3,1,0,0,0,0,0,0,0,0,0,0],"split_type":[0,0,0,0,0,0,0,0,0,0,0,0,0,0,0,0,0,0,0,0,0,0,0,0,0,0,0,0,0,0,0,0,0,0,0,0,0],"sum_hessian":[5.3062347E1,3.8951814E0,4.9167164E1,1.8159431E0,2.0792384E0,2.1091455E1,2.807571E1,1.8596424E1,2.4950306E0,1.8156118E1,9.919592E0,3.5134895E0,1.5082935E1,1.1568004E0,1.3382303E0,5.07244E0,1.3083678E1,1.8200539E0,8.099538E0,2.159899E0,1.3535904E0,1.7147816E0,1.3368154E1,3.985239E0,1.087201E0,4.7276735E0,8.356005E0,6.916075E0,1.1834625E0,9.563144E0,3.80501E0,1.762031E0,2.9656427E0,1.8340689E0,6.5219355E0,1.5194728E0,5.3966026E0],"tree_param":{"num_deleted":"0","num_feature":"6","num_nodes":"37","size_leaf_vector":"1"}},{"base_weights":[-1.1411276E-2,-2.7060798E-1,1.0170334E-2,5.0140176E-2,-1.453425E-1,1.2940465E-1,-7.734273E-2,-1.1094942E-1,2.4039021E-1,-2.3113914E-1,9.827667E-2,3.2930923E-1,-3.8537535E-1,3.1619214E-2,4.5298505E-1,-2.7156908E-2,-6.057124E-1,1.969322E-1,-2.3196457E-1,1.6910009E-1,-3.0449267E-2,3.686346E-2,-1.9160241E-1,-1.369015E-1,1.6878137E-1,6.302302E-1,-5.867005E-3,2.1640398E-1,-3.7362057E-1,-3.3882663E-3,-7.4221754E-1,3.5950375E-1,-2.147317E-1,1.20685756E-1,-1.9070852E-1,1.2944932E-1,-7.568151E-2,2.1614818E-1,7.302012E-2,-2.7729666E-2,1.8918405E-1,-2.4295911E-1,8.093323E-2,-6.604957E-2,-2.5183964E-1,-2.3085445E-2,1.6784234E-1,6.81694E-2,-1.4598265E-1],"categories":[],"categories_nodes":[],"categories_segments":[],"categories_sizes":[],"default_left":[0,0,0,0,0,0,0,0,0,0,0,0,0,0,0,0,0,0,0,0,0,0,0,0,0,0,0,0,0,0,0,0,0,0,0,0,0,0,0,0,0,0,0,0,0,0,0,0,0],"id":35,"left_children":[1,3,5,-1,-1,7,9,11,13,15,17,19,21,23,25,27,29,31,33,-1,-1,-1,-1,-1,35,37,-1,39,41,-1,43,45,47,-1,-1,-1,-1,-1,-1,-1,-1,-1,-1,-1,-1,-1,-1,-1,-1],"loss_changes":[2.8959215E-1,4.5334816E-1,5.139963E-1,0E0,0E0,5.820272E-1,7.919812E-1,1.0041316E0,6.3181466E-1,1.1664973E0,5.0176525E-1,3.9313397E-1,7.136176E-1,6.4057314E-1,6.101662E-1,1.0150484E0,4.307276E-1,8.347623E-1,1.1978489E0,0E0,0E0,0E0,0E0,0E0,9.166488E-1,6.9305897E-3,0E0,9.7088176E-1,1.6041071E0,0E0,3.782749E-2,7.839477E-1,5.7087505E-1,0E0,0E0,0E0,0E0,0E0,0E0,0E0,0E0,0E0,0E0,0E0,0E0,0E0,0E0,0E0,0E0],"parents":[2147483647,0,0,1,1,2,2,5,5,6,6,7,7,8,8,9,9,10,10,11,11,12,12,13,13,14,14,15,15,16,16,17,17,18,18,24,24,25,25,27,27,28,28,30,30,31,31,32,32],"right_children":[2,4,6,-1,-1,8,10,12,14,16,18,20,22,24,26,28,