{"learner":{"attributes":{"scikit_learn":"{\"_estimator_type\": \"classifier\"}"},"feature_names":[],"feature_types":[],"gradient_booster":{"model":{"cats":{"enc":[],"feature_segments":[],"sorted_idx":[]},"gbtree_model_param":{"num_parallel_tree":"1","num_trees":"100"},"iteration_indptr":[0,1,2,3,4,5,6,7,8,9,10,11,12,13,14,15,16,17,18,19,20,21,22,23,24,25,26,27,28,29,30,31,32,33,34,35,36,37,38,39,40,41,42,43,44,45,46,47,48,49,50,51,52,53,54,55,56,57,58,59,60,61,62,63,64,65,66,67,68,69,70,71,72,73,74,75,76,77,78,79,80,81,82,83,84,85,86,87,88,89,90,91,92,93,94,95,96,97,98,99,100],"tree_info":[0,0,0,0,0,0,0,0,0,0,0,0,0,0,0,0,0,0,0,0,0,0,0,0,0,0,0,0,0,0,0,0,0,0,0,0,0,0,0,0,0,0,0,0,0,0,0,0,0,0,0,0,0,0,0,0,0,0,0,0,0,0,0,0,0,0,0,0,0,0,0,0,0,0,0,0,0,0,0,0,0,0,0,0,0,0,0,0,0,0,0,0,0,0,0,0,0,0,0,0],"trees":[{"base_weights":[-3.4990393E-8,8.8107884E-1,-1.5255302E0,-6.182738E-1,1.3684769E0,-4.2175698E-1,-1.9098485E0,7.756863E-1,-9.109254E-1,1.9102516E0,4.929539E-1,-1.7358159E0,1.0840816E0,-1.3375883E0,-5.960331E-1,-8.534767E-1,5.46711E-1,-6.723674E-1,-5.625E-1,-4.0000004E-1,1.9519792E0,-1.1688105E0,1.4358876E0,2.9593498E-1,-5.809524E-1,1.8314271E0,-5.1111114E-1,-5.5932206E-1,-4.1940704E-1,-5E-1,3.7858906E-1,-1.1263095E0,4.668077E-1,1.0514493E0,5.933716E-1,1.134159E0,-5.818182E-1,1.651451E0,-4.909091E-1,2.2615577E-1,5.721173E-1,4.072717E-1,-5.04E-1,2.9528704E-2,-5.7983196E-1,-3.1206274E-1,4.7509742E-1,-3E-1,4.589271E-1,-3.695715E-2,5.234652E-1,5.503879E-1,-1.7296018E-1],"categories":[],"categories_nodes":[],"categories_segments":[],"categories_sizes":[],"default_left":[0,0,0,0,0,0,0,0,0,0,0,0,0,0,0,0,0,0,0,0,0,0,0,0,0,0,0,0,0,0,0,0,0,0,0,0,0,0,0,0,0,0,0,0,0,0,0,0,0,0,0,0,0],"id":0,"left_children":[1,3,5,7,9,11,13,15,17,19,21,23,25,27,-1,29,-1,31,-1,-1,33,35,37,-1,-1,39,-1,-1,41,-1,-1,43,45,47,-1,49,-1,51,-1,-1,-1,-1,-1,-1,-1,-1,-1,-1,-1,-1,-1,-1,-1],"loss_changes":[8.6224817E2,2.9801236E2,9.882141E1,4.1683758E1,1.4477148E2,1.2444323E2,4.9990234E0,3.2196846E1,1.7938362E1,2.8239807E1,1.8779141E2,2.019065E1,6.4537094E1,1.066748E1,0E0,1.5366252E1,0E0,3.59374E1,0E0,0E0,2.2960815E0,7.948378E1,5.3184174E1,0E0,0E0,4.961853E-1,0E0,0E0,2.4501513E1,0E0,0E0,4.8844055E1,3.5678604E1,8.770874E0,0E0,9.083725E0,0E0,3.0329956E1,0E0,0E0,0E0,0E0,0E0,0E0,0E0,0E0,0E0,0E0,0E0,0E0,0E0,0E0,0E0],"parents":[2147483647,0,0,1,1,2,2,3,3,4,4,5,5,6,6,7,7,8,8,9,9,10,10,11,11,12,12,13,13,15,15,17,17,20,20,21,21,22,22,25,25,28,28,31,31,32,32,33,33,35,35,37,37],"right_children":[2,4,6,8,10,12,14,16,18,20,22,24,26,28,-1,30,-1,32,-1,-1,34,36,38,-1,-1,40,-1,-1,42,-1,-1,44,46,48,-1,50,-1,52,-1,-1,-1,-1,-1,-1,-1,-1,-1,-1,-1,-1,-1,-1,-1],"split_conditions":[4.3128315E-1,-1.1606429E0,-3.8217014E-1,-7.025537E-1,-3.4863344E-1,-4.5765963E-1,1.11805834E-1,-1.9199114E0,1.1517293E0,-2.11488E0,8.137636E-1,-2.8643475E0,1.4436821E0,-5.150169E-1,-5.960331E-1,-7.069583E-1,5.46711E-1,8.4545887E-1,-5.625E-1,-4.0000004E-1,-5.456565E-1,3.940282E-2,3.9199486E-1,2.9593498E-1,-5.809524E-1,-1.11546874E-1,-5.1111114E-1,-5.5932206E-1,6.3402426E-1,-5E-1,3.7858906E-1,-2.5144005E-1,6.3297933E-1,-2.8593513E-1,5.933716E-1,2.90307E-1,-5.818182E-1,2.021958E-1,-4.909091E-1,2.2615577E-1,5.721173E-1,4.072717E-1,-5.04E-1,2.9528704E-2,-5.7983196E-1,-3.1206274E-1,4.7509742E-1,-3E-1,4.589271E-1,-3.695715E-2,5.234652E-1,5.503879E-1,-1.7296018E-1],"split_indices":[1,1,3,0,3,0,3,1,4,3,4,3,0,0,0,0,0,4,0,0,0,3,0,0,0,0,0,0,0,0,0,3,2,2,0,2,0,1,0,0,0,0,0,0,0,0,0,0,0,0,0,0,0],"split_type":[0,0,0,0,0,0,0,0,0,0,0,0,0,0,0,0,0,0,0,0,0,0,0,0,0,0,0,0,0,0,0,0,0,0,0,0,0,0,0,0,0,0,0,0,0,0,0,0,0,0,0,0,0],"sum_hessian":[6.395E2,4.056417E2,2.3385829E2,9.944786E1,3.0619385E2,6.0938503E1,1.7291978E2,1.6969252E1,8.247861E1,1.8841844E2,1.177754E2,3.2459892E1,2.847861E1,2.2669786E1,1.5025E2,6.709893E0,1.0259357E1,6.747861E1,1.5E1,2E0,1.8641844E2,4.2549465E1,7.522594E1,1.959893E0,3.05E1,2.272861E1,5.75E0,1.375E1,8.919786E0,5E0,1.709893E0,4.8259357E1,1.9219252E1,6.3796787E0,1.8003876E2,1.0549465E1,3.2E1,7.072594E1,4.5E0,2.209893E0,2.0518715E1,3.669786E0,5.25E0,1.9509357E1,2.875E1,8.209893E0,1.1009357E1,1E0,5.3796787E0,3.709893E0,6.839572E0,6.551604E1,5.209893E0],"tree_param":{"num_deleted":"0","num_feature":"6","num_nodes":"53","size_leaf_vector":"1"}},{"base_weights":[-2.8321305E-3,6.7038316E-1,-1.1791136E0,-4.2915222E-1,1.0643642E0,-3.2205138E-1,-1.4799566E0,-5.0073457E-1,-2.5196984E-1,-3.4678486E-1,1.2718232E0,-1.3368642E0,8.3300406E-1,-1.0390812E0,-4.6194223E-1,1.6682059E-1,-1.0545943E0,1.747561E-1,-4.4872168E-1,1.4301242E0,-7.256538E-1,2.4101804E-1,-4.5171416E-1,1.4261339E0,-4.0484217E-1,-4.371353E-1,-3.2197917E-1,4.9043608E-1,-7.838389E-3,2.9065165E-1,-1.1984302E0,-4.3053654E-1,6.029186E-1,8.7407446E-1,1.4906478E0,3.5106426E-1,-4.5019495E-1,1.3234763E-1,4.5177433E-1,3.2279497E-1,-4.000837E-1,9.092595E-2,-4.5951128E-1,-4.010778E-1,-1.1554288E-1,-1.9443688E-1,3.4214237E-1,4.2094654E-1,-2.2090112E-1,4.52688E-1,3.4782518E-2],"categories":[],"categories_nodes":[],"categories_segments":[],"categories_sizes":[],"default_left":[0,0,0,0,0,0,0,0,0,0,0,0,0,0,0,0,0,0,0,0,0,0,0,0,0,0,0,0,0,0,0,0,0,0,0,0,0,0,0,0,0,0,0,0,0,0,0,0,0,0,0],"id":1,"left_children":[1,3,5,7,9,11,13,-1,15,17,19,21,23,25,-1,27,29,31,-1,33,35,-1,-1,37,-1,-1,39,-1,41,-1,43,-1,45,47,49,-1,-1,-1,-1,-1,-1,-1,-1,-1,-1,-1,-1,-1,-1,-1,-1],"loss_changes":[4.7061145E2,1.6419218E2,5.52995E1,2.1641472E1,8.1988495E1,6.84915E1,2.6175842E0,0E0,3.0105667E1,2.2125984E1,7.789505E1,1.2406097E1,3.7522198E1,6.1799164E0,0E0,1.5236216E1,1.0086369E1,1.878098E1,0E0,6.2878113E0,2.8955273E1,0E0,0E0,1.0730209E0,0E0,0E0,1.4802122E1,0E0,2.6076897E1,0E0,2.7603874E0,0E0,1.5020005E1,2.1957613E1,4.910034E0,0E0,0E0,0E0,0E0,0E0,0E0,0E0,0E0,0E0,0E0,0E0,0E0,0E0,0E0,0E0,0E0],"parents":[2147483647,0,0,1,1,2,2,3,3,4,4,5,5,6,6,8,8,9,9,10,10,11,11,12,12,13,13,15,15,16,16,17,17,19,19,20,20,23,23,26,26,28,28,30,30,32,32,33,33,34,34],"right_children":[2,4,6,8,10,12,14,-1,16,18,20,22,24,26,-1,28,30,32,-1,34,36,-1,-1,38,-1,-1,40,-1,42,-1,44,-1,46,48,50,-1,-1,-1,-1,-1,-1,-1,-1,-1,-1,-1,-1,-1,-1,-1,-1],"split_conditions":[4.3128315E-1,-1.0233088E0,-3.8217014E-1,-1.7104392E0,-5.235625E-1,-4.5765963E-1,1.11805834E-1,-5.0073457E-1,5.3026867E-1,5.5363685E-1,5.7166797E-1,-2.8643475E0,1.4436821E0,-5.150169E-1,-4.6194223E-1,-1.2986407E0,-7.053707E-1,7.794281E-2,-4.4872168E-1,-3.227185E-1,-1.112906E0,2.4101804E-1,-4.5171416E-1,-1.3745261E0,-4.0484217E-1,-4.371353E-1,6.3402426E-1,4.9043608E-1,-2.3096035E-1,2.9065165E-1,-1.3669304E0,-4.3053654E-1,-8.675649E-1,-2.9804957E-1,7.3959595E-1,3.5106426E-1,-4.5019495E-1,1.3234763E-1,4.5177433E-1,3.2279497E-1,-4.000837E-1,9.092595E-2,-4.5951128E-1,-4.010778E-1,-1.1554288E-1,-1.9443688E-1,3.4214237E-1,4.2094654E-1,-2.2090112E-1,4.52688E-1,3.4782518E-2],"split_indices":[1,1,3,3,0,0,3,0,3,3,0,3,0,0,0,2,0,2,0,0,4,0,0,2,0,0,0,0,0,0,1,0,4,1,2,0,0,0,0,0,0,0,0,0,0,0,0,0,0,0,0],"split_type":[0,0,0,0,0,0,0,0,0,0,0,0,0,0,0,0,0,0,0,0,0,0,0,0,0,0,0,0,0,0,0,0,0,0,0,0,0,0,0,0,0,0,0,0,0,0,0,0,0,0,0],"sum_hessian":[5.922902E2,3.769706E2,2.1531963E2,9.9419136E1,2.7755148E2,5.6481567E1,1.5883806E2,1.1377369E1,8.804176E1,3.548802E1,2.4206346E2,2.998225E1,2.6499317E1,2.1180239E1,1.3765782E2,5.837515E1,2.9666615E1,2.4991577E1,1.0496446E1,2.2455167E2,1.7511791E1,1.917601E0,2.806465E1,2.1109077E1,5.3902397E0,1.2728293E1,8.451946E0,5.318082E0,5.3057068E1,1.5882297E0,2.8078384E1,4.7562833E0,2.0235294E1,2.3558094E1,2.0099358E2,4.9333663E0,1.2578424E1,2.0709276E0,1.903815E1,3.521719E0,4.9302273E0,4.473133E1,8.325737E0,2.344248E1,4.6359053E0,6.0198207E0,1.4215473E1,1.7829224E1,5.728871E0,1.9825499E2,2.7385786E0],"tree_param":{"num_deleted":"0","num_feature":"6","num_nodes":"51","size_leaf_vector":"1"}},{"base_weights":[-6.2866774E-3,5.462153E-1,-1.0153699E0,-3.6856353E-1,8.800188E-1,-2.72708E-1,-1.2803608E0,6.0907817E-1,-5.75089E-1,1.283938E0,2.5878266E-1,-1.1396633E0,7.001575E-1,-8.8371384E-1,-4.0066233E-1,-5.7970417E-1,4.094412E-1,-3.9492828E-1,-4.0692925E-1,-3.2455292E-1,1.3204178E0,-8.60611E-1,9.1179687E-1,2.0090915E-1,-3.902946E-1,1.2149277E0,-3.462788E-1,-3.7603796E-1,-2.6720917E-1,-3.7358335E-1,3.0141804E-1,-7.5198406E-1,4.5998552E-1,9.885327E-2,3.9911273E-1,6.995785E-1,-4.200422E-1,1.1152431E0,-6.593544E-1,1.0859067E-1,3.879562E-1,2.6817492E-1,-3.420713E-1,3.7748232E-2,-4.234819E-1,-2.0323083E-1,3.7938726E-1,-4.0585373E-2,3.524216E-1,3.6005896E-1,-2.690124E-1,-3.9705646E-1,2.776077E-1],"categories":[],"categories_nodes":[],"categories_segments":[],"categories_sizes":[],"default_left":[0,0,0,0,0,0,0,0,0,0,0,0,0,0,0,0,0,0,0,0,0,0,0,0,0,0,0,0,0,0,0,0,0,0,0,0,0,0,0,0,0,0,0,0,0,0,0,0,0,0,0,0,0],"id":2,"left_children":[1,3,5,7,9,11,13,15,17,19,21,23,25,27,-1,29,-1,31,-1,-1,33,35,37,-1,-1,39,-1,-1,41,-1,-1,43,45,-1,-1,47,-1,49,51,-1,-1,-1,-1,-1,-1,-1,-1,-1,-1,-1,-1,-1,-1],"loss_changes":[2.8777267E2,1.0217566E2,3.5590515E1,1.8497314E1,6.1062897E1,4.2375816E1,1.7597351E0,1.5309982E1,9.981997E0,1.4202789E1,7.21684E1,8.590855E0,2.4168247E1,4.078311E0,0E0,8.614838E0,0E0,1.9310495E1,0E0,0E0,1.0044098E0,3.169877E1,2.0604805E1,0E0,0E0,8.104801E-1,0E0,0E0,9.665314E0,0E0,0E0,2.577274E1,1.8175987E1,0E0,0E0,4.1433163E0,0E0,1.0546371E1,9.386793E0,0E0,0E0,0E0,0E0,0E0,0E0,0E0,0E0,0E0,0E0,0E0,0E0,0E0,0E0],"parents":[2147483647,0,0,1,1,2,2,3,3,4,4,5,5,6,6,7,7,8,8,9,9,10,10,11,11,12,12,13,13,15,15,17,17,20,20,21,21,22,22,25,25,28,28,31,31,32,32,35,35,37,37,38,38],"right_children":[2,4,6,8,10,12,14,16,18,20,22,24,26,28,-1,30,-1,32,-1,-1,34,36,38,-1,-1,40,-1,-1,42,-1,-1,44,46,-1,-1,48,-1,50,52,-1,-1,-1,-1,-1,-1,-1,-1,-1,-1,-1,-1,-1,-1],"split_conditions":[4.3128315E-1,-1.1606429E0,-3.8217014E-1,-7.025537E-1,-3.4863344E-1,-4.5765963E-1,1.11805834E-1,-1.9199114E0,1.1517293E0,-2.11488E0,8.137636E-1,-2.8643475E0,1.4436821E0,-5.150169E-1,-4.0066233E-1,-7.069583E-1,4.094412E-1,8.4545887E-1,-4.0692925E-1,-3.2455292E-1,-1.8216441E0,3.940282E-2,2.021958E-1,2.0090915E-1,-3.902946E-1,-1.3745261E0,-3.462788E-1,-3.7603796E-1,6.3402426E-1,-3.7358335E-1,3.0141804E-1,-2.5144005E-1,6.3297933E-1,9.885327E-2,3.9911273E-1,2.90307E-1,-4.200422E-1,2.3016496E-1,1.2726053E0,1.0859067E-1,3.879562E-1,2.6817492E-1,-3.420713E-1,3.7748232E-2,-4.234819E-1,-2.0323083E-1,3.7938726E-1,-4.0585373E-2,3.524216E-1,3.6005896E-1,-2.690124E-1,-3.9705646E-1,2.776077E-1],"split_indices":[1,1,3,0,3,0,3,1,4,3,4,3,0,0,0,0,0,4,0,0,2,3,1,0,0,2,0,0,0,0,0,3,2,0,0,2,0,0,4,0,0,0,0,0,0,0,0,0,0,0,0,0,0],"split_type":[0,0,0,0,0,0,0,0,0,0,0,0,0,0,0,0,0,0,0,0,0,0,0,0,0,0,0,0,0,0,0,0,0,0,0,0,0,0,0,0,0,0,0,0,0,0,0,0,0,0,0,0,0],"sum_hessian":[5.141704E2,3.32549E2,1.8162141E2,8.8877815E1,2.436712E2,4.8296116E1,1.3332529E2,1.5160848E1,7.3716965E1,1.470164E2,9.66548E1,2.5447493E1,2.2848623E1,1.8360573E1,1.1496472E2,5.982729E0,9.178119E0,6.1127678E1,1.2589286E1,1.7973754E0,1.4521902E2,3.5493725E1,6.1161076E1,1.8251457E0,2.3622347E1,1.8154066E1,4.694556E0,1.0831347E1,7.529225E0,4.363713E0,1.6190159E0,4.320391E1,1.7923769E1,1.7840012E0,1.4343503E2,9.044002E0,2.6449724E1,5.4406258E1,6.754819E0,1.9984109E0,1.6155655E1,3.221162E0,4.308063E0,1.8883451E1,2.432046E1,7.4917135E0,1.0432055E1,3.5398035E0,5.5041986E0,5.2589176E1,1.8170784E0,4.876045E0,1.8787733E0],"tree_param":{"num_deleted":"0","num_feature":"6","num_nodes":"53","size_leaf_vector":"1"}},{"base_weights":[-8.781574E-3,4.7194925E-1,-9.1815764E-1,-1.8151899E-1,8.3854747E-1,-2.414807E-1,-1.1646638E0,5.708805E-2,-3.8753033E-1,9.7756565E-1,-6.925993E-1,-3.5833678E-1,4.8533207E-1,-7.839248E-1,-3.6578983E-1,-1.103379E0,3.0727762E-1,1.2965355E-2,1.166191E0,6.8067527E-1,-3.6641797E-1,8.361972E-1,-3.0721647E-1,-3.4014213E-1,-2.378813E-1,-2.9436156E-1,-4.292591E-1,-3.6304772E-1,6.3725364E-1,4.20405E-1,-7.599812E-1,1.1821636E0,3.4682103E-2,6.0624547E-2,2.616987E-1,-1.1028849E-1,3.5743436E-1,-2.7556404E-1,3.2716894E-1,-2.993587E-1,2.3328035E-1,1.18759E-1,-3.660522E-1,3.1003466E-1,-1.783033E-1,-3.492648E-1,2.2737108E-1,9.23934E-2,-3.3979937E-1,5.1800035E-2,3.5774606E-1,-3.25234E-1,2.922078E-1,2.2782199E-1,-1.970066E-1],"categories":[],"categories_nodes":[],"categories_segments":[],"categories_sizes":[],"default_left":[0,0,0,0,0,0,0,0,0,0,0,0,0,0,0,0,0,0,0,0,0,0,0,0,0,0,0,0,0,0,0,0,0,0,0,0,0,0,0,0,0,0,0,0,0,0,0,0,0,0,0,0,0,0,0],"id":3,"left_children":[1,3,5,7,9,11,13,15,-1,17,19,-1,21,23,-1,25,27,29,31,33,-1,35,-1,-1,37,39,-1,41,43,45,47,49,-1,-1,-1,51,-1,-1,53,-1,-1,-1,-1,-1,-1,-1,-1,-1,-1,-1,-1,-1,-1,-1,-1],"loss_changes":[1.874125E2,6.73387E1,2.4447754E1,2.6992823E1,3.89579E1,2.887187E1,1.2991638E0,2.4900715E1,0E0,3.0058731E1,1.2126904E1,0E0,1.3505302E1,2.8643417E0,0E0,3.6116638E0,1.5797792E1,9.152096E0,2.183075E0,2.792673E-1,0E0,6.832679E0,0E0,0E0,3.2511773E0,5.0331078E0,0E0,1.5998514E1,2.3803322E1,1.1048657E1,4.3436823E0,1.2120819E0,0E0,0E0,0E0,7.7656574E0,0E0,0E0,2.594922E0,0E0,0E0,0E0,0E0,0E0,0E0,0E0,0E0,0E0,0E0,0E0,0E0,0E0,0E0,0E0,0E0],"parents":[2147483647,0,0,1,1,2,2,3,3,4,4,5,5,6,6,7,7,9,9,10,10,12,12,13,13,15,15,16,16,17,17,18,18,19,19,21,21,24,24,25,25,27,27,28,28,29,29,30,30,31,31,35,35,38,38],"right_children":[2,4,6,8,10,12,14,16,-1,18,20,-1,22,24,-1,26,28,30,32,34,-1,36,-1,-1,38,40,-1,42,44,46,48,50,-1,-1,-1,52,-1,-1,54,-1,-1,-1,-1,-1,-1,-1,-1,-1,-1,-1,-1,-1,-1,-1,-1],"split_conditions":[4.3128315E-1,-3.227185E-1,-3.8217014E-1,6.0673946E-1,5.7166797E-1,-5.209023E-1,1.11805834E-1,-4.1489044E-1,-3.8753033E-1,-9.673007E-1,-7.22726E-1,-3.5833678E-1,1.4436821E0,7.84649E-1,-3.6578983E-1,-2.095009E0,7.795126E-1,4.1132042E-1,7.3959595E-1,1.4436821E0,-3.6641797E-1,-1.0401527E0,-3.0721647E-1,-3.4014213E-1,-6.02531E-1,-2.102399E0,-4.292591E-1,9.225327E-2,9.660778E-1,-1.4428294E0,-3.051981E-1,-1.5997082E0,3.4682103E-2,6.0624547E-2,2.616987E-1,-1.11546874E-1,3.5743436E-1,-2.7556404E-1,6.3402426E-1,-2.993587E-1,2.3328035E-1,1.18759E-1,-3.660522E-1,3.1003466E-1,-1.783033E-1,-3.492648E-1,2.2737108E-1,9.23934E-2,-3.3979937E-1,5.1800035E-2,3.5774606E-1,-3.25234E-1,2.922078E-1,2.2782199E-1,-1.970066E-1],"split_indices":[1,0,3,3,0,0,3,2,0,1,3,0,0,4,0,1,4,3,2,0,0,2,0,0,0,1,0,3,4,4,0,3,0,0,0,0,0,0,0,0,0,0,0,0,0,0,0,0,0,0,0,0,0,0,0],"split_type":[0,0,0,0,0,0,0,0,0,0,0,0,0,0,0,0,0,0,0,0,0,0,0,0,0,0,0,0,0,0,0,0,0,0,0,0,0,0,0,0,0,0,0,0,0,0,0,0,0,0,0,0,0,0,0],"sum_hessian":[4.2670844E2,2.7945755E2,1.4725089E2,1.0061473E2,1.788428E2,3.9847176E1,1.0740371E2,8.359718E1,1.7017553E1,1.6428807E2,1.4554743E1,1.6962732E1,2.2884443E1,1.5404282E1,9.199943E1,1.4221714E1,6.9375465E1,2.7046303E1,1.3724176E2,3.9665124E0,1.0588231E1,1.8930052E1,3.95439E0,8.732469E0,6.6718125E0,4.645165E0,9.576549E0,2.285228E1,4.6523186E1,1.8009266E1,9.037037E0,1.350631E2,2.1786735E0,1.7216516E0,2.244861E0,5.354292E0,1.357576E1,2.7425299E0,3.9292827E0,2.846324E0,1.7988411E0,1.2405996E1,1.0446284E1,3.5321445E1,1.120174E1,2.73208E0,1.5277185E1,2.3827271E0,6.6543097E0,1.5466423E0,1.3351645E2,2.8209646E0,2.5333273E0,2.8884394E0,1.0408432E0],"tree_param":{"num_deleted":"0","num_feature":"6","num_nodes":"55","size_leaf_vector":"1"}},{"base_weights":[-1.5494565E-2,4.0366134E-1,-8.5614836E-1,-2.7742532E-1,7.006628E-1,-2.908541E-1,-1.1194296E0,5.4327065E-1,-4.4792682E-1,1.0746765E0,1.6527638E-1,-3.3655852E-1,3.7074122E-1,-3.4660628E-1,-7.062116E-1,-4.1919628E-1,3.463199E-1,1.6892621E-2,-6.778614E-1,-2.6548466E-1,1.1149659E0,-6.9531024E-1,7.222362E-1,7.9509467E-1,-2.9970428E-1,1.7862946E-1,-3.0346137E-1,-3.0425987E-1,2.4773727E-1,-3.669274E-1,6.4914834E-1,-1.0956466E0,-1.0503867E-1,4.9004728E-1,1.142035E0,5.099355E-1,-1.1386402E0,1.0198817E0,-1.3165389E-1,-9.723467E-2,3.3421564E-1,2.659406E-1,-2.6457736E-1,-3.9088908E-1,-1.2555628E-1,-3.3053404E-1,2.568477E-1,2.2494063E-1,-2.3883106E-2,3.4494823E-1,9.197343E-2,-4.3644715E-2,2.9008907E-1,-3.6388633E-1,-9.223909E-3,-8.6303025E-2,3.3190328E-1,-4.3903962E-1,1.5326844E-1,-2.914295E-1,2.6074073E-1],"categories":[],"categories_nodes":[],"categories_segments":[],"categories_sizes":[],"default_left":[0,0,0,0,0,0,0,0,0,0,0,0,0,0,0,0,0,0,0,0,0,0,0,0,0,0,0,0,0,0,0,0,0,0,0,0,0,0,0,0,0,0,0,0,0,0,0,0,0,0,0,0,0,0,0,0,0,0,0,0,0],"id":4,"left_children":[1,3,5,7,9,11,13,15,17,19,21,-1,23,-1,25,27,-1,29,31,-1,33,35,37,39,-1,-1,-1,-1,-1,-1,41,43,45,47,49,51,53,55,57,59,-1,-1,-1,-1,-1,-1,-1,-1,-1,-1,-1,-1,-1,-1,-1,-1,-1,-1,-1,-1,-1],"loss_changes":[1.2483801E2,4.8021416E1,1.7217155E1,1.0389826E1,3.2847115E1,2.175022E1,3.7261963E-1,8.086273E0,6.4867897E0,8.638184E0,3.3579983E1,0E0,1.3788961E1,0E0,4.1697526E0,5.0993257E0,0E0,1.727901E1,9.591372E0,0E0,1.0541916E0,1.5340839E1,1.0907156E1,5.124674E0,0E0,0E0,0E0,0E0,0E0,0E0,6.079358E0,2.7321758E0,1.839125E1,9.049859E-1,2.3789978E-1,2.5727656E0,1.650917E0,3.884594E0,1.0881242E1,5.5420356E0,0E0,0E0,0E0,0E0,0E0,0E0,0E0,0E0,0E0,0E0,0E0,0E0,0E0,0E0,0E0,0E0,0E0,0E0,0E0,0E0,0E0],"parents":[2147483647,0,0,1,1,2,2,3,3,4,4,5,5,6,6,7,7,8,8,9,9,10,10,12,12,14,14,15,15,17,17,18,18,20,20,21,21,22,22,23,23,30,30,31,31,32,32,33,33,34,34,35,35,36,36,37,37,38,38,39,39],"right_children":[2,4,6,8,10,12,14,16,18,20,22,-1,24,-1,26,28,-1,30,32,-1,34,36,38,40,-1,-1,-1,-1,-1,-1,42,44,46,48,50,52,54,56,58,60,-1,-1,-1,-1,-1,-1,-1,-1,-1,-1,-1,-1,-1,-1,-1,-1,-1,-1,-1,-1,-1],"split_conditions":[4.3128315E-1,-1.1606429E0,-8.49065E-2,-7.025537E-1,-3.4863344E-1,-5.209023E-1,1.2414292E0,-1.9199114E0,-1.0572005E-1,-2.11488E0,8.287458E-1,-3.3655852E-1,1.4436821E0,-3.4660628E-1,-3.56013E-1,-7.069583E-1,3.463199E-1,-1.7104392E0,6.5322065E-1,-2.6548466E-1,-5.456565E-1,3.940282E-2,9.660778E-1,-1.0401527E0,-2.9970428E-1,1.7862946E-1,-3.0346137E-1,-3.0425987E-1,2.4773727E-1,-3.669274E-1,-1.4885018E0,-2.5455657E-1,8.4545887E-1,-6.537535E-1,1.4963741E0,2.90307E-1,8.137636E-1,3.3277836E-1,-4.322262E-1,-1.11546874E-1,3.3421564E-1,2.659406E-1,-2.6457736E-1,-3.9088908E-1,-1.2555628E-1,-3.3053404E-1,2.568477E-1,2.2494063E-1,-2.3883106E-2,3.4494823E-1,9.197343E-2,-4.3644715E-2,2.9008907E-1,-3.6388633E-1,-9.223909E-3,-8.6303025E-2,3.3190328E-1,-4.3903962E-1,1.5326844E-1,-2.914295E-1,2.6074073E-1],"split_indices":[1,1,3,0,3,0,4,1,2,3,4,0,0,0,2,0,0,3,2,0,0,3,4,2,0,0,0,0,0,0,1,0,4,0,0,2,4,3,0,0,0,0,0,0,0,0,0,0,0,0,0,0,0,0,0,0,0,0,0,0,0],"split_type":[0,0,0,0,0,0,0,0,0,0,0,0,0,0,0,0,0,0,0,0,0,0,0,0,0,0,0,0,0,0,0,0,0,0,0,0,0,0,0,0,0,0,0,0,0,0,0,0,0,0,0,0,0,0,0,0,0,0,0,0,0],"sum_hessian":[3.523053E2,2.354354E2,1.1686993E2,7.151117E1,1.6392422E2,3.7804398E1,7.906553E1,1.1924962E1,5.958621E1,9.591323E1,6.801099E1,1.644841E1,2.1355988E1,7.1089134E1,7.9763923E0,4.7532043E0,7.1717577E0,2.0027191E1,3.9559013E1,1.5098749E0,9.440335E1,2.6624199E1,4.138679E1,1.6625044E1,4.7309422E0,1.3349957E0,6.6413965E0,3.3415751E0,1.4116292E0,6.44761E0,1.3579581E1,2.2347366E1,1.7211649E1,4.7125535E0,8.96908E1,7.119297E0,1.9504902E1,3.0545107E1,1.0841683E1,4.5607724E0,1.2064272E1,1.21217E1,1.457881E0,1.6401447E1,5.9459186E0,8.377796E0,8.833853E0,3.0194843E0,1.6930692E0,8.848917E1,1.2016312E0,3.2048874E0,3.9144096E0,1.8189947E1,1.314956E0,1.7501833E0,2.8794924E1,3.1125998E0,7.729084E0,2.3918357E0,2.1689367E0],"tree_param":{"num_deleted":"0","num_feature":"6","num_nodes":"61","size_leaf_vector":"1"}},{"base_weights":[-1.8863881E-2,3.5599548E-1,-8.107402E-1,-2.2641091E-1,6.485101E-1,-2.7545914E-1,-1.0651137E0,-6.4637E-1,4.428129E-2,1.0060674E0,1.5497512E-1,-3.1736255E-1,3.33721E-1,-3.3126685E-1,-6.3352656E-1,2.4410012E-1,-9.884994E-1,3.1390685E-1,-1.522133E-1,-2.2994514E-1,1.0457109E0,-5.742097E-1,6.073414E-1,7.3116267E-1,-2.7514794E-1,1.5586865E-1,-2.8278977E-1,-2.862247E-1,2.8069967E-1,-4.2386013E-1,-3.9381057E-1,4.0005243E-1,-3.6369264E-1,3.584949E-1,1.094387E0,5.438184E-1,-1.0309589E0,7.7008647E-1,-2.768424E-1,-8.639351E-2,3.1191352E-1,-3.2430303E-1,2.7091193E-1,-2.8442475E-1,2.979476E-1,-2.474999E-1,4.612292E-2,-2.94814E-1,2.4991032E-1,6.415645E-2,3.3148515E-1,7.146752E-3,2.6535907E-1,-3.3609974E-1,-7.628802E-3,-2.19441E-2,3.0186892E-1,-2.6299676E-1,2.3525722E-1],"categories":[],"categories_nodes":[],"categories_segments":[],"categories_sizes":[],"default_left":[0,0,0,0,0,0,0,0,0,0,0,0,0,0,0,0,0,0,0,0,0,0,0,0,0,0,0,0,0,0,0,0,0,0,0,0,0,0,0,0,0,0,0,0,0,0,0,0,0,0,0,0,0,0,0,0,0,0,0],"id":5,"left_children":[1,3,5,7,9,11,13,15,17,19,21,-1,23,-1,25,27,29,-1,31,-1,33,35,37,39,-1,-1,-1,-1,-1,41,-1,43,45,47,49,51,53,55,-1,57,-1,-1,-1,-1,-1,-1,-1,-1,-1,-1,-1,-1,-1,-1,-1,-1,-1,-1,-1],"loss_changes":[8.535098E1,3.339894E1,1.2284225E1,7.531228E0,2.281776E1,1.5178759E1,3.514557E-1,8.14137E0,8.245391E0,6.093651E0,1.8779795E1,0E0,9.743054E0,0E0,3.1699505E0,7.5213428E0,2.9091568E0,0E0,4.257439E0,0E0,2.0859528E0,1.1747366E1,9.418811E0,3.72361E0,0E0,0E0,0E0,0E0,0E0,8.285146E0,0E0,9.117361E0,6.328698E0,4.8841066E0,4.0270233E-1,1.2206023E0,1.4002304E0,6.475939E0,0E0,4.038142E0,0E0,0E0,0E0,0E0,0E0,0E0,0E0,0E0,0E0,0E0,0E0,0E0,0E0,0E0,0E0,0E0,0E0,0E0,0E0],"parents":[2147483647,0,0,1,1,2,2,3,3,4,4,5,5,6,6,7,7,8,8,9,9,10,10,12,12,14,14,15,15,16,16,18,18,20,20,21,21,22,22,23,23,29,29,31,31,32,32,33,33,34,34,35,35,36,36,37,37,39,39],"right_children":[2,4,6,8,10,12,14,16,18,20,22,-1,24,-1,26,28,30,-1,32,-1,34,36,38,40,-1,-1,-1,-1,-1,42,-1,44,46,48,50,52,54,56,-1,58,-1,-1,-1,-1,-1,-1,-1,-1,-1,-1,-1,-1,-1,-1,-1,-1,-1,-1,-1],"split_conditions":[4.3128315E-1,-1.0233088E0,-8.49065E-2,-1.8870882E0,-3.4863344E-1,-5.209023E-1,1.2414292E0,-1.0138394E0,-7.053707E-1,-2.11488E0,8.287458E-1,-3.1736255E-1,1.4436821E0,-3.3126685E-1,-3.56013E-1,-1.3318095E0,-6.1846864E-1,3.1390685E-1,-1.0572005E-1,-2.2994514E-1,-5.209023E-1,3.940282E-2,3.9199486E-1,-1.0401527E0,-2.7514794E-1,1.5586865E-1,-2.8278977E-1,-2.862247E-1,2.8069967E-1,-6.280688E-1,-3.9381057E-1,-1.0503788E0,6.4866894E-1,-2.8593513E-1,-1.8216441E0,2.90307E-1,8.137636E-1,-5.150169E-1,-2.768424E-1,-1.11546874E-1,3.1191352E-1,-3.2430303E-1,2.7091193E-1,-2.8442475E-1,2.979476E-1,-2.474999E-1,4.612292E-2,-2.94814E-1,2.4991032E-1,6.415645E-2,3.3148515E-1,7.146752E-3,2.6535907E-1,-3.3609974E-1,-7.628802E-3,-2.19441E-2,3.0186892E-1,-2.6299676E-1,2.3525722E-1],"split_indices":[1,1,3,1,3,0,4,4,0,3,4,0,0,0,2,4,0,0,2,0,0,3,0,2,0,0,0,0,0,0,0,3,2,2,2,2,4,0,0,0,0,0,0,0,0,0,0,0,0,0,0,0,0,0,0,0,0,0,0],"split_type":[0,0,0,0,0,0,0,0,0,0,0,0,0,0,0,0,0,0,0,0,0,0,0,0,0,0,0,0,0,0,0,0,0,0,0,0,0,0,0,0,0,0,0,0,0,0,0,0,0,0,0,0,0,0,0,0,0,0,0],"sum_hessian":[2.855575E2,1.941846E2,9.13729E1,6.49978E1,1.291868E2,3.010516E1,6.126774E1,2.4931135E1,4.006667E1,7.431119E1,5.487561E1,1.2856295E1,1.7248865E1,5.474811E1,6.5196266E0,6.9996004E0,1.7931536E1,5.859504E0,3.4207165E1,1.2245479E0,7.308664E1,2.0906446E1,3.3969162E1,1.3405139E1,3.8437257E0,1.2343082E0,5.2853184E0,2.4226327E0,4.5769677E0,7.38209E0,1.0549445E1,9.224983E0,2.4982182E1,5.38767E0,6.769897E1,6.008426E0,1.489802E1,3.1152538E1,2.816625E0,3.8702412E0,9.534898E0,5.060953E0,2.3211367E0,2.635643E0,6.58934E0,1.2893184E1,1.2088998E1,1.1281792E0,4.259491E0,1.0543786E0,6.6644585E1,2.8019686E0,3.2064576E0,1.3577087E1,1.3209323E0,6.96648E0,2.4186058E1,2.025051E0,1.84519E0],"tree_param":{"num_deleted":"0","num_feature":"6","num_nodes":"59","size_leaf_vector":"1"}},{"base_weights":[-2.1074975E-2,3.1389353E-1,-7.7487206E-1,-1.679777E-1,6.165734E-1,-2.6346123E-1,-1.0231557E0,9.8939305E-3,-3.2908225E-1,7.578534E-1,-5.95285E-1,-3.0147544E-1,3.0146444E-1,-3.2001483E-1,-5.6865233E-1,-3.293737E-1,6.37644E-1,3.8215593E-2,9.729043E-1,4.3326184E-1,-3.1833947E-1,6.773941E-1,-2.5402448E-1,-2.6636076E-1,1.4384842E-1,-8.578562E-2,-3.5227284E-1,-4.8670226E-1,1.0031005E0,5.739523E-1,-4.6295965E-1,9.9553376E-1,1.1347603E-2,2.2230369E-1,-5.462724E-2,-8.751003E-2,2.9443252E-1,-2.4531728E-1,1.1712016E-1,1.9292581E-1,-2.741765E-1,4.9223863E-2,3.165823E-1,-8.6165726E-2,3.4296635E-1,1.6207299E-1,-2.874155E-1,3.1453317E-1,2.2015694E-1,-2.3834813E-1,2.1031363E-1],"categories":[],"categories_nodes":[],"categories_segments":[],"categories_sizes":[],"default_left":[0,0,0,0,0,0,0,0,0,0,0,0,0,0,0,0,0,0,0,0,0,0,0,0,0,0,0,0,0,0,0,0,0,0,0,0,0,0,0,0,0,0,0,0,0,0,0,0,0,0,0],"id":6,"left_children":[1,3,5,7,9,11,13,15,-1,17,19,-1,21,-1,23,25,27,29,31,33,-1,35,-1,-1,-1,37,-1,39,41,43,45,47,-1,-1,-1,49,-1,-1,-1,-1,-1,-1,-1,-1,-1,-1,-1,-1,-1,-1,-1],"loss_changes":[5.911906E1,2.3753164E1,8.875946E0,1.0477284E1,1.7538853E1,1.0727067E1,3.4649658E-1,1.1743489E1,0E0,1.3863903E1,5.7210484E0,0E0,7.0024877E0,0E0,2.5510218E0,7.2698026E0,8.434992E0,6.0941167E0,1.4248734E0,9.176286E-1,0E0,2.8245673E0,0E0,0E0,0E0,1.0384339E1,0E0,3.2025833E0,4.800787E-1,5.6907873E0,6.362982E0,1.6439056E-1,0E0,0E0,0E0,2.9361491E0,0E0,0E0,0E0,0E0,0E0,0E0,0E0,0E0,0E0,0E0,0E0,0E0,0E0,0E0,0E0],"parents":[2147483647,0,0,1,1,2,2,3,3,4,4,5,5,6,6,7,7,9,9,10,10,12,12,14,14,15,15,16,16,17,17,18,18,19,19,21,21,25,25,27,27,28,28,29,29,30,30,31,31,35,35],"right_children":[2,4,6,8,10,12,14,16,-1,18,20,-1,22,-1,24,26,28,30,32,34,-1,36,-1,-1,-1,38,-1,40,42,44,46,48,-1,-1,-1,50,-1,-1,-1,-1,-1,-1,-1,-1,-1,-1,-1,-1,-1,-1,-1],"split_conditions":[4.3128315E-1,-3.312807E-1,-8.49065E-2,6.0673946E-1,4.4077504E-1,-5.209023E-1,1.2414292E0,6.3100547E-1,-3.2908225E-1,-9.673007E-1,-7.22726E-1,-3.0147544E-1,1.4436821E0,-3.2001483E-1,-6.0159296E-1,2.7302265E-1,8.0379975E-1,-2.3096035E-1,7.3959595E-1,-1.112906E0,-3.1833947E-1,-1.11546874E-1,-2.5402448E-1,-2.6636076E-1,1.4384842E-1,-1.6839549E-1,-3.5227284E-1,-2.381713E0,-7.1185845E-1,-1.6541895E0,-1.2986407E0,2.47668E-1,1.1347603E-2,2.2230369E-1,-5.462724E-2,-1.0401527E0,2.9443252E-1,-2.4531728E-1,1.1712016E-1,1.9292581E-1,-2.741765E-1,4.9223863E-2,3.165823E-1,-8.6165726E-2,3.4296635E-1,1.6207299E-1,-2.874155E-1,3.1453317E-1,2.2015694E-1,-2.3834813E-1,2.1031363E-1],"split_indices":[1,0,3,3,0,0,4,2,0,1,3,0,0,0,0,3,4,0,2,4,0,0,0,0,0,2,0,1,0,1,2,3,0,0,0,2,0,0,0,0,0,0,0,0,0,0,0,0,0,0,0],"split_type":[0,0,0,0,0,0,0,0,0,0,0,0,0,0,0,0,0,0,0,0,0,0,0,0,0,0,0,0,0,0,0,0,0,0,0,0,0,0,0,0,0,0,0,0,0,0,0,0,0,0,0],"sum_hessian":[2.321732E2,1.6114708E2,7.102613E1,6.2342247E1,9.8804825E1,2.3886406E1,4.713973E1,5.315402E1,9.188227E0,8.882423E1,9.980604E0,9.992518E0,1.38938875E1,4.1787724E1,5.352006E0,3.4814064E1,1.8339956E1,2.0707424E1,6.81168E1,3.133053E0,6.8475513E0,1.0775867E1,3.1180203E0,4.2197747E0,1.1322315E0,2.7877974E1,6.936089E0,4.4175043E0,1.3922451E1,9.938424E0,1.0769001E1,6.644416E1,1.6726382E0,1.9524069E0,1.1806462E0,3.2676067E0,7.508261E0,1.070549E1,1.7172485E1,1.0734545E0,3.3440497E0,1.057726E0,1.2864725E1,4.1523476E0,5.786077E0,3.5283406E0,7.24066E0,5.276803E1,1.3676134E1,1.7189457E0,1.548661E0],"tree_param":{"num_deleted":"0","num_feature":"6","num_nodes":"51","size_leaf_vector":"1"}},{"base_weights":[-2.318702E-2,2.734628E-1,-7.4402696E-1,-1.9638768E-1,5.3267914E-1,-3.163819E-1,-3.085991E-1,4.6350417E-1,-3.205171E-1,9.0889096E-1,8.6010374E-2,-2.9403937E-1,2.1378279E-1,-2.8778735E-1,2.7925846E-1,-5.665902E-1,3.5420477E-3,-2.1298335E-1,9.6389604E-1,-5.370815E-1,5.0229925E-1,5.974604E-1,-2.4901973E-1,-2.2698511E-1,1.5802115E-1,-3.463965E-2,-9.6710646E-1,5.316202E-1,-5.035629E-1,4.1530964E-1,1.0241739E0,3.580532E-1,-9.676009E-1,8.345289E-1,-2.4170594E-1,-9.83753E-2,8.4172297E-1,-2.0952266E-1,1.6684738E-1,-3.4393695E-1,-8.845352E-2,-4.0443953E-2,2.857119E-1,9.92182E-2,-3.0478585E-1,-3.7644744E-2,2.0526062E-1,3.117817E-1,9.5963255E-2,-3.8866166E-2,2.3892549E-1,-3.1576842E-1,-3.5535723E-2,-1.3074806E-1,2.8770274E-1,1.751124E-1,-2.4673675E-1,-2.1667127E-1,1.8793513E-1,2.7856544E-1,5.639695E-2],"categories":[],"categories_nodes":[],"categories_segments":[],"categories_sizes":[],"default_left":[0,0,0,0,0,0,0,0,0,0,0,0,0,0,0,0,0,0,0,0,0,0,0,0,0,0,0,0,0,0,0,0,0,0,0,0,0,0,0,0,0,0,0,0,0,0,0,0,0,0,0,0,0,0,0,0,0,0,0,0,0],"id":7,"left_children":[1,3,5,7,9,11,-1,13,15,17,19,-1,21,23,-1,25,27,-1,29,31,33,35,-1,-1,-1,37,39,41,43,45,47,49,51,53,55,57,59,-1,-1,-1,-1,-1,-1,-1,-1,-1,-1,-1,-1,-1,-1,-1,-1,-1,-1,-1,-1,-1,-1,-1,-1],"loss_changes":[4.117872E1,1.6727356E1,6.5075455E0,4.18328E0,1.4747654E1,8.611624E0,0E0,3.149665E0,3.355122E0,4.9393806E0,1.1018966E1,0E0,6.140993E0,1.8921974E0,0E0,5.059961E0,5.393926E0,0E0,1.1169205E0,6.9290094E0,6.470177E0,1.933425E0,0E0,0E0,0E0,4.821985E0,1.3018627E0,2.8942492E0,4.729995E0,1.0018923E0,1.0715866E-1,1.4449155E0,7.26902E-1,3.2257824E0,4.604436E0,2.136581E0,2.888379E-1,0E0,0E0,0E0,0E0,0E0,0E0,0E0,0E0,0E0,0E0,0E0,0E0,0E0,0E0,0E0,0E0,0E0,0E0,0E0,0E0,0E0,0E0,0E0,0E0],"parents":[2147483647,0,0,1,1,2,2,3,3,4,4,5,5,7,7,8,8,9,9,10,10,12,12,13,13,15,15,16,16,18,18,19,19,20,20,21,21,25,25,26,26,27,27,28,28,29,29,30,30,31,31,32,32,33,33,34,34,35,35,36,36],"right_children":[2,4,6,8,10,12,-1,14,16,18,20,-1,22,24,-1,26,28,-1,30,32,34,36,-1,-1,-1,38,40,42,44,46,48,50,52,54,56,58,60,-1,-1,-1,-1,-1,-1,-1,-1,-1,-1,-1,-1,-1,-1,-1,-1,-1,-1,-1,-1,-1,-1,-1,-1],"split_conditions":[4.3128315E-1,-1.1606429E0,1.11805834E-1,-7.025537E-1,-3.4863344E-1,-5.150169E-1,-3.085991E-1,-1.9199114E0,-3.227185E-1,-2.11488E0,8.287458E-1,-2.9403937E-1,1.4436821E0,-7.0782566E-1,2.7925846E-1,-5.996428E-1,-2.3096035E-1,-2.1298335E-1,-5.209023E-1,3.940282E-2,9.660778E-1,-1.0401527E0,-2.4901973E-1,-2.2698511E-1,1.5802115E-1,-6.271215E-1,6.7484665E-1,-1.6541895E0,-1.2986407E0,-2.8593513E-1,1.3694379E0,2.90307E-1,8.137636E-1,3.3277836E-1,2.47668E-1,-1.11546874E-1,-8.49065E-2,-2.0952266E-1,1.6684738E-1,-3.4393695E-1,-8.845352E-2,-4.0443953E-2,2.857119E-1,9.92182E-2,-3.0478585E-1,-3.7644744E-2,2.0526062E-1,3.117817E-1,9.5963255E-2,-3.8866166E-2,2.3892549E-1,-3.1576842E-1,-3.5535723E-2,-1.3074806E-1,2.8770274E-1,1.751124E-1,-2.4673675E-1,-2.1667127E-1,1.8793513E-1,2.7856544E-1,5.639695E-2],"split_indices":[1,1,3,0,3,0,0,1,0,3,4,0,0,0,0,0,0,0,0,3,4,2,0,0,0,0,2,1,2,2,0,2,4,3,3,0,3,0,0,0,0,0,0,0,0,0,0,0,0,0,0,0,0,0,0,0,0,0,0,0,0],"split_type":[0,0,0,0,0,0,0,0,0,0,0,0,0,0,0,0,0,0,0,0,0,0,0,0,0,0,0,0,0,0,0,0,0,0,0,0,0,0,0,0,0,0,0,0,0,0,0,0,0,0,0,0,0,0,0,0,0,0,0,0,0],"sum_hessian":[1.9061908E2,1.3548366E2,5.5135433E1,4.8256767E1,8.722688E1,2.28766E1,3.2258835E1,7.2073417E0,4.1049427E1,4.678602E1,4.044087E1,9.78161E0,1.3094992E1,2.9113996E0,4.295942E0,2.2906809E1,1.8142616E1,1.1461842E0,4.563983E1,1.6081007E1,2.435986E1,9.888139E0,3.206853E0,1.892941E0,1.0184586E0,1.0305681E1,1.2601128E1,8.863839E0,9.278778E0,5.2994723E0,4.034036E1,5.277132E0,1.0803876E1,1.6755949E1,7.6039095E0,2.724385E0,7.1637535E0,4.7673507E0,5.53833E0,9.3905E0,3.2106276E0,3.6934104E0,5.1704288E0,3.6653209E0,5.613457E0,1.9370477E0,3.3624246E0,3.902808E1,1.3122821E0,2.8317497E0,2.445382E0,9.603463E0,1.2004128E0,1.2721474E0,1.5483803E1,3.1383336E0,4.4655757E0,1.4660859E0,1.2582991E0,5.9527326E0,1.211021E0],"tree_param":{"num_deleted":"0","num_feature":"6","num_nodes":"61","size_leaf_vector":"1"}},{"base_weights":[-2.3324175E-2,2.407272E-1,-7.143597E-1,3.3179846E-1,-2.7707753E-1,-2.9774997E-1,-3.0102116E-1,-3.0059764E-1,4.0410185E-1,-2.812449E-1,1.9213222E-1,8.364422E-1,1.3917793E-1,5.475941E-1,-2.3149803E-1,1.0132196E0,1.7060316E-1,-4.142872E-1,3.8892475E-1,-9.987299E-2,7.7964073E-1,1.00066674E-4,3.1440863E-1,-1.72171E-1,1.2578402E-1,1.23702526E-1,-2.8475234E-1,1.7451435E-1,-2.6794607E-2,-1.9747652E-1,1.6862024E-1,2.6387358E-1,4.7963742E-2],"categories":[],"categories_nodes":[],"categories_segments":[],"categories_sizes":[],"default_left":[0,0,0,0,0,0,0,0,0,0,0,0,0,0,0,0,0,0,0,0,0,0,0,0,0,0,0,0,0,0,0,0,0],"id":8,"left_children":[1,3,5,7,-1,9,-1,-1,11,-1,13,15,17,19,-1,21,23,25,27,29,31,-1,-1,-1,-1,-1,-1,-1,-1,-1,-1,-1,-1],"loss_changes":[2.8903728E1,1.2466238E1,4.973776E0,1.0732665E1,0E0,6.246434E0,0E0,0E0,1.1600573E1,0E0,4.462476E0,4.378626E0,9.094681E0,1.460073E0,0E0,1.0698395E0,1.9652106E0,9.490874E0,4.205562E0,1.594774E0,2.8588533E-1,0E0,0E0,0E0,0E0,0E0,0E0,0E0,0E0,0E0,0E0,0E0,0E0],"parents":[2147483647,0,0,1,1,2,2,3,3,5,5,8,8,10,10,11,11,12,12,13,13,15,15,16,16,17,17,18,18,19,19,20,20],"right_children":[2,4,6,8,-1,10,-1,-1,12,-1,14,16,18,20,-1,22,24,26,28,30,32,-1,-1,-1,-1,-1,-1,-1,-1,-1,-1,-1,-1],"split_conditions":[4.3128315E-1,6.4390916E-1,1.11805834E-1,-1.9025908E0,-2.7707753E-1,-5.150169E-1,-3.0102116E-1,-3.0059764E-1,-5.333226E-1,-2.812449E-1,1.4436821E0,-9.2115057E-1,5.6775963E-1,-1.11546874E-1,-2.3149803E-1,-1.4428294E0,-7.266714E-2,-4.3622967E-2,9.660778E-1,-1.0401527E0,-8.49065E-2,1.00066674E-4,3.1440863E-1,-1.72171E-1,1.2578402E-1,1.23702526E-1,-2.8475234E-1,1.7451435E-1,-2.6794607E-2,-1.9747652E-1,1.6862024E-1,2.6387358E-1,4.7963742E-2],"split_indices":[1,3,3,3,0,0,0,0,3,0,0,4,4,0,0,4,4,2,4,2,3,0,0,0,0,0,0,0,0,0,0,0,0],"split_type":[0,0,0,0,0,0,0,0,0,0,0,0,0,0,0,0,0,0,0,0,0,0,0,0,0,0,0,0,0,0,0,0,0],"sum_hessian":[1.5646117E2,1.1367607E2,4.2785088E1,1.0609269E2,7.5833817E0,1.8356836E1,2.4428251E1,4.7942543E0,1.0129844E2,7.564599E0,1.0792237E1,3.766845E1,6.362999E1,8.199841E0,2.5923972E0,2.9353498E1,8.314949E0,1.9579947E1,4.4050045E1,2.3136866E0,5.886154E0,1.0087975E0,2.8344702E1,1.7544688E0,6.5604806E0,7.7822123E0,1.1797734E1,3.1240076E1,1.2809968E1,1.2580347E0,1.0556519E0,4.7077923E0,1.1783614E0],"tree_param":{"num_deleted":"0","num_feature":"6","num_nodes":"33","size_leaf_vector":"1"}},{"base_weights":[-2.8043633E-2,1.9666517E-1,-6.85182E-1,-1.635149E-1,4.776534E-1,-2.798696E-1,-2.939732E-1,-3.2307237E-2,-2.873191E-1,6.1787593E-1,-5.821686E-1,-2.684876E-1,1.7121649E-1,-2.6679847E-1,5.539999E-1,6.572932E-2,8.4650743E-1,8.450626E-2,-2.8452352E-1,5.001693E-1,-2.1482687E-1,6.125938E-1,-4.0386918E-1,-2.6655245E-1,2.6402962E-1,-2.3637573E-1,2.3280692E-1,3.064863E-1,9.56148E-1,-3.215983E-2,7.1895856E-1,4.5752797E-2,2.2719829E-1,-1.3372827E-2,-2.1730733E-1,1.8674143E-1,-2.3184553E-1,2.0610206E-1,-1.0540794E-1,2.5750178E-1,-3.0970928E-1,2.947214E-1,1.04575865E-1,2.5439417E-1,3.6041033E-2],"categories":[],"categories_nodes":[],"categories_segments":[],"categories_sizes":[],"default_left":[0,0,0,0,0,0,0,0,0,0,0,0,0,0,0,0,0,0,0,0,0,0,0,0,0,0,0,0,0,0,0,0,0,0,0,0,0,0,0,0,0,0,0,0,0],"id":9,"left_children":[1,3,5,7,9,11,-1,13,-1,15,17,-1,19,21,23,25,27,-1,-1,29,-1,31,33,35,-1,-1,37,39,41,-1,43,-1,-1,-1,-1,-1,-1,-1,-1,-1,-1,-1,-1,-1,-1],"loss_changes":[1.9908247E1,1.0255727E1,3.8284988E0,4.6392217E0,8.79292E0,4.5535955E0,0E0,5.578003E0,0E0,6.3321705E0,2.5278988E0,0E0,3.273767E0,3.7295558E0,3.3408906E0,2.4513953E0,1.8206768E0,0E0,0E0,1.1236928E0,0E0,1.7036474E-1,2.9149857E0,2.3124404E0,0E0,0E0,3.9747162E0,6.4250154E0,1.2340927E-1,0E0,3.555162E-1,0E0,0E0,0E0,0E0,0E0,0E0,0E0,0E0,0E0,0E0,0E0,0E0,0E0,0E0],"parents":[2147483647,0,0,1,1,2,2,3,3,4,4,5,5,7,7,9,9,10,10,12,12,13,13,14,14,15,15,16,16,19,19,21,21,22,22,23,23,26,26,27,27,28,28,30,30],"right_children":[2,4,6,8,10,12,-1,14,-1,16,18,-1,20,22,24,26,28,-1,-1,30,-1,32,34,36,-1,-1,38,40,42,-1,44,-1,-1,-1,-1,-1,-1,-1,-1,-1,-1,-1,-1,-1,-1],"split_conditions":[4.3128315E-1,-3.227185E-1,1.11805834E-1,6.0673946E-1,4.4077504E-1,-5.150169E-1,-2.939732E-1,6.7484665E-1,-2.873191E-1,-9.673007E-1,-7.22726E-1,-2.684876E-1,1.4436821E0,-7.474045E-1,8.0379975E-1,-1.4428294E0,-2.0118707E-1,8.450626E-2,-2.8452352E-1,-1.0401527E0,-2.1482687E-1,3.5021475E-1,-2.932956E-1,-2.381713E0,2.6402962E-1,-2.3637573E-1,2.7498505E-1,5.804994E-2,9.876291E-1,-3.215983E-2,7.794281E-2,4.5752797E-2,2.2719829E-1,-1.3372827E-2,-2.1730733E-1,1.8674143E-1,-2.3184553E-1,2.0610206E-1,-1.0540794E-1,2.5750178E-1,-3.0970928E-1,2.947214E-1,1.04575865E-1,2.5439417E-1,3.6041033E-2],"split_indices":[1,0,3,3,0,0,0,2,0,1,3,0,0,0,4,4,0,0,0,2,0,2,3,1,0,0,2,2,4,0,2,0,0,0,0,0,0,0,0,0,0,0,0,0,0],"split_type":[0,0,0,0,0,0,0,0,0,0,0,0,0,0,0,0,0,0,0,0,0,0,0,0,0,0,0,0,0,0,0,0,0,0,0,0,0,0,0,0,0,0,0,0,0],"sum_hessian":[1.3290799E2,9.956307E1,3.334492E1,4.381615E1,5.5746925E1,1.485956E1,1.848536E1,3.849697E1,5.319181E0,4.9601295E1,6.1456285E0,5.870581E0,8.988979E0,2.788816E1,1.0608809E1,1.4901517E1,3.469978E1,1.8985049E0,4.2471237E0,6.876096E0,2.1128833E0,3.2929156E0,2.4595245E1,3.0689945E0,7.5398145E0,1.8309207E0,1.3070597E1,6.4966598E0,2.8203117E1,1.9560494E0,4.9200463E0,1.2794573E0,2.0134583E0,1.2132659E1,1.2462586E1,1.0302676E0,2.0387268E0,7.2542467E0,5.81635E0,4.854578E0,1.6420817E0,2.6443369E1,1.7597488E0,3.7055647E0,1.2144816E0],"tree_param":{"num_deleted":"0","num_feature":"6","num_nodes":"45","size_leaf_vector":"1"}},{"base_weights":[-2.7161326E-2,1.6781512E-1,-6.48957E-1,-1.4213136E-1,4.1385064E-1,-2.5730106E-1,-2.868753E-1,1.7611714E-2,-7.2028625E-1,5.369761E-1,-5.1741284E-1,-2.5536057E-1,1.4661224E-1,-2.9834384E-1,5.334577E-1,1.1476092E-1,-3.1390744E-1,1.8854938E-2,7.8751534E-1,8.763182E-2,-2.700706E-1,4.381016E-1,-1.9893603E-1,7.214025E-2,-2.841307E-1,7.211373E-1,-2.141204E-1,-3.381352E-1,3.9578998E-1,8.7520677E-1,1.8293105E-1,-4.7270384E-2,6.691213E-1,1.7880958E-1,-1.4183687E-1,8.64649E-2,2.5537062E-1,5.019554E-2,-2.8010228E-1,-1.8404986E-1,1.9718826E-1,2.9169673E-1,1.0364809E-1,-2.995759E-1,2.4591683E-1,2.415968E-1,1.3268052E-2],"categories":[],"categories_nodes":[],"categories_segments":[],"categories_sizes":[],"default_left":[0,0,0,0,0,0,0,0,0,0,0,0,0,0,0,0,0,0,0,0,0,0,0,0,0,0,0,0,0,0,0,0,0,0,0,0,0,0,0,0,0,0,0,0,0,0,0],"id":10,"left_children":[1,3,5,7,9,11,-1,13,15,17,19,-1,21,23,25,-1,-1,27,29,-1,-1,31,-1,33,-1,35,-1,37,39,41,43,-1,45,-1,-1,-1,-1,-1,-1,-1,-1,-1,-1,-1,-1,-1,-1],"loss_changes":[1.3936424E1,6.7407475E0,3.0555162E0,3.6625657E0,5.908127E0,3.346137E0,0E0,5.364934E0,3.485353E0,5.6785994E0,2.1977663E0,0E0,2.378389E0,4.983411E0,3.4385133E0,0E0,0E0,2.1953712E0,1.4059944E0,0E0,0E0,1.0833765E0,0E0,4.2629933E0,0E0,3.941784E-1,0E0,2.6870642E0,2.4916847E0,9.776039E-1,4.585027E0,0E0,4.1642904E-1,0E0,0E0,0E0,0E0,0E0,0E0,0E0,0E0,0E0,0E0,0E0,0E0,0E0,0E0],"parents":[2147483647,0,0,1,1,2,2,3,3,4,4,5,5,7,7,8,8,9,9,10,10,12,12,13,13,14,14,17,17,18,18,21,21,23,23,25,25,27,27,28,28,29,29,30,30,32,32],"right_children":[2,4,6,8,10,12,-1,14,16,18,20,-1,22,24,26,-1,-1,28,30,-1,-1,32,-1,34,-1,36,-1,38,40,42,44,-1,46,-1,-1,-1,-1,-1,-1,-1,-1,-1,-1,-1,-1,-1,-1],"split_conditions":[4.3128315E-1,-3.312807E-1,1.11805834E-1,9.660778E-1,4.4077504E-1,-5.150169E-1,-2.868753E-1,8.058316E-1,-7.474045E-1,-9.673007E-1,-1.0249189E0,-2.5536057E-1,1.4436821E0,9.225327E-2,-2.9804957E-1,1.1476092E-1,-3.1390744E-1,5.6775963E-1,6.8291014E-1,8.763182E-2,-2.700706E-1,-1.11546874E-1,-1.9893603E-1,-5.996428E-1,-2.841307E-1,6.3100547E-1,-2.141204E-1,-1.0138394E0,-1.7161114E0,2.47668E-1,8.667577E-1,-4.7270384E-2,-8.49065E-2,1.7880958E-1,-1.4183687E-1,8.64649E-2,2.5537062E-1,5.019554E-2,-2.8010228E-1,-1.8404986E-1,1.9718826E-1,2.9169673E-1,1.0364809E-1,-2.995759E-1,2.4591683E-1,2.415968E-1,1.3268052E-2],"split_indices":[1,0,3,4,0,0,0,4,0,1,4,0,0,3,1,0,0,4,2,0,0,0,0,0,0,2,0,4,1,3,4,0,3,0,0,0,0,0,0,0,0,0,0,0,0,0,0],"split_type":[0,0,0,0,0,0,0,0,0,0,0,0,0,0,0,0,0,0,0,0,0,0,0,0,0,0,0,0,0,0,0,0,0,0,0,0,0,0,0,0,0,0,0,0,0,0,0],"sum_hessian":[1.1305502E2,8.662282E1,2.6432201E1,3.851958E1,4.8103237E1,1.2428719E1,1.4003484E1,3.094036E1,7.5792227E0,4.2859966E1,5.24327E0,4.582854E0,7.8458643E0,1.9449305E1,1.1491054E1,1.6900524E0,5.8891706E0,1.4320365E1,2.85396E1,1.7595278E0,3.483742E0,6.106564E0,1.7393004E0,1.2945417E1,6.503888E0,1.0354659E1,1.136395E0,7.4076314E0,6.9127336E0,2.4533539E1,4.006063E0,1.7953405E0,4.3112235E0,6.5523024E0,6.3931146E0,3.1356583E0,7.2190003E0,4.395809E0,3.011822E0,1.1455152E0,5.767218E0,2.0026405E1,4.5071325E0,1.2039938E0,2.802069E0,3.3026485E0,1.0085752E0],"tree_param":{"num_deleted":"0","num_feature":"6","num_nodes":"47","size_leaf_vector":"1"}},{"base_weights":[-3.2998472E-2,1.3692611E-1,-6.135138E-1,-2.748886E-1,2.0195809E-1,-2.3867878E-1,-2.7927282E-1,6.499848E-1,-4.5232424E-3,-2.4169941E-1,1.22831196E-1,2.7753314E-1,2.76088E-2,-6.625526E-1,1.0509283E-1,3.835228E-1,-1.8388696E-1,-3.7467206E-1,4.4295955E-1,-8.773142E-1,9.0561606E-2,1.8633416E-1,-2.4507023E-1,-4.3629453E-2,6.117114E-1,1.16204716E-1,-2.9744375E-1,-7.883597E-2,2.2230455E-1,-2.856926E-1,-8.377077E-2,-2.8290981E-2,1.3700818E-1,2.3169433E-1,4.6874294E-3],"categories":[],"categories_nodes":[],"categories_segments":[],"categories_sizes":[],"default_left":[0,0,0,0,0,0,0,0,0,0,0,0,0,0,0,0,0,0,0,0,0,0,0,0,0,0,0,0,0,0,0,0,0,0,0],"id":11,"left_children":[1,3,5,-1,7,9,-1,11,13,-1,15,-1,17,19,21,23,-1,25,27,29,-1,31,-1,-1,33,-1,-1,-1,-1,-1,-1,-1,-1,-1,-1],"loss_changes":[9.6448145E0,5.3763885E0,2.4105139E0,0E0,6.682583E0,2.4543176E0,0E0,3.8761225E0,3.7064044E0,0E0,1.7474935E0,0E0,1.5052869E0,1.7843902E0,3.4541917E0,8.659349E-1,0E0,2.5525649E0,1.1207005E0,1.4695168E-2,0E0,3.1786923E0,0E0,0E0,4.368446E-1,0E0,0E0,0E0,0E0,0E0,0E0,0E0,0E0,0E0,0E0],"parents":[2147483647,0,0,1,1,2,2,4,4,5,5,7,7,8,8,10,10,12,12,13,13,14,14,15,15,17,17,18,18,19,19,21,21,24,24],"right_children":[2,4,6,-1,8,10,-1,12,14,-1,16,-1,18,20,22,24,-1,26,28,30,-1,32,-1,-1,34,-1,-1,-1,-1,-1,-1,-1,-1,-1,-1],"split_conditions":[4.3128315E-1,-1.9025908E0,1.11805834E-1,-2.748886E-1,-5.333226E-1,-5.150169E-1,-2.7927282E-1,-9.2115057E-1,-1.8870882E0,-2.4169941E-1,1.4436821E0,2.7753314E-1,-8.5362273E-1,8.0199647E-1,3.9199486E-1,-1.0401527E0,-1.8388696E-1,-6.1846864E-1,-5.209023E-1,6.9633776E-1,9.0561606E-2,8.4545887E-1,-2.4507023E-1,-4.3629453E-2,7.794281E-2,1.16204716E-1,-2.9744375E-1,-7.883597E-2,2.2230455E-1,-2.856926E-1,-8.377077E-2,-2.8290981E-2,1.3700818E-1,2.3169433E-1,4.6874294E-3],"split_indices":[1,3,3,0,3,0,0,4,1,0,0,0,1,2,0,2,0,0,0,2,0,4,0,0,2,0,0,0,0,0,0,0,0,0,0],"split_type":[0,0,0,0,0,0,0,0,0,0,0,0,0,0,0,0,0,0,0,0,0,0,0,0,0,0,0,0,0,0,0,0,0,0,0],"sum_hessian":[9.592252E1,7.479358E1,2.1128946E1,3.5883737E0,7.12052E1,1.0491169E1,1.0637778E1,2.1785892E1,4.941931E1,3.6063786E0,6.8847904E0,1.4770205E1,7.0156875E0,6.336538E0,4.308277E1,5.4371514E0,1.4476389E0,3.6136687E0,3.4020188E0,5.2563567E0,1.0801811E0,4.0327244E1,2.7555282E0,1.7479565E0,3.689195E0,1.7829591E0,1.8307095E0,1.0452858E0,2.3567328E0,4.1443996E0,1.111957E0,2.0107035E1,2.0220207E1,2.6732914E0,1.0159035E0],"tree_param":{"num_deleted":"0","num_feature":"6","num_nodes":"35","size_leaf_vector":"1"}},{"base_weights":[-3.8954794E-2,-3.5711443E-1,2.0410149E-1,-1.9665418E-2,-8.989602E-1,3.7953663E-1,-7.116408E-1,1.24999925E-1,-2.2104467E-1,-4.7027767E-2,-2.8321964E-1,-8.697949E-2,6.524644E-1,2.0261154E-2,-2.683457E-1,-5.008475E-1,2.9906225E-1,-4.2686087E-1,2.3783962E-1,2.725174E-1,4.0729412E-1,1.7235763E-2,-2.4994037E-1,-2.4493368E-1,4.34594E-1,4.366703E-2,-2.648386E-1,2.2977443E-1,-3.9461872E-1,-3.0429938E-1,5.8657813E-1,-2.1391483E-1,1.11011274E-1,2.374772E-1,6.302137E-2,-1.969962E-1,1.3416204E-1,1.6032642E-1,-2.436308E-1,4.855751E-2,-1.761879E-1,2.1730053E-1,6.057329E-2],"categories":[],"categories_nodes":[],"categories_segments":[],"categories_sizes":[],"default_left":[0,0,0,0,0,0,0,0,0,0,0,0,0,0,0,0,0,0,0,0,0,0,0,0,0,0,0,0,0,0,0,0,0,0,0,0,0,0,0,0,0,0,0],"id":12,"left_children":[1,3,5,7,9,11,13,15,-1,-1,-1,17,19,-1,-1,21,23,25,27,-1,29,-1,-1,31,33,35,-1,-1,37,39,41,-1,-1,-1,-1,-1,-1,-1,-1,-1,-1,-1,-1],"loss_changes":[6.701578E0,6.836735E0,8.17926E0,2.5948057E0,3.3288383E-1,5.400362E0,1.2376342E0,2.429695E0,0E0,0E0,0E0,1.9090792E0,1.2987652E0,0E0,0E0,9.6209323E-1,1.3598924E0,1.8317404E0,3.312817E0,0E0,2.142673E0,0E0,0E0,1.424105E0,9.5349264E-1,1.7254578E0,0E0,0E0,2.2808456E0,5.906513E-1,5.2350664E-1,0E0,0E0,0E0,0E0,0E0,0E0,0E0,0E0,0E0,0E0,0E0,0E0],"parents":[2147483647,0,0,1,1,2,2,3,3,4,4,5,5,6,6,7,7,11,11,12,12,15,15,16,16,17,17,18,18,20,20,23,23,24,24,25,25,28,28,29,29,30,30],"right_children":[2,4,6,8,10,12,14,16,-1,-1,-1,18,20,-1,-1,22,24,26,28,-1,30,-1,-1,32,34,36,-1,-1,38,40,42,-1,-1,-1,-1,-1,-1,-1,-1,-1,-1,-1,-1],"split_conditions":[-4.322262E-1,2.8671797E-2,6.3402426E-1,5.710431E-1,-1.9025908E0,-9.673007E-1,-7.22726E-1,-4.1489044E-1,-2.2104467E-1,-4.7027767E-2,-2.8321964E-1,5.6775963E-1,-9.082905E-1,2.0261154E-2,-2.683457E-1,-2.095009E0,-1.8870882E0,-1.0572005E-1,9.261218E-1,2.725174E-1,7.758468E-1,1.7235763E-2,-2.4994037E-1,6.0773504E-1,-1.5345128E0,-1.496286E0,-2.648386E-1,2.2977443E-1,-1.2623128E0,7.794281E-2,6.8291014E-1,-2.1391483E-1,1.11011274E-1,2.374772E-1,6.302137E-2,-1.969962E-1,1.3416204E-1,1.6032642E-1,-2.436308E-1,4.855751E-2,-1.761879E-1,2.1730053E-1,6.057329E-2],"split_indices":[0,1,0,3,3,1,3,2,0,0,0,4,4,0,0,1,1,2,4,0,4,0,0,2,1,3,0,0,2,2,2,0,0,0,0,0,0,0,0,0,0,0,0],"split_type":[0,0,0,0,0,0,0,0,0,0,0,0,0,0,0,0,0,0,0,0,0,0,0,0,0,0,0,0,0,0,0,0,0,0,0,0,0,0,0,0,0,0,0],"sum_hessian":[8.471874E1,3.6487495E1,4.8231243E1,2.3123196E1,1.33643E1,4.0968216E1,7.2630258E0,1.9928806E1,3.19439E0,1.0220474E0,1.2342253E1,1.5372784E1,2.5595434E1,1.500292E0,5.762734E0,3.9280295E0,1.6000776E1,7.358701E0,8.014083E0,1.119946E1,1.4395974E1,1.7741867E0,2.153843E0,3.030357E0,1.297042E1,4.0663853E0,3.292316E0,4.2524557E0,3.761627E0,2.7567794E0,1.16391945E1,1.6300668E0,1.40029E0,4.032689E0,8.937731E0,1.2572545E0,2.8091304E0,1.079432E0,2.682195E0,1.2030762E0,1.5537031E0,7.919903E0,3.7192917E0],"tree_param":{"num_deleted":"0","num_feature":"6","num_nodes":"43","size_leaf_vector":"1"}},{"base_weights":[-4.1619644E-2,8.531869E-2,-5.560174E-1,-2.4288182E-1,1.4003137E-1,-5.8087047E-2,-7.7345145E-1,4.8030752E-1,-1.0099329E-1,-4.5566612E-1,3.2612634E-1,-2.613418E-1,-1.926302E-2,5.986435E-1,-2.1559957E-1,-5.035622E-1,1.9584212E-1,-1.6431746E-1,-3.901225E-2,1.2912895E-1,2.663186E-2,6.830393E-2,7.055728E-1,2.3331463E-1,-9.306503E-1,-2.9782587E-1,5.5528086E-1,1.8995313E-1,-1.02567844E-1,-4.5877986E-2,2.541931E-1,-6.4992115E-2,2.1292292E-1,-3.0650476E-1,-3.61863E-2,8.120046E-2,-2.80501E-1,2.2233905E-1,-1.8683583E-1],"categories":[],"categories_nodes":[],"categories_segments":[],"categories_sizes":[],"default_left":[0,0,0,0,0,0,0,0,0,0,0,0,0,0,0,0,0,0,0,0,0,0,0,0,0,0,0,0,0,0,0,0,0,0,0,0,0,0,0],"id":13,"left_children":[1,3,5,-1,7,9,11,13,15,17,19,-1,-1,21,-1,23,25,-1,-1,-1,-1,27,29,31,33,35,37,-1,-1,-1,-1,-1,-1,-1,-1,-1,-1,-1,-1],"loss_changes":[4.879842E0,3.0622454E0,1.5553718E0,0E0,4.7732563E0,1.0000433E0,6.512604E-1,3.8438797E0,4.2270503E0,2.3392975E-2,4.63942E-2,0E0,0E0,1.2245874E0,0E0,4.9198036E0,3.821721E0,0E0,0E0,0E0,0E0,1.3456318E0,2.3893194E0,1.5005343E0,5.8910465E-1,3.6336646E0,3.1486564E0,0E0,0E0,0E0,0E0,0E0,0E0,0E0,0E0,0E0,0E0,0E0,0E0],"parents":[2147483647,0,0,1,1,2,2,4,4,5,5,6,6,7,7,8,8,9,9,10,10,13,13,15,15,16,16,21,21,22,22,23,23,24,24,25,25,26,26],"right_children":[2,4,6,-1,8,10,12,14,16,18,20,-1,-1,22,-1,24,26,-1,-1,-1,-1,28,30,32,34,36,38,-1,-1,-1,-1,-1,-1,-1,-1,-1,-1,-1,-1],"split_conditions":[4.3128315E-1,-1.9025908E0,-6.2123805E-1,-2.4288182E-1,-2.5144005E-1,-4.5765963E-1,1.2414292E0,8.737563E-1,8.287458E-1,-1.0401527E0,-9.4317955E-1,-2.613418E-1,-1.926302E-2,-1.8870882E0,-2.1559957E-1,9.225327E-2,6.0206234E-1,-1.6431746E-1,-3.901225E-2,1.2912895E-1,2.663186E-2,-1.2986407E0,-6.54333E-1,2.90307E-1,6.7939684E-2,2.7302265E-1,9.876291E-1,1.8995313E-1,-1.02567844E-1,-4.5877986E-2,2.541931E-1,-6.4992115E-2,2.1292292E-1,-3.0650476E-1,-3.61863E-2,8.120046E-2,-2.80501E-1,2.2233905E-1,-1.8683583E-1],"split_indices":[1,3,3,0,3,0,4,4,4,2,4,0,0,1,0,3,2,0,0,0,0,2,2,2,0,3,4,0,0,0,0,0,0,0,0,0,0,0,0],"split_type":[0,0,0,0,0,0,0,0,0,0,0,0,0,0,0,0,0,0,0,0,0,0,0,0,0,0,0,0,0,0,0,0,0,0,0,0,0,0,0],"sum_hessian":[7.3006744E1,5.9225708E1,1.3781036E1,2.6173186E0,5.660839E1,4.573876E0,9.20716E0,2.3059895E1,3.3548496E1,2.156444E0,2.417432E0,7.891895E0,1.3152655E0,2.144411E1,1.6157838E0,1.39428E1,1.9605696E1,1.149417E0,1.0070269E0,1.1143036E0,1.3031286E0,3.873149E0,1.7570961E1,5.282442E0,8.660357E0,8.332673E0,1.1273023E1,1.4006921E0,2.472457E0,2.4786875E0,1.5092274E1,2.9971318E0,2.28531E0,7.550528E0,1.1098297E0,4.707668E0,3.625005E0,1.0057298E1,1.2157243E0],"tree_param":{"num_deleted":"0","num_feature":"6","num_nodes":"39","size_leaf_vector":"1"}},{"base_weights":[-4.747523E-2,-2.9439595E-1,1.8705298E-1,-5.9792664E-2,-7.3803556E-1,3.6528182E-1,-6.420714E-1,-2.3569196E-1,2.6878336E-1,2.2928223E-2,-2.5769833E-1,-1.4871475E-1,4.476729E-1,1.9532464E-2,-2.5088844E-1,1.24879636E-1,-7.838492E-1,-9.591847E-2,2.1176562E-1,7.677266E-1,1.1633245E-1,3.4728998E-1,-2.1255477E-1,-2.7405962E-1,-4.850488E-2,-1.6097292E-1,2.2421663E-1,8.884959E-1,2.816464E-1,-2.3458543E-1,3.6404303E-1,-3.5789102E-2,2.2625695E-1,1.14643745E-1,2.5727649E-3,7.888921E-2,2.7983046E-1,-6.315321E-2,1.762151E-1,1.4587554E-1,-1.1593617E-1],"categories":[],"categories_nodes":[],"categories_segments":[],"categories_sizes":[],"default_left":[0,0,0,0,0,0,0,0,0,0,0,0,0,0,0,0,0,0,0,0,0,0,0,0,0,0,0,0,0,0,0,0,0,0,0,0,0,0,0,0,0],"id":14,"left_children":[1,3,5,7,9,11,13,15,17,-1,-1,-1,19,-1,-1,21,23,25,-1,27,29,31,-1,-1,-1,-1,33,35,37,-1,39,-1,-1,-1,-1,-1,-1,-1,-1,-1,-1],"loss_changes":[3.7683573E0,3.2472966E0,5.184617E0,1.3217832E0,1.1346145E0,2.2229795E0,9.1828823E-1,3.0061922E0,1.3524351E0,0E0,0E0,0E0,2.6965632E0,0E0,0E0,2.05115E0,3.3445954E-1,8.6428666E-1,0E0,5.2371407E-1,3.41903E0,1.6767958E0,0E0,0E0,0E0,0E0,1.2477063E-1,3.4317017E-2,7.3875844E-1,0E0,1.2631793E0,0E0,0E0,0E0,0E0,0E0,0E0,0E0,0E0,0E0,0E0],"parents":[2147483647,0,0,1,1,2,2,3,3,4,4,5,5,6,6,7,7,8,8,12,12,15,15,16,16,17,17,19,19,20,20,21,21,26,26,27,27,28,28,30,30],"right_children":[2,4,6,8,10,12,14,16,18,-1,-1,-1,20,-1,-1,22,24,26,-1,28,30,32,-1,-1,-1,-1,34,36,38,-1,40,-1,-1,-1,-1,-1,-1,-1,-1,-1,-1],"split_conditions":[-3.312807E-1,2.8671797E-2,6.3402426E-1,-1.1606429E0,-1.7762709E0,-1.496286E0,-1.084423E0,-5.996428E-1,-5.329158E-1,2.2928223E-2,-2.5769833E-1,-1.4871475E-1,1.1011366E-1,1.9532464E-2,-2.5088844E-1,-1.3902141E0,5.9917116E-1,-8.675649E-1,2.1176562E-1,-9.082905E-1,5.6775963E-1,-1.8870882E0,-2.1255477E-1,-2.7405962E-1,-4.850488E-2,-1.6097292E-1,-1.3548729E-1,-1.437631E0,1.0864124E0,-2.3458543E-1,2.3016496E-1,-3.5789102E-2,2.2625695E-1,1.14643745E-1,2.5727649E-3,7.888921E-2,2.7983046E-1,-6.315321E-2,1.762151E-1,1.4587554E-1,-1.1593617E-1],"split_indices":[0,1,0,1,3,3,4,0,0,0,0,0,2,0,0,1,3,4,0,4,4,1,0,0,0,0,3,4,4,0,0,0,0,0,0,0,0,0,0,0,0],"split_type":[0,0,0,0,0,0,0,0,0,0,0,0,0,0,0,0,0,0,0,0,0,0,0,0,0,0,0,0,0,0,0,0,0,0,0,0,0,0,0,0,0],"sum_hessian":[6.3121872E1,3.0624207E1,3.2497665E1,2.0773596E1,9.850612E0,2.720838E1,5.2892857E0,1.3714426E1,7.0591693E0,1.3213823E0,8.529229E0,1.9381225E0,2.5270258E1,1.282909E0,4.0063763E0,8.738514E0,4.975912E0,4.273814E0,2.7853553E0,1.2184132E1,1.3086126E1,7.3581176E0,1.3803961E0,3.7301085E0,1.2458036E0,1.5138894E0,2.7599247E0,9.096241E0,3.0878901E0,2.3624294E0,1.0723697E1,3.7569191E0,3.6011982E0,1.1474348E0,1.6124897E0,1.0599328E0,8.036308E0,1.3025653E0,1.7853248E0,9.524799E0,1.198897E0],"tree_param":{"num_deleted":"0","num_feature":"6","num_nodes":"41","size_leaf_vector":"1"}},{"base_weights":[-4.749547E-2,1.9017203E-2,-2.1815799E-1,-2.2610722E-1,8.553425E-2,3.2948324E-1,-1.12273745E-1,4.3180117E-1,-1.8305072E-1,-4.2608732E-1,1.720632E-1,9.9847965E-2,6.6603667E-1,2.248425E-1,-8.0203277E-1,-3.0725533E-1,3.4332988E-1,-8.156497E-2,1.3743617E-1,3.1971254E-3,2.2794975E-1,-6.1505567E-2,1.9527692E-1,-2.7332443E-1,-6.86918E-2,2.4134074E-1,-3.6099214E-2],"categories":[],"categories_nodes":[],"categories_segments":[],"categories_sizes":[],"default_left":[0,0,0,0,0,0,0,0,0,0,0,0,0,0,0,0,0,0,0,0,0,0,0,0,0,0,0],"id":15,"left_children":[1,3,-1,-1,5,7,9,11,-1,13,15,17,19,21,23,-1,25,-1,-1,-1,-1,-1,-1,-1,-1,-1,-1],"loss_changes":[2.5650678E0,2.7565598E0,0E0,0E0,2.407465E0,2.4027164E0,2.560407E0,1.5392408E0,0E0,3.4931424E0,3.4935787E0,1.4190611E0,7.253456E-1,1.1842499E0,3.4132862E-1,0E0,3.1252446E0,0E0,0E0,0E0,0E0,0E0,0E0,0E0,0E0,0E0,0E0],"parents":[2147483647,0,0,1,1,4,4,5,5,6,6,7,7,9,9,10,10,11,11,12,12,13,13,14,14,16,16],"right_children":[2,4,-1,-1,6,8,10,12,-1,14,16,18,20,22,24,-1,26,-1,-1,-1,-1,-1,-1,-1,-1,-1,-1],"split_conditions":[6.4390916E-1,-1.4413993E0,-2.1815799E-1,-2.2610722E-1,-2.5144005E-1,8.737563E-1,8.5058635E-1,-3.227185E-1,-1.8305072E-1,9.225327E-2,-6.226324E-2,-1.6839549E-1,-1.4544249E0,3.113067E-1,8.1916505E-1,-3.0725533E-1,9.660778E-1,-8.156497E-2,1.3743617E-1,3.1971254E-3,2.2794975E-1,-6.1505567E-2,1.9527692E-1,-2.7332443E-1,-6.86918E-2,2.4134074E-1,-3.6099214E-2],"split_indices":[3,2,0,0,3,4,4,0,0,3,3,2,3,2,4,0,4,0,0,0,0,0,0,0,0,0,0],"split_type":[0,0,0,0,0,0,0,0,0,0,0,0,0,0,0,0,0,0,0,0,0,0,0,0,0,0,0],"sum_hessian":[5.5432697E1,5.1377144E1,4.055553E0,3.2533376E0,4.8123806E1,2.1250593E1,2.6873213E1,1.9651253E1,1.5993407E0,1.2537475E1,1.4335738E1,8.7198925E0,1.093136E1,4.737196E0,7.8002787E0,1.1717004E0,1.3164038E1,4.397906E0,4.321987E0,1.5080163E0,9.423344E0,2.616404E0,2.1207922E0,6.0576954E0,1.7425833E0,6.231443E0,6.9325953E0],"tree_param":{"num_deleted":"0","num_feature":"6","num_nodes":"27","size_leaf_vector":"1"}},{"base_weights":[-5.025477E-2,9.998871E-2,-3.2167742E-1,-2.0079817E-1,1.8841931E-1,-3.096305E-1,3.1585468E-3,4.5225176E-1,1.0743419E-2,-7.3084164E-1,3.975851E-1,-1.0910627E-1,7.370198E-1,-2.54915E-1,1.464238E-1,-2.5841805E-1,-5.6339007E-2,6.8781006E-1,-1.940544E-1,1.8671842E-1,-1.8501696E-1,2.5416645E-1,3.08134E-2,2.0858909E-1,4.4833936E-2,7.393545E-1,5.2965485E-2,-5.406423E-2,1.7147093E-1,-2.0433235E-1,5.2837376E-2,6.5284505E-2,2.4310338E-1],"categories":[],"categories_nodes":[],"categories_segments":[],"categories_sizes":[],"default_left":[0,0,0,0,0,0,0,0,0,0,0,0,0,0,0,0,0,0,0,0,0,0,0,0,0,0,0,0,0,0,0,0,0],"id":16,"left_children":[1,3,5,-1,7,-1,9,11,13,15,17,19,21,-1,23,-1,-1,25,-1,27,-1,-1,-1,-1,29,31,-1,-1,-1,-1,-1,-1,-1],"loss_changes":[2.083359E0,2.3806858E0,4.19392E0,0E0,1.4250674E0,0E0,4.1869035E0,2.0388784E0,2.3721166E0,1.9671941E-1,3.2948065E0,8.6512774E-1,4.9016428E-1,0E0,9.436959E-1,0E0,0E0,7.612395E-2,0E0,6.569928E-1,0E0,0E0,0E0,0E0,1.6279143E0,7.5892925E-2,0E0,0E0,0E0,0E0,0E0,0E0,0E0],"parents":[2147483647,0,0,1,1,2,2,4,4,6,6,7,7,8,8,9,9,10,10,11,11,12,12,14,14,17,17,19,19,24,24,25,25],"right_children":[2,4,6,-1,8,-1,10,12,14,16,18,20,22,-1,24,-1,-1,26,-1,28,-1,-1,-1,-1,30,32,-1,-1,-1,-1,-1,-1,-1],"split_conditions":[2.7302265E-1,-1.4413993E0,5.911358E-1,-2.0079817E-1,-9.2115057E-1,-3.096305E-1,8.287458E-1,-1.2156239E0,-1.21330895E-1,6.7939684E-2,9.876291E-1,-1.0572005E-1,3.4593055E-1,-2.54915E-1,-1.337355E0,-2.5841805E-1,-5.6339007E-2,2.0404695E-2,-1.940544E-1,-1.6839549E-1,-1.8501696E-1,2.5416645E-1,3.08134E-2,2.0858909E-1,-1.8357846E0,-6.2371975E-1,5.2965485E-2,-5.406423E-2,1.7147093E-1,-2.0433235E-1,5.2837376E-2,6.5284505E-2,2.4310338E-1],"split_indices":[3,2,2,0,4,0,4,4,4,0,4,2,1,0,2,0,0,0,0,2,0,0,0,0,1,0,0,0,0,0,0,0,0],"split_type":[0,0,0,0,0,0,0,0,0,0,0,0,0,0,0,0,0,0,0,0,0,0,0,0,0,0,0,0,0,0,0,0,0],"sum_hessian":[4.9299683E1,3.2140324E1,1.7159363E1,2.636317E0,2.9504005E1,4.700956E0,1.24584055E1,1.1251372E1,1.8252632E1,4.0565424E0,8.401863E0,3.9943132E0,7.257059E0,1.7693167E0,1.6483316E1,2.7977219E0,1.2588204E0,6.8420577E0,1.5598061E0,2.9230247E0,1.0712887E0,5.8968987E0,1.3601601E0,1.661633E0,1.4821683E1,5.8101406E0,1.0319169E0,1.7685498E0,1.1544747E0,1.6286496E0,1.3193033E1,1.1827781E0,4.6273627E0],"tree_param":{"num_deleted":"0","num_feature":"6","num_nodes":"33","size_leaf_vector":"1"}},{"base_weights":[-5.5317327E-2,-2.6028785E-1,1.06489375E-1,-3.1919673E-2,-6.513428E-1,2.4381743E-1,-5.9381354E-1,7.235863E-2,-1.608887E-1,-2.4954358E-1,-2.550507E-1,-2.0104801E-2,6.375219E-1,-1.3637253E-2,-2.2140442E-1,-1.5963984E-1,3.06145E-1,-1.9978209E-1,1.2781627E-1,3.6756116E-1,-2.0315993E-1,-8.121121E-3,7.882834E-1,-1.378977E-1,4.480394E-2,-8.916033E-3,4.628054E-1,-3.6186755E-2,1.9300665E-1,5.2156746E-2,-2.8742594E-1,2.619843E-1,5.30833E-2,1.2746151E-1,-1.0687339E-1,1.9771978E-1,-4.8824376E-3,-1.5399036E-1,9.0945296E-2],"categories":[],"categories_nodes":[],"categories_segments":[],"categories_sizes":[],"default_left":[0,0,0,0,0,0,0,0,0,0,0,0,0,0,0,0,0,0,0,0,0,0,0,0,0,0,0,0,0,0,0,0,0,0,0,0,0,0,0],"id":17,"left_children":[1,3,5,7,9,11,13,15,-1,17,-1,19,21,-1,-1,23,25,-1,-1,27,29,-1,31,-1,33,-1,35,-1,-1,37,-1,-1,-1,-1,-1,-1,-1,-1,-1],"loss_changes":[1.5091324E0,1.7649094E0,2.6136484E0,7.58059E-1,3.726616E-1,2.316619E0,3.2227385E-1,7.113041E-1,0E0,1.3636365E0,0E0,1.0854212E0,9.1594243E-1,0E0,0E0,4.3691397E-1,3.5186946E-1,0E0,0E0,7.406077E-1,2.0388546E0,0E0,2.253685E-1,0E0,9.0553856E-1,0E0,4.2841905E-1,0E0,0E0,1.3845878E0,0E0,0E0,0E0,0E0,0E0,0E0,0E0,0E0,0E0],"parents":[2147483647,0,0,1,1,2,2,3,3,4,4,5,5,6,6,7,7,9,9,11,11,12,12,15,15,16,16,19,19,20,20,22,22,24,24,26,26,29,29],"right_children":[2,4,6,8,10,12,14,16,-1,18,-1,20,22,-1,-1,24,26,-1,-1,28,30,-1,32,-1,34,-1,36,-1,-1,38,-1,-1,-1,-1,-1,-1,-1,-1,-1],"split_conditions":[-4.322262E-1,2.8671797E-2,6.3402426E-1,5.710431E-1,7.548471E-1,2.8671797E-2,-5.2243966E-1,3.2284403E-1,-1.608887E-1,-1.0339408E-1,-2.550507E-1,-3.1787696E-1,-1.11546874E-1,-1.3637253E-2,-2.2140442E-1,-6.438846E-1,7.814256E-1,-1.9978209E-1,1.2781627E-1,-1.0503788E0,-1.870396E-2,-8.121121E-3,4.4077504E-1,-1.378977E-1,-5.996428E-1,-8.916033E-3,9.660778E-1,-3.6186755E-2,1.9300665E-1,-1.6541895E0,-2.8742594E-1,2.619843E-1,5.30833E-2,1.2746151E-1,-1.0687339E-1,1.9771978E-1,-4.8824376E-3,-1.5399036E-1,9.0945296E-2],"split_indices":[0,1,0,3,4,1,3,2,0,4,0,2,0,0,0,0,4,0,0,3,0,0,0,0,0,0,4,0,0,1,0,0,0,0,0,0,0,0,0],"split_type":[0,0,0,0,0,0,0,0,0,0,0,0,0,0,0,0,0,0,0,0,0,0,0,0,0,0,0,0,0,0,0,0,0,0,0,0,0,0,0],"sum_hessian":[4.36672E1,1.899563E1,2.4671568E1,1.2675197E1,6.3204327E0,2.1171682E1,3.4998863E0,1.1213397E1,1.4617997E0,2.8387692E0,3.4816637E0,1.3243053E1,7.9286284E0,1.0025835E0,2.4973028E0,5.787406E0,5.425991E0,1.7651405E0,1.0736285E0,3.9243386E0,9.318715E0,1.6177309E0,6.3108974E0,1.8395483E0,3.9478576E0,1.9836093E0,3.4423819E0,1.6197876E0,2.304551E0,7.65926E0,1.6594554E0,5.1643944E0,1.1465033E0,1.99645E0,1.9514078E0,2.1754813E0,1.2669004E0,2.0333376E0,5.625922E0],"tree_param":{"num_deleted":"0","num_feature":"6","num_nodes":"39","size_leaf_vector":"1"}},{"base_weights":[-5.6554627E-2,7.3179446E-2,-3.1389594E-1,-1.9424027E-1,1.4146712E-1,-2.9306465E-1,-1.4277488E-2,2.227816E-1,-3.90325E-1,-6.072333E-1,4.1230524E-1,-5.0952822E-2,4.4979504E-1,5.1329117E-2,-2.0288299E-1,5.139893E-2,-2.5894335E-1,7.0632994E-1,-1.6582197E-1,-3.4378785E-1,3.7374434E-1,7.1223475E-2,6.49148E-1,2.3389427E-1,6.0541216E-2,7.3475756E-2,-1.62326E-1,-9.197883E-3,2.0411068E-1,1.5624556E-1,-8.104201E-2,2.565194E-1,1.5527578E-2],"categories":[],"categories_nodes":[],"categories_segments":[],"categories_sizes":[],"default_left":[0,0,0,0,0,0,0,0,0,0,0,0,0,0,0,0,0,0,0,0,0,0,0,0,0,0,0,0,0,0,0,0,0],"id":18,"left_children":[1,3,5,-1,7,-1,9,11,13,15,17,19,21,-1,-1,-1,-1,23,-1,25,27,29,31,-1,-1,-1,-1,-1,-1,-1,-1,-1,-1],"loss_changes":[1.3649533E0,1.4466133E0,2.6997848E0,0E0,1.2100512E0,0E0,2.8870573E0,1.4623675E0,7.2703713E-1,1.0974499E0,2.2796347E0,1.5462214E0,9.170892E-1,0E0,0E0,0E0,0E0,4.7676325E-2,0E0,9.767292E-1,6.5716535E-1,9.888424E-1,9.6913767E-1,0E0,0E0,0E0,0E0,0E0,0E0,0E0,0E0,0E0,0E0],"parents":[2147483647,0,0,1,1,2,2,4,4,6,6,7,7,8,8,9,9,10,10,11,11,12,12,17,17,19,19,20,20,21,21,22,22],"right_children":[2,4,6,-1,8,-1,10,12,14,16,18,20,22,-1,-1,-1,-1,24,-1,26,28,30,32,-1,-1,-1,-1,-1,-1,-1,-1,-1,-1],"split_conditions":[2.7302265E-1,-1.8966724E0,5.911358E-1,-1.9424027E-1,4.0580612E-1,-2.9306465E-1,8.4545887E-1,-3.312807E-1,-1.0503788E0,4.3868002E-1,9.876291E-1,7.794281E-2,-9.7853184E-1,5.1329117E-2,-2.0288299E-1,5.139893E-2,-2.5894335E-1,6.223327E-1,-1.6582197E-1,-1.66587E0,-3.767903E-1,-2.3096035E-1,4.4077504E-1,2.3389427E-1,6.0541216E-2,7.3475756E-2,-1.62326E-1,-9.197883E-3,2.0411068E-1,1.5624556E-1,-8.104201E-2,2.565194E-1,1.5527578E-2],"split_indices":[3,2,2,0,2,0,4,0,3,3,4,2,1,0,0,0,0,3,0,3,1,0,0,0,0,0,0,0,0,0,0,0,0],"split_type":[0,0,0,0,0,0,0,0,0,0,0,0,0,0,0,0,0,0,0,0,0,0,0,0,0,0,0,0,0,0,0,0,0],"sum_hessian":[3.9196045E1,2.6534685E1,1.266136E1,1.562629E0,2.4972055E1,3.2373762E0,9.423984E0,2.2164095E1,2.8079603E0,3.7658784E0,5.6581054E0,1.0399661E1,1.1764434E1,1.0831057E0,1.7248545E0,1.0133762E0,2.7525022E0,4.542276E0,1.1158297E0,6.268173E0,4.1314883E0,4.5262856E0,7.2381487E0,3.4898274E0,1.0524485E0,1.5128162E0,4.755357E0,2.1697874E0,1.9617009E0,1.7265806E0,2.7997048E0,5.0619783E0,2.1761703E0],"tree_param":{"num_deleted":"0","num_feature":"6","num_nodes":"33","size_leaf_vector":"1"}},{"base_weights":[-5.0583173E-2,6.5592535E-2,-3.0053544E-1,-1.6046262E-1,1.3352433E-1,-2.796122E-1,-2.0132627E-2,3.754166E-1,-1.7477106E-2,-6.1831415E-1,3.1967363E-1,-9.3722194E-2,6.409202E-1,-2.2145937E-1,1.0334481E-1,-2.154764E-1,-5.5998318E-2,5.150956E-1,-9.887596E-2,9.058262E-2,-1.1620266E-1,2.2560452E-1,2.091174E-2,2.9172936E-1,-1.7499432E-1,6.54647E-4,1.943609E-1,1.3643925E-1,-1.3767374E-1,-2.8985253E-1,1.22623555E-1],"categories":[],"categories_nodes":[],"categories_segments":[],"categories_sizes":[],"default_left":[0,0,0,0,0,0,0,0,0,0,0,0,0,0,0,0,0,0,0,0,0,0,0,0,0,0,0,0,0,0,0],"id":19,"left_children":[1,3,5,-1,7,-1,9,11,13,15,17,19,21,-1,23,-1,-1,25,-1,-1,-1,-1,-1,27,29,-1,-1,-1,-1,-1,-1],"loss_changes":[1.0628554E0,1.1052665E0,2.031386E0,0E0,8.6745924E-1,0E0,2.0351458E0,1.1939138E0,1.4230903E0,2.1908998E-2,9.8486215E-1,6.005072E-1,3.2456875E-1,0E0,7.91593E-1,0E0,0E0,3.614365E-1,0E0,0E0,0E0,0E0,0E0,1.2855783E0,3.3163528E0,0E0,0E0,0E0,0E0,0E0,0E0],"parents":[2147483647,0,0,1,1,2,2,4,4,6,6,7,7,8,8,9,9,10,10,11,11,12,12,14,14,17,17,23,23,24,24],"right_children":[2,4,6,-1,8,-1,10,12,14,16,18,20,22,-1,24,-1,-1,26,-1,-1,-1,-1,-1,28,30,-1,-1,-1,-1,-1,-1],"split_conditions":[2.7302265E-1,-1.4413993E0,5.911358E-1,-1.6046262E-1,-9.2115057E-1,-2.796122E-1,8.287458E-1,-1.2156239E0,-1.21330895E-1,1.0191642E-1,6.4390916E-1,-1.7402172E0,3.4593055E-1,-2.2145937E-1,8.4545887E-1,-2.154764E-1,-5.5998318E-2,-6.2371975E-1,-9.887596E-2,9.058262E-2,-1.1620266E-1,2.2560452E-1,2.091174E-2,-8.49065E-2,1.1344197E0,6.54647E-4,1.943609E-1,1.3643925E-1,-1.3767374E-1,-2.8985253E-1,1.22623555E-1],"split_indices":[3,2,2,0,4,0,4,4,4,1,3,1,1,0,4,0,0,0,0,0,0,0,0,3,4,0,0,0,0,0,0],"split_type":[0,0,0,0,0,0,0,0,0,0,0,0,0,0,0,0,0,0,0,0,0,0,0,0,0,0,0,0,0,0,0],"sum_hessian":[3.492289E1,2.4345081E1,1.0577809E1,1.7756759E0,2.2569405E1,2.5379856E0,8.039824E0,8.102948E0,1.4466457E1,2.6156783E0,5.424145E0,3.1622777E0,4.94067E0,1.3433533E0,1.3123104E1,1.5847899E0,1.0308884E0,4.328073E0,1.0960722E0,1.3349875E0,1.8272902E0,3.871238E0,1.0694323E0,7.7975116E0,5.3255925E0,1.0990021E0,3.2290707E0,6.7296877E0,1.067824E0,1.9828956E0,3.3426971E0],"tree_param":{"num_deleted":"0","num_feature":"6","num_nodes":"31","size_leaf_vector":"1"}},{"base_weights":[-6.36476E-2,-1.8419232E-2,-1.8249007E-1,-1.41073E-1,2.821782E-1,6.297916E-2,-5.875791E-1,-4.38397E-1,6.8703926E-1,-5.4552667E-2,4.125166E-1,-4.871864E-2,-2.9957914E-1,1.2762006E-1,-2.650968E-1,2.3678619E-1,4.020028E-2,3.8213545E-1,-1.8202499E-1,-3.273379E-2,1.9588415E-1,-1.2108393E-1,1.4523764E-1,1.7624871E-3,1.7033981E-1,2.5412178E-2,-1.0685874E-1],"categories":[],"categories_nodes":[],"categories_segments":[],"categories_sizes":[],"default_left":[0,0,0,0,0,0,0,0,0,0,0,0,0,0,0,0,0,0,0,0,0,0,0,0,0,0,0],"id":20,"left_children":[1,3,-1,5,7,9,11,13,15,17,19,21,-1,-1,-1,-1,-1,23,25,-1,-1,-1,-1,-1,-1,-1,-1],"loss_changes":[7.918223E-1,1.1875674E0,0E0,2.1121235E0,3.0302327E0,7.018003E-1,1.5550094E0,1.9049966E0,2.5494432E-1,8.0754864E-1,6.077312E-1,9.866729E-1,0E0,0E0,0E0,0E0,0E0,2.2846687E-1,5.383817E-1,0E0,0E0,0E0,0E0,0E0,0E0,0E0,0E0],"parents":[2147483647,0,0,1,1,3,3,4,4,5,5,6,6,7,7,8,8,9,9,10,10,11,11,17,17,18,18],"right_children":[2,4,-1,6,8,10,12,14,16,18,20,22,-1,-1,-1,-1,-1,24,26,-1,-1,-1,-1,-1,-1,-1,-1],"split_conditions":[1.6337456E0,-1.0538359E-1,-1.8249007E-1,-4.989074E-2,-2.3575398E-1,-8.5362273E-1,-3.4863344E-1,-1.2986407E0,9.876291E-1,-6.853403E-1,-5.235625E-1,-2.2888324E-1,-2.9957914E-1,1.2762006E-1,-2.650968E-1,2.3678619E-1,4.020028E-2,-1.8524139E0,-1.0572005E-1,-3.273379E-2,1.9588415E-1,-1.2108393E-1,1.4523764E-1,1.7624871E-3,1.7033981E-1,2.5412178E-2,-1.0685874E-1],"split_indices":[0,0,0,1,1,1,3,2,4,0,0,2,0,0,0,0,0,1,2,0,0,0,0,0,0,0,0],"split_type":[0,0,0,0,0,0,0,0,0,0,0,0,0,0,0,0,0,0,0,0,0,0,0,0,0,0,0],"sum_hessian":[3.1598642E1,3.013041E1,1.4682338E0,2.1775833E1,8.354575E0,1.5535226E1,6.2406077E0,2.9756517E0,5.3789234E0,1.2257556E1,3.2776694E0,3.184343E0,3.0562646E0,1.0273008E0,1.9483509E0,4.179092E0,1.1998314E0,2.3181987E0,9.939358E0,1.2064272E0,2.071242E0,2.0568998E0,1.1274432E0,1.1068119E0,1.2113867E0,4.129274E0,5.810084E0],"tree_param":{"num_deleted":"0","num_feature":"6","num_nodes":"27","size_leaf_vector":"1"}},{"base_weights":[-5.1559467E-2,7.3304714E-4,-1.4884776E-1,-1.075524E-1,3.2936472E-1,6.407778E-2,-5.212738E-1,-3.0417472E-1,6.6041917E-1,-3.6490437E-1,1.7308168E-1,-2.5715163E-2,-2.8348646E-1,1.12070195E-1,-2.407339E-1,2.2818136E-1,4.1366853E-2,2.1164365E-2,-1.6919297E-1,-2.2528285E-1,2.9355988E-1,-1.15988836E-1,1.14914976E-1,8.7504834E-2,-1.6436683E-1,-1.7069528E-2,1.3498774E-1],"categories":[],"categories_nodes":[],"categories_segments":[],"categories_sizes":[],"default_left":[0,0,0,0,0,0,0,0,0,0,0,0,0,0,0,0,0,0,0,0,0,0,0,0,0,0,0],"id":21,"left_children":[1,3,-1,5,7,9,11,13,15,17,19,21,-1,-1,-1,-1,-1,-1,-1,23,25,-1,-1,-1,-1,-1,-1],"loss_changes":[6.895249E-1,1.0147979E0,0E0,1.5568072E0,1.6830953E0,8.138654E-1,1.3194466E0,1.3500508E0,1.5461493E-1,3.496517E-1,7.1308094E-1,7.34937E-1,0E0,0E0,0E0,0E0,0E0,0E0,0E0,7.761916E-1,6.166786E-1,0E0,0E0,0E0,0E0,0E0,0E0],"parents":[2147483647,0,0,1,1,3,3,4,4,5,5,6,6,7,7,8,8,9,9,10,10,11,11,19,19,20,20],"right_children":[2,4,-1,6,8,10,12,14,16,18,20,22,-1,-1,-1,-1,-1,-1,-1,24,26,-1,-1,-1,-1,-1,-1],"split_conditions":[6.3402426E-1,-9.1783814E-2,-1.4884776E-1,-4.989074E-2,-3.767903E-1,-4.308118E-1,-3.4863344E-1,-3.0107716E-1,3.9199486E-1,-2.040794E0,-1.8870882E0,-4.81341E-1,-2.8348646E-1,1.12070195E-1,-2.407339E-1,2.2818136E-1,4.1366853E-2,2.1164365E-2,-1.6919297E-1,-1.1541376E0,4.3343025E-1,-1.15988836E-1,1.14914976E-1,8.7504834E-2,-1.6436683E-1,-1.7069528E-2,1.3498774E-1],"split_indices":[0,0,0,1,1,2,3,2,0,1,1,2,0,0,0,0,0,0,0,4,4,0,0,0,0,0,0],"split_type":[0,0,0,0,0,0,0,0,0,0,0,0,0,0,0,0,0,0,0,0,0,0,0,0,0,0,0],"sum_hessian":[2.8642317E1,2.6521309E1,2.1210074E0,2.0454271E1,6.0670376E0,1.5054223E1,5.4000483E0,2.1101105E0,3.956927E0,2.5745437E0,1.2479679E1,2.977781E0,2.4222674E0,1.0000839E0,1.1100266E0,2.9380007E0,1.0189265E0,1.0102751E0,1.5642687E0,2.695855E0,9.783825E0,1.610214E0,1.367567E0,1.072718E0,1.6231369E0,3.2152693E0,6.5685554E0],"tree_param":{"num_deleted":"0","num_feature":"6","num_nodes":"27","size_leaf_vector":"1"}},{"base_weights":[-5.498913E-2,1.782061E-1,-1.4510478E-1,-1.87933E-1,4.971794E-1,-1.8025927E-1,-6.0202952E-2,5.0923225E-2,-4.0008393E-1,1.9501717E-1,3.1416134E-3,6.0090866E-2,-3.2797256E-1,-1.7078514E-1,-8.459998E-3,-2.0950109E-1,1.7229545E-1,-2.664942E-1,5.037159E-2,8.881144E-2,-1.6590613E-1,2.9087877E-1,-1.0767035E-1,-2.6155853E-1,1.2696442E-1,1.5668046E-1,-3.9529055E-3,-1.5737063E-1,1.4017043E-1,-1.5643066E-2,-1.0196736E-1],"categories":[],"categories_nodes":[],"categories_segments":[],"categories_sizes":[],"default_left":[0,0,0,0,0,0,0,0,0,0,0,0,0,0,0,0,0,0,0,0,0,0,0,0,0,0,0,0,0,0,0],"id":22,"left_children":[1,3,5,7,9,-1,11,-1,13,-1,-1,15,17,-1,-1,19,21,-1,23,-1,-1,25,27,29,-1,-1,-1,-1,-1,-1,-1],"loss_changes":[5.9764886E-1,1.0315738E0,7.4455154E-1,4.0676677E-1,3.3302355E-1,0E0,6.033546E-1,0E0,1.7906314E-1,0E0,0E0,4.3986127E-1,1.2683376E0,0E0,0E0,9.2331827E-1,3.6244294E-1,0E0,6.214495E-1,0E0,0E0,5.188136E-1,1.1312863E0,3.1639725E-2,0E0,0E0,0E0,0E0,0E0,0E0,0E0],"parents":[2147483647,0,0,1,1,2,2,3,3,4,4,6,6,8,8,11,11,12,12,15,15,16,16,18,18,21,21,22,22,23,23],"right_children":[2,4,6,8,10,-1,12,-1,14,-1,-1,16,18,-1,-1,20,22,-1,24,-1,-1,26,28,30,-1,-1,-1,-1,-1,-1,-1],"split_conditions":[-9.617275E-1,-1.2156239E0,-1.21330895E-1,-1.7402172E0,-4.0846297E-1,-1.8025927E-1,9.876291E-1,5.0923225E-2,-2.5455657E-1,1.9501717E-1,3.1416134E-3,9.95166E-3,1.145533E0,-1.7078514E-1,-8.459998E-3,2.8532494E-2,6.9963324E-1,-2.664942E-1,-5.349104E-2,8.881144E-2,-1.6590613E-1,-1.3548729E-1,8.548012E-1,-5.799221E-1,1.2696442E-1,1.5668046E-1,-3.9529055E-3,-1.5737063E-1,1.4017043E-1,-1.5643066E-2,-1.0196736E-1],"split_indices":[4,4,4,1,3,0,4,0,0,0,0,2,4,0,0,4,2,0,0,0,0,3,4,0,0,0,0,0,0,0,0],"split_type":[0,0,0,0,0,0,0,0,0,0,0,0,0,0,0,0,0,0,0,0,0,0,0,0,0,0,0,0,0,0,0],"sum_hessian":[2.620927E1,7.032783E0,1.9176489E1,3.4655778E0,3.5672052E0,2.0570302E0,1.7119457E1,1.3646792E0,2.1008985E0,2.4591486E0,1.1080564E0,1.2347851E1,4.771607E0,1.0791131E0,1.0217854E0,3.3740199E0,8.973831E0,1.3799506E0,3.3916564E0,1.4210118E0,1.9530079E0,6.276398E0,2.697433E0,2.009191E0,1.3824652E0,3.156551E0,3.1198473E0,1.6143363E0,1.0830967E0,1.0003954E0,1.0087956E0],"tree_param":{"num_deleted":"0","num_feature":"6","num_nodes":"31","size_leaf_vector":"1"}},{"base_weights":[-5.2985772E-2,-4.605741E-3,-1.3314915E-1,-1.9809872E-1,1.3117145E-1,2.4389583E-1,-5.124663E-1,-3.16249E-1,2.506548E-1,-7.119065E-2,1.7933764E-1,-2.1051201E-1,-1.9075327E-1,-1.4989261E-3,-1.3194387E-1,4.4175842E-1,3.1373937E-2,-8.9846835E-2,6.523981E-2,4.2507727E-2,-1.5236193E-1,6.63029E-4,1.8695745E-1,-1.6683942E-1,1.4407164E-1,-1.8927251E-1,8.082363E-2],"categories":[],"categories_nodes":[],"categories_segments":[],"categories_sizes":[],"default_left":[0,0,0,0,0,0,0,0,0,0,0,0,0,0,0,0,0,0,0,0,0,0,0,0,0,0,0],"id":23,"left_children":[1,3,-1,5,7,9,11,13,15,17,-1,19,-1,-1,-1,21,23,-1,-1,-1,-1,-1,-1,25,-1,-1,-1],"loss_changes":[4.803317E-1,6.489144E-1,0E0,1.5388927E0,8.5630625E-1,5.8971405E-1,9.968948E-2,1.3262779E-1,4.9023998E-1,2.9507744E-1,0E0,4.189765E-1,0E0,0E0,0E0,5.051271E-1,6.742902E-1,0E0,0E0,0E0,0E0,0E0,0E0,1.2580872E0,0E0,0E0,0E0],"parents":[2147483647,0,0,1,1,3,3,4,4,5,5,6,6,7,7,8,8,9,9,11,11,15,15,16,16,23,23],"right_children":[2,4,-1,6,8,10,12,14,16,18,-1,20,-1,-1,-1,22,24,-1,-1,-1,-1,-1,-1,26,-1,-1,-1],"split_conditions":[6.3402426E-1,-5.301321E-1,-1.3314915E-1,-1.5345128E0,-1.7161114E0,-1.8615339E0,-6.3495016E-1,-3.7645215E-1,-2.5144005E-1,-6.280688E-1,1.7933764E-1,4.186836E-1,-1.9075327E-1,-1.4989261E-3,-1.3194387E-1,-7.5668555E-1,1.1171E0,-8.9846835E-2,6.523981E-2,4.2507727E-2,-1.5236193E-1,6.63029E-4,1.8695745E-1,3.2541555E-1,1.4407164E-1,-1.8927251E-1,8.082363E-2],"split_indices":[0,0,0,1,1,1,0,4,3,0,0,1,0,0,0,2,4,0,0,0,0,0,0,3,0,0,0],"split_type":[0,0,0,0,0,0,0,0,0,0,0,0,0,0,0,0,0,0,0,0,0,0,0,0,0,0,0],"sum_hessian":[2.4510275E1,2.2710838E1,1.7994374E0,9.175724E0,1.3535113E1,3.906888E0,5.2688365E0,2.5056365E0,1.1029477E1,2.4893596E0,1.4175284E0,2.3133633E0,2.9554732E0,1.0077043E0,1.4979322E0,5.3512635E0,5.6782136E0,1.3690493E0,1.1203104E0,1.2986723E0,1.0146909E0,1.8592173E0,3.4920464E0,4.3747044E0,1.3035091E0,1.9035609E0,2.4711437E0],"tree_param":{"num_deleted":"0","num_feature":"6","num_nodes":"27","size_leaf_vector":"1"}},{"base_weights":[-4.631206E-2,2.54562E-2,-2.96895E-1,-1.2114463E-1,7.2920315E-2,-1.9935468E-1,1.50589775E-2,1.1989575E-1,-9.2471875E-2,-7.309637E-2,1.03010945E-1,4.7728855E-2,3.900679E-1,1.6168638E-1,-1.7322233E-1,9.763781E-3,1.633111E-1,-5.653326E-2,6.524397E-2],"categories":[],"categories_nodes":[],"categories_segments":[],"categories_sizes":[],"default_left":[0,0,0,0,0,0,0,0,0,0,0,0,0,0,0,0,0,0,0],"id":24,"left_children":[1,3,5,-1,7,-1,9,11,-1,-1,-1,13,15,17,-1,-1,-1,-1,-1],"loss_changes":[4.3832412E-1,4.275951E-1,6.306404E-1,0E0,3.6717364E-1,0E0,4.1538337E-1,3.1554973E-1,0E0,0E0,0E0,1.1381088E0,1.7390764E-1,2.9856107E-1,0E0,0E0,0E0,0E0,0E0],"parents":[2147483647,0,0,1,1,2,2,4,4,6,6,7,7,11,11,12,12,13,13],"right_children":[2,4,6,-1,8,-1,10,12,-1,-1,-1,14,16,18,-1,-1,-1,-1,-1],"split_conditions":[9.660778E-1,-1.4413993E0,1.145533E0,-1.2114463E-1,6.535873E-1,-1.9935468E-1,-5.349104E-2,8.548012E-1,-9.2471875E-2,-7.309637E-2,1.03010945E-1,4.3360516E-1,6.3297933E-1,-1.4428294E0,-1.7322233E-1,9.763781E-3,1.633111E-1,-5.653326E-2,6.524397E-2],"split_indices":[4,2,4,0,1,0,0,4,0,0,0,3,2,4,0,0,0,0,0],"split_type":[0,0,0,0,0,0,0,0,0,0,0,0,0,0,0,0,0,0,0],"sum_hessian":[2.2952885E1,1.8541044E1,4.4118395E0,1.0984764E0,1.7442568E1,1.506427E0,2.9054127E0,1.613899E1,1.3035786E0,1.7691509E0,1.1362617E0,1.366542E1,2.4735703E0,1.2185463E1,1.4799562E0,1.1107837E0,1.3627867E0,1.3480828E0,1.083738E1],"tree_param":{"num_deleted":"0","num_feature":"6","num_nodes":"19","size_leaf_vector":"1"}},{"base_weights":[-5.057491E-2,1.5119337E-1,-1.3710546E-1,-1.7714034E-1,4.1198018E-1,-5.32068E-1,-3.213014E-2,4.2524487E-2,-1.1183023E-1,1.6911745E-1,4.1451416E-4,-3.499937E-2,-1.9670536E-1,8.3453335E-2,-2.7467167E-1,2.4537954E-1,-2.0778154E-1,-2.0849992E-1,1.9155836E-2,4.2783847E-4,3.9664304E-1,-4.821488E-1,8.6164445E-2,-7.2481215E-2,7.963455E-2,1.3142864E-1,-1.1757648E-1,1.6209035E-1,4.9491897E-3,7.6372763E-3,-2.2962406E-1],"categories":[],"categories_nodes":[],"categories_segments":[],"categories_sizes":[],"default_left":[0,0,0,0,0,0,0,0,0,0,0,0,0,0,0,0,0,0,0,0,0,0,0,0,0,0,0,0,0,0,0],"id":25,"left_children":[1,3,5,7,9,11,13,-1,-1,-1,-1,-1,-1,15,17,19,21,-1,23,25,27,29,-1,-1,-1,-1,-1,-1,-1,-1,-1],"loss_changes":[4.218696E-1,7.041738E-1,6.7134285E-1,3.0003393E-1,2.7393484E-1,9.924024E-2,4.2050007E-1,0E0,0E0,0E0,0E0,0E0,0E0,5.4010665E-1,6.0739744E-1,2.6379916E-1,7.153521E-1,0E0,3.0845955E-1,8.1064814E-1,2.315566E-1,4.661113E-1,0E0,0E0,0E0,0E0,0E0,0E0,0E0,0E0,0E0],"parents":[2147483647,0,0,1,1,2,2,3,3,4,4,5,5,6,6,13,13,14,14,15,15,16,16,18,18,19,19,20,20,21,21],"right_children":[2,4,6,8,10,12,14,-1,-1,-1,-1,-1,-1,16,18,20,22,-1,24,26,28,30,-1,-1,-1,-1,-1,-1,-1,-1,-1],"split_conditions":[-9.2115057E-1,-1.2156239E0,-1.7497372E-2,-1.7402172E0,-4.0846297E-1,-4.7196034E-1,9.876291E-1,4.2524487E-2,-1.1183023E-1,1.6911745E-1,4.1451416E-4,-3.499937E-2,-1.9670536E-1,-6.4365044E-3,1.145533E0,-5.703746E-1,-1.11546874E-1,-2.0849992E-1,-3.312807E-1,-1.5345128E0,-1.8078871E-1,7.84649E-1,8.6164445E-2,-7.2481215E-2,7.963455E-2,1.3142864E-1,-1.1757648E-1,1.6209035E-1,4.9491897E-3,7.6372763E-3,-2.2962406E-1],"split_indices":[4,4,4,1,3,2,4,0,0,0,0,0,0,1,4,0,0,0,0,1,0,4,0,0,0,0,0,0,0,0,0],"split_type":[0,0,0,0,0,0,0,0,0,0,0,0,0,0,0,0,0,0,0,0,0,0,0,0,0,0,0,0,0,0,0],"sum_hessian":[2.1975967E1,6.3716173E0,1.5604351E1,2.9625182E0,3.409099E0,2.422259E0,1.3182092E1,1.2311141E0,1.7314042E0,2.2168756E0,1.1922238E0,1.0012844E0,1.4209749E0,9.371847E0,3.8102443E0,6.1242332E0,3.247614E0,1.0059187E0,2.8043256E0,2.720906E0,3.4033272E0,2.1061623E0,1.1414517E0,1.3714032E0,1.4329225E0,1.2310588E0,1.4898472E0,2.1641786E0,1.2391487E0,1.0803386E0,1.0258236E0],"tree_param":{"num_deleted":"0","num_feature":"6","num_nodes":"31","size_leaf_vector":"1"}},{"base_weights":[-5.0769262E-2,-4.020302E-3,-1.2099491E-1,-8.961469E-2,2.4956687E-1,3.8942564E-2,-4.0775594E-1,-9.457864E-2,1.7778933E-1,-2.0583124E-1,1.7734389E-1,7.7470816E-3,-2.3308037E-1,3.509609E-2,-3.9444932E-1,1.1878848E-3,3.7820473E-1,-7.9386905E-2,8.859902E-2,-3.0551169E-2,-1.43972E-1,1.15719646E-1,-1.1117057E-1,1.7989089E-1,-9.7768055E-3],"categories":[],"categories_nodes":[],"categories_segments":[],"categories_sizes":[],"default_left":[0,0,0,0,0,0,0,0,0,0,0,0,0,0,0,0,0,0,0,0,0,0,0,0,0],"id":26,"left_children":[1,3,-1,5,7,9,11,-1,-1,13,15,17,-1,-1,19,21,23,-1,-1,-1,-1,-1,-1,-1,-1],"loss_changes":[3.5563406E-1,4.5970634E-1,0E0,6.6208446E-1,1.2232966E0,4.4863698E-1,7.1689606E-1,0E0,0E0,3.418845E-1,2.935328E-1,3.2649162E-1,0E0,0E0,3.35086E-2,9.191486E-1,3.7237996E-1,0E0,0E0,0E0,0E0,0E0,0E0,0E0,0E0],"parents":[2147483647,0,0,1,1,3,3,4,4,5,5,6,6,9,9,10,10,11,11,14,14,15,15,16,16],"right_children":[2,4,-1,6,8,10,12,-1,-1,14,16,18,-1,-1,20,22,24,-1,-1,-1,-1,-1,-1,-1,-1],"split_conditions":[6.3402426E-1,-1.0538359E-1,-1.2099491E-1,-4.989074E-2,-3.767903E-1,-4.0846297E-1,-3.4863344E-1,-9.457864E-2,1.7778933E-1,-9.222914E-1,8.4545887E-1,-5.263293E-1,-2.3308037E-1,3.509609E-2,-8.2079554E-1,-1.3548729E-1,9.660778E-1,-7.9386905E-2,8.859902E-2,-3.0551169E-2,-1.43972E-1,1.15719646E-1,-1.1117057E-1,1.7989089E-1,-9.7768055E-3],"split_indices":[0,0,0,1,1,3,3,0,0,4,4,2,0,0,2,3,4,0,0,0,0,0,0,0,0],"split_type":[0,0,0,0,0,0,0,0,0,0,0,0,0,0,0,0,0,0,0,0,0,0,0,0,0],"sum_hessian":[2.0676535E1,1.9148748E1,1.5277866E0,1.479989E1,4.3488593E0,1.1165593E1,3.6342957E0,1.6739197E0,2.6749399E0,3.856991E0,7.3086023E0,2.1704803E0,1.4638157E0,1.5625199E0,2.294471E0,4.4296713E0,2.878931E0,1.1557274E0,1.0147527E0,1.0140303E0,1.2804408E0,2.1589074E0,2.270764E0,1.5719162E0,1.3070148E0],"tree_param":{"num_deleted":"0","num_feature":"6","num_nodes":"25","size_leaf_vector":"1"}},{"base_weights":[-4.8078153E-2,1.3076863E-1,-1.2138839E-1,-1.8123187E-1,4.2032808E-1,-1.4256272E-1,-4.7342815E-2,2.8897746E-2,-1.02498636E-1,1.5200843E-1,3.0079212E-2,1.5413934E-2,-1.0024275E-1,-2.2204597E-1,1.3279249E-1,5.420594E-2,-1.6531776E-1,2.2812143E-1,-1.1199025E-1,-2.963388E-3,1.4133936E-1,-9.68291E-2,4.6009384E-2],"categories":[],"categories_nodes":[],"categories_segments":[],"categories_sizes":[],"default_left":[0,0,0,0,0,0,0,0,0,0,0,0,0,0,0,0,0,0,0,0,0,0,0],"id":27,"left_children":[1,3,5,7,9,-1,11,-1,-1,-1,-1,13,-1,15,17,-1,-1,19,21,-1,-1,-1,-1],"loss_changes":[2.8223705E-1,6.532672E-1,3.6859256E-1,2.0093873E-1,4.9106598E-2,0E0,2.4732262E-1,0E0,0E0,0E0,0E0,3.6382827E-1,0E0,6.7493194E-1,2.2746666E-1,0E0,0E0,3.8388732E-1,2.2266354E-1,0E0,0E0,0E0,0E0],"parents":[2147483647,0,0,1,1,2,2,3,3,4,4,6,6,11,11,13,13,14,14,17,17,18,18],"right_children":[2,4,6,8,10,-1,12,-1,-1,-1,-1,14,-1,16,18,-1,-1,20,22,-1,-1,-1,-1],"split_conditions":[-9.617275E-1,-1.2156239E0,-1.21330895E-1,-1.7402172E0,-4.0846297E-1,-1.4256272E-1,2.3016496E-1,2.8897746E-2,-1.02498636E-1,1.5200843E-1,3.0079212E-2,9.95166E-3,-1.0024275E-1,-9.120199E-1,6.9963324E-1,5.420594E-2,-1.6531776E-1,-7.5117594E-1,7.8018624E-1,-2.963388E-3,1.4133936E-1,-9.68291E-2,4.6009384E-2],"split_indices":[4,4,4,1,3,0,0,0,0,0,0,2,0,2,2,0,0,1,2,0,0,0,0],"split_type":[0,0,0,0,0,0,0,0,0,0,0,0,0,0,0,0,0,0,0,0,0,0,0],"sum_hessian":[1.9315554E1,5.387791E0,1.3927762E1,2.7734785E0,2.614313E0,1.4727163E0,1.2455046E1,1.1622562E0,1.6112221E0,1.5995761E0,1.0147368E0,1.0995332E1,1.459714E0,3.3422213E0,7.65311E0,1.7054584E0,1.6367629E0,5.5570292E0,2.0960808E0,3.2921293E0,2.2649E0,1.0476094E0,1.0484715E0],"tree_param":{"num_deleted":"0","num_feature":"6","num_nodes":"23","size_leaf_vector":"1"}},{"base_weights":[-4.267549E-2,-9.947462E-2,4.300577E-3,1.9975917E-1,-8.9317925E-2,3.9328375E-1,-6.4143196E-2,-1.501712E-1,3.9184424E-3,1.5011345E-3,1.5252677E-1,1.7423098E-1,-2.1854116E-1,1.7609052E-2,1.5171428E-1,-4.3145326E-1,6.0746107E-2,5.757027E-2,-8.8329E-2,3.95028E-3,-1.979402E-1,8.196472E-2,-6.0050886E-2],"categories":[],"categories_nodes":[],"categories_segments":[],"categories_sizes":[],"default_left":[0,0,0,0,0,0,0,0,0,0,0,0,0,0,0,0,0,0,0,0,0,0,0],"id":28,"left_children":[1,-1,3,5,7,9,-1,-1,11,-1,-1,13,15,17,-1,19,21,-1,-1,-1,-1,-1,-1],"loss_changes":[2.6725382E-1,0E0,3.441915E-1,5.7109135E-1,4.9084067E-1,1.9851387E-1,0E0,0E0,4.6945775E-1,0E0,0E0,3.547841E-1,3.461629E-1,3.715815E-1,0E0,3.3119702E-1,2.323147E-1,0E0,0E0,0E0,0E0,0E0,0E0],"parents":[2147483647,0,0,2,2,3,3,4,4,5,5,8,8,11,11,12,12,13,13,15,15,16,16],"right_children":[2,-1,4,6,8,10,-1,-1,12,-1,-1,14,16,18,-1,20,22,-1,-1,-1,-1,-1,-1],"split_conditions":[-1.7104392E0,-9.947462E-2,-9.2115057E-1,-4.3622967E-2,-1.7497372E-2,-4.876203E-1,-6.4143196E-2,-1.501712E-1,-4.1202658E-1,1.5011345E-3,1.5252677E-1,-1.0233088E0,-1.7016415E-1,-1.5345128E0,1.5171428E-1,7.8734386E-1,9.876291E-1,5.757027E-2,-8.8329E-2,3.95028E-3,-1.979402E-1,8.196472E-2,-6.0050886E-2],"split_indices":[3,0,4,2,4,0,0,0,1,0,0,1,0,1,0,4,4,0,0,0,0,0,0],"split_type":[0,0,0,0,0,0,0,0,0,0,0,0,0,0,0,0,0,0,0,0,0,0,0],"sum_hessian":[1.8586927E1,1.7522038E0,1.6834724E1,5.0848064E0,1.1749918E1,3.4973283E0,1.5874779E0,1.3641235E0,1.0385795E1,1.0385405E0,2.458788E0,6.0051317E0,4.380663E0,4.7934194E0,1.2117121E0,2.1765518E0,2.204111E0,3.3225777E0,1.4708418E0,1.0582813E0,1.1182704E0,1.1888565E0,1.0152546E0],"tree_param":{"num_deleted":"0","num_feature":"6","num_nodes":"23","size_leaf_vector":"1"}},{"base_weights":[-4.214174E-2,2.4865202E-3,-1.1064794E-1,-9.8080054E-2,1.3140805E-1,-2.0901404E-1,2.1213436E-1,-4.5301087E-2,4.031061E-1,3.1137615E-2,-2.9201373E-1,1.0387935E-1,-3.2962542E-3,7.812329E-2,-2.1058615E-1,1.4686698E-1,3.2312248E-2,5.556238E-2,-4.1809094E-1,2.2250589E-2,-3.284129E-1,-5.514075E-2,-1.6979146E-1,-1.7684566E-2,-1.274843E-1],"categories":[],"categories_nodes":[],"categories_segments":[],"categories_sizes":[],"default_left":[0,0,0,0,0,0,0,0,0,0,0,0,0,0,0,0,0,0,0,0,0,0,0,0,0],"id":29,"left_children":[1,3,-1,5,7,9,11,13,15,-1,17,-1,-1,-1,19,-1,-1,-1,21,-1,23,-1,-1,-1,-1],"loss_changes":[2.7432582E-1,2.3968196E-1,0E0,4.0222096E-1,4.0681672E-1,2.4226663E-1,1.0063802E-1,3.4804457E-1,3.1297147E-2,0E0,4.814042E-1,0E0,0E0,0E0,1.6927594E-1,0E0,0E0,0E0,9.061968E-2,0E0,5.921352E-2,0E0,0E0,0E0,0E0],"parents":[2147483647,0,0,1,1,3,3,4,4,5,5,6,6,7,7,8,8,10,10,14,14,18,18,20,20],"right_children":[2,4,-1,6,8,10,12,14,16,-1,18,-1,-1,-1,20,-1,-1,-1,22,-1,24,-1,-1,-1,-1],"split_conditions":[6.3402426E-1,-3.312807E-1,-1.1064794E-1,6.3100547E-1,2.8671797E-2,-1.66587E0,-1.8189135E0,-2.4078065E-1,4.186836E-1,3.1137615E-2,-7.08482E-1,1.0387935E-1,-3.2962542E-3,7.812329E-2,-3.1787696E-1,1.4686698E-1,3.2312248E-2,5.556238E-2,-2.932956E-1,2.2250589E-2,8.091656E-1,-5.514075E-2,-1.6979146E-1,-1.7684566E-2,-1.274843E-1],"split_indices":[0,0,0,2,1,3,1,0,1,0,0,0,0,0,2,0,0,0,3,0,4,0,0,0,0],"split_type":[0,0,0,0,0,0,0,0,0,0,0,0,0,0,0,0,0,0,0,0,0,0,0,0,0],"sum_hessian":[1.7753124E1,1.6492481E1,1.2606423E0,9.399517E0,7.092964E0,7.1639023E0,2.2356145E0,4.802647E0,2.290317E0,1.4497246E0,5.7141776E0,1.0515599E0,1.1840546E0,1.4834061E0,3.319241E0,1.2633224E0,1.0269947E0,1.0961348E0,4.618043E0,1.0799141E0,2.239327E0,2.654851E0,1.963192E0,1.0154568E0,1.2238703E0],"tree_param":{"num_deleted":"0","num_feature":"6","num_nodes":"25","size_leaf_vector":"1"}},{"base_weights":[-3.1713925E-2,7.2816964E-3,-9.618554E-2,-1.8890697E-1,7.0655555E-2,1.7678894E-2,-1.2952365E-1,3.3977503E-1,-1.0549312E-2,7.416699E-2,-5.603436E-2,1.327997E-1,2.6043305E-2,-3.5466245E-1,1.8467207E-1,-2.4727147E-2,-1.40059E-1,-4.6683192E-2,2.622031E-1,1.4994423E-1,2.0940369E-2],"categories":[],"categories_nodes":[],"categories_segments":[],"categories_sizes":[],"default_left":[0,0,0,0,0,0,0,0,0,0,0,0,0,0,0,0,0,0,0,0,0],"id":30,"left_children":[1,3,-1,5,7,9,-1,11,13,-1,-1,-1,-1,15,17,-1,-1,-1,19,-1,-1],"loss_changes":[2.0673078E-1,2.242509E-1,0E0,2.2906035E-1,2.9968348E-1,2.0319396E-1,0E0,4.409954E-2,8.2987076E-1,0E0,0E0,0E0,0E0,9.778172E-2,2.496801E-1,0E0,0E0,0E0,2.7692825E-1,0E0,0E0],"parents":[2147483647,0,0,1,1,3,3,4,4,5,5,7,7,8,8,13,13,14,14,18,18],"right_children":[2,4,-1,6,8,10,-1,12,14,-1,-1,-1,-1,16,18,-1,-1,-1,20,-1,-1],"split_conditions":[6.3402426E-1,-1.8357846E0,-9.618554E-2,-2.040794E0,-1.6200721E0,-7.914967E-1,-1.2952365E-1,-4.322262E-1,-5.301321E-1,7.416699E-2,-5.603436E-2,1.327997E-1,2.6043305E-2,-6.3495016E-1,-1.2142087E0,-2.4727147E-2,-1.40059E-1,-4.6683192E-2,-8.207427E-2,1.4994423E-1,2.0940369E-2],"split_indices":[0,1,0,1,1,4,0,0,0,0,0,0,0,0,1,0,0,0,4,0,0],"split_type":[0,0,0,0,0,0,0,0,0,0,0,0,0,0,0,0,0,0,0,0,0],"sum_hessian":[1.7142725E1,1.596289E1,1.179836E0,3.4138088E0,1.2549081E1,2.3455868E0,1.068222E0,2.1707778E0,1.0378303E1,1.0064774E0,1.3391094E0,1.0100389E0,1.1607391E0,3.4609792E0,6.9173236E0,1.516362E0,1.9446173E0,1.0967271E0,5.8205967E0,1.8894354E0,3.9311612E0],"tree_param":{"num_deleted":"0","num_feature":"6","num_nodes":"21","size_leaf_vector":"1"}},{"base_weights":[-2.7828703E-2,-9.136022E-2,1.9321205E-2,7.4965745E-2,-8.357184E-2,1.3725218E-1,-1.732448E-1,-5.6405816E-2,1.8915999E-1,4.702647E-3,-8.26333E-2,4.0712717E-1,7.525879E-2,1.6674699E-1,2.2474665E-2,-6.0929198E-2,6.9475785E-2],"categories":[],"categories_nodes":[],"categories_segments":[],"categories_sizes":[],"default_left":[0,0,0,0,0,0,0,0,0,0,0,0,0,0,0,0,0],"id":31,"left_children":[1,-1,3,5,-1,7,9,-1,11,-1,-1,13,15,-1,-1,-1,-1],"loss_changes":[2.3427394E-1,0E0,2.844009E-1,2.4305242E-1,0E0,2.3641878E-1,6.778597E-2,0E0,2.3642907E-1,0E0,0E0,1.2953949E-1,4.0785986E-1,0E0,0E0,0E0,0E0],"parents":[2147483647,0,0,2,2,3,3,5,5,6,6,8,8,11,11,12,12],"right_children":[2,-1,4,6,-1,8,10,-1,12,-1,-1,14,16,-1,-1,-1,-1],"split_conditions":[-1.7104392E0,-9.136022E-2,4.901837E-1,9.876291E-1,-8.357184E-2,-1.4428294E0,2.47668E-1,-5.6405816E-2,-5.9836155E-1,4.702647E-3,-8.26333E-2,-9.082905E-1,7.29636E-1,1.6674699E-1,2.2474665E-2,-6.0929198E-2,6.9475785E-2],"split_indices":[3,0,1,4,0,4,3,0,3,0,0,4,4,0,0,0,0],"split_type":[0,0,0,0,0,0,0,0,0,0,0,0,0,0,0,0,0],"sum_hessian":[1.6505667E1,1.6083004E0,1.4897367E1,1.3183186E1,1.7141807E0,1.0895965E1,2.2872214E0,1.1386465E0,9.757318E0,1.1001552E0,1.1870662E0,2.4652674E0,7.2920504E0,1.2380313E0,1.227236E0,2.5148778E0,4.7771726E0],"tree_param":{"num_deleted":"0","num_feature":"6","num_nodes":"17","size_leaf_vector":"1"}},{"base_weights":[-2.5740793E-2,-6.2102813E-2,6.531022E-2,2.9771334E-2,-2.720426E-1,-2.862431E-1,1.2907784E-1,-1.5192795E-1,3.218588E-2,-1.815778E-2,-1.0934352E-1,2.3829752E-1,-1.537424E-1,-1.1381585E-1,4.3594462E-1,-1.6320628E-1,1.0032583E-1,-9.6452765E-2,5.842243E-2,3.2523986E-2,1.5346079E-1],"categories":[],"categories_nodes":[],"categories_segments":[],"categories_sizes":[],"default_left":[0,0,0,0,0,0,0,0,0,0,0,0,0,0,0,0,0,0,0,0,0],"id":32,"left_children":[1,3,-1,5,7,9,11,-1,-1,-1,-1,13,15,17,19,-1,-1,-1,-1,-1,-1],"loss_changes":[1.644485E-1,3.0923298E-1,0E0,4.0604386E-1,4.856439E-1,3.3088923E-2,3.343585E-1,0E0,0E0,0E0,0E0,5.608064E-1,8.093106E-1,2.8266156E-1,6.614584E-2,0E0,0E0,0E0,0E0,0E0,0E0],"parents":[2147483647,0,0,1,1,3,3,4,4,5,5,6,6,11,11,12,12,13,13,14,14],"right_children":[2,4,-1,6,8,10,12,-1,-1,-1,-1,14,16,18,20,-1,-1,-1,-1,-1,-1],"split_conditions":[7.8274655E-1,4.0580612E-1,6.531022E-2,-1.8189135E0,8.548012E-1,-4.5234662E-1,-4.869324E-2,-1.5192795E-1,3.218588E-2,-1.815778E-2,-1.0934352E-1,-6.54333E-1,1.2173549E0,-1.11546874E-1,-1.2156239E0,-1.6320628E-1,1.0032583E-1,-9.6452765E-2,5.842243E-2,3.2523986E-2,1.5346079E-1],"split_indices":[2,2,0,1,4,2,3,0,0,0,0,2,4,0,4,0,0,0,0,0,0],"split_type":[0,0,0,0,0,0,0,0,0,0,0,0,0,0,0,0,0,0,0,0,0],"sum_hessian":[1.6050186E1,1.4612469E1,1.4377177E0,1.076129E1,3.8511794E0,2.123007E0,8.638283E0,2.1732743E0,1.6779053E0,1.0029701E0,1.1200371E0,6.3452816E0,2.2930005E0,2.4337106E0,3.9115713E0,1.2106642E0,1.0823363E0,1.4295133E0,1.0041972E0,1.189924E0,2.7216473E0],"tree_param":{"num_deleted":"0","num_feature":"6","num_nodes":"21","size_leaf_vector":"1"}},{"base_weights":[-2.4537608E-2,1.4327027E-2,-9.236552E-2,7.276893E-2,-1.8495439E-1,-7.040202E-2,1.2949249E-1,-1.1077296E-1,1.1596037E-2,-3.3287745E-2,2.4825233E-1,1.06199734E-1,-2.5703865E-1,-3.6310434E-2,3.412783E-1,-1.2235998E-1,-2.2523643E-2,1.3294521E-1,-1.3074911E-2],"categories":[],"categories_nodes":[],"categories_segments":[],"categories_sizes":[],"default_left":[0,0,0,0,0,0,0,0,0,0,0,0,0,0,0,0,0,0,0],"id":33,"left_children":[1,3,-1,5,7,-1,9,-1,-1,11,13,-1,15,-1,17,-1,-1,-1,-1],"loss_changes":[1.8450736E-1,1.9208154E-1,0E0,2.4972034E-1,1.6922618E-1,0E0,2.2598422E-1,0E0,0E0,5.7907695E-1,2.6906413E-1,0E0,8.325377E-2,0E0,2.3720968E-1,0E0,0E0,0E0,0E0],"parents":[2147483647,0,0,1,1,3,3,4,4,6,6,9,9,10,10,12,12,14,14],"right_children":[2,4,-1,6,8,-1,10,-1,-1,12,14,-1,16,-1,18,-1,-1,-1,-1],"split_conditions":[6.3402426E-1,9.876291E-1,-9.236552E-2,-1.4428294E0,1.226351E0,-7.040202E-2,-5.209023E-1,-1.1077296E-1,1.1596037E-2,-1.5345128E0,-1.6541895E0,1.06199734E-1,7.794281E-2,-3.6310434E-2,6.8291014E-1,-1.2235998E-1,-2.2523643E-2,1.3294521E-1,-1.3074911E-2],"split_indices":[0,4,0,4,4,0,0,0,0,1,1,0,2,0,2,0,0,0,0],"split_type":[0,0,0,0,0,0,0,0,0,0,0,0,0,0,0,0,0,0,0],"sum_hessian":[1.5354259E1,1.43371725E1,1.0170856E0,1.1576929E1,2.7602434E0,1.3146067E0,1.0262322E1,1.1561184E0,1.6041251E0,4.6324625E0,5.62986E0,1.4831645E0,3.1492982E0,1.0722486E0,4.5576115E0,1.0431246E0,2.1061735E0,3.4839566E0,1.073655E0],"tree_param":{"num_deleted":"0","num_feature":"6","num_nodes":"19","size_leaf_vector":"1"}},{"base_weights":[-3.0795218E-2,1.25948815E-2,-7.50891E-2,-4.658238E-2,1.17195204E-1,2.2356845E-2,-2.5622812E-1,-7.6150015E-2,1.1502705E-1,-1.2660293E-1,1.9277945E-2,2.0238282E-1,-1.1725857E-1,-3.898497E-2,1.0372198E-1,-1.3928545E-1,8.733313E-2],"categories":[],"categories_nodes":[],"categories_segments":[],"categories_sizes":[],"default_left":[0,0,0,0,0,0,0,0,0,0,0,0,0,0,0,0,0],"id":34,"left_children":[1,3,-1,5,-1,7,9,-1,11,-1,-1,13,15,-1,-1,-1,-1],"loss_changes":[1.5410171E-1,3.355539E-1,0E0,1.9591017E-1,0E0,3.0618876E-1,2.043929E-1,0E0,2.0212346E-1,0E0,0E0,3.6678463E-1,5.653769E-1,0E0,0E0,0E0,0E0],"parents":[2147483647,0,0,1,1,3,3,5,5,6,6,8,8,11,11,12,12],"right_children":[2,4,-1,6,-1,8,10,-1,12,-1,-1,14,16,-1,-1,-1,-1],"split_conditions":[5.5879444E-1,7.8274655E-1,-7.50891E-2,4.0580612E-1,1.17195204E-1,-1.8189135E0,3.421258E-1,-7.6150015E-2,-4.869324E-2,-1.2660293E-1,1.9277945E-2,-1.0503788E0,1.1951492E0,-3.898497E-2,1.0372198E-1,-1.3928545E-1,8.733313E-2],"split_indices":[3,2,0,2,0,1,3,0,3,0,0,3,4,0,0,0,0],"split_type":[0,0,0,0,0,0,0,0,0,0,0,0,0,0,0,0,0],"sum_hessian":[1.4849015E1,1.3185239E1,1.6637769E0,1.21588E1,1.0264387E0,9.822245E0,2.336556E0,2.0307577E0,7.7914863E0,1.3311878E0,1.0053681E0,5.7556787E0,2.0358078E0,1.762755E0,3.9929235E0,1.0265422E0,1.0092657E0],"tree_param":{"num_deleted":"0","num_feature":"6","num_nodes":"17","size_leaf_vector":"1"}},{"base_weights":[-3.0310033E-2,2.0395586E-2,-1.9670561E-1,-6.819652E-2,6.807246E-2,-9.751664E-2,-4.9727485E-3,1.6359569E-1,-1.0878174E-1,1.0821686E-1,3.9757617E-2,-2.8777456E-1,5.4695368E-2,-9.921971E-2,2.512844E-1,4.947518E-3,-1.3824716E-1,-2.2879217E-2,1.285674E-1],"categories":[],"categories_nodes":[],"categories_segments":[],"categories_sizes":[],"default_left":[0,0,0,0,0,0,0,0,0,0,0,0,0,0,0,0,0,0,0],"id":35,"left_children":[1,3,5,-1,7,-1,-1,9,11,-1,13,15,-1,-1,17,-1,-1,-1,-1],"loss_changes":[1.3367483E-1,1.6528623E-1,7.976757E-2,0E0,2.1050216E-1,0E0,0E0,1.7621523E-1,2.9220393E-1,0E0,5.4689485E-1,1.7803752E-1,0E0,0E0,2.844241E-1,0E0,0E0,0E0,0E0],"parents":[2147483647,0,0,1,1,2,2,4,4,7,7,8,8,10,10,11,11,14,14],"right_children":[2,4,6,-1,8,-1,-1,10,12,-1,14,16,-1,-1,18,-1,-1,-1,-1],"split_conditions":[9.876291E-1,-1.4428294E0,1.226351E0,-6.819652E-2,-2.1410063E-2,-9.751664E-2,-4.9727485E-3,-9.222914E-1,-1.11546874E-1,1.0821686E-1,5.6775963E-1,7.719744E-1,5.4695368E-2,-9.921971E-2,-5.703746E-1,4.947518E-3,-1.3824716E-1,-2.2879217E-2,1.285674E-1],"split_indices":[4,4,4,0,1,0,0,4,0,0,4,4,0,0,0,0,0,0,0],"split_type":[0,0,0,0,0,0,0,0,0,0,0,0,0,0,0,0,0,0,0],"sum_hessian":[1.4368018E1,1.1684756E1,2.6832614E0,1.2777766E0,1.040698E1,1.0970242E0,1.5862372E0,6.805911E0,3.6010685E0,1.8878872E0,4.918024E0,2.2369957E0,1.3640728E0,1.5825802E0,3.3354437E0,1.139012E0,1.0979838E0,1.3713658E0,1.964078E0],"tree_param":{"num_deleted":"0","num_feature":"6","num_nodes":"19","size_leaf_vector":"1"}},{"base_weights":[-3.0474886E-2,1.0936389E-2,-6.996716E-2,-4.1849356E-2,8.4855475E-2,1.9451229E-2,-7.554007E-2,-4.332126E-2,8.779987E-2,-1.0150736E-1,3.9593622E-2,6.1523777E-2,-9.53263E-2],"categories":[],"categories_nodes":[],"categories_segments":[],"categories_sizes":[],"default_left":[0,0,0,0,0,0,0,0,0,0,0,0,0],"id":36,"left_children":[1,3,-1,5,-1,7,-1,9,-1,-1,11,-1,-1],"loss_changes":[1.2781787E-1,2.0337303E-1,0E0,1.5993345E-1,0E0,1.8850668E-1,0E0,2.3864627E-1,0E0,0E0,5.4316235E-1,0E0,0E0],"parents":[2147483647,0,0,1,1,3,3,5,5,7,7,10,10],"right_children":[2,4,-1,6,-1,8,-1,10,-1,-1,12,-1,-1],"split_conditions":[5.5879444E-1,7.0292395E-1,-6.996716E-2,4.0580612E-1,8.4855475E-2,3.2284403E-1,-7.554007E-2,-6.373087E-1,8.779987E-2,-1.0150736E-1,-4.3622967E-2,6.1523777E-2,-9.53263E-2],"split_indices":[3,2,0,2,0,2,0,0,0,0,2,0,0],"split_type":[0,0,0,0,0,0,0,0,0,0,0,0,0],"sum_hessian":[1.3919708E1,1.234443E1,1.5752783E0,1.1046177E1,1.2982534E0,9.252131E0,1.7940454E0,8.20779E0,1.0443411E0,1.1247609E0,7.0830293E0,5.132369E0,1.9506606E0],"tree_param":{"num_deleted":"0","num_feature":"6","num_nodes":"13","size_leaf_vector":"1"}},{"base_weights":[-2.9245574E-2,1.12280235E-1,-9.1307476E-2,3.297537E-1,-7.246357E-2,-2.886708E-1,4.584733E-2,1.884474E-2,1.4775531E-1,-1.4641887E-1,-5.0167233E-2,2.6774988E-1,-1.0043348E-1,5.368101E-2,-7.3147036E-2,2.4551125E-2,9.6045054E-2,-1.0698833E-1,5.5350803E-2,-3.70941E-2,4.789629E-2],"categories":[],"categories_nodes":[],"categories_segments":[],"categories_sizes":[],"default_left":[0,0,0,0,0,0,0,0,0,0,0,0,0,0,0,0,0,0,0,0,0],"id":37,"left_children":[1,3,5,7,-1,9,11,-1,-1,-1,13,15,17,-1,-1,-1,-1,-1,19,-1,-1],"loss_changes":[1.384787E-1,4.566024E-1,3.028767E-1,1.1925298E-1,0E0,1.9066355E-1,2.5982043E-1,0E0,0E0,0E0,1.8447724E-1,4.2314082E-3,2.2137366E-1,0E0,0E0,0E0,0E0,0E0,9.455841E-2,0E0,0E0],"parents":[2147483647,0,0,1,1,2,2,3,3,5,5,6,6,10,10,11,11,12,12,18,18],"right_children":[2,4,6,8,-1,10,12,-1,-1,-1,14,16,18,-1,-1,-1,-1,-1,20,-1,-1],"split_conditions":[-5.996428E-1,-1.3902141E0,-1.1606429E0,-1.8615339E0,-7.246357E-2,-3.227185E-1,-5.9836155E-1,1.884474E-2,1.4775531E-1,-1.4641887E-1,-2.0118707E-1,-6.54333E-1,-1.6275676E-1,5.368101E-2,-7.3147036E-2,2.4551125E-2,9.6045054E-2,-1.0698833E-1,3.1498313E-1,-3.70941E-2,4.789629E-2],"split_indices":[0,1,1,1,0,0,3,0,0,0,0,2,3,0,0,0,0,0,2,0,0],"split_type":[0,0,0,0,0,0,0,0,0,0,0,0,0,0,0,0,0,0,0,0,0],"sum_hessian":[1.3598815E1,3.8988109E0,9.700004E0,2.4568055E0,1.4420054E0,3.5241323E0,6.1758714E0,1.4555655E0,1.00124E0,1.3495427E0,2.1745896E0,2.1237855E0,4.052086E0,1.0309447E0,1.1436448E0,1.0302597E0,1.0935256E0,1.0447336E0,3.0073524E0,1.0389427E0,1.9684097E0],"tree_param":{"num_deleted":"0","num_feature":"6","num_nodes":"21","size_leaf_vector":"1"}},{"base_weights":[-2.4497949E-2,1.0285641E-1,-8.013483E-2,2.924999E-1,-6.06244E-2,1.2782311E-1,-1.8722495E-1,1.2547856E-2,1.294017E-1,-8.811592E-2,1.17958315E-1,-1.3132237E-1,-1.5827475E-2,-6.2761225E-2,2.2192964E-2,2.1861641E-1,-1.1052688E-1,1.2083658E-1,-1.1725647E-2],"categories":[],"categories_nodes":[],"categories_segments":[],"categories_sizes":[],"default_left":[0,0,0,0,0,0,0,0,0,0,0,0,0,0,0,0,0,0,0],"id":38,"left_children":[1,3,5,7,-1,9,11,-1,-1,13,-1,-1,15,-1,-1,17,-1,-1,-1],"loss_changes":[1.0845047E-1,3.3309427E-1,2.5564638E-1,9.784424E-2,0E0,2.7136955E-1,3.0538788E-1,0E0,0E0,7.621458E-2,0E0,0E0,5.2331954E-1,0E0,0E0,1.9822302E-1,0E0,0E0,0E0],"parents":[2147483647,0,0,1,1,2,2,3,3,5,5,6,6,9,9,12,12,15,15],"right_children":[2,4,6,8,-1,10,12,-1,-1,14,-1,-1,16,-1,-1,18,-1,-1,-1],"split_conditions":[-5.996428E-1,-1.3902141E0,-3.1787696E-1,-6.438846E-1,-6.06244E-2,-6.753685E-1,7.29636E-1,1.2547856E-2,1.294017E-1,-1.24289885E-1,1.17958315E-1,-1.3132237E-1,9.261218E-1,-6.2761225E-2,2.2192964E-2,6.150457E-1,-1.1052688E-1,1.2083658E-1,-1.1725647E-2],"split_indices":[0,1,2,0,0,2,4,0,0,0,0,0,4,0,0,2,0,0,0],"split_type":[0,0,0,0,0,0,0,0,0,0,0,0,0,0,0,0,0,0,0],"sum_hessian":[1.3142498E1,3.737819E0,9.404679E0,2.3297284E0,1.4080905E0,3.1309993E0,6.27368E0,1.2942389E0,1.0354894E0,2.0945585E0,1.0364407E0,1.9173334E0,4.356347E0,1.0325584E0,1.062E0,2.844796E0,1.511551E0,1.3307471E0,1.5140488E0],"tree_param":{"num_deleted":"0","num_feature":"6","num_nodes":"19","size_leaf_vector":"1"}},{"base_weights":[-1.5559246E-2,2.4267714E-2,-6.581478E-2,-1.1998643E-1,1.06492855E-1,5.914771E-2,-1.0541991E-1,8.661664E-2,1.6289327E-2,-5.072682E-2,6.339015E-2,-9.99898E-2,9.681138E-2,2.925512E-2,-1.8626602E-1,-1.1136476E-1,2.7716868E-2],"categories":[],"categories_nodes":[],"categories_segments":[],"categories_sizes":[],"default_left":[0,0,0,0,0,0,0,0,0,0,0,0,0,0,0,0,0],"id":39,"left_children":[1,3,-1,5,7,9,-1,-1,11,-1,-1,13,-1,-1,15,-1,-1],"loss_changes":[1.1595737E-1,1.586883E-1,0E0,2.2541502E-1,1.3279942E-1,1.6207866E-1,0E0,0E0,2.6938805E-1,0E0,0E0,1.13381505E-1,0E0,0E0,2.5243533E-1,0E0,0E0],"parents":[2147483647,0,0,1,1,3,3,4,4,5,5,8,8,11,11,14,14],"right_children":[2,4,-1,6,8,10,-1,-1,12,-1,-1,14,-1,-1,16,-1,-1],"split_conditions":[4.4077504E-1,-1.6839549E-1,-6.581478E-2,7.548471E-1,-6.3495016E-1,-1.0991794E0,-1.0541991E-1,8.661664E-2,5.160938E-2,-5.072682E-2,6.339015E-2,-2.5144005E-1,9.681138E-2,2.925512E-2,8.548012E-1,-1.1136476E-1,2.7716868E-2],"split_indices":[0,2,0,4,0,4,0,0,1,0,0,3,0,0,4,0,0],"split_type":[0,0,0,0,0,0,0,0,0,0,0,0,0,0,0,0,0],"sum_hessian":[1.262873E1,1.1301384E1,1.3273463E0,3.9363272E0,7.3650565E0,2.638389E0,1.297938E0,1.7099096E0,5.655147E0,1.0108093E0,1.6275798E0,4.587827E0,1.0673198E0,1.3551884E0,3.2326386E0,1.743363E0,1.4892757E0],"tree_param":{"num_deleted":"0","num_feature":"6","num_nodes":"17","size_leaf_vector":"1"}},{"base_weights":[-1.3459073E-2,-6.081723E-2,2.3115197E-2,9.211227E-2,-3.157802E-2,3.6558546E-2,-2.1303628E-1,-7.022772E-2,1.0233564E-1,-8.4927484E-2,-1.4247785E-2,-6.1583973E-2,2.1994562E-1,7.153378E-2,-1.0560023E-1,1.0003451E-1,-1.551192E-2],"categories":[],"categories_nodes":[],"categories_segments":[],"categories_sizes":[],"default_left":[0,0,0,0,0,0,0,0,0,0,0,0,0,0,0,0,0],"id":40,"left_children":[1,-1,3,-1,5,7,9,-1,11,-1,-1,13,15,-1,-1,-1,-1],"loss_changes":[9.6846074E-2,0E0,1.9689812E-1,0E0,1.439744E-1,1.8171218E-1,2.3125693E-2,0E0,1.6439363E-1,0E0,0E0,4.3682772E-1,1.6445883E-1,0E0,0E0,0E0,0E0],"parents":[2147483647,0,0,2,2,4,4,5,5,6,6,8,8,11,11,12,12],"right_children":[2,-1,4,-1,6,8,10,-1,12,-1,-1,14,16,-1,-1,-1,-1],"split_conditions":[-1.7104392E0,-6.081723E-2,-1.2623128E0,9.211227E-2,9.660778E-1,-4.308118E-1,-1.1606429E0,-7.022772E-2,7.29636E-1,-8.4927484E-2,-1.4247785E-2,-4.3622967E-2,6.9963324E-1,7.153378E-2,-1.0560023E-1,1.0003451E-1,-1.551192E-2],"split_indices":[3,0,2,0,4,2,1,0,4,0,0,2,2,0,0,0,0],"split_type":[0,0,0,0,0,0,0,0,0,0,0,0,0,0,0,0,0],"sum_hessian":[1.2313638E1,1.2584722E0,1.1055165E1,1.0403874E0,1.0014778E1,7.861397E0,2.1533813E0,1.0367286E0,6.824668E0,1.0141417E0,1.1392397E0,3.050035E0,3.7746332E0,1.5882081E0,1.4618268E0,2.5018265E0,1.2728066E0],"tree_param":{"num_deleted":"0","num_feature":"6","num_nodes":"17","size_leaf_vector":"1"}},{"base_weights":[-1.6276268E-2,2.062384E-2,-5.8409277E-2,-3.0671636E-2,7.581356E-2,-6.3204154E-2,3.434188E-2,1.1751529E-1,-7.540849E-2,1.1500988E-2,1.0436457E-1,5.0358288E-2,-8.3181284E-2],"categories":[],"categories_nodes":[],"categories_segments":[],"categories_sizes":[],"default_left":[0,0,0,0,0,0,0,0,0,0,0,0,0],"id":41,"left_children":[1,3,-1,5,-1,-1,7,9,-1,11,-1,-1,-1],"loss_changes":[8.935016E-2,1.4637825E-1,0E0,1.2927873E-1,0E0,0E0,2.320274E-1,1.738236E-1,0E0,3.183915E-1,0E0,0E0,0E0],"parents":[2147483647,0,0,1,1,3,3,6,6,7,7,9,9],"right_children":[2,4,-1,6,-1,-1,8,10,-1,12,-1,-1,-1],"split_conditions":[5.710431E-1,7.0292395E-1,-5.8409277E-2,-1.8189135E0,7.581356E-2,-6.3204154E-2,4.0580612E-1,1.1304107E0,-7.540849E-2,7.719744E-1,1.0436457E-1,5.0358288E-2,-8.3181284E-2],"split_indices":[3,2,0,1,0,0,2,4,0,4,0,0,0],"split_type":[0,0,0,0,0,0,0,0,0,0,0,0,0],"sum_hessian":[1.1961388E1,1.0644384E1,1.3170034E0,9.4283905E0,1.215993E0,1.9071964E0,7.5211945E0,6.281282E0,1.2399129E0,5.0206923E0,1.2605892E0,3.5287206E0,1.4919719E0],"tree_param":{"num_deleted":"0","num_feature":"6","num_nodes":"13","size_leaf_vector":"1"}},{"base_weights":[-1.5301146E-2,2.444857E-2,-5.4425564E-2,-1.1823434E-1,1.07774355E-1,-9.097567E-2,4.540294E-2,1.7218952E-1,-4.568127E-2,-3.1137088E-2,5.087913E-2,-1.9648813E-2,2.8299916E-1,1.19376175E-1,-2.8255368E-3],"categories":[],"categories_nodes":[],"categories_segments":[],"categories_sizes":[],"default_left":[0,0,0,0,0,0,0,0,0,0,0,0,0,0,0],"id":42,"left_children":[1,3,-1,5,7,-1,9,11,-1,-1,-1,-1,13,-1,-1],"loss_changes":[8.842071E-2,1.4524059E-1,0E0,1.5260229E-1,1.5283576E-1,0E0,7.880719E-2,1.9045441E-1,0E0,0E0,0E0,0E0,1.596713E-1,0E0,0E0],"parents":[2147483647,0,0,1,1,3,3,4,4,6,6,7,7,12,12],"right_children":[2,4,-1,6,8,-1,10,12,-1,-1,-1,-1,14,-1,-1],"split_conditions":[2.9333788E-1,-1.6839549E-1,-5.4425564E-2,-5.301321E-1,9.876291E-1,-9.097567E-2,-1.0503788E0,7.29636E-1,-4.568127E-2,-3.1137088E-2,5.087913E-2,-1.9648813E-2,6.9963324E-1,1.19376175E-1,-2.8255368E-3],"split_indices":[0,2,0,0,4,0,3,4,0,0,0,0,2,0,0],"split_type":[0,0,0,0,0,0,0,0,0,0,0,0,0,0,0],"sum_hessian":[1.1719033E1,1.0144428E1,1.5746051E0,3.5856316E0,6.5587964E0,1.2824364E0,2.3031952E0,5.527453E0,1.0313437E0,1.1209267E0,1.1822685E0,1.8875688E0,3.639884E0,2.3539686E0,1.2859154E0],"tree_param":{"num_deleted":"0","num_feature":"6","num_nodes":"15","size_leaf_vector":"1"}},{"base_weights":[-1.6400402E-2,4.026724E-2,-1.425863E-1,-3.539247E-2,1.8729493E-1,-1.1267818E-1,2.4792863E-2,5.76668E-2,-8.2683E-2,-1.4088413E-2,1.0709289E-1,-7.55222E-2,6.594892E-2,-7.242434E-2,2.9726692E-2],"categories":[],"categories_nodes":[],"categories_segments":[],"categories_sizes":[],"default_left":[0,0,0,0,0,0,0,0,0,0,0,0,0,0,0],"id":43,"left_children":[1,3,5,7,9,-1,-1,11,-1,-1,-1,13,-1,-1,-1],"loss_changes":[9.491249E-2,1.1103331E-1,2.4541384E-1,1.7321853E-1,1.4983207E-1,0E0,0E0,1.4402339E-1,0E0,0E0,0E0,1.3930927E-1,0E0,0E0,0E0],"parents":[2147483647,0,0,1,1,2,2,3,3,4,4,7,7,11,11],"right_children":[2,4,6,8,10,-1,-1,12,-1,-1,-1,14,-1,-1,-1],"split_conditions":[2.7302265E-1,-1.4862047E-1,8.5058635E-1,7.9573065E-1,1.1264164E0,-1.1267818E-1,2.4792863E-2,-1.2746622E-1,-8.2683E-2,-1.4088413E-2,1.0709289E-1,-3.312807E-1,6.594892E-2,-7.242434E-2,2.9726692E-2],"split_indices":[3,3,4,4,4,0,0,4,0,0,0,0,0,0,0],"split_type":[0,0,0,0,0,0,0,0,0,0,0,0,0,0,0],"sum_hessian":[1.1470311E1,