{"learner":{"attributes":{"scikit_learn":"{\"_estimator_type\": \"classifier\"}"},"feature_names":[],"feature_types":[],"gradient_booster":{"model":{"cats":{"enc":[],"feature_segments":[],"sorted_idx":[]},"gbtree_model_param":{"num_parallel_tree":"1","num_trees":"100"},"iteration_indptr":[0,1,2,3,4,5,6,7,8,9,10,11,12,13,14,15,16,17,18,19,20,21,22,23,24,25,26,27,28,29,30,31,32,33,34,35,36,37,38,39,40,41,42,43,44,45,46,47,48,49,50,51,52,53,54,55,56,57,58,59,60,61,62,63,64,65,66,67,68,69,70,71,72,73,74,75,76,77,78,79,80,81,82,83,84,85,86,87,88,89,90,91,92,93,94,95,96,97,98,99,100],"tree_info":[0,0,0,0,0,0,0,0,0,0,0,0,0,0,0,0,0,0,0,0,0,0,0,0,0,0,0,0,0,0,0,0,0,0,0,0,0,0,0,0,0,0,0,0,0,0,0,0,0,0,0,0,0,0,0,0,0,0,0,0,0,0,0,0,0,0,0,0,0,0,0,0,0,0,0,0,0,0,0,0,0,0,0,0,0,0,0,0,0,0,0,0,0,0,0,0,0,0,0,0],"trees":[{"base_weights":[-1.1272746E-9,-1.4962885E0,4.3448982E-1,-1.2920158E-1,-1.7694085E0,-1.8080636E0,6.5080976E-1,-5.529412E-1,1.5434471E0,-5.937337E-1,-8.7275726E-1,-5.8500004E-1,-1.7783858E-1,-6.3023734E-1,8.7086666E-1,5.505846E-1,-3E-1,1.0128152E0,-5.63077E-1,3.684925E-1,-4.0000004E-1,-1.4379145E0,1.5178679E0,1.3904787E0,9.8628946E-2,4.474609E-1,-3.3333337E-1,-1.7976176E0,4.7509578E-1,3.2948583E-1,1.6889653E0,1.4953498E0,2.5597954E-1,1.6074859E0,-6.84736E-1,1.3447958E-2,-5.8431375E-1,4.9610618E-1,-4.4000003E-1,3.684925E-1,-3E-1,2.1186511E-1,5.356392E-1,-4.2857146E-1,4.6123594E-1,-5.294118E-1,4.6303415E-1,5.8163315E-1,-4.909091E-1,-4.9644458E-1,-7.354777E-5],"categories":[],"categories_nodes":[],"categories_segments":[],"categories_sizes":[],"default_left":[0,0,0,0,0,0,0,0,0,0,0,0,0,0,0,0,0,0,0,0,0,0,0,0,0,0,0,0,0,0,0,0,0,0,0,0,0,0,0,0,0,0,0,0,0,0,0,0,0,0,0],"id":0,"left_children":[1,3,5,7,9,11,13,-1,15,-1,17,-1,19,21,23,-1,-1,25,-1,-1,-1,27,29,31,33,-1,-1,35,37,39,41,43,45,47,49,-1,-1,-1,-1,-1,-1,-1,-1,-1,-1,-1,-1,-1,-1,-1,-1],"loss_changes":[4.1315262E2,5.3167786E1,2.4008865E2,7.420536E1,2.067041E1,9.739822E0,1.2737697E2,0E0,1.15901165E1,0E0,4.8037807E1,0E0,9.098331E0,1.1761731E2,1.5409491E2,0E0,0E0,1.092697E1,0E0,0E0,0E0,3.4480072E1,3.239071E0,2.6944702E1,1.8510884E2,0E0,0E0,1.1519989E1,2.1935537E1,5.520298E0,2.6356506E-1,2.8054443E1,5.642517E1,6.0668167E1,6.850943E1,0E0,0E0,0E0,0E0,0E0,0E0,0E0,0E0,0E0,0E0,0E0,0E0,0E0,0E0,0E0,0E0],"parents":[2147483647,0,0,1,1,2,2,3,3,4,4,5,5,6,6,8,8,10,10,12,12,13,13,14,14,17,17,21,21,22,22,23,23,24,24,27,27,28,28,29,29,30,30,31,31,32,32,33,33,34,34],"right_children":[2,4,6,8,10,12,14,-1,16,-1,18,-1,20,22,24,-1,-1,26,-1,-1,-1,28,30,32,34,-1,-1,36,38,40,42,44,46,48,50,-1,-1,-1,-1,-1,-1,-1,-1,-1,-1,-1,-1,-1,-1,-1,-1],"split_conditions":[-6.3495016E-1,-8.5362273E-1,-1.5345128E0,-1.5345128E0,6.7625755E-1,7.0726645E-1,-4.972091E-1,-5.529412E-1,7.9688346E-1,-5.937337E-1,7.142729E-1,-5.8500004E-1,-2.178108E0,1.6337456E0,-8.675649E-1,5.505846E-1,-3E-1,-8.207427E-2,-5.63077E-1,3.684925E-1,-4.0000004E-1,2.3839511E-1,5.9984183E-1,7.461422E-1,-1.0233088E0,4.474609E-1,-3.3333337E-1,-2.357948E0,-5.703746E-1,1.7900233E0,1.9398885E0,-1.437631E0,2.091057E0,-5.209023E-1,1.4963741E0,1.3447958E-2,-5.8431375E-1,4.9610618E-1,-4.4000003E-1,3.684925E-1,-3E-1,2.1186511E-1,5.356392E-1,-4.2857146E-1,4.6123594E-1,-5.294118E-1,4.6303415E-1,5.8163315E-1,-4.909091E-1,-4.9644458E-1,-7.354777E-5],"split_indices":[0,1,1,1,2,3,3,0,4,0,1,0,1,0,4,0,0,4,0,0,0,2,1,1,1,0,0,2,0,0,0,4,0,0,0,0,0,0,0,0,0,0,0,0,0,0,0,0,0,0,0],"split_type":[0,0,0,0,0,0,0,0,0,0,0,0,0,0,0,0,0,0,0,0,0,0,0,0,0,0,0,0,0,0,0,0,0,0,0,0,0,0,0,0,0,0,0,0,0,0,0,0,0,0,0],"sum_hessian":[6.335E2,1.4200879E2,4.914912E2,2.389196E1,1.1811684E2,4.259171E1,4.488995E2,1.175E1,1.214196E1,9.475E1,2.3366835E1,3.9E1,3.5917087E0,6.553392E1,3.8336557E2,1.114196E1,1E0,8.116835E0,1.525E1,1.5917085E0,2E0,4.7866833E1,1.7667086E1,2.2868845E2,1.5467714E2,6.866834E0,1.25E0,4.034171E1,7.5251255E0,2.5917087E0,1.50753765E1,2.0904648E2,1.964196E1,5.2501255E1,1.0217588E2,3.0917087E0,3.725E1,4.7751255E0,2.75E0,1.5917085E0,1E0,2.0917087E0,1.2983668E1,2.5E0,2.0654648E2,7.5E0,1.214196E1,4.8001255E1,4.5E0,4.168342E1,6.0492462E1],"tree_param":{"num_deleted":"0","num_feature":"6","num_nodes":"51","size_leaf_vector":"1"}},{"base_weights":[-4.970827E-3,-1.159049E0,3.2150763E-1,-1.105485E-1,-1.3703041E0,-1.39983E0,4.8320723E-1,-4.3285003E-1,1.1852199E0,-4.603786E-1,-6.786491E-1,-4.544534E-1,-1.3608421E-1,1.0830134E0,1.5795638E-1,4.250213E-1,5.4386307E-2,7.570295E-1,-4.3965992E-1,3.0762827E-1,-3.2961032E-1,1.5533444E0,-5.007155E-1,-1.4838609E0,8.79947E-1,1.1562229E0,-2.8256765E-1,1.5703365E0,1.193564E-1,4.547839E-1,-1.6785916E0,1.5387561E0,3.5116947E-1,1.2668215E-1,4.0306863E-1,2.4067093E-1,4.7672996E-1,4.434503E-1,-3.6148125E-1,-2.7708682E-1,-5.178565E-1,1.02238595E-1,4.70018E-1,-6.0925815E-2,4.2370242E-1],"categories":[],"categories_nodes":[],"categories_segments":[],"categories_sizes":[],"default_left":[0,0,0,0,0,0,0,0,0,0,0,0,0,0,0,0,0,0,0,0,0,0,0,0,0,0,0,0,0,0,0,0,0,0,0,0,0,0,0,0,0,0,0,0,0],"id":1,"left_children":[1,3,5,7,9,11,13,-1,15,-1,17,-1,19,21,23,-1,-1,25,-1,-1,-1,27,-1,29,31,33,-1,35,-1,37,39,41,43,-1,-1,-1,-1,-1,-1,-1,-1,-1,-1,-1,-1],"loss_changes":[2.2542995E2,2.9071472E1,1.3048938E2,4.1781757E1,1.1426254E1,5.6522675E0,8.314645E1,0E0,2.605816E0,0E0,2.6926228E1,0E0,6.1143975E0,1.9673709E2,3.309442E2,0E0,0E0,7.023392E0,0E0,0E0,0E0,1.9004822E0,0E0,3.2969147E1,6.696463E1,4.6859074E-1,0E0,5.470276E-1,0E0,1.6343937E1,1.1990051E0,2.3471832E0,6.427458E1,0E0,0E0,0E0,0E0,0E0,0E0,0E0,0E0,0E0,0E0,0E0,0E0],"parents":[2147483647,0,0,1,1,2,2,3,3,4,4,5,5,6,6,8,8,10,10,12,12,13,13,14,14,17,17,21,21,23,23,24,24,25,25,27,27,29,29,30,30,31,31,32,32],"right_children":[2,4,6,8,10,12,14,-1,16,-1,18,-1,20,22,24,-1,-1,26,-1,-1,-1,28,-1,30,32,34,-1,36,-1,38,40,42,44,-1,-1,-1,-1,-1,-1,-1,-1,-1,-1,-1,-1],"split_conditions":[-6.3495016E-1,-8.5362273E-1,-1.5345128E0,-1.5345128E0,6.7625755E-1,7.0726645E-1,-3.767903E-1,-4.3285003E-1,7.8877306E-1,-4.603786E-1,7.142729E-1,-4.544534E-1,-2.178108E0,-5.042443E-1,1.4963741E0,4.250213E-1,5.4386307E-2,-8.207427E-2,-4.3965992E-1,3.0762827E-1,-3.2961032E-1,9.2311746E-1,-5.007155E-1,-2.3575398E-1,2.6671776E-1,6.898821E-1,-2.8256765E-1,-7.6133996E-1,1.193564E-1,-5.456565E-1,-1.2156239E0,3.7268955E-1,2.1131961E0,1.2668215E-1,4.0306863E-1,2.4067093E-1,4.7672996E-1,4.434503E-1,-3.6148125E-1,-2.7708682E-1,-5.178565E-1,1.02238595E-1,4.70018E-1,-6.0925815E-2,4.2370242E-1],"split_indices":[0,1,1,1,2,3,1,0,4,0,1,0,1,0,0,0,0,4,0,0,0,4,0,1,2,1,0,3,0,0,4,1,0,0,0,0,0,0,0,0,0,0,0,0,0],"split_type":[0,0,0,0,0,0,0,0,0,0,0,0,0,0,0,0,0,0,0,0,0,0,0,0,0,0,0,0,0,0,0,0,0,0,0,0,0,0,0,0,0,0,0,0,0],"sum_hessian":[5.963149E2,1.3093143E2,4.6538348E2,2.2212029E1,1.087194E2,3.930575E1,4.2607773E2,1.0895737E1,1.1316291E1,8.6866875E1,2.1852522E1,3.584479E1,3.460961E0,1.4899014E2,2.770876E2,8.861535E0,2.4547558E0,7.7501764E0,1.4102345E1,1.5388751E0,1.922086E0,1.27616E2,2.1374146E1,8.431006E1,1.9277753E2,6.5342655E0,1.2159108E0,1.2541272E2,2.2032752E0,7.5737796E0,7.6736275E1,8.498449E1,1.0779304E2,1.9904047E0,4.543861E0,4.0339475E0,1.2137878E2,4.7526717E0,2.8211079E0,5.7610207E0,7.097526E1,2.2397866E0,8.2744705E1,7.134027E1,3.6452766E1],"tree_param":{"num_deleted":"0","num_feature":"6","num_nodes":"45","size_leaf_vector":"1"}},{"base_weights":[-5.7725236E-3,-9.9233645E-1,2.616106E-1,-1.9510877E-1,-1.2175288E0,-1.20197E0,3.9295807E-1,-3.7195364E-1,4.6645173E-1,-4.011669E-1,-7.358396E-1,-3.945873E-1,-1.3486142E-1,9.139429E-1,1.2612218E-1,8.8321054E-1,-3.3371267E-1,3.9479196E-1,-1.0536546E0,2.6577818E-1,-2.756265E-1,1.3159217E0,-4.1877088E-1,-1.22469E0,6.9103676E-1,3.7932745E-1,-1.3904585E-1,2.759807E-1,-2.1820153E-1,-3.82741E-1,-1.6824174E-1,1.3330536E0,9.575602E-2,3.53014E-1,-1.3920218E0,1.1103824E0,-1.0553541E-2,2.2963877E-1,-2.7196687E-1,1.53262E-1,-2.4772644E-1,1.8660529E-1,4.0622008E-1,3.54883E-1,-3.0983374E-1,-2.0736746E-1,-4.3364653E-1,4.1749018E-1,2.145869E-1,3.6408097E-1,-2.2959547E-1],"categories":[],"categories_nodes":[],"categories_segments":[],"categories_sizes":[],"default_left":[0,0,0,0,0,0,0,0,0,0,0,0,0,0,0,0,0,0,0,0,0,0,0,0,0,0,0,0,0,0,0,0,0,0,0,0,0,0,0,0,0,0,0,0,0,0,0,0,0,0,0],"id":2,"left_children":[1,3,5,7,9,11,13,-1,15,-1,17,-1,19,21,23,25,-1,27,29,-1,-1,31,-1,33,35,-1,37,-1,-1,-1,39,41,-1,43,45,47,49,-1,-1,-1,-1,-1,-1,-1,-1,-1,-1,-1,-1,-1,-1],"loss_changes":[1.3858267E2,1.987355E1,7.9932976E1,1.8454365E1,4.041092E0,3.968773E0,5.2719585E1,0E0,1.1880545E1,0E0,7.4483013E0,0E0,4.3393993E0,1.21212E2,1.9352187E2,5.499545E0,0E0,3.6282146E0,2.8437443E0,0E0,0E0,1.4532776E0,0E0,2.0242958E1,5.2579872E1,0E0,3.8954E0,0E0,0E0,0E0,2.328812E0,7.6916504E-1,0E0,1.0390245E1,1.5429077E0,1.1432541E1,6.360398E1,0E0,0E0,0E0,0E0,0E0,0E0,0E0,0E0,0E0,0E0,0E0,0E0,0E0,0E0],"parents":[2147483647,0,0,1,1,2,2,3,3,4,4,5,5,6,6,8,8,10,10,12,12,13,13,14,14,15,15,17,17,18,18,21,21,23,23,24,24,26,26,30,30,31,31,33,33,34,34,35,35,36,36],"right_children":[2,4,6,8,10,12,14,-1,16,-1,18,-1,20,22,24,26,-1,28,30,-1,-1,32,-1,34,36,-1,38,-1,-1,-1,40,42,-1,44,46,48,50,-1,-1,-1,-1,-1,-1,-1,-1,-1,-1,-1,-1,-1,-1],"split_conditions":[-6.3495016E-1,4.3585607E-1,-1.5345128E0,-1.5345128E0,6.869901E-1,7.660758E-1,-3.767903E-1,-3.7195364E-1,7.9688346E-1,-4.011669E-1,6.9188374E-1,-3.945873E-1,-2.178108E0,-5.042443E-1,1.4963741E0,-8.5362273E-1,-3.3371267E-1,7.119899E-1,7.275309E-1,2.6577818E-1,-2.756265E-1,9.2311746E-1,-4.1877088E-1,-2.3575398E-1,-8.675649E-1,3.7932745E-1,-7.583084E-1,2.759807E-1,-2.1820153E-1,-3.82741E-1,-8.207427E-2,-7.6133996E-1,9.575602E-2,-5.456565E-1,-1.2156239E0,4.7002777E-1,1.8058176E0,2.2963877E-1,-2.7196687E-1,1.53262E-1,-2.4772644E-1,1.8660529E-1,4.0622008E-1,3.54883E-1,-3.0983374E-1,-2.0736746E-1,-4.3364653E-1,4.1749018E-1,2.145869E-1,3.6408097E-1,-2.2959547E-1],"split_indices":[0,1,1,1,3,2,1,0,4,0,3,0,1,0,0,1,0,1,3,0,0,4,0,1,4,0,0,0,0,0,4,3,0,0,4,2,0,0,0,0,0,0,0,0,0,0,0,0,0,0,0],"split_type":[0,0,0,0,0,0,0,0,0,0,0,0,0,0,0,0,0,0,0,0,0,0,0,0,0,0,0,0,0,0,0,0,0,0,0,0,0,0,0,0,0,0,0,0,0,0,0,0,0,0,0],"sum_hessian":[5.2336707E2,1.1102108E2,4.1234598E2,2.486395E1,8.615713E1,3.328676E1,3.790592E2,9.301267E0,1.5562685E1,6.7586555E1,1.8570576E1,2.9880991E1,3.4057674E0,1.2756646E2,2.5149275E2,1.2661147E1,2.9015381E0,4.0215707E0,1.4549005E1,1.422813E0,1.9829543E0,1.0902357E2,1.8542896E1,7.381645E1,1.776763E2,9.049544E0,3.6116028E0,2.862257E0,1.159314E0,1.1278366E1,3.2706392E0,1.068496E2,2.1739633E0,6.971867E0,6.684458E1,1.1084235E2,6.683395E1,1.6590667E0,1.9525361E0,1.7185988E0,1.5520403E0,3.9454849E0,1.0290411E2,4.4520087E0,2.5198584E0,5.7256393E0,6.1118946E1,6.327617E1,4.756618E1,2.5258741E1,4.1575207E1],"tree_param":{"num_deleted":"0","num_feature":"6","num_nodes":"51","size_leaf_vector":"1"}},{"base_weights":[-8.362363E-3,-8.9268005E-1,2.1989834E-1,-1.8245456E-1,-1.0991634E0,-1.0808631E0,3.302877E-1,-3.3356297E-1,3.9333302E-1,-3.645478E-1,-6.107012E-1,-3.573169E-1,-5.840334E-2,1.9813384E-1,1.1817698E0,7.696307E-1,-2.9273653E-1,4.5288005E-1,-3.40488E-1,2.3448639E-1,-2.4059437E-1,7.866554E-1,-1.7711498E-1,1.2425961E0,1.8798946E-1,3.3808607E-1,-1.2080692E-1,-2.8433964E-1,3.1440717E-1,1.177666E0,-3.7483546E-1,-1.2243487E0,3.1639507E-1,1.2645012E0,1.05874896E-1,1.926197E-1,-6.842494E-2,-2.4863721E-1,2.0891866E-1,5.4143663E-2,3.5632905E-1,-1.5844443E-1,-3.8708776E-1,3.3071414E-1,-8.9455694E-2,3.91731E-1,2.0257083E-1],"categories":[],"categories_nodes":[],"categories_segments":[],"categories_sizes":[],"default_left":[0,0,0,0,0,0,0,0,0,0,0,0,0,0,0,0,0,0,0,0,0,0,0,0,0,0,0,0,0,0,0,0,0,0,0,0,0,0,0,0,0,0,0,0,0,0,0],"id":3,"left_children":[1,3,5,7,9,11,13,-1,15,-1,17,-1,19,21,23,25,-1,27,-1,-1,-1,29,31,33,35,-1,37,-1,-1,39,-1,41,43,45,-1,-1,-1,-1,-1,-1,-1,-1,-1,-1,-1,-1,-1],"loss_changes":[9.054074E1,1.3294594E1,5.1553787E1,1.2171386E1,3.2861862E0,3.0992966E0,3.6834652E1,0E0,8.106853E0,0E0,9.242399E0,0E0,2.9928174E0,6.3380806E1,2.4295845E0,3.8774357E0,0E0,5.897577E0,0E0,0E0,0E0,9.038546E1,9.11843E1,3.593521E-1,8.4913373E-1,0E0,3.0479438E0,0E0,0E0,7.341919E-1,0E0,1.9114456E0,5.8394268E1,8.9984894E-2,0E0,0E0,0E0,0E0,0E0,0E0,0E0,0E0,0E0,0E0,0E0,0E0,0E0],"parents":[2147483647,0,0,1,1,2,2,3,3,4,4,5,5,6,6,8,8,10,10,12,12,13,13,14,14,15,15,17,17,21,21,22,22,23,23,24,24,26,26,29,29,31,31,32,32,33,33],"right_children":[2,4,6,8,10,12,14,-1,16,-1,18,-1,20,22,24,26,-1,28,-1,-1,-1,30,32,34,36,-1,38,-1,-1,40,-1,42,44,46,-1,-1,-1,-1,-1,-1,-1,-1,-1,-1,-1,-1,-1],"split_conditions":[-6.3495016E-1,4.3585607E-1,-1.5345128E0,-1.5345128E0,6.7625755E-1,7.0726645E-1,2.1131961E0,-3.3356297E-1,7.9688346E-1,-3.645478E-1,7.142729E-1,-3.573169E-1,-2.178108E0,-2.3575398E-1,7.9558843E-1,-8.5362273E-1,-2.9273653E-1,7.012189E-1,-3.40488E-1,2.3448639E-1,-2.4059437E-1,-5.042443E-1,1.4963741E0,7.178662E-1,-2.357948E0,3.3808607E-1,4.3128315E-1,-2.8433964E-1,3.1440717E-1,-1.5131811E0,-3.7483546E-1,-1.2156239E0,3.1498313E-1,1.895692E-1,1.05874896E-1,1.926197E-1,-6.842494E-2,-2.4863721E-1,2.0891866E-1,5.4143663E-2,3.5632905E-1,-1.5844443E-1,-3.8708776E-1,3.3071414E-1,-8.9455694E-2,3.91731E-1,2.0257083E-1],"split_indices":[0,1,1,1,2,3,0,0,4,0,1,0,1,1,1,1,0,1,0,0,0,0,0,3,2,0,1,0,0,1,0,4,2,4,0,0,0,0,0,0,0,0,0,0,0,0,0],"split_type":[0,0,0,0,0,0,0,0,0,0,0,0,0,0,0,0,0,0,0,0,0,0,0,0,0,0,0,0,0,0,0,0,0,0,0,0,0,0,0,0,0,0,0,0,0,0,0],"sum_hessian":[4.4657098E2,9.1022964E1,3.55548E2,2.092667E1,7.00963E1,2.7125547E1,3.284225E2,7.648921E0,1.327775E1,5.544255E1,1.4653747E1,2.4337711E1,2.7878356E0,2.853652E2,4.3057262E1,1.0758644E1,2.5191054E0,4.883195E0,9.770552E0,1.2850002E0,1.5028355E0,1.10681496E2,1.7468372E2,4.0337925E1,2.719337E0,7.4881244E0,3.2705202E0,1.2794464E0,3.6037488E0,9.320431E1,1.747719E1,5.5477966E1,1.1920574E2,3.8957443E1,1.3804822E0,1.0405675E0,1.6787695E0,1.7447633E0,1.525757E0,1.1235216E0,9.208079E1,5.579679E0,4.989829E1,5.1960243E1,6.72455E1,3.5271317E1,3.6861277E0],"tree_param":{"num_deleted":"0","num_feature":"6","num_nodes":"47","size_leaf_vector":"1"}},{"base_weights":[-9.55029E-3,-8.2722515E-1,1.8904085E-1,-1.7487846E-1,-1.0244483E0,-9.966034E-1,2.8352574E-1,-3.0576938E-1,3.374288E-1,-3.4156948E-1,-5.5690396E-1,-3.3389354E-1,-5.9290096E-2,7.369543E-1,8.771452E-2,6.846841E-1,-2.6142108E-1,3.7850496E-1,-3.135721E-1,2.096932E-1,-2.1290737E-1,1.0675418E0,-3.40029E-1,-9.4118685E-1,4.825941E-1,3.0866253E-1,-1.0662926E-1,-2.4979441E-1,2.814154E-1,1.1297578E0,4.0481278E-1,2.3630194E-1,-1.067551E0,1.0813491E0,1.3384362E-1,-2.2371967E-1,1.7956439E-1,8.863835E-2,3.4478223E-1,3.100465E-1,-4.1631523E-1,2.4615385E-1,-2.3465694E-1,9.0817936E-2,-3.4529647E-1,1.2779605E-1,3.5043967E-1,1.08970925E-1,-4.2839292E-1],"categories":[],"categories_nodes":[],"categories_segments":[],"categories_sizes":[],"default_left":[0,0,0,0,0,0,0,0,0,0,0,0,0,0,0,0,0,0,0,0,0,0,0,0,0,0,0,0,0,0,0,0,0,0,0,0,0,0,0,0,0,0,0,0,0,0,0,0,0],"id":4,"left_children":[1,3,5,7,9,11,13,-1,15,-1,17,-1,19,21,23,25,-1,27,-1,-1,-1,29,-1,31,33,-1,35,-1,-1,37,39,41,43,45,47,-1,-1,-1,-1,-1,-1,-1,-1,-1,-1,-1,-1,-1,-1],"loss_changes":[6.1344448E1,9.318378E0,3.433755E1,8.2784195E0,2.3792496E0,2.4056377E0,2.5002808E1,0E0,5.7041826E0,0E0,6.351207E0,0E0,2.251198E0,5.3778286E1,8.102893E1,2.8366385E0,0E0,4.3091726E0,0E0,0E0,0E0,2.5428162E0,0E0,8.486637E0,2.9919727E1,0E0,2.2224631E0,0E0,0E0,7.344208E-1,1.0227538E1,4.3203077E0,6.0832405E0,2.508335E0,3.352383E1,0E0,0E0,0E0,0E0,0E0,0E0,0E0,0E0,0E0,0E0,0E0,0E0,0E0,0E0],"parents":[2147483647,0,0,1,1,2,2,3,3,4,4,5,5,6,6,8,8,10,10,12,12,13,13,14,14,15,15,17,17,21,21,23,23,24,24,26,26,29,29,30,30,31,31,32,32,33,33,34,34],"right_children":[2,4,6,8,10,12,14,-1,16,-1,18,-1,20,22,24,26,-1,28,-1,-1,-1,30,-1,32,34,-1,36,-1,-1,38,40,42,44,46,48,-1,-1,-1,-1,-1,-1,-1,-1,-1,-1,-1,-1,-1,-1],"split_conditions":[-6.3495016E-1,4.3585607E-1,-1.5345128E0,-1.5345128E0,6.7625755E-1,7.660758E-1,-3.767903E-1,-3.0576938E-1,7.9688346E-1,-3.4156948E-1,7.142729E-1,-3.3389354E-1,-2.178108E0,-5.042443E-1,1.6337456E0,-8.5362273E-1,-2.6142108E-1,7.012189E-1,-3.135721E-1,2.096932E-1,-2.1290737E-1,8.23907E-1,-3.40029E-1,-2.3575398E-1,2.6671776E-1,3.0866253E-1,5.186885E-1,-2.4979441E-1,2.814154E-1,-7.6133996E-1,-1.2142087E0,-5.456565E-1,-2.1497192E0,-3.372407E0,7.548905E-1,-2.2371967E-1,1.7956439E-1,8.863835E-2,3.4478223E-1,3.100465E-1,-4.1631523E-1,2.4615385E-1,-2.3465694E-1,9.0817936E-2,-3.4529647E-1,1.2779605E-1,3.5043967E-1,1.08970925E-1,-4.2839292E-1],"split_indices":[0,1,1,1,2,2,1,0,4,0,1,0,1,0,0,1,0,1,0,0,0,4,0,1,2,0,2,0,0,3,1,0,2,2,1,0,0,0,0,0,0,0,0,0,0,0,0,0,0],"split_type":[0,0,0,0,0,0,0,0,0,0,0,0,0,0,0,0,0,0,0,0,0,0,0,0,0,0,0,0,0,0,0,0,0,0,0,0,0,0,0,0,0,0,0,0,0,0,0,0,0],"sum_hessian":[3.758133E2,7.282007E1,3.0299323E2,1.7342781E1,5.5477283E1,2.165888E1,2.8133435E2,6.175393E0,1.1167388E1,4.3439514E1,1.2037771E1,1.9100042E1,2.5588374E0,8.401716E1,1.973172E2,9.01212E0,2.1552682E0,4.206028E0,7.8317432E0,1.1469659E0,1.4118716E0,7.176249E1,1.2254669E1,5.4341377E1,1.4297581E2,6.0711784E0,2.9409416E0,1.1748841E0,3.0311441E0,6.4959496E1,6.802995E0,5.182227E0,4.9159153E1,5.1852245E1,9.112357E1,1.512579E0,1.4283626E0,1.8537484E0,6.3105743E1,5.3500686E0,1.4529266E0,3.4167502E0,1.7654768E0,2.6706872E0,4.6488464E1,6.7542973E0,4.5097946E1,8.012292E1,1.100065E1],"tree_param":{"num_deleted":"0","num_feature":"6","num_nodes":"49","size_leaf_vector":"1"}},{"base_weights":[-1.3419264E-2,-7.782696E-1,1.5936704E-1,-1.7053357E-1,-9.7031033E-1,3.3992052E-2,1.0068924E0,2.8178743E-1,-2.8933161E-1,-3.2671112E-1,-5.250615E-1,1.9745448E-1,-6.865765E-1,1.0700711E0,9.6559666E-2,-2.3454341E-1,6.419399E-1,4.776119E-2,-2.86362E-1,-8.9387083E-1,3.2226884E-1,5.319659E-1,-1.0485612E0,1.1295536E0,4.1113967E-1,-3.2577865E-2,8.0218464E-2,2.799717E-1,-4.273153E-3,-2.4853723E-1,2.3980694E-1,-1.0013075E0,-1.0148859E-2,7.246269E-1,4.4116147E-2,-4.3835554E-1,3.099661E-1,7.019069E-1,-1.2847801E0,3.481489E-1,7.531048E-2,2.514975E-1,-2.9611396E-2,-1.8030046E-1,1.3691099E-1,-3.1541085E-1,-5.8634415E-2,1.8925661E-1,-1.8729791E-1,3.195927E-1,-3.3539408E-1,-3.170433E-1,2.0488104E-1,-4.229852E-1,2.629443E-1,2.7106094E-1,9.572024E-2,-1.475645E-1,-4.7342128E-1],"categories":[],"categories_nodes":[],"categories_segments":[],"categories_sizes":[],"default_left":[0,0,0,0,0,0,0,0,0,0,0,0,0,0,0,0,0,0,0,0,0,0,0,0,0,0,0,0,0,0,0,0,0,0,0,0,0,0,0,0,0,0,0,0,0,0,0,0,0,0,0,0,0,0,0,0,0,0,0],"id":5,"left_children":[1,3,5,7,9,11,13,15,-1,-1,17,19,21,23,25,-1,27,29,-1,31,33,35,37,39,41,-1,-1,-1,43,-1,-1,45,47,49,51,53,-1,55,57,-1,-1,-1,-1,-1,-1,-1,-1,-1,-1,-1,-1,-1,-1,-1,-1,-1,-1,-1,-1],"loss_changes":[4.2082226E1,6.6826897E0,2.7573221E1,5.766912E0,1.7739334E0,2.6916246E1,1.8203087E0,4.5325384E0,0E0,0E0,2.8188019E0,2.5637665E1,1.9200583E1,7.5756073E-1,1.4363451E-1,0E0,1.5870447E0,4.4703937E0,0E0,1.8284302E0,1.8740707E1,5.483654E0,1.4514694E1,4.7045517E-1,9.873985E-1,0E0,0E0,0E0,1.2661709E0,0E0,0E0,4.906559E-1,1.6179637E0,4.418917E1,7.1220825E1,6.633549E0,0E0,6.37908E-2,6.0515594E0,0E0,0E0,0E0,0E0,0E0,0E0,0E0,0E0,0E0,0E0,0E0,0E0,0E0,0E0,0E0,0E0,0E0,0E0,0E0,0E0],"parents":[2147483647,0,0,1,1,2,2,3,3,4,4,5,5,6,6,7,7,10,10,11,11,12,12,13,13,14,14,16,16,17,17,19,19,20,20,21,21,22,22,23,23,24,24,28,28,31,31,32,32,33,33,34,34,35,35,37,37,38,38],"right_children":[2,4,6,8,10,12,14,16,-1,-1,18,20,22,24,26,-1,28,30,-1,32,34,36,38,40,42,-1,-1,-1,44,-1,-1,46,48,50,52,54,-1,56,58,-1,-1,-1,-1,-1,-1,-1,-1,-1,-1,-1,-1,-1,-1,-1,-1,-1,-1,-1,-1],"split_conditions":[-6.3495016E-1,4.3585607E-1,2.1131961E0,7.9688346E-1,6.869901E-1,6.8809766E-1,7.9558843E-1,1.1660991E-1,-2.8933161E-1,-3.2671112E-1,7.142729E-1,-1.5131811E0,-5.263293E-1,1.895692E-1,8.086578E-1,-2.3454341E-1,4.0186486E-1,7.061816E-1,-2.86362E-1,7.0726645E-1,-5.235625E-1,1.9601406E0,-1.3715171E0,7.178662E-1,-1.8966724E0,-3.2577865E-2,8.0218464E-2,2.799717E-1,6.1139745E-1,-2.4853723E-1,2.3980694E-1,-1.5345128E0,-2.178108E0,1.9566163E-1,4.6968636E-1,5.721037E-1,3.099661E-1,7.119899E-1,4.8327675E-1,3.481489E-1,7.531048E-2,2.514975E-1,-2.9611396E-2,-1.8030046E-1,1.3691099E-1,-3.1541085E-1,-5.8634415E-2,1.8925661E-1,-1.8729791E-1,3.195927E-1,-3.3539408E-1,-3.170433E-1,2.0488104E-1,-4.229852E-1,2.629443E-1,2.7106094E-1,9.572024E-2,-1.475645E-1,-4.7342128E-1],"split_indices":[0,1,0,4,3,1,1,3,0,0,1,1,2,4,1,0,3,1,0,3,0,0,4,3,2,0,0,0,3,0,0,1,1,1,1,3,0,1,3,0,0,0,0,0,0,0,0,0,0,0,0,0,0,0,0,0,0,0,0],"split_type":[0,0,0,0,0,0,0,0,0,0,0,0,0,0,0,0,0,0,0,0,0,0,0,0,0,0,0,0,0,0,0,0,0,0,0,0,0,0,0,0,0,0,0,0,0,0,0,0,0,0,0,0,0,0,0,0,0,0,0],"sum_hessian":[3.1649072E2,5.767669E1,2.5881403E2,1.4302551E1,4.3374138E1,2.2636745E2,3.2446575E1,9.522338E0,4.780213E0,3.310161E1,1.02725315E1,1.8510254E2,4.126491E1,3.0176785E1,2.2697928E0,2.1126125E0,7.4097257E0,4.7825427E0,5.489989E0,1.8364994E1,1.6673755E2,9.3432665E0,3.1921646E1,2.7023157E1,3.1536276E0,1.1968551E0,1.0729376E0,4.8012557E0,2.6084697E0,2.1609807E0,2.621562E0,1.6255688E1,2.1093073E0,6.74964E1,9.924114E1,3.225285E0,6.117981E0,3.5611095E0,2.8360537E1,2.579369E1,1.2294664E0,1.3653553E0,1.7882724E0,1.0036352E0,1.6048344E0,1.501807E1,1.2376174E0,1.0188255E0,1.0904818E0,5.732023E1,1.0176171E1,3.620025E1,6.3040894E1,1.8131348E0,1.4121504E0,1.4417125E0,2.1193972E0,8.380727E0,1.997981E1],"tree_param":{"num_deleted":"0","num_feature":"6","num_nodes":"59","size_leaf_vector":"1"}},{"base_weights":[-1.5033786E-2,-8.0774134E-1,1.2247912E-1,-9.4281733E-1,-2.9689333E-1,5.496734E-1,-1.08207546E-1,-3.4561738E-1,-3.1397927E-1,3.1043065E-1,-2.6998776E-1,2.994868E-1,9.435576E-1,5.6062452E-2,-9.656587E-1,-2.5487947E-1,1.711114E-1,-1.9675799E-1,2.1919411E-1,7.4269676E-1,-4.194565E-1,1.0560896E0,1.8140091E-1,-3.0835935E-1,4.1405413E-1,-1.5884803E-1,-5.025884E-1,1.0841986E0,-2.979937E-1,-1.0613856E0,6.3466465E-1,6.447127E-1,3.4333408E-1,-3.5852167E-1,2.3273765E-1,1.6207272E-1,-1.0549954E0,-4.5378957E-2,8.721682E-1,2.9263523E-1,-2.847166E-1,1.6389388E-1,3.4740245E-1,-3.652187E-1,7.7241464E-3,2.702345E-1,-5.8274534E-2,-2.0942206E-2,2.9776964E-1,1.1910566E-1,-2.7118003E-1,-1.2457437E-1,1.8847066E-1,-3.4748685E-1,1.9451748E-1,1.2441845E-1,-3.0902097E-1,4.0331024E-1,1.6654132E-2,1.9827478E-1,-3.79913E-2],"categories":[],"categories_nodes":[],"categories_segments":[],"categories_sizes":[],"default_left":[0,0,0,0,0,0,0,0,0,0,0,0,0,0,0,0,0,0,0,0,0,0,0,0,0,0,0,0,0,0,0,0,0,0,0,0,0,0,0,0,0,0,0,0,0,0,0,0,0,0,0,0,0,0,0,0,0,0,0,0,0],"id":6,"left_children":[1,3,5,7,9,11,13,15,-1,17,-1,19,21,23,25,-1,-1,-1,-1,27,29,31,33,35,37,39,-1,41,-1,43,45,47,-1,49,-1,51,53,55,57,59,-1,-1,-1,-1,-1,-1,-1,-1,-1,-1,-1,-1,-1,-1,-1,-1,-1,-1,-1,-1,-1],"loss_changes":[2.9424036E1,2.4733353E0,2.2737228E1,1.5655766E0,3.8700116E0,7.6853256E0,2.1219196E1,3.299172E0,0E0,2.764495E0,0E0,1.6534515E1,2.462326E0,1.6702503E1,1.3597292E1,0E0,0E0,0E0,0E0,1.9963436E1,1.4244702E1,2.3464775E-1,1.9432085E0,2.2486162E1,1.3618613E1,4.7144012E0,0E0,4.432068E-1,0E0,2.2088985E0,1.987447E0,1.8142385E0,0E0,1.7610537E0,0E0,1.098338E1,5.0952663E0,1.5451949E1,1.2401928E1,1.4237363E0,0E0,0E0,0E0,0E0,0E0,0E0,0E0,0E0,0E0,0E0,0E0,0E0,0E0,0E0,0E0,0E0,0E0,0E0,0E0,0E0,0E0],"parents":[2147483647,0,0,1,1,2,2,3,3,4,4,5,5,6,6,7,7,9,9,11,11,12,12,13,13,14,14,19,19,20,20,21,21,22,22,23,23,24,24,25,25,27,27,29,29,30,30,31,31,33,33,35,35,36,36,37,37,38,38,39,39],"right_children":[2,4,6,8,10,12,14,16,-1,18,-1,20,22,24,26,-1,-1,-1,-1,28,30,32,34,36,38,40,-1,42,-1,44,46,48,-1,50,-1,52,54,56,58,60,-1,-1,-1,-1,-1,-1,-1,-1,-1,-1,-1,-1,-1,-1,-1,-1,-1,-1,-1,-1,-1],"split_conditions":[-6.537535E-1,6.7625755E-1,-9.669165E-1,-9.673007E-1,-8.207427E-2,1.9947772E0,6.515923E-1,-1.5345128E0,-3.1397927E-1,-9.2115057E-1,-2.6998776E-1,-5.042443E-1,7.548905E-1,7.56825E-1,1.6887896E0,-2.5487947E-1,1.711114E-1,-1.9675799E-1,2.1919411E-1,1.9566163E-1,5.887591E-1,-1.1891189E0,2.120729E0,-8.675649E-1,1.6337456E0,9.2311746E-1,-5.025884E-1,-1.1021923E0,-2.979937E-1,-9.751554E-1,1.8700916E0,2.0763533E0,3.4333408E-1,6.794294E-1,2.3273765E-1,1.1124433E0,2.1509454E0,-5.209023E-1,1.8700916E0,-1.2142087E0,-2.847166E-1,1.6389388E-1,3.4740245E-1,-3.652187E-1,7.7241464E-3,2.702345E-1,-5.8274534E-2,-2.0942206E-2,2.9776964E-1,1.1910566E-1,-2.7118003E-1,-1.2457437E-1,1.8847066E-1,-3.4748685E-1,1.9451748E-1,1.2441845E-1,-3.0902097E-1,4.0331024E-1,1.6654132E-2,1.9827478E-1,-3.79913E-2],"split_indices":[0,2,4,1,4,0,3,1,0,4,0,0,1,4,0,0,0,0,0,1,1,4,0,4,0,4,0,1,0,4,0,0,0,2,0,0,0,0,0,1,0,0,0,0,0,0,0,0,0,0,0,0,0,0,0,0,0,0,0,0,0],"split_type":[0,0,0,0,0,0,0,0,0,0,0,0,0,0,0,0,0,0,0,0,0,0,0,0,0,0,0,0,0,0,0,0,0,0,0,0,0,0,0,0,0,0,0,0,0,0,0,0,0,0,0,0,0,0,0,0,0,0,0,0,0],"sum_hessian":[2.680191E2,3.8900303E1,2.291188E2,3.009669E1,8.803616E0,7.9855896E1,1.4926292E2,5.0969176E0,2.4999771E1,4.6280913E0,4.175524E0,4.9912754E1,2.9943138E1,1.2604912E2,2.3213799E1,3.3346558E0,1.7622616E0,1.2327064E0,3.395385E0,3.0857105E1,1.9055649E1,2.5754795E1,4.1883426E0,6.2532288E1,6.351683E1,1.1435832E1,1.1777967E1,2.6098553E1,4.7585535E0,1.1839093E1,7.2165556E0,6.0205846E0,1.9734211E1,2.4026718E0,1.7856709E0,3.8842052E1,2.3690235E1,3.2162586E1,3.1354246E1,7.678443E0,3.7573893E0,4.1629324E0,2.193562E1,1.0248545E1,1.5905485E0,5.3971386E0,1.8194171E0,2.233041E0,3.7875433E0,1.1213619E0,1.2813098E0,1.740098E1,2.144107E1,2.2637497E1,1.0527393E0,2.2314653E1,9.847931E0,1.94575E1,1.1896747E1,3.7809741E0,3.8974686E0],"tree_param":{"num_deleted":"0","num_feature":"6","num_nodes":"61","size_leaf_vector":"1"}},{"base_weights":[-1.394309E-2,-6.9770956E-1,1.1886484E-1,-1.4727812E-1,-8.95703E-1,5.932504E-1,-4.5698754E-2,2.5223708E-1,-2.569244E-1,-3.062747E-1,-4.4426888E-1,-2.4643661E-1,6.853885E-1,6.228253E-1,-1.6429918E-1,-1.9495068E-1,5.534041E-1,4.965181E-2,-2.4933971E-1,-6.862532E-1,2.2493204E-1,7.836108E-1,-3.0607827E-2,-2.7132776E-1,8.0644006E-1,7.078371E-2,-5.526771E-1,2.4282658E-1,-1.9086675E-3,-2.0341052E-1,1.945494E-1,-5.9171528E-2,-2.338303E-1,4.7471993E-2,8.678503E-1,-7.5623816E-1,2.434116E-1,-3.164782E-2,8.772775E-1,-2.2855474E-1,6.8718433E-1,-7.6625377E-1,4.4547382E-1,2.63954E-1,-2.6747927E-1,3.0565122E-1,1.9254829E-1,-2.5421632E-2,-2.879481E-1,1.3644841E-1,3.074524E-1,1.6513364E-1,-3.497716E-1,-8.6732133E-4,3.3794796E-1,-4.3347254E-2,-3.5464025E-1,2.5859854E-1,-1.5594867E-1],"categories":[],"categories_nodes":[],"categories_segments":[],"categories_sizes":[],"default_left":[0,0,0,0,0,0,0,0,0,0,0,0,0,0,0,0,0,0,0,0,0,0,0,0,0,0,0,0,0,0,0,0,0,0,0,0,0,0,0,0,0,0,0,0,0,0,0,0,0,0,0,0,0,0,0,0,0,0,0],"id":7,"left_children":[1,3,5,7,9,11,13,15,-1,-1,17,19,21,23,25,-1,27,29,-1,31,-1,33,35,-1,37,39,41,-1,-1,-1,-1,-1,-1,43,45,47,-1,-1,49,51,53,55,57,-1,-1,-1,-1,-1,-1,-1,-1,-1,-1,-1,-1,-1,-1,-1,-1],"loss_changes":[2.125213E1,4.015894E0,1.5332579E1,3.4076154E0,1.1175194E0,4.0811005E0,1.1717117E1,2.5271053E0,0E0,0E0,1.5327737E0,3.0275495E0,3.247139E0,6.9775867E0,1.1470811E1,0E0,9.3973017E-1,2.3449373E0,0E0,5.1362276E-2,0E0,2.4603558E0,4.5794845E0,0E0,1.4115639E0,1.4712116E1,1.0430155E1,0E0,0E0,0E0,0E0,0E0,0E0,4.8491793E0,5.7940674E-1,4.6606064E-1,0E0,0E0,7.216759E-1,3.996181E1,7.896019E0,1.0004576E1,4.0561604E0,0E0,0E0,0E0,0E0,0E0,0E0,0E0,0E0,0E0,0E0,0E0,0E0,0E0,0E0,0E0,0E0],"parents":[2147483647,0,0,1,1,2,2,3,3,4,4,5,5,6,6,7,7,10,10,11,11,12,12,13,13,14,14,16,16,17,17,19,19,21,21,22,22,24,24,25,25,26,26,33,33,34,34,35,35,38,38,39,39,40,40,41,41,42,42],"right_children":[2,4,6,8,10,12,14,16,-1,-1,18,20,22,24,26,-1,28,30,-1,32,-1,34,36,-1,38,40,42,-1,-1,-1,-1,-1,-1,44,46,48,-1,-1,50,52,54,56,58,-1,-1,-1,-1,-1,-1,-1,-1,-1,-1,-1,-1,-1,-1,-1,-1],"split_conditions":[-6.3495016E-1,4.3585607E-1,-1.0330536E0,7.9688346E-1,6.869901E-1,-1.421223E0,-1.5539113E0,1.1660991E-1,-2.569244E-1,-3.062747E-1,7.142729E-1,1.4963741E0,7.352132E-1,-7.6133996E-1,5.630729E-1,-1.9495068E-1,4.0186486E-1,7.061816E-1,-2.4933971E-1,-5.919841E-1,2.2493204E-1,-4.0846297E-1,2.1026368E0,-2.7132776E-1,3.9590302E-1,4.625881E-1,2.1131961E0,2.4282658E-1,-1.9086675E-3,-2.0341052E-1,1.945494E-1,-5.9171528E-2,-2.338303E-1,-2.11488E0,3.7268955E-1,4.313901E-1,2.434116E-1,-3.164782E-2,-3.6601071E0,-5.209023E-1,8.23907E-1,-9.10046E-1,7.461422E-1,2.63954E-1,-2.6747927E-1,3.0565122E-1,1.9254829E-1,-2.5421632E-2,-2.879481E-1,1.3644841E-1,3.074524E-1,1.6513364E-1,-3.497716E-1,-8.6732133E-4,3.3794796E-1,-4.3347254E-2,-3.5464025E-1,2.5859854E-1,-1.5594867E-1],"split_indices":[0,1,4,4,3,4,2,3,0,0,1,0,1,3,1,0,3,1,0,0,0,3,0,0,1,1,0,0,0,0,0,0,0,3,1,2,0,0,2,0,4,4,1,0,0,0,0,0,0,0,0,0,0,0,0,0,0,0,0],"split_type":[0,0,0,0,0,0,0,0,0,0,0,0,0,0,0,0,0,0,0,0,0,0,0,0,0,0,0,0,0,0,0,0,0,0,0,0,0,0,0,0,0,0,0,0,0,0,0,0,0,0,0,0,0,0,0,0,0,0,0],"sum_hessian":[2.3211626E2,3.705967E1,1.950566E2,1.0265351E1,2.679432E1,4.9566586E1,1.4549E2,6.978237E0,3.287114E0,1.998865E1,6.8056707E0,4.7355165E0,4.4831066E1,2.1281195E1,1.2420881E2,1.4568552E0,5.521382E0,3.3720825E0,3.433588E0,3.5009978E0,1.2345189E0,3.933988E1,5.491184E0,1.8626411E0,1.9418554E1,7.7883896E1,4.6324917E1,3.482573E0,2.0388088E0,1.4625868E0,1.9094957E0,1.0591731E0,2.4418247E0,4.2001147E0,3.5139767E1,3.0040684E0,2.487116E0,1.3644148E0,1.805414E1,5.28486E1,2.5035295E1,3.835116E1,7.973758E0,2.2599766E0,1.9401381E0,1.8963888E1,1.6175879E1,1.0283792E0,1.9756893E0,5.7306185E0,1.2323521E1,2.9087624E1,2.3760973E1,1.0124673E1,1.4910624E1,1.5910927E1,2.2440231E1,5.6450014E0,2.328757E0],"tree_param":{"num_deleted":"0","num_feature":"6","num_nodes":"59","size_leaf_vector":"1"}},{"base_weights":[-1.5795514E-2,-1.10332474E-1,8.208221E-1,1.9104198E-2,-8.0920845E-1,8.964907E-1,-1.3642377E-3,-8.7806803E-1,1.00659944E-1,-1.0471474E0,3.359083E-1,9.829309E-1,2.6694804E-1,-2.9239765E-1,-1.0982767E-2,6.090961E-1,-1.197107E-1,-3.0988756E-1,-3.4339133E-1,2.920695E-1,-2.4372922E-1,3.096804E-1,7.656985E-2,1.9087152E-1,-3.6101367E-2,8.3498013E-1,-2.7071217E-1,-7.5541365E-1,2.2418265E-1,-2.3956135E-1,1.7123401E-1,2.9028654E-1,-3.776453E-2,-2.8483275E-1,3.0259168E-2,2.061537E-1,-7.771792E-2],"categories":[],"categories_nodes":[],"categories_segments":[],"categories_sizes":[],"default_left":[0,0,0,0,0,0,0,0,0,0,0,0,0,0,0,0,0,0,0,0,0,0,0,0,0,0,0,0,0,0,0,0,0,0,0,0,0],"id":8,"left_children":[1,3,5,7,9,11,-1,13,15,17,19,21,23,-1,-1,25,27,29,-1,-1,-1,-1,-1,-1,-1,31,-1,33,35,-1,-1,-1,-1,-1,-1,-1,-1],"loss_changes":[1.6059832E1,1.6505596E1,1.2917433E0,1.1413767E1,8.11952E0,7.6562786E-1,0E0,1.0209723E0,1.6070848E1,1.3593254E0,4.9367595E0,3.1950378E-1,5.9910065E-1,0E0,0E0,1.5549629E1,2.2127935E1,2.2444239E0,0E0,0E0,0E0,0E0,0E0,0E0,0E0,4.9932556E0,0E0,5.9922485E0,1.4934533E1,0E0,0E0,0E0,0E0,0E0,0E0,0E0,0E0],"parents":[2147483647,0,0,1,1,2,2,3,3,4,4,5,5,7,7,8,8,9,9,10,10,11,11,12,12,15,15,16,16,17,17,25,25,27,27,28,28],"right_children":[2,4,6,8,10,12,-1,14,16,18,20,22,24,-1,-1,26,28,30,-1,-1,-1,-1,-1,-1,-1,32,-1,34,36,-1,-1,-1,-1,-1,-1,-1,-1],"split_conditions":[2.1131961E0,7.27715E-1,7.9558843E-1,-1.5345128E0,2.0850375E0,1.895692E-1,-1.3642377E-3,7.0726645E-1,-3.3396056E-1,-5.333226E-1,5.3026867E-1,7.0970595E-1,-1.8966724E0,-2.9239765E-1,-1.0982767E-2,-5.042443E-1,1.4963741E0,1.9398885E0,-3.4339133E-1,2.920695E-1,-2.4372922E-1,3.096804E-1,7.656985E-2,1.9087152E-1,-3.6101367E-2,8.23907E-1,-2.7071217E-1,6.7484665E-1,5.953357E-1,-2.3956135E-1,1.7123401E-1,2.9028654E-1,-3.776453E-2,-2.8483275E-1,3.0259168E-2,2.061537E-1,-7.771792E-2],"split_indices":[0,1,1,1,0,4,0,3,1,3,3,3,2,0,0,0,0,0,0,0,0,0,0,0,0,4,0,2,2,0,0,0,0,0,0,0,0],"split_type":[0,0,0,0,0,0,0,0,0,0,0,0,0,0,0,0,0,0,0,0,0,0,0,0,0,0,0,0,0,0,0,0,0,0,0,0,0],"sum_hessian":[2.0090932E2,1.8129166E2,1.9617657E1,1.537827E2,2.7508957E1,1.7891247E1,1.7264112E0,1.2000628E1,1.4178207E2,2.284719E1,4.6617665E0,1.5237677E1,2.65357E0,1.062293E1,1.3776995E0,4.2337532E1,9.944455E1,3.1563437E0,1.9690847E1,3.0952272E0,1.5665394E0,1.3878211E1,1.3594656E0,1.0292919E0,1.624278E0,3.722235E1,5.1151814E0,3.4490532E1,6.495402E1,2.08996E0,1.0663838E0,3.2701107E1,4.5212426E0,2.8030207E1,6.4603257E0,3.2956375E1,3.199764E1],"tree_param":{"num_deleted":"0","num_feature":"6","num_nodes":"37","size_leaf_vector":"1"}},{"base_weights":[-1.498966E-2,-1.1919893E-1,6.045349E-1,3.6490217E-3,-9.906032E-1,9.335312E-1,1.427564E-1,-8.0932534E-1,7.943551E-2,-2.7328682E-1,-3.2830718E-1,3.114491E-1,5.5397432E-2,3.0262607E-1,-9.236614E-1,-2.7422515E-1,-9.07769E-3,5.7973707E-1,-1.1633738E-1,-2.1458106E-1,1.2045042E-1,-1.1030748E-1,-3.3192137E-1,7.886964E-1,-2.5315845E-1,-6.5978134E-1,1.6189429E-1,2.8469115E-1,-2.805634E-2,-2.5911754E-1,2.244378E-2,-3.259584E-1,1.03185594E-1],"categories":[],"categories_nodes":[],"categories_segments":[],"categories_sizes":[],"default_left":[0,0,0,0,0,0,0,0,0,0,0,0,0,0,0,0,0,0,0,0,0,0,0,0,0,0,0,0,0,0,0,0,0],"id":9,"left_children":[1,3,5,7,9,11,13,15,17,19,-1,-1,-1,-1,21,-1,-1,23,25,-1,-1,-1,-1,27,-1,29,31,-1,-1,-1,-1,-1,-1],"loss_changes":[1.1263705E1,1.5978366E1,3.6838684E0,8.18388E0,1.073452E0,9.438057E-1,1.1675703E1,8.9677525E-1,1.1963699E1,1.3797234E0,0E0,0E0,0E0,0E0,1.7591953E-1,0E0,0E0,1.0877098E1,1.3432423E1,0E0,0E0,0E0,0E0,4.394367E0,0E0,4.5649815E0,1.3804224E1,0E0,0E0,0E0,0E0,0E0,0E0],"parents":[2147483647,0,0,1,1,2,2,3,3,4,4,5,5,6,6,7,7,8,8,9,9,14,14,17,17,18,18,23,23,25,25,26,26],"right_children":[2,4,6,8,10,12,14,16,18,20,-1,-1,-1,-1,22,-1,-1,24,26,-1,-1,-1,-1,28,-1,30,32,-1,-1,-1,-1,-1,-1],"split_conditions":[2.0763533E0,7.27715E-1,-9.2635584E-1,-1.5131811E0,-5.333226E-1,7.548905E-1,1.5836848E-1,7.0726645E-1,-3.3396056E-1,-8.491406E-1,-3.2830718E-1,3.114491E-1,5.5397432E-2,3.0262607E-1,7.1601933E-1,-2.7422515E-1,-9.07769E-3,-5.042443E-1,1.4963741E0,-2.1458106E-1,1.2045042E-1,-1.1030748E-1,-3.3192137E-1,8.23907E-1,-2.5315845E-1,6.7484665E-1,4.4541985E-1,2.8469115E-1,-2.805634E-2,-2.5911754E-1,2.244378E-2,-3.259584E-1,1.03185594E-1],"split_indices":[0,1,4,1,3,1,2,3,1,3,0,0,0,0,1,0,0,0,0,0,0,0,0,4,0,2,1,0,0,0,0,0,0],"split_type":[0,0,0,0,0,0,0,0,0,0,0,0,0,0,0,0,0,0,0,0,0,0,0,0,0,0,0,0,0,0,0,0,0],"sum_hessian":[1.7235208E2,1.4822668E2,2.4125387E1,1.3078485E2,1.7441843E1,1.3491619E1,1.0633767E1,1.0326946E1,1.204579E2,2.663233E0,1.4778609E1,1.1498719E1,1.9929003E0,5.898165E0,4.735602E0,8.950145E0,1.3768021E0,3.3327507E1,8.7130394E1,1.5729593E0,1.0902737E0,1.9166214E0,2.8189805E0,2.9450653E1,3.8768559E0,2.90393E1,5.809109E1,2.4858837E1,4.5918164E0,2.2591486E1,6.447815E0,6.760989E0,5.13301E1],"tree_param":{"num_deleted":"0","num_feature":"6","num_nodes":"33","size_leaf_vector":"1"}},{"base_weights":[-1.8573137E-2,-8.7464005E-2,7.5951976E-1,7.3599666E-3,-6.8499464E-1,2.8015995E-1,3.46119E-1,-6.7884463E-1,7.8071326E-2,-9.3967634E-1,2.1139814E-1,2.4262054E-1,-1.3327813E-1,-2.9223472E-1,-3.5703114E-1,5.188719E-1,-2.8990181E-2,-2.4378076E-1,-3.1471303E-1,2.5007287E-1,-2.4462116E-1,-5.767965E-1,2.2491018E-1,7.6372063E-1,1.2847741E-1,7.0608044E-1,-1.3549174E-1,-1.9676839E-1,1.0577692E-1,2.9069295E-2,-2.5765726E-1,1.930172E-1,-9.570284E-2,2.9674342E-1,-6.890351E-2,-1.5303254E-1,2.864876E-1,-4.9226735E-2,2.4489601E-1,1.0520892E-2,-1.6991596E-1],"categories":[],"categories_nodes":[],"categories_segments":[],"categories_sizes":[],"default_left":[0,0,0,0,0,0,0,0,0,0,0,0,0,0,0,0,0,0,0,0,0,0,0,0,0,0,0,0,0,0,0,0,0,0,0,0,0,0,0,0,0],"id":10,"left_children":[1,3,5,7,9,-1,11,13,15,17,19,-1,-1,21,-1,23,25,27,-1,-1,-1,29,31,33,35,37,39,-1,-1,-1,-1,-1,-1,-1,-1,-1,-1,-1,-1,-1,-1],"loss_changes":[8.162672E0,7.917706E0,5.696602E-1,5.9491596E0,4.567539E0,0E0,2.2839222E0,1.9163866E0,5.256226E0,8.9246845E-1,3.9062512E0,0E0,0E0,1.2846556E0,0E0,1.9814568E0,7.1651683E0,1.0550216E0,0E0,0E0,0E0,1.0985159E0,1.0030812E0,3.175959E0,5.547373E0,1.2456431E0,5.8783913E0,0E0,0E0,0E0,0E0,0E0,0E0,0E0,0E0,0E0,0E0,0E0,0E0,0E0,0E0],"parents":[2147483647,0,0,1,1,2,2,3,3,4,4,6,6,7,7,8,8,9,9,10,10,13,13,15,15,16,16,17,17,21,21,22,22,23,23,24,24,25,25,26,26],"right_children":[2,4,6,8,10,-1,12,14,16,18,20,-1,-1,22,-1,24,26,28,-1,-1,-1,30,32,34,36,38,40,-1,-1,-1,-1,-1,-1,-1,-1,-1,-1,-1,-1,-1,-1],"split_conditions":[2.120729E0,7.27715E-1,7.5100166E-1,-7.0337325E-1,2.0850375E0,2.8015995E-1,1.1011366E-1,-1.2776715E0,-1.0330536E0,-5.333226E-1,5.3026867E-1,2.4262054E-1,-1.3327813E-1,-7.29921E-1,-3.5703114E-1,3.7268955E-1,-1.5539113E0,-8.491406E-1,-3.1471303E-1,2.5007287E-1,-2.4462116E-1,-1.2629831E0,-1.2142087E0,-5.042443E-1,2.0273352E0,3.5791326E-1,1.8058176E0,-1.9676839E-1,1.0577692E-1,2.9069295E-2,-2.5765726E-1,1.930172E-1,-9.570284E-2,2.9674342E-1,-6.890351E-2,-1.5303254E-1,2.864876E-1,-4.9226735E-2,2.4489601E-1,1.0520892E-2,-1.6991596E-1],"split_indices":[0,1,1,3,0,0,2,3,4,3,3,0,0,2,0,1,2,3,0,0,0,4,1,0,0,1,0,0,0,0,0,0,0,0,0,0,0,0,0,0,0],"split_type":[0,0,0,0,0,0,0,0,0,0,0,0,0,0,0,0,0,0,0,0,0,0,0,0,0,0,0,0,0,0,0,0,0,0,0,0,0,0,0,0,0],"sum_hessian":[1.5003944E2,1.3865112E2,1.1388316E1,1.2051406E2,1.8137064E1,7.124611E0,4.263705E0,1.0455031E1,1.1005903E2,1.4086534E1,4.0505304E0,2.6748607E0,1.5888438E0,6.84813E0,3.6069012E0,2.0755726E1,8.930331E1,2.3517172E0,1.1734817E1,2.6394005E0,1.4111301E0,4.3430147E0,2.5051155E0,1.216793E1,8.587796E0,1.0588946E1,7.8714355E1,1.3316724E0,1.0200449E0,1.4754388E0,2.867576E0,1.3124588E0,1.1926568E0,9.920934E0,2.2469957E0,5.0605364E0,3.5272598E0,1.1357212E0,9.453225E0,5.705059E1,2.1663765E1],"tree_param":{"num_deleted":"0","num_feature":"6","num_nodes":"41","size_leaf_vector":"1"}},{"base_weights":[-1.263063E-2,-2.3253573E-1,1.8530688E-1,1.7667896E-1,-6.866621E-1,7.394004E-1,-6.2898055E-2,4.649057E-1,-2.7261102E-1,-4.3608093E-1,-2.9772425E-1,-1.5072417E-1,9.1874105E-1,5.638542E-1,-3.8873857E-1,-5.702631E-1,6.882628E-1,-6.8030256E-1,4.0712696E-1,-3.8463208E-1,2.3885933E-1,6.834069E-2,9.5240647E-1,-4.0477794E-1,1.031421E0,2.9173237E-1,-1.1953031E0,-2.9152393E-1,7.480515E-2,8.4691614E-1,9.3483105E-2,2.4248858E-1,-9.5211273E-1,1.834443E-1,-4.46314E-2,6.6475265E-2,9.838603E-1,-1.6570313E-2,3.4202927E-1,3.1338215E-1,3.3743242E-3,-3.890737E-1,-7.417356E-2,-4.2031843E-2,2.9337376E-1,1.9645678E-1,-1.7103025E-1,-2.0020238E-1,3.2390758E-1,-7.9321705E-2,-2.9848313E-1,3.0542922E-1,1.07489444E-1,-4.916165E-1,1.291787E-1],"categories":[],"categories_nodes":[],"categories_segments":[],"categories_sizes":[],"default_left":[0,0,0,0,0,0,0,0,0,0,0,0,0,0,0,0,0,0,0,0,0,0,0,0,0,0,0,0,0,0,0,0,0,0,0,0,0,0,0,0,0,0,0,0,0,0,0,0,0,0,0,0,0,0,0],"id":11,"left_children":[1,3,5,7,9,11,13,15,-1,17,-1,19,21,23,25,27,29,31,33,-1,-1,-1,35,-1,37,39,41,-1,-1,43,45,47,49,-1,-1,-1,51,-1,-1,-1,53,-1,-1,-1,-1,-1,-1,-1,-1,-1,-1,-1,-1,-1,-1],"loss_changes":[6.151992E0,1.2558739E1,1.02812195E1,1.1684483E1,2.0133696E0,3.8262348E0,1.090356E1,7.1224794E0,0E0,4.2577257E0,0E0,6.0913515E0,2.3355675E-1,1.776443E1,1.9565893E1,2.1221404E0,2.2227993E0,4.084452E0,6.5522295E-1,0E0,0E0,0E0,1.9930077E-1,0E0,1.8669243E0,4.293985E0,1.2417088E0,0E0,0E0,2.6109285E0,2.7056532E0,3.9903564E0,9.248257E-2,0E0,0E0,0E0,1.7604828E-3,0E0,0E0,0E0,1.1450702E1,0E0,0E0,0E0,0E0,0E0,0E0,0E0,0E0,0E0,0E0,0E0,0E0,0E0,0E0],"parents":[2147483647,0,0,1,1,2,2,3,3,4,4,5,5,6,6,7,7,9,9,11,11,12,12,13,13,14,14,15,15,16,16,17,17,18,18,22,22,24,24,25,25,26,26,29,29,30,30,31,31,32,32,36,36,40,40],"right_children":[2,4,6,8,10,12,14,16,-1,18,-1,20,22,24,26,28,30,32,34,-1,-1,-1,36,-1,38,40,42,-1,-1,44,46,48,50,-1,-1,-1,52,-1,-1,-1,54,-1,-1,-1,-1,-1,-1,-1,-1,-1,-1,-1,-1,-1,-1],"split_conditions":[1.6337456E0,-2.3575398E-1,2.6671776E-1,-5.042443E-1,-8.207427E-2,-3.372407E0,1.8058176E0,-1.5131811E0,-2.7261102E-1,-5.098709E-1,-2.9772425E-1,3.3277836E-1,-7.990975E-1,4.6968636E-1,-9.10046E-1,-5.408911E-1,8.23907E-1,1.9566163E-1,7.0770293E-1,-3.8463208E-1,2.3885933E-1,6.834069E-2,3.7268955E-1,-4.0477794E-1,-2.7657837E-1,5.4994726E-1,2.1131961E0,-2.9152393E-1,7.480515E-2,-1.3548729E-1,-1.2142087E0,1.7448631E-1,-1.5153085E0,1.834443E-1,-4.46314E-2,6.6475265E-2,8.0029845E-1,-1.6570313E-2,3.4202927E-1,3.1338215E-1,1.9947772E0,-3.890737E-1,-7.417356E-2,-4.2031843E-2,2.9337376E-1,1.9645678E-1,-1.7103025E-1,-2.0020238E-1,3.2390758E-1,-7.9321705E-2,-2.9848313E-1,3.0542922E-1,1.07489444E-1,-4.916165E-1,1.291787E-1],"split_indices":[0,1,2,0,4,2,0,1,0,4,0,3,3,1,4,0,4,1,2,0,0,0,1,0,4,3,0,0,0,3,1,1,2,0,0,0,1,0,0,0,0,0,0,0,0,0,0,0,0,0,0,0,0,0,0],"split_type":[0,0,0,0,0,0,0,0,0,0,0,0,0,0,0,0,0,0,0,0,0,0,0,0,0,0,0,0,0,0,0,0,0,0,0,0,0,0,0,0,0,0,0,0,0,0,0,0,0,0,0,0,0,0,0],"sum_hessian":[1.3934589E2,6.592716E1,7.341872E1,3.4999737E1,3.0927427E1,2.2101118E1,5.13176E1,2.8107393E1,6.892342E0,1.8330666E1,1.2596762E1,3.732936E0,1.8368181E1,1.7303658E1,3.4013943E1,4.7127204E0,2.3394672E1,1.436366E1,3.9670062E0,1.5395308E0,2.1934052E0,1.2142364E0,1.7153946E1,3.0280924E0,1.4275565E1,1.8795296E1,1.5218648E1,3.0386422E0,1.6740782E0,1.8133717E1,5.2609572E0,3.2927394E0,1.1070921E1,2.8275735E0,1.1394327E0,1.0397742E0,1.6114172E1,1.3426082E0,1.2932958E1,4.47885E0,1.4316446E1,1.3413114E1,1.8055339E0,2.116548E0,1.6017168E1,2.8570926E0,2.4038649E0,1.6751568E0,1.6175827E0,1.0696439E0,1.0001277E1,1.4683072E1,1.4310994E0,2.3702457E0,1.19462E1],"tree_param":{"num_deleted":"0","num_feature":"6","num_nodes":"55","size_leaf_vector":"1"}},{"base_weights":[-1.6290277E-2,3.057577E-1,-1.5384623E-1,-4.7803143E-1,4.2830595E-1,-5.184653E-2,-5.94076E-1,5.939726E-2,-2.3321776E-1,-2.8327563E-1,4.894853E-1,-3.102156E-1,2.2915936E-1,-5.5778556E-2,-3.517791E-1,-2.2328247E-1,1.0046866E-1,7.257306E-1,2.2501966E-1,-1.0070007E-1,-3.042163E-1,-1.8052076E-1,6.973736E-1,2.7045426E-1,-2.1967298E-1,2.5334597E-1,2.9519606E-1,-2.822939E-1,6.8169516E-1,3.0317017E-1,-4.7704154E-1,2.745925E-1,-1.0776972E0,1.5676409E-1,3.0648276E-1,1.5078545E-1,-1.8108181E-3,2.3421638E-1,-2.0679879E-1,2.078432E-1,-2.4486741E-1,2.8164506E-1,-8.7645305E-3,1.5003261E-1,-1.2712723E-1,-2.524605E-1,1.8016833E-1,1.9280133E-1,-1.7755575E-1,-3.6153966E-1,-6.1386067E-2,2.1794094E-1,-2.0118514E-1,1.6618416E-1,-1.8465972E-1],"categories":[],"categories_nodes":[],"categories_segments":[],"categories_sizes":[],"default_left":[0,0,0,0,0,0,0,0,0,0,0,0,0,0,0,0,0,0,0,0,0,0,0,0,0,0,0,0,0,0,0,0,0,0,0,0,0,0,0,0,0,0,0,0,0,0,0,0,0,0,0,0,0,0,0],"id":12,"left_children":[1,3,5,7,9,11,13,-1,-1,15,17,19,21,23,-1,-1,-1,25,27,29,-1,31,33,35,-1,37,-1,39,41,43,45,47,49,51,-1,-1,53,-1,-1,-1,-1,-1,-1,-1,-1,-1,-1,-1,-1,-1,-1,-1,-1,-1,-1],"loss_changes":[5.2484803E0,3.6122992E0,3.693428E0,1.2203087E0,1.4972172E0,5.0395246E0,4.7634645E0,0E0,0E0,1.1338377E0,1.6549978E0,5.2180176E0,6.5240755E0,2.2023563E0,0E0,0E0,0E0,1.5711484E0,3.7094522E0,4.539001E0,0E0,7.884134E0,2.6043296E0,4.3437797E-1,0E0,3.8298528E0,0E0,4.6778865E0,1.5412745E0,2.2959347E0,6.5363092E0,4.566689E0,4.718752E-1,3.8310575E0,0E0,0E0,1.7573488E0,0E0,0E0,0E0,0E0,0E0,0E0,0E0,0E0,0E0,0E0,0E0,0E0,0E0,0E0,0E0,0E0,0E0,0E0],"parents":[2147483647,0,0,1,1,2,2,3,3,4,4,5,5,6,6,9,9,10,10,11,11,12,12,13,13,17,17,18,18,19,19,21,21,22,22,23,23,25,25,27,27,28,28,29,29,30,30,31,31,32,32,33,33,36,36],"right_children":[2,4,6,8,10,12,14,-1,-1,16,18,20,22,24,-1,-1,-1,26,28,30,-1,32,34,36,-1,38,-1,40,42,44,46,48,50,52,-1,-1,54,-1,-1,-1,-1,-1,-1,-1,-1,-1,-1,-1,-1,-1,-1,-1,-1,-1,-1],"split_conditions":[-9.631374E-1,-6.0879827E-1,6.4955366E-1,-3.767903E-1,-1.1021923E0,1.7463703E0,1.6887896E0,5.939726E-2,-2.3321776E-1,6.3200307E-1,5.6421256E-1,5.917552E-1,7.823644E-1,9.2311746E-1,-3.517791E-1,-2.2328247E-1,1.0046866E-1,1.6337456E0,2.0560858E0,-5.703746E-1,-3.042163E-1,-5.7191353E-2,4.88371E-1,-8.207427E-2,-2.1967298E-1,-5.042443E-1,2.9519606E-1,-5.235625E-1,7.352132E-1,-2.3575398E-1,4.6968636E-1,5.5098766E-1,7.7007395E-1,-2.5144005E-1,3.0648276E-1,1.5078545E-1,-1.2142087E0,2.3421638E-1,-2.0679879E-1,2.078432E-1,-2.4486741E-1,2.8164506E-1,-8.7645305E-3,1.5003261E-1,-1.2712723E-1,-2.524605E-1,1.8016833E-1,1.9280133E-1,-1.7755575E-1,-3.6153966E-1,-6.1386067E-2,2.1794094E-1,-2.0118514E-1,1.6618416E-1,-1.8465972E-1],"split_indices":[4,0,3,1,1,0,0,0,0,3,2,1,4,4,0,0,0,0,0,0,0,4,3,4,0,0,0,0,1,1,1,3,1,3,0,0,1,0,0,0,0,0,0,0,0,0,0,0,0,0,0,0,0,0,0],"split_type":[0,0,0,0,0,0,0,0,0,0,0,0,0,0,0,0,0,0,0,0,0,0,0,0,0,0,0,0,0,0,0,0,0,0,0,0,0,0,0,0,0,0,0,0,0,0,0,0,0,0,0,0,0,0,0],"sum_hessian":[1.1641502E2,3.447616E1,8.1938866E1,4.2693915E0,3.0206766E1,6.743271E1,1.4506155E1,1.4142747E0,2.855117E0,2.1040583E0,2.8102709E1,3.507723E1,3.2355484E1,8.082258E0,6.423897E0,1.0883957E0,1.0156626E0,1.3922076E1,1.4180632E1,2.7911678E1,7.16555E0,1.7584112E1,1.4771371E1,5.8575716E0,2.2246861E0,5.621183E0,8.300894E0,6.8987594E0,7.2818723E0,1.3557209E1,1.435447E1,1.2126569E1,5.4575424E0,6.094043E0,8.677328E0,2.7049582E0,3.1526136E0,3.714773E0,1.9064101E0,2.3356514E0,4.5631084E0,5.112281E0,2.1695914E0,1.091276E1,2.6444492E0,1.08900385E1,3.4644318E0,8.692244E0,3.4343257E0,4.4305315E0,1.0270112E0,3.681237E0,2.4128058E0,1.7055464E0,1.4470674E0],"tree_param":{"num_deleted":"0","num_feature":"6","num_nodes":"55","size_leaf_vector":"1"}},{"base_weights":[-1.7869355E-2,1.906093E-1,-2.0493263E-1,-4.5243695E-2,4.8351678E-1,-6.510477E-1,1.4964944E-2,3.9991587E-1,-4.3955967E-1,2.9306394E-1,1.6922565E-1,4.2734826E-1,-8.5390216E-1,-6.4526415E-1,1.6464557E-1,7.4542147E-1,-2.2565429E-1,-5.4566585E-2,-3.5915554E-1,6.9384265E-1,-2.5496197E-1,2.5019929E-2,1.6552506E-1,-3.9568195E-1,-5.475732E-1,1.905802E-2,-2.571298E-1,3.0276993E-1,-5.2515596E-1,-2.9562453E-2,2.8203708E-1,-2.6730558E-1,2.630648E-1,-1.4059973E-1,2.965187E-1,-9.025261E-1,4.997641E-1,5.9919447E-1,-9.7234017E-1,-1.579865E-2,6.832423E-1,9.0299584E-2,-2.5680673E-1,7.63945E-2,-3.752892E-1,-6.9472544E-2,2.3181802E-1,2.365027E-2,2.3585255E-1,-3.2055002E-1,-4.2212278E-2,1.4756262E-1,-8.920663E-2,-1.0018506E-1,2.4253078E-1],"categories":[],"categories_nodes":[],"categories_segments":[],"categories_sizes":[],"default_left":[0,0,0,0,0,0,0,0,0,0,0,0,0,0,0,0,0,0,0,0,0,0,0,0,0,0,0,0,0,0,0,0,0,0,0,0,0,0,0,0,0,0,0,0,0,0,0,0,0,0,0,0,0,0,0],"id":13,"left_children":[1,3,5,7,9,11,13,15,17,-1,19,21,23,25,27,29,-1,31,-1,33,35,-1,-1,-1,37,-1,-1,39,41,-1,-1,-1,-1,-1,-1,43,45,47,49,51,53,-1,-1,-1,-1,-1,-1,-1,-1,-1,-1,-1,-1,-1,-1],"loss_changes":[4.0471663E0,3.4154832E0,5.3710613E0,5.112927E0,3.245543E0,4.317175E0,3.820513E0,6.0280275E0,4.42404E0,0E0,3.4363081E0,1.0489279E-1,1.4915209E0,1.1279101E0,3.1541264E0,1.9114485E0,0E0,9.548808E0,0E0,2.797465E0,4.76645E0,0E0,0E0,0E0,5.9790716E0,0E0,0E0,3.2622042E0,1.7911752E0,0E0,0E0,0E0,0E0,0E0,0E0,2.3783817E0,1.1214107E0,2.8956866E-1,5.266304E-1,2.3729448E0,1.8296499E0,0E0,0E0,0E0,0E0,0E0,0E0,0E0,0E0,0E0,0E0,0E0,0E0,0E0,0E0],"parents":[2147483647,0,0,1,1,2,2,3,3,4,4,5,5,6,6,7,7,8,8,10,10,11,11,12,12,13,13,14,14,15,15,17,17,19,19,20,20,24,24,27,27,28,28,35,35,36,36,37,37,38,38,39,39,40,40],"right_children":[2,4,6,8,10,12,14,16,18,-1,20,22,24,26,28,30,-1,32,-1,34,36,-1,-1,-1,38,-1,-1,40,42,-1,-1,-1,-1,-1,-1,44,46,48,50,52,54,-1,-1,-1,-1,-1,-1,-1,-1,-1,-1,-1,-1,-1,-1],"split_conditions":[-8.675649E-1,1.8700916E0,7.56825E-1,1.9566163E-1,5.3026867E-1,-6.9361144E-1,-6.3495016E-1,-5.042443E-1,3.6305824E-1,2.9306394E-1,6.687583E-1,-7.053707E-1,-9.66258E-2,7.9688346E-1,6.515923E-1,-1.1021923E0,-2.2565429E-1,1.4963741E0,-3.5915554E-1,1.966764E0,2.108743E0,2.5019929E-2,1.6552506E-1,-3.9568195E-1,-5.7191353E-2,1.905802E-2,-2.571298E-1,5.4644024E-1,-5.779314E-1,-2.9562453E-2,2.8203708E-1,-2.6730558E-1,2.630648E-1,-1.4059973E-1,2.965187E-1,-1.3715171E0,7.501585E-1,1.5387762E0,7.522534E-1,2.6671776E-1,7.814256E-1,9.0299584E-2,-2.5680673E-1,7.63945E-2,-3.752892E-1,-6.9472544E-2,2.3181802E-1,2.365027E-2,2.3585255E-1,-3.2055002E-1,-4.2212278E-2,1.4756262E-1,-8.920663E-2,-1.0018506E-1,2.4253078E-1],"split_indices":[4,0,4,1,3,0,0,0,2,0,1,0,4,4,3,1,0,0,0,0,0,0,0,0,4,0,0,3,0,0,0,0,0,0,0,4,2,0,1,2,4,0,0,0,0,0,0,0,0,0,0,0,0,0,0],"split_type":[0,0,0,0,0,0,0,0,0,0,0,0,0,0,0,0,0,0,0,0,0,0,0,0,0,0,0,0,0,0,0,0,0,0,0,0,0,0,0,0,0,0,0,0,0,0,0,0,0,0,0,0,0,0,0],"sum_hessian":[1.0177533E2,4.8123543E1,5.3651783E1,2.7126478E1,2.0997066E1,1.7066864E1,3.658492E1,1.2735098E1,1.4391379E1,7.350427E0,1.3646639E1,2.5269032E0,1.453996E1,6.149414E0,3.0435505E1,1.0068588E1,2.6665103E0,1.0253174E1,4.138205E0,5.8168774E0,7.829761E0,1.1148773E0,1.4120258E0,4.4614325E0,1.0078527E1,1.5760689E0,4.573345E0,2.5825367E1,4.610139E0,1.9799799E0,8.088608E0,5.4249306E0,4.8282437E0,1.0564184E0,4.760459E0,4.108654E0,3.7211072E0,2.6131132E0,7.4654145E0,1.45778475E1,1.12475195E1,1.3441486E0,3.2659905E0,1.0131426E0,3.0955112E0,1.0525825E0,2.6685247E0,1.0665528E0,1.5465603E0,6.436369E0,1.0290456E0,4.934137E0,9.64371E0,1.0498735E0,1.0197646E1],"tree_param":{"num_deleted":"0","num_feature":"6","num_nodes":"55","size_leaf_vector":"1"}},{"base_weights":[-1.9553935E-2,-6.9844353E-1,2.8722785E-2,-2.4623923E-1,-1.41915865E-2,6.193014E-1,-4.059136E-2,-5.2745815E-2,7.598911E-1,1.7878237E-1,-2.7972135E-1,2.5204834E-1,3.6715724E-2,-1.854368E-2,4.6099445E-1,-5.8506846E-1,1.1824358E-3,4.4052067E-1,-2.8297687E-1,2.864529E-1,1.0662384E-1,1.667822E-1,-7.1499765E-1,-8.10205E-1,4.3358567E-1,2.2878836E-1,-1.9481151E-1,-1.7374541E-1,8.968936E-2,2.2985826E-1,-6.7363605E-2,-5.3064477E-2,-2.860438E-1,-3.1333438E-1,9.4504155E-2,1.9204976E-1,-2.0785865E-1],"categories":[],"categories_nodes":[],"categories_segments":[],"categories_sizes":[],"default_left":[0,0,0,0,0,0,0,0,0,0,0,0,0,0,0,0,0,0,0,0,0,0,0,0,0,0,0,0,0,0,0,0,0,0,0,0,0],"id":14,"left_children":[1,3,5,-1,-1,7,9,-1,11,13,15,-1,-1,17,19,21,23,25,27,-1,29,-1,31,33,35,-1,-1,-1,-1,-1,-1,-1,-1,-1,-1,-1,-1],"loss_changes":[2.9356387E0,4.3484354E-1,3.4642508E0,0E0,0E0,1.1269455E0,4.043541E0,0E0,2.9319477E-1,2.2535267E0,3.1582842E0,0E0,0E0,3.1213648E0,2.8080773E0,3.0128136E0,7.4285994E0,3.8000457E0,2.977807E0,0E0,2.5324986E0,0E0,1.9199514E0,2.269298E0,3.6573133E0,0E0,0E0,0E0,0E0,0E0,0E0,0E0,0E0,0E0,0E0,0E0,0E0],"parents":[2147483647,0,0,1,1,2,2,5,5,6,6,8,8,9,9,10,10,13,13,14,14,15,15,16,16,17,17,18,18,20,20,22,22,23,23,24,24],"right_children":[2,4,6,-1,-1,8,10,-1,12,14,16,-1,-1,18,20,22,24,26,28,-1,30,-1,32,34,36,-1,-1,-1,-1,-1,-1,-1,-1,-1,-1,-1,-1],"split_conditions":[-1.5345128E0,6.9896734E-1,-1.1606429E0,-2.4623923E-1,-1.41915865E-2,5.6775963E-1,-3.7645215E-1,-5.2745815E-2,8.852103E-1,1.9398885E0,8.168203E-1,2.5204834E-1,3.6715724E-2,1.9566163E-1,6.687583E-1,-8.5362273E-1,1.7117041E0,-5.042443E-1,-9.1499054E-1,2.864529E-1,5.3026867E-1,1.667822E-1,-5.7191353E-2,1.3176168E0,6.3922065E-1,2.2878836E-1,-1.9481151E-1,-1.7374541E-1,8.968936E-2,2.2985826E-1,-6.7363605E-2,-5.3064477E-2,-2.860438E-1,-3.1333438E-1,9.4504155E-2,1.9204976E-1,-2.0785865E-1],"split_indices":[1,3,1,0,0,4,4,0,4,0,4,0,0,1,1,1,0,0,4,0,3,0,4,4,3,0,0,0,0,0,0,0,0,0,0,0,0],"split_type":[0,0,0,0,0,0,0,0,0,0,0,0,0,0,0,0,0,0,0,0,0,0,0,0,0,0,0,0,0,0,0,0,0,0,0,0,0],"sum_hessian":[8.7958534E1,4.945475E0,8.301306E1,3.9438398E0,1.0016352E0,7.8861184E0,7.5126945E1,1.1472328E0,6.738886E0,3.931365E1,3.5813297E1,5.7029266E0,1.0359594E0,2.3686237E1,1.5627409E1,1.6641214E1,1.9172085E1,8.413767E0,1.527247E1,5.8209276E0,9.806481E0,1.3660519E0,1.5275162E1,6.361416E0,1.2810668E1,6.726181E0,1.6875857E0,1.0124487E1,5.1479836E0,2.8388686E0,6.9676127E0,5.2256255E0,1.0049536E1,5.324722E0,1.0366939E0,1.11901865E1,1.6204817E0],"tree_param":{"num_deleted":"0","num_feature":"6","num_nodes":"37","size_leaf_vector":"1"}},{"base_weights":[-1.4962273E-2,-8.692339E-2,4.467147E-1,-1.2496436E-2,-8.107067E-1,5.7552797E-1,-8.554505E-2,3.6466405E-2,-7.2829825E-1,-5.601566E-2,-2.6738402E-1,7.1516883E-1,1.2598897E-3,-5.488308E-1,1.0311734E-1,-3.2802448E-2,-2.7246106E-1,2.4830082E-1,-3.71277E-3,-1.7926982E-1,-2.8454515E-1,-5.565426E-1,1.5439878E-1,-1.7689863E-1,3.2706764E-2,-1.2240424E-2,-2.1176976E-1,1.4954776E-1,1.14126615E-2],"categories":[],"categories_nodes":[],"categories_segments":[],"categories_sizes":[],"default_left":[0,0,0,0,0,0,0,0,0,0,0,0,0,0,0,0,0,0,0,0,0,0,0,0,0,0,0,0,0],"id":15,"left_children":[1,3,5,7,9,11,-1,13,15,-1,-1,17,-1,19,21,-1,-1,-1,-1,23,-1,25,27,-1,-1,-1,-1,-1,-1],"loss_changes":[2.671282E0,3.727753E0,1.1867864E0,2.2673025E0,1.5808105E-1,7.593553E-1,0E0,2.4281726E0,3.6180687E-1,0E0,0E0,6.3826776E-1,0E0,7.712728E-1,1.9606915E0,0E0,0E0,0E0,0E0,6.019422E-1,0E0,2.958547E-1,2.0712056E0,0E0,0E0,0E0,0E0,0E0,0E0],"parents":[2147483647,0,0,1,1,2,2,3,3,4,4,5,5,7,7,8,8,11,11,13,13,14,14,19,19,21,21,22,22],"right_children":[2,4,6,8,10,12,-1,14,16,-1,-1,18,-1,20,22,-1,-1,-1,-1,24,-1,26,28,-1,-1,-1,-1,-1,-1],"split_conditions":[2.0763533E0,7.27715E-1,7.9558843E-1,8.2224625E-1,-1.1739405E0,1.895692E-1,-8.554505E-2,-7.0337325E-1,-9.673007E-1,-5.601566E-2,-2.6738402E-1,7.061512E-1,1.2598897E-3,-1.2776715E0,-1.5345128E0,-3.2802448E-2,-2.7246106E-1,2.4830082E-1,-3.71277E-3,-2.8643475E0,-2.8454515E-1,-9.9421394E-1,-2.3575398E-1,-1.7689863E-1,3.2706764E-2,-1.2240424E-2,-2.1176976E-1,1.4954776E-1,1.14126615E-2],"split_indices":[0,1,1,2,2,4,0,3,1,0,0,3,0,3,1,0,0,0,0,3,0,4,1,0,0,0,0,0,0],"split_type":[0,0,0,0,0,0,0,0,0,0,0,0,0,0,0,0,0,0,0,0,0,0,0,0,0,0,0,0,0],"sum_hessian":[7.8236336E1,6.838842E1,9.847911E0,6.2934143E1,5.45428E0,8.555669E0,1.2922423E0,5.979318E1,3.140965E0,1.0031229E0,4.451157E0,6.6729407E0,1.882728E0,5.373267E0,5.441991E1,1.0694246E0,2.0715404E0,5.660097E0,1.0128434E0,3.5443523E0,1.8289148E0,3.2147102E0,5.12052E1,1.0311377E0,2.5132146E0,1.0078163E0,2.206894E0,1.2109724E1,3.9095474E1],"tree_param":{"num_deleted":"0","num_feature":"6","num_nodes":"29","size_leaf_vector":"1"}},{"base_weights":[-2.4344565E-2,2.2731245E-1,-1.2710531E-1,-1.6896287E-1,2.9833114E-1,1.8687174E-1,-2.241605E-1,-1.2826796E-1,3.7402767E-1,-1.8898124E-1,2.3406419E-1,-3.543594E-2,-6.5147084E-1,-1.39232E-1,1.20409E-1,6.7631936E-1,1.507086E-1,-4.1941258E-1,1.8417151E-1,-2.412886E-1,5.018643E-1,-1.7039074E-2,-9.0384185E-1,2.3782726E-1,2.542952E-1,-2.7858874E-1,3.9798653E-1,3.888282E-2,-5.7916707E-1,9.812484E-2,-6.182815E-1,-1.2513003E-1,7.680353E-1,5.451532E-1,-2.4433944E-1,-3.0943745E-1,3.9665783E-3,1.9728646E-1,-6.987632E-2,-2.0380391E-1,1.848202E-1,1.0855235E-2,1.9929312E-1,-6.1915558E-2,-2.9834533E-1,1.4809318E-1,-1.068927E-1,-5.2466158E-2,-2.3418254E-1,4.33879E-2,2.7879122E-1,2.0103328E-1,4.4766486E-2],"categories":[],"categories_nodes":[],"categories_segments":[],"categories_sizes":[],"default_left":[0,0,0,0,0,0,0,0,0,0,0,0,0,0,0,0,0,0,0,0,0,0,0,0,0,0,0,0,0,0,0,0,0,0,0,0,0,0,0,0,0,0,0,0,0,0,0,0,0,0,0,0,0],"id":16,"left_children":[1,3,5,-1,7,9,11,13,15,17,-1,19,21,-1,-1,23,25,27,-1,29,31,33,35,37,-1,39,41,-1,43,45,47,-1,49,51,-1,-1,-1,-1,-1,-1,-1,-1,-1,-1,-1,-1,-1,-1,-1,-1,-1,-1,-1],"loss_changes":[1.9720666E0,1.4112909E0,1.6873033E0,0E0,7.252492E-1,3.112379E0,3.339809E0,8.8092214E-1,1.1177998E0,1.9122634E0,0E0,3.4373465E0,2.0208392E0,0E0,0E0,3.5359192E-1,1.3505716E0,7.367234E-1,0E0,2.9208798E0,2.4312422E0,2.5234563E0,1.0761895E0,8.3815753E-1,0E0,2.1597385E0,7.296344E-1,0E0,7.2776747E-1,2.4452164E0,6.355696E-1,0E0,5.737424E-1,6.4237416E-2,0E0,0E0,0E0,0E0,0E0,0E0,0E0,0E0,0E0,0E0,0E0,0E0,0E0,0E0,0E0,0E0,0E0,0E0,0E0],"parents":[2147483647,0,0,1,1,2,2,4,4,5,5,6,6,7,7,8,8,9,9,11,11,12,12,15,15,16,16,17,17,19,19,20,20,21,21,22,22,23,23,25,25,26,26,28,28,29,29,30,30,32,32,33,33],"right_children":[2,4,6,-1,8,10,12,14,16,18,-1,20,22,-1,-1,24,26,28,-1,30,32,34,36,38,-1,40,42,-1,44,46,48,-1,50,52,-1,-1,-1,-1,-1,-1,-1,-1,-1,-1,-1,-1,-1,-1,-1,-1,-1,-1,-1],"split_conditions":[-9.631374E-1,-6.537535E-1,-5.9027684E-1,-1.6896287E-1,-3.0107716E-1,3.3627167E-1,1.8058176E0,1.4436821E0,5.6421256E-1,1.9947772E0,2.3406419E-1,1.7463703E0,2.47668E-1,-1.39232E-1,1.20409E-1,1.4963741E0,6.0673946E-1,-9.2635584E-1,1.8417151E-1,-5.747895E-1,4.7895426E-1,1.895692E-1,8.0199647E-1,-2.8593513E-1,2.542952E-1,-9.738213E-1,2.0560858E0,3.888282E-2,1.6887896E0,-2.3575398E-1,-1.2900141E0,-1.2513003E-1,5.0821215E-1,-8.94058E-1,-2.4433944E-1,-3.0943745E-1,3.9665783E-3,1.9728646E-1,-6.987632E-2,-2.0380391E-1,1.848202E-1,1.0855235E-2,1.9929312E-1,-6.1915558E-2,-2.9834533E-1,1.4809318E-1,-1.068927E-1,-5.2466158E-2,-2.3418254E-1,4.33879E-2,2.7879122E-1,2.0103328E-1,4.4766486E-2],"split_indices":[4,0,2,0,2,3,0,0,2,0,0,0,3,0,0,0,3,4,0,0,1,4,2,2,0,4,0,0,0,1,1,0,3,4,0,0,0,0,0,0,0,0,0,0,0,0,0,0,0,0,0,0,0],"split_type":[0,0,0,0,0,0,0,0,0,0,0,0,0,0,0,0,0,0,0,0,0,0,0,0,0,0,0,0,0,0,0,0,0,0,0,0,0,0,0,0,0,0,0,0,0,0,0,0,0,0,0,0,0],"sum_hessian":[7.414073E1,2.1145117E1,5.2995613E1,1.1717474E0,1.997337E1,1.2295102E1,4.0700512E1,2.9053476E0,1.7068022E1,7.944287E0,4.350816E0,2.8982927E1,1.1717584E1,1.8536605E0,1.051687E0,6.389928E0,1.0678095E1,6.543808E0,1.4004785E0,2.1353003E1,7.6299257E0,3.638451E0,8.079132E0,2.4662108E0,3.923717E0,3.8564022E0,6.8216925E0,1.5174713E0,5.0263367E0,1.1625801E1,9.7272005E0,1.5862628E0,6.043663E0,2.3195243E0,1.3189268E0,6.982698E0,1.0964344E0,1.093818E0,1.3723929E0,2.8295698E0,1.0268323E0,3.3739831E0,3.4477093E0,3.4376729E0,1.5886642E0,6.1696916E0,5.45611E0,3.1635027E0,6.563698E0,1.6319426E0,4.4117203E0,1.2367189E0,1.0828054E0],"tree_param":{"num_deleted":"0","num_feature":"6","num_nodes":"53","size_leaf_vector":"1"}},{"base_weights":[-1.4937189E-2,-6.1135463E-2,5.406521E-1,-3.1175057E-3,-5.4369026E-1,2.1417132E-1,1.7691211E-1,-5.9157157E-1,4.6479817E-2,1.23539E-2,-2.2650538E-1,1.6185096E-1,-8.291149E-2,-1.1849347E-2,-2.2082664E-1,4.6484572E-1,-1.3830534E-2,-5.9687417E-2,6.1721903E-1,1.306204E-1,-2.406009E-1,2.3710868E-1,3.1287473E-2,-1.1152155E-1,6.198669E-2,-2.0239E-1,1.199669E-2],"categories":[],"categories_nodes":[],"categories_segments":[],"categories_sizes":[],"default_left":[0,0,0,0,0,0,0,0,0,0,0,0,0,0,0,0,0,0,0,0,0,0,0,0,0,0,0],"id":17,"left_children":[1,3,5,7,9,-1,11,13,15,-1,-1,-1,-1,-1,-1,17,19,-1,21,23,25,-1,-1,-1,-1,-1,-1],"loss_changes":[1.7855719E0,1.7882876E0,2.104243E-1,1.722574E0,8.785112E-1,0E0,6.509425E-1,3.3693337E-1,1.3813473E0,0E0,0E0,0E0,0E0,0E0,0E0,8.2015145E-1,1.6233287E0,0E0,4.3720937E-1,1.2350026E0,2.372815E0,0E0,0E0,0E0,0E0,0E0,0E0],"parents":[2147483647,0,0,1,1,2,2,3,3,4,4,6,6,7,7,8,8,15,15,16,16,18,18,19,19,20,20],"right_children":[2,4,6,8,10,-1,12,14,16,-1,-1,-1,-1,-1,-1,18,20,-1,22,24,26,-1,-1,-1,-1,-1,-1],"split_conditions":[2.120729E0,7.27715E-1,-9.2635584E-1,-1.5345128E0,-2.5144005E-1,2.1417132E-1,2.6008525E-1,-1.2556999E0,-1.1606429E0,1.23539E-2,-2.2650538E-1,1.6185096E-1,-8.291149E-2,-1.1849347E-2,-2.2082664E-1,5.6775963E-1,-8.207427E-2,-5.9687417E-2,8.4545887E-1,-4.0846297E-1,4.6968636E-1,2.3710868E-1,3.1287473E-2,-1.1152155E-1,6.198669E-2,-2.0239E-1,1.199669E-2],"split_indices":[0,1,4,1,3,0,3,4,1,0,0,0,0,0,0,4,4,0,4,3,1,0,0,0,0,0,0],"split_type":[0,0,0,0,0,0,0,0,0,0,0,0,0,0,0,0,0,0,0,0,0,0,0,0,0,0,0],"sum_hessian":[6.7278366E1,6.2935154E1,4.343211E0,5.7078964E1,5.85619E0,2.2898562E0,2.053355E0,3.5874686E0,5.3491497E1,1.7680577E0,4.0881324E0,1.0351259E0,1.0182291E0,1.0084336E0,2.579035E0,5.8944964E0,4.7597E1,1.0433755E0,4.851121E0,2.9334896E1,1.8262102E1,3.2224643E0,1.6286569E0,3.3435373E0,2.599136E1,6.6190453E0,1.1643057E1],"tree_param":{"num_deleted":"0","num_feature":"6","num_nodes":"27","size_leaf_vector":"1"}},{"base_weights":[-1.3945189E-2,-6.928851E-2,3.7533718E-1,-1.7896064E-2,-6.7929256E-1,1.9930927E-1,7.89141E-2,2.2062106E-2,-5.8949494E-1,-6.1478164E-2,-2.2737503E-1,-1.4020732E-1,1.485473E-1,-2.714318E-2,2.1529505E-1,-2.2739315E-1,-2.9467428E-2,6.822519E-2,-3.206239E-1,-2.5995558E-2,1.0577862E-1,1.2651752E-1,-2.2293568E-1],"categories":[],"categories_nodes":[],"categories_segments":[],"categories_sizes":[],"default_left":[0,0,0,0,0,0,0,0,0,0,0,0,0,0,0,0,0,0,0,0,0,0,0],"id":18,"left_children":[1,3,5,7,9,-1,11,13,15,-1,-1,-1,-1,17,-1,-1,-1,19,21,-1,-1,-1,-1],"loss_changes":[1.4278702E0,1.8002932E0,6.548233E-1,1.254336E0,1.1221647E-2,0E0,1.4161235E0,1.7911077E0,2.2245693E-1,0E0,0E0,0E0,0E0,1.4018782E0,0E0,0E0,0E0,1.7058189E0,4.1611276E0,0E0,0E0,0E0,0E0],"parents":[2147483647,0,0,1,1,2,2,3,3,4,4,6,6,7,7,8,8,13,13,17,17,18,18],"right_children":[2,4,6,8,10,-1,12,14,16,-1,-1,-1,-1,18,-1,-1,-1,20,22,-1,-1,-1,-1],"split_conditions":[2.0763533E0,7.27715E-1,5.3026867E-1,8.2224625E-1,-5.9027684E-1,1.9930927E-1,7.5777626E-1,8.1577665E-1,5.859932E-1,-6.1478164E-2,-2.2737503E-1,-1.4020732E-1,1.485473E-1,1.8492521E0,2.1529505E-1,-2.2739315E-1,-2.9467428E-2,1.4963741E0,2.6671776E-1,-2.5995558E-2,1.0577862E-1,1.2651752E-1,-2.2293568E-1],"split_indices":[0,1,3,2,2,0,2,2,3,0,0,0,0,0,0,0,0,0,2,0,0,0,0],"split_type":[0,0,0,0,0,0,0,0,0,0,0,0,0,0,0,0,0,0,0,0,0,0,0],"sum_hessian":[6.406925E1,5.6814137E1,7.2551155E0,5.3348866E1,3.4652693E0,3.04491E0,4.2102056E0,5.0761723E1,2.5871441E0,1.0054537E0,2.4598155E0,1.7676154E0,2.4425902E0,4.8305607E1,2.4561179E0,1.5222071E0,1.0649371E0,3.703755E1,1.1268051E1,2.4428371E1,1.2609182E1,4.087642E0,7.180409E0],"tree_param":{"num_deleted":"0","num_feature":"6","num_nodes":"23","size_leaf_vector":"1"}},{"base_weights":[-1.1937665E-2,2.577343E-1,-8.668307E-2,-9.1691606E-2,3.3966315E-1,-2.01264E-1,-4.8594277E-2,4.348593E-2,4.8679474E-1,4.3542776E-1,-1.1809978E-1,-1.20202444E-1,3.2490396E-1,2.2681223E-2,5.5785316E-1,5.9364647E-1,-2.0723075E-2,-3.5935926E-1,9.831685E-3,-6.3809995E-3,1.7561297E-1,2.1387279E-1,2.0313229E-1,-2.6516526E-3,2.2663541E-1,-6.434351E-1,8.050286E-2,4.6671718E-1,-2.0176613E-1,-3.1723075E-2,1.4180154E-1,1.3069126E-1,-2.5147566E-1,1.3091034E-1,-2.0622058E-1,-3.2495834E-2,2.249429E-1,5.159157E-2,-1.4111565E-1],"categories":[],"categories_nodes":[],"categories_segments":[],"categories_sizes":[],"default_left":[0,0,0,0,0,0,0,0,0,0,0,0,0,0,0,0,0,0,0,0,0,0,0,0,0,0,0,0,0,0,0,0,0,0,0,0,0,0,0],"id":19,"left_children":[1,3,5,-1,7,-1,9,11,13,15,17,-1,19,-1,21,23,-1,25,27,-1,-1,-1,29,-1,-1,31,33,35,37,-1,-1,-1,-1,-1,-1,-1,-1,-1,-1],"loss_changes":[1.2731826E0,7.3703563E-1,1.0652082E0,0E0,5.2140224E-1,0E0,1.6458963E0,7.8396106E-1,1.9801188E-1,5.330839E-1,1.3069592E0,0E0,3.5094678E-1,0E0,2.3207617E-1,4.7432768E-1,0E0,1.8836552E0,2.8562129E0,0E0,0E0,0E0,3.3993298E-1,0E0,0E0,2.2611008E0,2.1148915E0,1.6025181E0,2.111335E0,0E0,0E0,0E0,0E0,0E0,0E0,0E0,0E0,0E0,0E0],"parents":[2147483647,0,0,1,1,2,2,4,4,6,6,7,7,8,8,9,9,10,10,12,12,14,14,15,15,17,17,18,18,22,22,25,25,26,26,27,27,28,28],"right_children":[2,4,6,-1,8,-1,10,12,14,16,18,-1,20,-1,22,24,-1,26,28,-1,-1,-1,30,-1,-1,32,34,36,38,-1,-1,-1,-1,-1,-1,-1,-1,-1,-1],"split_conditions":[-1.0330536E0,-6.280688E-1,-1.5345128E0,-9.1691606E-2,-1.274757E0,-2.01264E-1,-1.0233088E0,6.4335793E-1,-5.5206555E-1,-5.6181633E-1,1.4963741E0,-1.20202444E-1,6.9896734E-1,2.2681223E-2,6.3536185E-1,-6.338839E-1,-2.0723075E-2,6.7625755E-1,2.6671776E-1,-6.3809995E-3,1.7561297E-1,2.1387279E-1,2.0850375E0,-2.6516526E-3,2.2663541E-1,-8.5362273E-1,7.455572E-1,-3.0565152E0,1.8058176E0,-3.1723075E-2,1.4180154E-1,1.3069126E-1,-2.5147566E-1,1.3091034E-1,-2.0622058E-1,-3.2495834E-2,2.249429E-1,5.159157E-2,-1.4111565E-1],"split_indices":[4,0,1,0,4,0,1,2,3,0,0,0,3,0,2,0,0,2,2,0,0,0,0,0,0,1,2,2,0,0,0,0,0,0,0,0,0,0,0],"split_type":[0,0,0,0,0,0,0,0,0,0,0,0,0,0,0,0,0,0,0,0,0,0,0,0,0,0,0,0,0,0,0,0,0,0,0,0,0,0,0],"sum_hessian":[6.1055737E1,1.27190075E1,4.8336727E1,1.2681565E0,1.14508505E1,1.9417073E0,4.639502E1,4.230458E0,7.2203927E0,5.16467E0,4.123035E1,1.4764358E0,2.7540221E0,1.3680326E0,5.8523602E0,3.7971473E0,1.3675226E0,1.3660225E1,2.7570127E1,1.5767828E0,1.1772392E0,3.3696423E0,2.4827178E0,1.0040203E0,2.7931268E0,8.018702E0,5.6415234E0,8.345248E0,1.9224878E1,1.440118E0,1.0425998E0,1.037263E0,6.981438E0,4.15004E0,1.491483E0,2.956723E0,5.3885255E0,8.189867E0,1.1035011E1],"tree_param":{"num_deleted":"0","num_feature":"6","num_nodes":"39","size_leaf_vector":"1"}},{"base_weights":[-4.946785E-3,1.3100916E-1,-1.2875879E-1,-4.393439E-1,1.9367437E-1,-4.553129E-1,5.369955E-2,-4.053101E-2,-1.5664676E-1,3.761478E-1,-3.6831868E-3,1.4432627E-1,-7.017074E-1,-1.667911E-1,3.0781725E-1,2.6875379E-2,2.6555318E-1,-4.511542E-1,2.408166E-1,-3.56575E-1,-3.1183064E-1,2.923587E-1,-5.821608E-1,5.972296E-1,-2.2161731E-1,3.024804E-1,-3.1717533E-1,-1.9819045E-1,-8.12271E-3,4.1029E-1,-8.3357856E-2,1.8950431E-1,-7.0798546E-1,5.8524805E-1,-1.6446175E-1,-7.4800706E-1,4.654745E-2,-4.9442794E-2,2.3674034E-1,1.7342088E-1,-2.2743171E-1,1.8616277E-1,-1.5766083E-1,-2.0694694E-1,7.518525E-2,1.8407114E-1,-2.3721151E-2,-2.4668548E-1,-4.103321E-2,2.1181828E-1,3.7031163E-2,-5.721129E-2,-2.7008298E-1],"categories":[],"categories_nodes":[],"categories_segments":[],"categories_sizes":[],"default_left":[0,0,0,0,0,0,0,0,0,0,0,0,0,0,0,0,0,0,0,0,0,0,0,0,0,0,0,0,0,0,0,0,0,0,0,0,0,0,0,0,0,0,0,0,0,0,0,0,0,0,0,0,0],"id":20,"left_children":[1,3,5,7,9,11,13,-1,-1,15,17,-1,19,21,23,25,-1,27,29,-1,31,33,35,37,39,41,43,-1,-1,45,-1,-1,47,49,-1,51,-1,-1,-1,-1,-1,-1,-1,-1,-1,-1,-1,-1,-1,-1,-1,-1,-1],"loss_changes":[9.792886E-1,1.0767881E0,1.8374333E0,6.3672066E-3,9.2668605E-1,2.8784578E0,1.1952324E0,0E0,0E0,2.351493E0,1.5674521E0,0E0,1.3615351E0,2.3786159E0,1.6394657E0,9.4504285E-1,0E0,4.3156743E-1,9.292439E-1,0E0,2.8480182E0,1.8387656E0,9.003656E-1,1.0996466E0,2.2426019E0,1.7703254E0,1.1188724E0,0E0,0E0,7.8406847E-1,0E0,0E0,2.1366191E-1,1.9493699E-1,0E0,2.8723288E-1,0E0,0E0,0E0,0E0,0E0,0E0,0E0,0E0,0E0,0E0,0E0,0E0,0E0,0E0,0E0,0E0,0E0],"parents":[2147483647,0,0,1,1,2,2,3,3,4,4,5,5,6,6,9,9,10,10,12,12,13,13,14,14,15,15,17,17,18,18,20,20,21,21,22,22,23,23,24,24,25,25,26,26,29,29,32,32,33,33,35,35],"right_children":[2,4,6,8,10,12,14,-1,-1,16,18,-1,20,22,24,26,-1,28,30,-1,32,34,36,38,40,42,44,-1,-1,46,-1,-1,48,50,-1,52,-1,-1,-1,-1,-1,-1,-1,-1,-1,-1,-1,-1,-1,-1,-1,-1,-1],"split_conditions":[-8.675649E-1,-6.211404E-1,7.56825E-1,4.3953103E-1,5.3026867E-1,-6.9361144E-1,1.7117041E0,-4.053101E-2,-1.5664676E-1,1.7463703E0,6.082582E-1,1.4432627E-1,-9.66258E-2,-1.0233088E0,1.8700916E0,1.9566163E-1,2.6555318E-1,7.8274655E-1,7.116982E-1,-3.56575E-1,-8.961085E-2,9.4489974E-1,1.16318E0,3.7652436E-1,-7.090004E-1,-5.042443E-1,1.4963741E0,-1.9819045E-1,-8.12271E-3,7.0699203E-1,-8.3357856E-2,1.8950431E-1,7.27715E-1,8.4545887E-1,-1.6446175E-1,3.3245778E-1,4.654745E-2,-4.9442794E-2,2.3674034E-1,1.7342088E-1,-2.2743171E-1,1.8616277E-1,-1.5766083E-1,-2.0694694E-1,7.518525E-2,1.8407114E-1,-2.3721151E-2,-2.4668548E-1,-4.103321E-2,2.1181828E-1,3.7031163E-2,-5.721129E-2,-2.7008298E-1],"split_indices":[4,0,4,1,3,0,0,0,0,0,3,0,4,1,0,1,0,2,3,0,4,4,4,2,2,0,0,0,0,1,0,0,1,4,0,2,0,0,0,0,0,0,0,0,0,0,0,0,0,0,0,0,0],"split_type":[0,0,0,0,0,0,0,0,0,0,0,0,0,0,0,0,0,0,0,0,0,0,0,0,0,0,0,0,0,0,0,0,0,0,0,0,0,0,0,0,0,0,0,0,0,0,0,0,0,0,0,0,0],"sum_hessian":[5.617467E1,2.674657E1,2.9428102E1,2.0527072E0,2.4693865E1,1.0012619E1,1.9415482E1,1.0021998E0,1.0505074E0,1.2360051E1,1.2333813E1,1.8873614E0,8.125258E0,1.0579553E1,8.835929E0,7.954701E0,4.4053507E0,4.059362E0,8.27445E0,2.7021792E0,5.423079E0,5.1656213E0,5.413932E0,5.6301746E0,3.2057545E0,4.483765E0,3.4709358E0,2.3437939E0,1.7155682E0,6.394171E0,1.8802791E0,1.4278574E0,3.9952214E0,4.056058E0,1.1095637E0,4.407949E0,1.0059829E0,1.1610258E0,4.4691486E0,1.2560244E0,1.94973E0,3.4204507E0,1.0633142E0,1.9658256E0,1.5051104E0,4.3382435E0,2.055928E0,2.9628067E0,1.0324147E0,2.7957692E0,1.2602885E0,1.4292692E0,2.9786797E0],"tree_param":{"num_deleted":"0","num_feature":"6","num_nodes":"53","size_leaf_vector":"1"}},{"base_weights":[-1.2998786E-2,-5.5888467E-2,4.039478E-1,-1.17413625E-2,-4.9495295E-1,1.7970276E-1,2.8120582E-3,-4.6308428E-1,3.3838425E-2,-2.0128895E-1,-8.983005E-3,-2.1974204E-1,-1.8533098E-2,3.4612185E-1,-8.644776E-2,4.788237E-1,-1.5424147E-1,-5.1809555E-1,5.112112E-2,1.9993694E-1,-1.9067291E-2,3.1384792E-2,-2.4025008E-1,-1.4523633E-1,5.584279E-2],"categories":[],"categories_nodes":[],"categories_segments":[],"categories_sizes":[],"default_left":[0,0,0,0,0,0,0,0,0,0,0,0,0,0,0,0,0,0,0,0,0,0,0,0,0],"id":21,"left_children":[1,3,5,7,9,-1,-1,11,13,-1,-1,-1,-1,15,17,19,-1,21,23,-1,-1,-1,-1,-1,-1],"loss_changes":[9.3172944E-1,9.047513E-1,3.6870658E-1,9.148527E-1,3.2919288E-1,0E0,0E0,3.9553237E-1,1.5561805E0,0E0,0E0,0E0,0E0,1.5588183E0,1.8158317E0,1.1088436E0,0E0,1.3817995E0,1.8072848E0,0E0,0E0,0E0,0E0,0E0,0E0],"parents":[2147483647,0,0,1,1,2,2,3,3,4,4,7,7,8,8,13,13,14,14,15,15,17,17,18,18],"right_children":[2,4,6,8,10,-1,-1,12,14,-1,-1,-1,-1,16,18,20,-1,22,24,-1,-1,-1,-1,-1,-1],"split_conditions":[2.108743E0,7.27715E-1,7.5100166E-1,-1.5131811E0,2.061032E0,1.7970276E-1,2.8120582E-3,-5.408911E-1,-2.3575398E-1,-2.0128895E-1,-8.983005E-3,-2.1974204E-1,-1.8533098E-2,-5.042443E-1,4.6968636E-1,8.4545887E-1,-1.5424147E-1,-5.456565E-1,1.4436821E0,1.9993694E-1,-1.9067291E-2,3.1384792E-2,-2.4025008E-1,-1.4523633E-1,5.584279E-2],"split_indices":[0,1,1,1,0,0,0,0,1,0,0,0,0,0,1,4,0,0,0,0,0,0,0,0,0],"split_type":[0,0,0,0,0,0,0,0,0,0,0,0,0,0,0,0,0,0,0,0,0,0,0,0,0],"sum_hessian":[4.9839813E1,4.597636E1,3.8634527E0,4.2708813E1,3.2675486E0,2.238644E0,1.6248088E0,3.0772471E0,3.9631565E1,2.0490599E0,1.2184887E0,1.3474883E0,1.7297589E0,1.0498412E1,2.9133152E1,9.479519E0,1.0188932E0,6.3724213E0,2.276073E1,6.873071E0,2.6064475E0,2.186591E0,4.18583E0,4.064204E0,1.8696527E1],"tree_param":{"num_deleted":"0","num_feature":"6","num_nodes":"25","size_leaf_vector":"1"}},{"base_weights":[-2.1058077E-2,-5.3985804E-2,4.0112254E-1,-1.5747208E-2,-4.0710354E-1,1.7173663E-1,1.5973585E-2,-3.9393055E-1,2.7282584E-2,-1.2000101E-2,-1.9974968E-1,-3.120947E-2,-2.3112296E-1,2.6669183E-1,-3.3777464E-2,-6.2224638E-2,5.416467E-2,-4.0042806E-2,2.0960182E-1,1.5688895E-1,-1.5429394E-1,6.373735E-2,-1.635075E-1,1.0889373E-1,-1.03759356E-1,-2.3503324E-1,1.9665385E-2],"categories":[],"categories_nodes":[],"categories_segments":[],"categories_sizes":[],"default_left":[0,0,0,0,0,0,0,0,0,0,0,0,0,0,0,0,0,0,0,0,0,0,0,0,0,0,0],"id":22,"left_children":[1,3,5,7,9,-1,-1,11,13,-1,-1,15,-1,17,19,-1,-1,21,-1,23,25,-1,-1,-1,-1,-1,-1],"loss_changes":[6.8463117E-1,6.0285956E-1,1.8225044E-1,6.90208E-1,3.8829076E-1,0E0,0E0,5.672713E-1,5.7069314E-1,0E0,0E0,1.5862681E-1,0E0,1.0774881E0,7.4808943E-1,0E0,0E0,8.269806E-1,0E0,1.441042E0,2.7908812E0,0E0,0E0,0E0,0E0,0E0,0E0],"parents":[2147483647,0,0,1,1,2,2,3,3,4,4,7,7,8,8,11,11,13,13,14,14,17,17,19,19,20,20],"right_children":[2,4,6,8,10,-1,-1,12,14,-1,-1,16,-1,18,20,-1,-1,22,-1,24,26,-1,-1,-1,-1,-1,-1],"split_conditions":[2.120729E0,7.27715E-1,-9.2635584E-1,-7.0337325E-1,5.3026867E-1,1.7173663E-1,1.5973585E-2,-1.2776715E0,-1.9294548E-1,-1.2000101E-2,-1.9974968E-1,-7.29921E-1,-2.3112296E-1,3.3627167E-1,-5.042443E-1,-6.2224638E-2,5.416467E-2,1.3581127E-1,2.0960182E-1,8.058316E-1,4.6968636E-1,6.373735E-2,-1.635075E-1,1.0889373E-1,-1.03759356E-1,-2.3503324E-1,1.9665385E-2],"split_indices":[0,1,4,3,3,0,0,3,2,0,0,2,0,3,0,0,0,3,0,4,1,0,0,0,0,0,0],"split_type":[0,0,0,0,0,0,0,0,0,0,0,0,0,0,0,0,0,0,0,0,0,0,0,0,0,0,0],"sum_hessian":[4.669116E1,4.4122017E1,2.5691442E0,4.0753475E1,3.368539E0,1.2888207E0,1.2803235E0,3.3301737E0,3.74233E1,1.869938E0,1.4986011E0,2.2476046E0,1.0825691E0,6.92063E0,3.0502672E1,1.2379798E0,1.0096248E0,4.5775642E0,2.3430655E0,1.1696344E1,1.8806328E1,3.4378507E0,1.1397136E0,8.49292E0,3.2034245E0,4.2060094E0,1.4600319E1],"tree_param":{"num_deleted":"0","num_feature":"6","num_nodes":"27","size_leaf_vector":"1"}},{"base_weights":[-2.4012025E-2,-4.240097E-1,1.0689553E-2,-2.0689456E-1,-7.968652E-3,3.0124205E-1,-7.325417E-2,4.7398052E-1,-7.531361E-2,-4.0477994E-1,3.2543648E-2,2.1316473E-1,1.1738228E-3,-6.201443E-1,1.2906228E-1,4.417268E-1,-1.2883353E-1,-7.126029E-2,7.669677E-2,2.1234006E-2,-2.4326004E-1,1.1724211E-1,-6.7067094E-2,-1.1038369E-1,6.6509974E-1,-2.1251541E-1,-2.8505694E-2,2.4300303E-2,-7.604611E-2,5.772234E-2,2.2381853E-1,1.5780398E-1,-9.012315E-2],"categories":[],"categories_nodes":[],"categories_segments":[],"categories_sizes":[],"default_left":[0,0,0,0,0,0,0,0,0,0,0,0,0,0,0,0,0,0,0,0,0,0,0,0,0,0,0,0,0,0,0,0,0],"id":23,"left_children":[1,3,5,-1,-1,7,9,11,-1,13,15,-1,17,19,21,23,25,-1,-1,-1,-1,-1,-1,27,29,-1,31,-1,-1,-1,-1,-1,-1],"loss_changes":[6.369091E-1,3.6825067E-1,1.0683274E0,0E0,0E0,1.0549737E0,1.2087287E0,8.738178E-1,0E0,1.036654E0,1.8243072E0,0E0,2.7999082E-1,8.613522E-1,3.8451788E-1,1.0348867E0,1.1409247E0,0E0,0E0,0E0,0E0,0E0,0E0,1.05524786E-1,7.431793E-2,0E0,2.8817074E0,0E0,0E0,0E0,0E0,0E0,0E0],"parents":[2147483647,0,0,1,1,2,2,5,5,6,6,7,7,9,9,10,10,12,12,13,13,14,14,15,15,16,16,23,23,24,24,26,26],"right_children":[2,4,6,-1,-1,8,10,12,-1,14,16,-1,18,20,22,24,26,-1,-1,-1,-1,-1,-1,28,30,-1,32,-1,-1,-1,-1,-1,-1],"split_conditions":[-1.5131811E0,-5.408911E-1,-2.3575398E-1,-2.0689456E-1,-7.968652E-3,-5.329158E-1,1.4963741E0,8.4545887E-1,-7.531361E-2,6.7625755E-1,2.6671776E-1,2.1316473E-1,5.0821215E-1,-1.2156239E0,7.0770293E-1,-3.372407E0,4.6968636E-1,-7.126029E-2,7.669677E-2,2.1234006E-2,-2.4326004E-1,1.1724211E-1,-6.7067094E-2,1.8492521E0,-5.2243966E-1,-2.1251541E-1,1.8242404E0,2.4300303E-2,-7.604611E-2,5.772234E-2,2.2381853E-1,1.5780398E-1,-9.012315E-2],"split_indices":[1,0,1,0,0,0,0,4,0,2,2,0,3,4,2,2,1,0,0,0,0,0,0,0,3,0,0,0,0,0,0,0,0],"split_type":[0,0,0,0,0,0,0,0,0,0,0,0,0,0,0,0,0,0,0,0,0,0,0,0,0,0,0,0,0,0,0,0,0],"sum_hessian":[4.4558468E1,2.6614742E0,4.189699E1,1.1545941E0,1.5068803E0,8.811013E0,3.308598E1,6.8197823E0,1.991231E0,7.320534E0,2.5765444E1,4.2103195E0,2.6094627E0,5.101007E0,2.2195272E0,6.7961354E0,1.8969309E1,1.3808248E0,1.2286379E0,1.2395203E0,3.8614867E0,1.2117577E0,1.0077696E0,2.1032844E0,4.692851E0,1.9048874E0,1.706442E1,1.0855076E0,1.0177766E0,1.1800015E0,3.5128496E0,5.30695E0,1.1757472E1],"tree_param":{"num_deleted":"0","num_feature":"6","num_nodes":"33","size_leaf_vector":"1"}},{"base_weights":[-2.0485995E-2,1.7804296E-1,-1.1166306E-1,-1.0528049E-2,4.029979E-1,-2.6090395E-1,5.964595E-2,2.8943014E-1,-2.730639E-1,2.1944381E-1,7.450101E-2,-4.6895254E-1,2.2476847E-1,-1.271015E-1,1.6731171E-1,-7.454526E-3,1.5437542E-1,-1.4784601E-1,2.1837382E-2,-6.851751E-2,1.0838208E-1,-2.4174097E-1,-2.4515054E-1,5.0100195E-1,-1.0471561E-1,2.8949156E-1,-2.5009096E-1,8.0219515E-2,-5.2682227E-1,1.8570156E-1,3.327431E-2,-3.409312E-2,2.125548E-1,8.552686E-2,-1.8508267E-1,9.3666166E-2,-4.6725687E-2,-2.0210728E-1,-9.188735E-3,1.251318E-1,-1.3423514E-1],"categories":[],"categories_nodes":[],"categories_segments":[],"categories_sizes":[],"default_left":[0,0,0,0,0,0,0,0,0,0,0,0,0,0,0,0,0,0,0,0,0,0,0,0,0,0,0,0,0,0,0,0,0,0,0,0,0,0,0,0,0],"id":24,"left_children":[1,3,5,7,9,11,13,15,17,-1,19,21,23,-1,25,-1,-1,-1,-1,-1,-1,27,-1,29,-1,31,33,35,37,-1,-1,39,-1,-1,-1,-1,-1,-1,-1,-1,-1],"loss_changes":[7.837476E-1,5.8397996E-1,7.706113E-1,7.412451E-1,6.2072396E-1,1.7189844E0,8.2873935E-1,3.2486227E-1,4.158013E-1,0E0,4.5098576E-1,7.12636E-1,1.0411534E0,0E0,7.163775E-1,0E0,0E0,0E0,0E0,0E0,0E0,8.115709E-1,0E0,1.2006557E-1,0E0,1.4114666E0,8.425867E-1,3.116316E-1,3.1295753E-1,0E0,0E0,1.4413396E0,0E0,0E0,0E0,0E0,0E0,0E0,0E0,0E0,0E0],"parents":[2147483647,0,0,1,1,2,2,3,3,4,4,5,5,6,6,7,7,8,8,10,10,11,11,12,12,14,14,21,21,23,23,25,25,26,26,27,27,28,28,31,31],"right_children":[2,4,6,8,10,12,14,16,18,-1,20,22,24,-1,26,-1,-1,-1,-1,-1,-1,28,-1,30,-1,32,34,36,38,-1,-1,40,-1,-1,-1,-1,-1,-1,-1,-1,-1],"split_conditions":[-9.631374E-1,1.9947772E0,7.56825E-1,-1.2156239E0,6.774948E-1,7.012189E-1,-6.3495016E-1,-1.2847383E0,5.887591E-1,2.1944381E-1,2.091057E0,5.5363685E-1,7.461422E-1,-1.271015E-1,1.8700916E0,-7.454526E-3,1.5437542E-1,-1.4784601E-1,2.1837382E-2,-6.851751E-2,1.0838208E-1,-4.802713E-1,-2.4515054E-1,1.8925102E0,-1.0471561E-1,4.6968636E-1,3.3245778E-1,4.3585607E-1,4.803629E-1,1.8570156E-1,3.327431E-2,-1.0233088E0,2.125548E-1,8.552686E-2,-1.8508267E-1,9.3666166E-2,-4.6725687E-2,-2.0210728E-1,-9.188735E-3,1.251318E-1,-1.3423514E-1],"split_indices":[4,0,4,4,1,1,0,4,1,0,0,3,1,0,0,0,0,0,0,0,0,4,0,0,0,1,2,1,3,0,0,1,0,0,0,0,0,0,0,0,0],"split_type":[0,0,0,0,0,0,0,0,0,0,0,0,0,0,0,0,0,0,0,0,0,0,0,0,0,0,0,0,0,0,0,0,0,0,0,0,0,0,0,0,0],"sum_hessian":[4.1199585E1,1.2666603E1,2.853298E1,7.409068E0,5.257535E0,1.4969156E1,1.3563824E1,3.4102614E0,3.9988067E0,2.015442E0,3.2420933E0,1.0503973E1,4.4651833E0,1.9363549E0,1.1627469E1,1.7947397E0,1.6155216E0,2.1853225E0,1.8134843E0,1.6757377E0,1.5663556E0,7.381655E0,3.1223176E0,3.099841E0,1.3653423E0,9.231669E0,2.3957994E0,3.804077E0,3.5775783E0,1.9293636E0,1.1704776E0,5.7274094E0,3.5042605E0,1.065E0,1.3307993E0,1.7552432E0,2.0488336E0,2.4844766E0,1.0931016E0,2.7340238E0,2.9933856E0],"tree_param":{"num_deleted":"0","num_feature":"6","num_nodes":"41","size_leaf_vector":"1"}},{"base_weights":[-1.4691124E-2,-7.090577E-2,2.8602657E-1,-2.732751E-2,-1.5411855E-1,5.2123904E-1,9.0977205E-3,8.293974E-3,-1.6419962E-1,1.8605128E-1,4.2150866E-2,1.3289644E-1,-8.884732E-2,-3.275014E-2,1.6887861E-1,2.3420084E-2,-3.9129978E-1,-1.1161213E-1,2.3481194E-2,2.5186332E-2,-2.1800151E-1],"categories":[],"categories_nodes":[],"categories_segments":[],"categories_sizes":[],"default_left":[0,0,0,0,0,0,0,0,0,0,0,0,0,0,0,0,0,0,0,0,0],"id":25,"left_children":[1,3,5,7,-1,9,11,13,-1,-1,-1,-1,-1,15,-1,17,19,-1,-1,-1,-1],"loss_changes":[6.9088227E-1,6.463791E-1,4.1515422E-1,6.012337E-1,0E0,4.3491244E-2,6.581222E-1,7.271624E-1,0E0,0E0,0E0,0E0,0E0,6.120061E-1,0E0,6.10927E-1,7.161858E-1,0E0,0E0,0E0,0E0],"parents":[2147483647,0,0,1,1,2,2,3,3,5,5,6,6,7,7,13,13,15,15,16,16],"right_children":[2,4,6,8,-1,10,12,14,-1,-1,-1,-1,-1,16,-1,18,20,-1,-1,-1,-1],"split_conditions":[2.0560858E0,2.006558E0,-9.751554E-1,7.27715E-1,-1.5411855E-1,7.3428243E-1,4.3952158E-1,1.9947772E0,-1.6419962E-1,1.8605128E-1,4.2150866E-2,1.3289644E-1,-8.884732E-2,1.8925102E0,1.6887861E-1,-1.5131811E0,2.6671776E-1,-1.1161213E-1,2.3481194E-2,2.5186332E-2,-2.1800151E-1],"split_indices":[0,0,4,1,0,1,2,0,0,0,0,0,0,0,0,1,2,0,0,0,0],"split_type":[0,0,0,0,0,0,0,0,0,0,0,0,0,0,0,0,0,0,0,0,0],"sum_hessian":[3.8669426E1,3.3223083E1,5.446344E0,3.1213108E1,2.0099752E0,2.4679506E0,2.978393E0,3.013298E1,1.0801269E0,1.4597666E0,1.0081841E0,1.0436885E0,1.9347045E0,2.8932842E1,1.2001384E0,2.5822226E1,3.1106172E0,2.4409208E0,2.3381304E1,1.5970753E0,1.5135418E0],"tree_param":{"num_deleted":"0","num_feature":"6","num_nodes":"21","size_leaf_vector":"1"}},{"base_weights":[-1.4815266E-2,-6.4639196E-2,2.62392E-1,1.1530322E-1,-1.4670609E-1,1.410874E-1,1.9562457E-2,2.6016113E-1,-1.6878907E-1,-3.9217547E-1,-4.097895E-2,1.1485032E-1,-7.793677E-2,1.882987E-2,1.8603262E-1,-5.8007747E-1,2.345107E-2,2.2144555E-1,-3.047648E-1,2.4566467E-1,-1.2222628E-1,1.4359315E-2,-2.2887383E-1,1.9245203E-1,-1.5418445E-1,-6.0269445E-1,3.5795808E-1,-8.978337E-2,1.5223332E-1,-1.6060033E-1,1.3968621E-1,-2.5150123E-1,1.0815804E-1,1.5452361E-1,-1.3376203E-3],"categories":[],"categories_nodes":[],"categories_segments":[],"categories_sizes":[],"default_left":[0,0,0,0,0,0,0,0,0,0,0,0,0,0,0,0,0,0,0,0,0,0,0,0,0,0,0,0,0,0,0,0,0,0,0],"id":26,"left_children":[1,3,5,7,9,-1,11,13,-1,15,17,-1,-1,19,-1,21,-1,23,25,27,-1,-1,-1,-1,29,31,33,-1,-1,-1,-1,-1,-1,-1,-1],"loss_changes":[5.4871315E-1,5.1069397E-1,2.969001E-1,1.2298776E0,5.9132934E-1,0E0,4.8915258E-1,8.3740306E-1,0E0,6.5772843E-1,1.2771753E0,0E0,0E0,7.6556754E-1,0E0,6.1858773E-1,0E0,1.5725313E0,2.0195396E0,8.81688E-1,0E0,0E0,0E0,0E0,1.6044725E0,1.8173223E0,1.9935775E-1,0E0,0E0,0E0,0E0,0E0,0E0,0E0,0E0],"parents":[2147483647,0,0,1,1,2,2,3,3,4,4,6,6,7,7,9,9,10,10,13,13,15,15,17,17,18,18,19,19,24,24,25,25,26,26],"right_children":[2,4,6,8,10,-1,12,14,-1,16,18,-1,-1,20,-1,22,-1,24,26,28,-1,-1,-1,-1,30,32,34,-1,-1,-1,-1,-1,-1,-1,-1],"split_conditions":[2.0560858E0,-2.3575398E-1,-9.751554E-1,-5.042443E-1,1.4963741E0,1.410874E-1,4.0752503E-1,5.6436485E-1,-1.6878907E-1,6.7625755E-1,5.953357E-1,1.1485032E-1,-7.793677E-2,8.387409E-1,1.8603262E-1,1.9566163E-1,2.345107E-2,-8.675649E-1,8.074385E-1,4.9979277E-2,-1.2222628E-1,1.4359315E-2,-2.2887383E-1,1.9245203E-1,3.3277836E-1,7.1977264E-1,5.9917116E-1,-8.978337E-2,1.5223332E-1,-1.6060033E-1,1.3968621E-1,-2.5150123E-1,1.0815804E-1,1.5452361E-1,-1.3376203E-3],"split_indices":[0,1,4,0,0,0,3,3,0,2,2,0,0,4,0,1,0,4,4,3,0,0,0,0,3,1,3,0,0,0,0,0,0,0,0],"split_type":[0,0,0,0,0,0,0,0,0,0,0,0,0,0,0,0,0,0,0,0,0,0,0,0,0,0,0,0,0,0,0,0,0,0,0],"sum_hessian":[3.750054E1,3.2437244E1,5.0632977E0,1.0033183E1,2.240406E1,2.2231913E0,2.8401062E0,8.774524E0,1.2586589E0,5.92907E0,1.6474989E1,1.0735768E0,1.7665294E0,5.882705E0,2.891819E0,4.0698676E0,1.8592025E0,8.339269E0,8.135721E0,4.11599E0,1.7667149E0,1.0842515E0,2.985616E0,3.6026573E0,4.736612E0,5.675056E0,2.4606647E0,1.289148E0,2.826842E0,3.017365E0,1.7192467E0,4.663763E0,1.0112928E0,1.4226587E0,1.0380061E0],"tree_param":{"num_deleted":"0","num_feature":"6","num_nodes":"35","size_leaf_vector":"1"}},{"base_weights":[-7.7743893E-3,-4.516759E-2,3.1637946E-1,2.104389E-1,-8.793425E-2,1.4994454E-1,-1.2289297E-2,-1.942206E-2,1.3026331E-1,6.2400695E-2,-1.83719E-1,2.4746867E-1,-3.952448E-1,-2.0436692E-1,-1.2406672E-2,-5.4713603E-2,3.603784E-1,-1.9644648E-1,4.3337245E-2,3.1085363E-1,-2.058806E-1,1.7723687E-1,3.195841E-2,-3.0560736E-2,2.0511018E-1,3.6606174E-2,-2.1544747E-1],"categories":[],"categories_nodes":[],"categories_segments":[],"categories_sizes":[],"default_left":[0,0,0,0,0,0,0,0,0,0,0,0,0,0,0,0,0,0,0,0,0,0,0,0,0,0,0],"id":27,"left_children":[1,3,5,7,9,-1,-1,-1,-1,11,13,15,17,-1,19,-1,21,-1,-1,23,25,-1,-1,-1,-1,-1,-1],"loss_changes":[4.4286004E-1,3.7460098E-1,2.6836783E-1,3.3377132E-1,4.234653E-1,0E0,0E0,0E0,0E0,1.1041214E0,1.5026579E0,5.061815E-1,6.2783325E-1,0E0,9.52552E-1,0E0,3.7710315E-1,0E0,0E0,9.495234E-1,1.6816195E0,0E0,0E0,0E0,0E0,0E0,0E0],"parents":[2147483647,0,0,1,1,2,2,3,3,4,4,9,9,10,10,11,11,12,12,14,14,16,16,19,19,20,20],"right_children":[2,4,6,8,10,-1,-1,-1,-1,12,14,16,18,-1,20,-1,22,-1,-1,24,26,-1,-1,-1,-1,-1,-1],"split_conditions":[2.108743E0,-1.5539113E0,7.5100166E-1,-3.372407E0,-5.301321E-1,1.4994454E-1,-1.2289297E-2,-1.942206E-2,1.3026331E-1,4.3585607E-1,4.625881E-1,-1.5131811E0,6.869901E-1,-2.0436692E-1,1.8242404E0,-5.4713603E-2,7.548471E-1,-1.9644648E-1,4.3337245E-2,8.168203E-1,-9.10046E-1,1.7723687E-1,3.195841E-2,-3.0560736E-2,2.0511018E-1,3.6606174E-2,-2.1544747E-1],"split_indices":[0,2,1,2,0,0,0,0,0,1,1,1,3,0,0,0,4,0,0,4,4,0,0,0,0,0,0],"split_type":[0,0,0,0,0,0,0,0,0,0,0,0,0,0,0,0,0,0,0,0,0,0,0,0,0,0,0],"sum_hessian":[3.43572E1,3.1575434E1,2.7817664E0,3.9638398E0,2.7611593E1,1.574719E0,1.2070476E0,2.096455E0,1.8673848E0,1.088151E1,1.6730083E1,8.075217E0,2.8062925E0,3.522879E0,1.3207206E1,1.5518948E0,6.523322E0,1.750882E0,1.0554106E0,4.7178416E0,8.489364E0,2.7237532E0,3.799569E0,2.5841255E0,2.133716E0,5.640666E0,2.8486977E0],"tree_param":{"num_deleted":"0","num_feature":"6","num_nodes":"27","size_leaf_vector":"1"}},{"base_weights":[-5.281804E-3,1.4450714E-1,-7.7277906E-2,-9.6446626E-2,2.6336795E-1,-2.763503E-1,1.989785E-2,1.767527E-2,3.645089E-1,4.7443286E-2,-4.250353E-1,3.8010103E-1,-7.807922E-2,9.9924736E-2,-9.681252E-2,1.7003067E-1,6.2540725E-2,-8.703895E-2,-2.1861623E-1,1.9901417E-1,-4.6027012E-2,-1.599585E-1,1.380987E-1,-6.4695776E-2,9.112768E-2,-1.12709835E-1,1.0863619E-1,2.703301E-1,-1.20292544E-1,1.21818855E-1,-9.128344E-2],"categories":[],"categories_nodes":[],"categories_segments":[],"categories_sizes":[],"default_left":[0,0,0,0,0,0,0,0,0,0,0,0,0,0,0,0,0,0,0,0,0,0,0,0,0,0,0,0,0,0,0],"id":28,"left_children":[1,3,5,-1,7,9,11,13,15,-1,17,19,21,-1,-1,-1,23,25,-1,-1,-1,-1,27,-1,-1,-1,-1,29,-1,-1,-1],"loss_changes":[3.6936128E-1,7.0117944E-1,4.5205975E-1,0E0,2.275961E-1,5.607325E-1,6.100425E-1,5.151784E-1,3.689255E-1,0E0,5.486156E-1,6.590131E-1,1.4272127E0,0E0,0E0,0E0,3.19152E-1,6.491692E-1,0E0,0E0,0E0,0E0,8.298931E-1,0E0,0E0,0E0,0E0,8.0406475E-1,0E0,0E0,0E0],"parents":[2147483647,0,0,1,1,2,2,4,4,5,5,6,6,7,7,8,8,10,10,11,11,12,12,16,16,17,17,22,22,27,27],"right_children":[2,4,6,-1,8,10,12,14,16,-1,18,20,22,-1,-1,-1,24,26,-1,-1,-1,-1,28,-1,-1,-1,-1,30,-1,-1,-1],"split_conditions":[2.9380238E-1,-5.799221E-1,6.5322065E-1,-9.6446626E-2,-4.0846297E-1,-9.751554E-1,4.6749517E-1,-1.2776715E0,-8.675649E-1,4.7443286E-2,4.9293375E-1,6.8954927E-1,5.7386357E-1,9.9924736E-2,-9.681252E-2,1.7003067E-1,2.8532494E-2,1.7668151E0,-2.1861623E-1,1.9901417E-1,-4.6027012E-2,-1.599585E-1,7.116982E-1,-6.4695776E-2,9.112768E-2,-1.12709835E-1,1.0863619E-1,7.119899E-1,-1.20292544E-1,1.21818855E-1,-9.128344E-2],"split_indices":[2,0,2,0,3,4,3,3,4,0,1,2,3,0,0,0,4,0,0,0,0,0,3,0,0,0,0,1,0,0,0],"split_type":[0,0,0,0,0,0,0,0,0,0,0,0,0,0,0,0,0,0,0,0,0,0,0,0,0,0,0,0,0,0,0],"sum_hessian":[3.221465E1,1.0130612E1,2.2084038E1,1.7123938E0,8.418219E0,6.639227E0,1.5444812E1,2.7974296E0,5.6207886E0,1.6764892E0,4.962738E0,2.6869633E0,1.2757848E1,1.4631197E0,1.3343098E0,2.8409731E0,2.7798157E0,2.957596E0,2.0051417E0,1.5961041E0,1.090859E0,3.6361852E0,9.121663E0,1.3401854E0,1.4396302E0,1.9000471E0,1.0575491E0,7.7252393E0,1.3964239E0,6.486366E0,1.2388731E0],"tree_param":{"num_deleted":"0","num_feature":"6","num_nodes":"31","size_leaf_vector":"1"}},{"base_weights":[-8.221033E-3,-5.507199E-2,2.3453423E-1,-1.8804599E-2,-1.3329782E-1,3.8521996E-1,-1.2500132E-3,2.6814029E-2,-2.636963E-1,3.272667E-2,1.4703594E-1,-5.9714127E-2,2.6341566E-1,5.6317825E-2,-1.7278449E-1,1.04425006E-1,-1.777201E-1,-6.913874E-2,1.5060952E-1,-5.048455E-2,1.1635107E-1,-1.9741587E-1,-5.852364E-3,-6.764188E-2,4.6385795E-2],"categories":[],"categories_nodes":[],"categories_segments":[],"categories_sizes":[],"default_left":[0,0,0,0,0,0,0,0,0,0,0,0,0,0,0,0,0,0,0,0,0,0,0,0,0],"id":29,"left_children":[1,3,5,7,-1,9,-1,11,13,-1,-1,15,17,-1,-1,19,21,23,-1,-1,-1,-1,-1,-1,-1],"loss_changes":[3.7201455E-1,3.7670276E-1,1.9216779E-1,2.974796E-1,0E0,4.091844E-2,0E0,4.829354E-1,6.9652104E-1,0E0,0E0,3.58009E-1,5.343006E-1,0E0,0E0,6.804568E-1,7.90076E-1,1.5761563E-1,0E0,0E0,0E0,0E0,0E0,0E0,0E0],"parents":[2147483647,0,0,1,1,2,2,3,3,5,5,7,7,8,8,11,11,12,12,15,15,16,16,17,17],"right_children":[2,4,6,8,-1,10,-1,12,14,-1,-1,16,18,-1,-1,20,22,24,-1,-1,-1,-1,-1,-1,-1],"split_conditions":[2.0560858E0,8.2224625E-1,7.461422E-1,6.8982494E-1,-1.3329782E-1,8.052353E-1,-1.2500132E-3,5.7817036E-1,-5.373297E-1,3.272667E-2,1.4703594E-1,-8.675649E-1,7.305398E-1,5.6317825E-2,-1.7278449E-1,1.4963741E0,-9.66258E-2,7.8633946E-1,1.5060952E-1,-5.048455E-2,1.1635107E-1,-1.9741587E-1,-5.852364E-3,-6.764188E-2,4.6385795E-2],"split_indices":[0,2,1,3,0,2,0,3,0,0,0,4,2,0,0,0,4,4,0,0,0,0,0,0,0],"split_type":[0,0,0,0,0,0,0,0,0,0,0,0,0,0,0,0,0,0,0,0,0,0,0,0,0],"sum_hessian":[3.0573753E1,2.6275757E1,4.2979956E0,2.4995224E1,1.2805336E0,2.258466E0,2.0395296E0,2.1820913E1,3.174311E0,1.1833723E0,1.0750937E0,1.6525097E1,5.295816E0,1.4609771E0,1.7133338E0,6.959685E0,9.565412E0,2.5091355E0,2.7866802E0,3.7538521E0,3.2058327E0,1.5872405E0,7.9781713E0,1.4726017E0,1.036534E0],"tree_param":{"num_deleted":"0","num_feature":"6","num_nodes":"25","size_leaf_vector":"1"}},{"base_weights":[-8.044282E-3,1.3810413E-1,-7.932313E-2,-1.088147E-1,3.5305327E-1,-1.3366835E-1,1.8851075E-1,1.979991E-1,-1.7886665E-1,1.8522349E-1,8.3617106E-2,2.8404899E-2,-3.813186E-1,1.6099744E-1,-5.044613E-2,1.2584619E-1,-5.1036544E-2,-4.4991415E-2,1.106488E-1,-1.8435392E-1,1.9300435E-1,-2.0385078E-1,3.4673158E-2,9.994571E-2,-3.822868E-1,-1.4872809E-1,3.6862528E-1,1.1804252E-1,-8.920926E-2,-7.381331E-2,1.2192742E-1,-6.6768494E-3,-1.9317436E-1,9.417032E-2,-1.678356E-1,7.432574E-3,1.581861E-1],"categories":[],"categories_nodes":[],"categories_segments":[],"categories_sizes":[],"default_left":[0,0,0,0,0,0,0,0,0,0,0,0,0,0,0,0,0,0,0,0,0,0,0,0,0,0,0,0,0,0,0,0,0,0,0,0,0],"id":30,"left_children":[1,3,5,7,9,11,13,15,-1,-1,17,19,21,-1,-1,-1,-1,-1,-1,23,25,-1,27,29,31,33,35,-1,-1,-1,-1,-1,-1,-1,-1,-1,-1],"loss_changes":[3.3108923E-1,5.924853E-1,3.351093E-1,9.589004E-1,3.6267424E-1,7.447586E-1,5.8772033E-1,4.13919E-1,0E0,0E0,3.2428557E-1,4.5522302E-1,9.293666E-1,0E0,0E0,0E0,0E0,0E0,0E0,3.6111385E-1,4.8961508E-1,0E0,5.9359145E-1,4.338112E-1,3.2384926E-1,7.782935E-1,2.6369005E-1,0E0,0E0,0E0,0E0,0E0,0E0,0E0,0E0,0E0,0E0],"parents":[2147483647,0,0,1,1,2,2,3,3,4,4,5,5,6,6,7,7,10,10,11,11,12,12,19,19,20,20,22,22,23,23,24,24,25,25,26,26],"right_children":[2,4,6,8,10,12,14,16,-1,-1,18,20,22,-1,-1,-1,-1,-1,-1,24,26,-1,28,30,32,34,36,-1,-1,-1,-1,-1,-1,-1,-1,-1,-1],"split_conditions":[2.9380238E-1,1.4963741E0,8.1577665E-1,1.9566163E-1,-8.675649E-1,1.8242404E0,8.2224625E-1,-5.456565E-1,-1.7886665E-1,1.8522349E-1,6.74072E-1,5.4644024E-1,7.142729E-1,1.6099744E-1,-5.044613E-2,1.2584619E-1,-5.1036544E-2,-4.4991415E-2,1.106488E-1,3.3627167E-1,-4.5529482E-1,-2.0385078E-1,5.3026867E-1,4.3128315E-1,-2.9804957E-1,-1.0991794E0,4.625881E-1,1.1804252E-1,-8.920926E-2,-7.381331E-2,1.2192742E-1,-6.6768494E-3,-1.9317436E-1,9.417032E-2,-1.678356E-1,7.432574E-3,1.581861E-1],"split_indices":[2,0,2,1,4,0,2,0,0,0,4,3,1,0,0,0,0,0,0,3,4,0,3,1,1,4,1,0,0,0,0,0,0,0,0,0,0],"split_type":[0,0,0,0,0,0,0,0,0,0,0,0,0,0,0,0,0,0,0,0,0,0,0,0,0,0,0,0,0,0,0,0,0,0,0,0,0],"sum_hessian":[2.9731058E1,9.439342E0,2.0291716E1,4.6227775E0,4.8165646E0,1.7285337E1,3.0063782E0,3.2013555E0,1.4214219E0,1.7793012E0,3.0372632E0,1.0982927E1,6.30241E0,1.2659758E0,1.7404025E0,1.9116387E0,1.2897167E0,1.9304242E0,1.1068391E0,4.738281E0,6.2446465E0,3.3020442E0,3.0003657E0,2.1480274E0,2.5902534E0,2.1717913E0,4.0728555E0,1.3531306E0,1.6472352E0,1.1016E0,1.0464274E0,1.5467756E0,1.0434777E0,1.1322217E0,1.0395695E0,1.6509922E0,2.4218633E0],"tree_param":{"num_deleted":"0","num_feature":"6","num_nodes":"37","size_leaf_vector":"1"}},{"base_weights":[-5.102324E-3,-4.478962E-2,3.019853E-1,-1.1197774E-1,-1.1785735E-2,1.3605401E-1,-2.2529964E-3,2.3484485E-1,-1.1333723E-1,4.2746976E-1,-5.4353848E-2,1.8942001E-1,-2.0000385E-1,1.9123025E-1,1.827619E-2,-8.406355E-2,4.1950025E-2,-7.767658E-2,1.4309639E-1,-1.8057306E-1,-1.1087634E-1,-1.1324371E-1,-8.168028E-4],"categories":[],"categories_nodes":[],"categories_segments":[],"categories_sizes":[],"default_left":[0,0,0,0,0,0,0,0,0,0,0,0,0,0,0,0,0,0,0,0,0,0,0],"id":31,"left_children":[1,3,5,-1,7,-1,-1,9,11,13,15,17,19,-1,-1,-1,-1,-1,-1,-1,21,-1,-1],"loss_changes":[3.6460936E-1,2.8158998E-1,1.6407672E-1,0E0,6.5287995E-1,0E0,0E0,4.4763574E-1,5.203232E-1,3.217771E-1,2.1167615E-1,7.1728235E-1,4.627264E-1,0E0,0E0,0E0,0E0,0E0,0E0,0E0,3.8315123E-1,0E0,0E0],"parents":[2147483647,0,0,1,1,2,2,4,4,7,7,8,8,9,9,10,10,11,11,12,12,20,20],"right_children":[2,4,6,-1,8,-1,-1,10,12,14,16,18,20,-1,-1,-1,-1,-1,-1,-1,22,-1,-1],"split_conditions":[2.108743E0,-1.5345128E0,7.5100166E-1,-1.1197774E-1,-2.3575398E-1,1.3605401E-1,-2.2529964E-3,-5.703746E-1,-1.3548729E-1,8.4545887E-1,2.5320666E-2,-4.972091E-1,4.3128315E-1,1.9123025E-1,1.827619E-2,-8.406355E-2,4.1950025E-2,-7.767658E-2,1.4309639E-1,-1.8057306E-1,-9.986559E-1,-1.1324371E-1,-8.168028E-4],"split_indices":[0,1,1,0,1,0,0,0,3,4,3,3,1,0,0,0,0,0,0,0,4,0,0],"split_type":[0,0,0,0,0,0,0,0,0,0,0,0,0,0,0,0,0,0,0,0,0,0,0],"sum_hessian":[2.780691E1,2.538089E1,2.4260206E0,1.37607E0,2.400482E1,1.3162541E0,1.1097664E0,6.6184683E0,1.7386353E1,3.685542E0,2.932926E0,3.6054876E0,1.3780865E1,1.873412E0,1.8121302E0,1.1510956E0,1.7818304E0,1.4478247E0,2.1576629E0,1.4570715E0,1.2323792E1,2.837945E0,9.485847E0],"tree_param":{"num_deleted":"0","num_feature":"6","num_nodes":"23","size_leaf_vector":"1"}},{"base_weights":[-4.331256E-3,1.4975294E-1,-7.6445065E-2,-5.9353482E-2,2.2578886E-1,-3.56959E-1,-1.9687073E-2,4.1550264E-1,3.2930255E-2,-1.7035676E-2,-1.4469811E-1,1.102591E-1,-9.943534E-2,-2.79633E-2,1.8756717E-1,-7.042892E-2,2.1543397E-1,-4.654014E-1,-2.191754E-3,1.0395963E-1,-1.05454605E-2,-2.2048283E-1,1.668469E-2,1.681839E-1,-1.08604E-1,-1.5772384E-1,1.09752165E-2],"categories":[],"categories_nodes":[],"categories_segments":[],"categories_sizes":[],"default_left":[0,0,0,0,0,0,0,0,0,0,0,0,0,0,0,0,0,0,0,0,0,0,0,0,0,0,0],"id":32,"left_children":[1,3,5,-1,7,9,11,13,15,-1,-1,-1,17,-1,-1,-1,19,21,23,-1,-1,-1,-1,-1,25,-1,-1],"loss_changes":[3.201647E-1,2.8770763E-1,3.0483776E-1,0E0,2.7946237E-1,9.44626E-2,5.723066E-1,4.800037E-1,2.9774225E-1,0E0,0E0,0E0,5.3898597E-1,0E0,0E0,0E0,1.2813713E-1,4.875703E-1,8.3903265E-1,0E0,0E0,0E0,0E0,0E0,7.3175675E-1,0E0,0E0],"parents":[2147483647,0,0,1,1,2,2,4,4,5,5,6,6,7,7,8,8,12,12,16,16,17,17,18,18,24,24],"right_children":[2,4,6,-1,8,10,12,14,16,-1,-1,-1,18,-1,-1,-1,20,22,24,-1,-1,-1,-1,-1,26,-1,-1],"split_conditions":[-9.631374E-1,-5.6315756E-1,-9.1767365E-1,-5.9353482E-2,5.4562443E-1,5.5363685E-1,-8.675649E-1,1.7448631E-1,7.660758E-1,-1.7035676E-2,-1.4469811E-1,1.102591E-1,-9.66258E-2,-2.79633E-2,1.8756717E-1,-7.042892E-2,6.774948E-1,6.794294E-1,-8.207427E-2,1.0395963E-1,-1.05454605E-2,-2.2048283E-1,1.668469E-2,1.681839E-1,7.56825E-1,-1.5772384E-1,1.09752165E-2],"split_indices":[4,0,4,0,2,3,4,1,2,0,0,0,4,0,0,0,1,2,4,0,0,0,0,0,4,0,0],"split_type":[0,0,0,0,0,0,0,0,0,0,0,0,0,0,0,0,0,0,0,0,0,0,0,0,0,0,0],"sum_hessian":[2.6783298E1,8.195503E0,1.8587795E1,1.1834363E0,7.0120673E0,2.2379713E0,1.6349825E1,2.9528883E0,4.059179E0,1.0873765E0,1.1505948E0,2.1759374E0,1.4173886E1,1.024162E0,1.9287262E0,1.5294546E0,2.5297244E0,2.1807873E0,1.1993099E1,1.4094545E0,1.12027E0,1.1666458E0,1.0141414E0,1.2283188E0,1.0764781E1,2.102607E0,8.662173E0],"tree_param":{"num_deleted":"0","num_feature":"6","num_nodes":"27","size_leaf_vector":"1"}},{"base_weights":[-6.65855E-3,-5.6725595E-2,2.3255287E-1,9.314933E-2,-1.3496302E-1,1.1558659E-1,2.9447826E-2,-8.199139E-2,2.2929086E-1,-3.794907E-1,-2.1154312E-2,8.886123E-2,-7.521088E-2,4.6918858E-2,1.5411843E-1,8.015141E-3,-1.646553E-1,1.9968766E-1,-2.4471079E-1,2.765701E-1,-9.9980496E-2,-9.432922E-2,1.442668E-1,-4.7024187E-1,7.944871E-2,-5.280101E-2,1.6757807E-1,8.40399E-2,-1.4184579E-1,-2.2840212E-1,-1.5656266E-3],"categories":[],"categories_nodes":[],"categories_segments":[],"categories_sizes":[],"default_left":[0,0,0,0,0,0,0,0,0,0,0,0,0,0,0,0,0,0,0,0,0,0,0,0,0,0,0,0,0,0,0],"id":33,"left_children":[1,3,5,7,9,-1,11,-1,13,15,17,-1,-1,19,-1,-1,-1,21,23,25,-1,27,-1,29,-1,-1,-1,-1,-1,-1,-1],"loss_changes":[3.335232E-1,2.8134146E-1,1.3834E-1,4.843881E-1,4.2243907E-1,0E0,3.099543E-1,0E0,3.2381845E-1,3.4857446E-1,6.222764E-1,0E0,0E0,5.450792E-1,0E0,0E0,0E0,5.739498E-1,8.3944124E-1,5.808279E-1,0E0,6.9391066E-1,0E0,6.28549E-1,0E0,0E0,0E0,0E0,0E0,0E0,0E0],"parents":[2147483647,0,0,1,1,2,2,3,3,4,4,6,6,8,8,9,9,10,10,13,13,17,17,18,18,19,19,21,21,23,23],"right_children":[2,4,6,8,10,-1,12,-1,14,16,18,-1,-1,20,-1,-1,-1,22,24,26,-1,28,-1,30,-1,-1,-1,-1,-1,-1,-1],"split_conditions":[2.0560858E0,-2.3575398E-1,-9.751554E-1,-1.5131811E0,1.4963741E0,1.1558659E-1,5.2604043E-1,-8.199139E-2,5.5363685E-1,-6.9361144E-1,5.953357E-1,8.886123E-2,-7.521088E-2,8.387409E-1,1.5411843E-1,8.015141E-3,-1.646553E-1,3.3277836E-1,8.074385E-1,2.5320666E-2,-9.9980496E-2,-1.3548729E-1,1.442668E-1,6.431785E-1,7.944871E-2,-5.280101E-2,1.6757807E-1,8.40399E-2,-1.4184579E-1,-2.2840212E-1,-1.5656266E-3],"split_indices":[0,1,4,1,0,0,3,0,3,0,2,0,0,4,0,0,0,3,4,3,0,3,0,1,0,0,0,0,0,0,0],"split_type":[0,0,0,0,0,0,0,0,0,0,0,0,0,0,0,0,0,0,0,0,0,0,0,0,0,0,0,0,0,0,0],"sum_hessian":[2.5746424E1,2.1921177E1,3.825247E0,7.4531016E0,1.4468076E1,1.6713752E0,2.1538718E0,1.745964E0,5.7071376E0,3.8536723E0,1.0614404E1,1.0739585E0,1.0799133E0,4.1873174E0,1.5198201E0,1.3817688E0,2.4719036E0,5.39333E0,5.2210736E0,2.780378E0,1.4069393E0,2.9614582E0,2.4318717E0,3.672629E0,1.5484446E0,1.2117558E0,1.5686225E0,1.6192787E0,1.3421795E0,1.8668164E0,1.8058127E0],"tree_param":{"num_deleted":"0","num_feature":"6","num_nodes":"31","size_leaf_vector":"1"}},{"base_weights":[-5.3419936E-3,-4.2053185E-2,8.2446404E-2,1.9344509E-1,-8.7051675E-2,-9.944251E-3,1.095676E-1,4.8852723E-2,-1.7778905E-1,1.9880266E-1,-1.0054713E-1,-1.7032388E-1,-2.6350724E-2,-4.5418043E-2,2.987285E-1,2.7825654E-1,-1.9858819E-1,1.1984299E-1,-9.14103E-4,-1.9335978E-2,1.6588792E-1,2.370827E-2,-1.8159023E-1],"categories":[],"categories_nodes":[],"categories_segments":[],"categories_sizes":[],"default_left":[0,0,0,0,0,0,0,0,0,0,0,0,0,0,0,0,0,0,0,0,0,0,0],"id":34,"left_children":[1,3,-1,5,7,-1,-1,9,11,13,-1,-1,15,-1,17,19,21,-1,-1,-1,-1,-1,-1],"loss_changes":[2.7053818E-1,2.6195207E-1,0E0,1.6861999E-1,2.5666445E-1,0E0,0E0,5.753861E-1,7.098694E-1,2.8954384E-1,0E0,0E0,5.7410115E-1,0E0,1.7658937E-1,4.1113317E-1,8.270068E-1,0E0,0E0,0E0,0E0,0E0,0E0],"parents":[2147483647,0,0,1,1,3,3,4,4,7,7,8,8,9,9,12,12,14,14,15,15,16,16],"right_children":[2,4,-1,6,8,-1,-1,10,12,14,-1,-1,16,-1,18,20,22,-1,-1,-1,-1,-1,-1],"split_conditions":[2.1131961E0,-1.5539113E0,8.2446404E-2,-3.372407E0,-5.301321E-1,-9.944251E-3,1.095676E-1,4.3585607E-1,4.625881E-1,-6.3495016E-1,-1.0054713E-1,-1.7032388E-1,1.8242404E0,-4.5418043E-2,8.781851E-1,8.168203E-1,-9.10046E-1,1.1984299E-1,-9.14103E-4,-1.9335978E-2,1.6588792E-1,2.370827E-2,-1.8159023E-1],"split_indices":[0,2,0,2,0,0,0,1,1,0,0,0,0,0,4,4,4,0,0,0,0,0,0],"split_type":[0,0,0,0,0,0,0,0,0,0,0,0,0,0,0,0,0,0,0,0,0,0,0],"sum_hessian":[2.4180143E1,2.2130209E1,2.0499337E0,3.020995E0,1.9109215E1,1.6506646E0,1.3703303E0,7.835293E0,1.1273922E1,5.9817924E0,1.8535004E0,2.3845708E0,8.889351E0,1.2135999E0,4.768193E0,2.9885204E0,5.9008303E0,3.3320346E0,1.4361581E0,1.6702046E0,1.3183157E0,3.985845E0,1.9149852E0],"tree_param":{"num_deleted":"0","num_feature":"6","num_nodes":"23","size_leaf_vector":"1"}},{"base_weights":[-5.4608625E-3,1.3616976E-1,-7.5044505E-2,-8.358246E-2,2.4086042E-1,3.217166E-2,-2.1618688E-1,7.904689E-3,3.065567E-1,2.9706374E-1,-1.1594108E-1,-2.0854356E-2,-1.5653439E-1,9.107594E-2,1.3851397E-1,-1.27866585E-2,1.5454069E-1,-4.2818362E-1,8.786335E-2,-1.8285729E-1,1.0414404E-1,9.522564E-2,-3.922705E-2,-1.8303347E-1,-8.0857165E-3,2.2506422E-1,-6.9999196E-2,3.555137E-2,-1.13701664E-1,1.0753717E-1,-6.1026216E-3],"categories":[],"categories_nodes":[],"categories_segments":[],"categories_sizes":[],"default_left":[0,0,0,0,0,0,0,0,0,0,0,0,0,0,0,0,0,0,0,0,0,0,0,0,0,0,0,0,0,0,0],"id":35,"left_children":[1,3,5,-1,7,9,11,-1,13,15,17,19,-1,21,-1,-1,-1,23,25,27,-1,-1,-1,-1,-1,29,-1,-1,-1,-1,-1],"loss_changes":[2.4742611E-1,4.2686123E-1,2.6095033E-1,0E0,9.270567E-2,4.4283137E-1,4.293739E-1,0E0,1.3784498E-1,3.1927186E-1,5.0824076E-1,3.938201E-1,0E0,2.1715133E-1,0E0,0E0,0E0,2.0918202E-1,2.862721E-1,3.1105417E-1,0E0,0E0,0E0,0E0,0E0,1.4562601E-1,0E0,0E0,0E0,0E0,0E0],"parents":[2147483647,0,0,1,1,2,2,4,4,5,5,6,6,8,8,9,9,10,10,11,11,13,13,17,17,18,18,19,19,25,25],"right_children":[2,4,6,-1,8,10,12,-1,14,16,18,20,-1,22,-1,-1,-1,24,26,28,-1,-1,-1,-1,-1,30,-1,-1,-1,-1,-1],"split_conditions":[2.9380238E-1,-5.799221E-1,-8.207427E-2,-8.358246E-2,-3.0565152E0,5.5363685E-1,5.214292E-1,7.904689E-3,1.6337456E0,1.7900233E0,6.1139745E-1,4.6968636E-1,-1.5653439E-1,-1.0247897E0,1.3851397E-1,-1.27866585E-2,1.5454069E-1,7.660758E-1,7.116982E-1,-1.0233088E0,1.0414404E-1,9.522564E-2,-3.922705E-2,-1.8303347E-1,-8.0857165E-3,7.0699203E-1,-6.9999196E-2,3.555137E-2,-1.13701664E-1,1.0753717E-1,-6.1026216E-3],"split_indices":[2,0,4,0,2,3,1,0,0,0,3,1,0,3,0,0,0,2,3,1,0,0,0,0,0,1,0,0,0,0,0],"split_type":[0,0,0,0,0,0,0,0,0,0,0,0,0,0,0,0,0,0,0,0,0,0,0,0,0,0,0,0,0,0,0],"sum_hessian":[2.3069317E1,7.284834E0,1.5784482E1,1.1333438E0,6.15149E0,9.409099E0,6.3753834E0,1.770741E0,4.380749E0,3.0136604E0,6.395438E0,4.5410423E0,1.8343412E0,2.498222E0,1.8825271E0,1.4928417E0,1.5208188E0,2.0909715E0,4.3044667E0,3.5023363E0,1.0387058E0,1.0232631E0,1.4749591E0,1.0804644E0,1.010507E0,3.2258186E0,1.0786482E0,1.536895E0,1.9654413E0,1.7914108E0,1.4344078E0],"tree_param":{"num_deleted":"0","num_feature":"6","num_nodes":"31","size_leaf_vector":"1"}},{"base_weights":[-5.11991E-3,-9.705583E-2,2.584609E-2,1.9903196E-1,-4.315487E-2,4.3893006E-2,1.3856104E-1,1.5658128E-1,-1.4082699E-1,2.4953368E-1,-9.016064E-2,3.480792E-1,-5.422408E-2,-2.2285838E-1,5.7775054E-2,-1.144847E-2,1.4679198E-1,-5.682279E-4,1.4867939E-1,-3.2064492E-1,4.5641895E-2,-1.1935599E-1,3.368067E-2],"categories":[],"categories_nodes":[],"categories_segments":[],"categories_sizes":[],"default_left":[0,0,0,0,0,0,0,0,0,0,0,0,0,0,0,0,0,0,0,0,0,0,0],"id":36,"left_children":[1,-1,3,5,7,9,-1,11,13,15,-1,17,-1,19,-1,-1,-1,-1,-1,21,-1,-1,-1],"loss_changes":[2.359247E-1,0E0,2.7101973E-1,2.4212247E-1,3.4444606E-1,4.3986976E-1,0E0,4.440889E-1,3.6086422E-1,2.7887264E-1,0E0,2.1290973E-1,0E0,4.0789485E-1,0E0,0E0,0E0,0E0,0E0,3.1505167E-1,0E0,0E0,0E0],"parents":[2147483647,0,0,2,2,3,3,4,4,5,5,7,7,8,8,9,9,11,11,13,13,19,19],"right_children":[2,-1,4,6,8,10,-1,12,14,16,-1,18,-1,20,-1,-1,-1,-1,-1,22,-1,-1,-1],"split_conditions":[-1.5345128E0,-9.705583E-2,-2.3575398E-1,5.566288E-1,2.6008525E-1,6.679618E-1,1.3856104E-1,-5.7191353E-2,8.1577665E-1,2.5320666E-2,-9.016064E-2,1.4963741E0,-5.422408E-2,8.23907E-1,5.7775054E-2,-1.144847E-2,1.4679198E-1,-5.682279E-4,1.4867939E-1,2.120729E0,4.5641895E-2,-1.1935599E-1,3.368067E-2],"split_indices":[1,0,1,3,3,2,0,4,2,3,0,0,0,4,0,0,0,0,0,0,0,0,0],"split_type":[0,0,0,0,0,0,0,0,0,0,0,0,0,0,0,0,0,0,0,0,0,0,0],"sum_hessian":[2.2080444E1,1.1197146E0,2.096073E1,5.434975E0,1.5525754E1,4.151543E0,1.283432E0,4.9007516E0,1.0625002E1,2.7720232E0,1.3795202E0,3.105767E0,1.7949845E0,8.793141E0,1.831861E0,1.6423122E0,1.1297109E0,1.2136548E0,1.8921123E0,7.089411E0,1.7037307E0,6.085139E0,1.004272E0],"tree_param":{"num_deleted":"0","num_feature":"6","num_nodes":"23","size_leaf_vector":"1"}},{"base_weights":[6.041975E-3,-8.443195E-2,3.3587534E-2,1.7806865E-1,-2.378379E-2,3.3858886E-1,-4.541841E-2,-9.277214E-2,3.110308E-2,1.5392256E-1,1.810553E-2,3.971148E-2,-6.593068E-2,2.357114E-1,-6.0358845E-2,-3.2918274E-2,1.1225311E-1,-1.1249635E-1,3.950633E-2,7.481776E-2,-2.9090097E-2],"categories":[],"categories_nodes":[],"categories_segments":[],"categories_sizes":[],"default_left":[0,0,0,0,0,0,0,0,0,0,0,0,0,0,0,0,0,0,0,0,0],"id":37,"left_children":[1,-1,3,5,7,9,11,-1,13,-1,-1,-1,-1,15,17,-1,-1,-1,19,-1,-1],"loss_changes":[1.8644167E-1,0E0,1.8070477E-1,