{"learner":{"attributes":{"scikit_learn":"{\"_estimator_type\": \"classifier\"}"},"feature_names":[],"feature_types":[],"gradient_booster":{"model":{"cats":{"enc":[],"feature_segments":[],"sorted_idx":[]},"gbtree_model_param":{"num_parallel_tree":"1","num_trees":"100"},"iteration_indptr":[0,1,2,3,4,5,6,7,8,9,10,11,12,13,14,15,16,17,18,19,20,21,22,23,24,25,26,27,28,29,30,31,32,33,34,35,36,37,38,39,40,41,42,43,44,45,46,47,48,49,50,51,52,53,54,55,56,57,58,59,60,61,62,63,64,65,66,67,68,69,70,71,72,73,74,75,76,77,78,79,80,81,82,83,84,85,86,87,88,89,90,91,92,93,94,95,96,97,98,99,100],"tree_info":[0,0,0,0,0,0,0,0,0,0,0,0,0,0,0,0,0,0,0,0,0,0,0,0,0,0,0,0,0,0,0,0,0,0,0,0,0,0,0,0,0,0,0,0,0,0,0,0,0,0,0,0,0,0,0,0,0,0,0,0,0,0,0,0,0,0,0,0,0,0,0,0,0,0,0,0,0,0,0,0,0,0,0,0,0,0,0,0,0,0,0,0,0,0,0,0,0,0,0,0],"trees":[{"base_weights":[2.6738531E-8,6.51523E-1,-5.962205E-1,-1.0621127E0,1.1295497E0,1.3448319E-1,-5.900827E-1,-9.4649E-1,1.427575E0,-1.5457674E0,1.3188505E0,-5.710843E-1,-2.1496128E-1,1.9167593E0,1.098491E0,-5.657143E-1,2.2984076E-1,5.517904E-1,2.3970239E-1,1.1354254E0,-5.54717E-1,5.792156E-1,2.2984076E-1,-1.349751E-1,1.4546818E0,3.8496304E-1,-4.5882356E-1,4.9241865E-1,-4.1538465E-1,-5.5E-1,1.3584554E-1,2.0633616E-1,5.104436E-1],"categories":[],"categories_nodes":[],"categories_segments":[],"categories_sizes":[],"default_left":[0,0,0,0,0,0,0,0,0,0,0,0,0,0,0,0,0,0,0,0,0,0,0,0,0,0,0,0,0,0,0,0,0],"id":0,"left_children":[1,3,-1,5,7,9,-1,11,13,15,17,-1,19,21,23,-1,-1,-1,25,27,-1,-1,-1,29,31,-1,-1,-1,-1,-1,-1,-1,-1],"loss_changes":[8.325807E2,3.9787973E2,0E0,1.1517944E2,2.3591376E2,9.48456E1,0E0,3.3333755E1,5.1328064E1,1.6960316E1,1.5225613E1,0E0,6.486337E1,6.433716E-1,8.8406494E1,0E0,0E0,0E0,2.083977E1,2.2919748E1,0E0,0E0,0E0,4.6653576E1,2.8331238E1,0E0,0E0,0E0,0E0,0E0,0E0,0E0,0E0],"parents":[2147483647,0,0,1,1,3,3,4,4,5,5,7,7,8,8,9,9,10,10,12,12,13,13,14,14,18,18,19,19,23,23,24,24],"right_children":[2,4,-1,6,8,10,-1,12,14,16,18,-1,20,22,24,-1,-1,-1,26,28,-1,-1,-1,30,32,-1,-1,-1,-1,-1,-1,-1,-1],"split_conditions":[-4.5765963E-1,5.9984183E-1,-5.962205E-1,1.0161687E-1,-9.4317955E-1,-2.9804957E-1,-5.900827E-1,-6.6342086E-1,-4.0846297E-1,4.9886104E-1,-8.491406E-1,-5.710843E-1,-1.1947618E0,7.680996E-1,8.636298E-1,-5.657143E-1,2.2984076E-1,5.517904E-1,2.268209E-1,3.7652436E-1,-5.54717E-1,5.792156E-1,2.2984076E-1,6.9835097E-1,-6.875517E-1,3.8496304E-1,-4.5882356E-1,4.9241865E-1,-4.1538465E-1,-5.5E-1,1.3584554E-1,2.0633616E-1,5.104436E-1],"split_indices":[0,1,0,3,4,1,0,0,3,2,3,0,4,1,4,0,0,0,1,2,0,0,0,1,0,0,0,0,0,0,0,0,0],"split_type":[0,0,0,0,0,0,0,0,0,0,0,0,0,0,0,0,0,0,0,0,0,0,0,0,0,0,0,0,0,0,0,0,0],"sum_hessian":[6.41E2,4.8325E2,1.5775E2,1.0513587E2,3.7811414E2,4.563587E1,5.95E1,4.7192936E1,3.309212E2,1.8741848E1,2.6894022E1,1.975E1,2.7442936E1,1.3114674E2,1.9977446E2,1.65E1,2.241848E0,1.7668478E1,9.225544E0,1.5192935E1,1.225E1,1.2890489E2,2.241848E0,4.4902176E1,1.5487228E2,5.9755435E0,3.25E0,1.2942935E1,2.25E0,1.1E1,3.3902176E1,3.862772E1,1.1624457E2],"tree_param":{"num_deleted":"0","num_feature":"6","num_nodes":"33","size_leaf_vector":"1"}},{"base_weights":[-3.0753629E-3,4.8934782E-1,-4.6206972E-1,-8.1728244E-1,8.477894E-1,1.03809334E-1,-4.578991E-1,-6.04246E-1,1.0977085E0,-1.1883311E0,1.0090991E0,-1.044408E0,6.4406973E-1,1.4722173E0,8.268377E-1,-4.414345E-1,1.8403278E-1,1.18632E0,-3.6311665E-1,7.217905E-1,-1.2754635E0,1.0697937E0,-3.1886432E-1,1.4974877E0,6.817301E-2,-1.0217443E0,9.9117124E-1,4.1980127E-1,-1.8142805E-2,9.431056E-2,3.0028576E-1,-4.156744E-1,-1.7526746E-1,1.2802987E-1,3.606025E-1,3.0028576E-1,-3.6242557E-1,2.3925869E-1,4.536582E-1,1.2962766E-1,-5.605986E-1,-9.815628E-2,3.636449E-1],"categories":[],"categories_nodes":[],"categories_segments":[],"categories_sizes":[],"default_left":[0,0,0,0,0,0,0,0,0,0,0,0,0,0,0,0,0,0,0,0,0,0,0,0,0,0,0,0,0,0,0,0,0,0,0,0,0,0,0,0,0,0,0],"id":1,"left_children":[1,3,-1,5,7,9,-1,11,13,15,17,19,21,23,25,-1,-1,27,-1,29,31,33,35,37,-1,39,41,-1,-1,-1,-1,-1,-1,-1,-1,-1,-1,-1,-1,-1,-1,-1,-1],"loss_changes":[4.5399677E2,2.134498E2,0E0,6.435796E1,1.3020404E2,5.2309544E1,0E0,2.9828766E1,2.9713348E1,1.0319193E1,1.1754498E1,1.7085766E1,6.2653575E0,3.6455078E0,5.5455513E1,0E0,0E0,6.6708527E0,0E0,2.7916884E-1,1.8843575E0,3.585024E-1,7.3128896E0,7.034302E-2,0E0,1.9428665E1,4.849266E1,0E0,0E0,0E0,0E0,0E0,0E0,0E0,0E0,0E0,0E0,0E0,0E0,0E0,0E0,0E0,0E0],"parents":[2147483647,0,0,1,1,3,3,4,4,5,5,7,7,8,8,9,9,10,10,11,11,12,12,13,13,14,14,17,17,19,19,20,20,21,21,22,22,23,23,25,25,26,26],"right_children":[2,4,-1,6,8,10,-1,12,14,16,18,20,22,24,26,-1,-1,28,-1,30,32,34,36,38,-1,40,42,-1,-1,-1,-1,-1,-1,-1,-1,-1,-1,-1,-1,-1,-1,-1,-1],"split_conditions":[-4.5765963E-1,5.9984183E-1,-4.6206972E-1,1.0161687E-1,-9.2371523E-1,-2.9804957E-1,-4.578991E-1,-5.935415E-1,-6.226324E-2,4.9886104E-1,-5.263293E-1,-1.546202E0,1.6106184E-1,9.1831774E-1,3.0459735E-1,-4.414345E-1,1.8403278E-1,-1.3548729E-1,-3.6311665E-1,-6.5191156E-1,-6.152613E-1,-1.2623128E0,-5.919841E-1,-2.6404486E0,6.817301E-2,-3.0107716E-1,-6.981434E-1,4.1980127E-1,-1.8142805E-2,9.431056E-2,3.0028576E-1,-4.156744E-1,-1.7526746E-1,1.2802987E-1,3.606025E-1,3.0028576E-1,-3.6242557E-1,2.3925869E-1,4.536582E-1,1.2962766E-1,-5.605986E-1,-9.815628E-2,3.636449E-1],"split_indices":[0,1,0,3,4,1,0,0,3,2,2,4,3,4,2,0,0,3,0,0,0,2,0,3,0,2,0,0,0,0,0,0,0,0,0,0,0,0,0,0,0,0,0],"split_type":[0,0,0,0,0,0,0,0,0,0,0,0,0,0,0,0,0,0,0,0,0,0,0,0,0,0,0,0,0,0,0,0,0,0,0,0,0,0,0,0,0,0,0],"sum_hessian":[5.9778986E2,4.5326846E2,1.4452141E2,9.7299965E1,3.559685E2,4.269301E1,5.4606956E1,5.2063072E1,3.0390543E2,1.7459715E1,2.5233294E1,3.8611736E1,1.3451333E1,1.25689964E2,1.7821547E2,1.5247215E1,2.2124994E0,2.3798534E1,1.4347577E0,4.221155E0,3.4390583E1,9.250576E0,4.200757E0,1.22990685E2,2.6992793E0,1.412348E1,1.64092E2,2.0221334E1,3.5772014E0,2.5807717E0,1.6403837E0,2.8798368E1,5.5922136E0,2.2986906E0,6.9518857E0,1.6403837E0,2.5603733E0,3.6674047E0,1.1932328E2,5.379215E0,8.744265E0,2.3487106E1,1.4060489E2],"tree_param":{"num_deleted":"0","num_feature":"6","num_nodes":"43","size_leaf_vector":"1"}},{"base_weights":[-5.8583063E-3,3.9649665E-1,-4.0079364E-1,-1.221936E0,5.923871E-1,-3.990998E-1,-8.067748E-1,-4.4996437E-1,7.623981E-1,-3.664719E-1,3.1164023E-1,-3.9482173E-1,5.832193E-2,1.266923E0,4.6833256E-1,7.32542E-1,-6.386531E-1,4.6949098E-1,1.288676E0,-9.782341E-1,7.4180865E-1,3.260065E-1,-3.1554326E-1,3.4571698E-1,-4.0470517E-1,2.579943E-1,1.872283E-3,3.907927E-1,1.09140955E-1,1.3562562E-1,-3.76809E-1,2.4083339E-1,-5.202814E-1],"categories":[],"categories_nodes":[],"categories_segments":[],"categories_sizes":[],"default_left":[0,0,0,0,0,0,0,0,0,0,0,0,0,0,0,0,0,0,0,0,0,0,0,0,0,0,0,0,0,0,0,0,0],"id":2,"left_children":[1,3,-1,5,7,-1,9,11,13,-1,-1,-1,15,17,19,21,23,25,27,29,31,-1,-1,-1,-1,-1,-1,-1,-1,-1,-1,-1,-1],"loss_changes":[2.8041327E2,1.2826259E2,0E0,8.960571E-1,6.405485E1,0E0,1.0150108E1,2.2548523E1,4.5322037E1,0E0,0E0,0E0,1.6033796E1,1.361618E0,7.8701035E1,1.2077235E1,2.2956991E1,8.2379806E-1,9.442444E-1,1.3191172E1,2.6503098E1,0E0,0E0,0E0,0E0,0E0,0E0,0E0,0E0,0E0,0E0,0E0,0E0],"parents":[2147483647,0,0,1,1,3,3,4,4,6,6,7,7,8,8,12,12,13,13,14,14,15,15,16,16,17,17,18,18,19,19,20,20],"right_children":[2,4,-1,6,8,-1,10,12,14,-1,-1,-1,16,18,20,22,24,26,28,30,32,-1,-1,-1,-1,-1,-1,-1,-1,-1,-1,-1,-1],"split_conditions":[-4.5765963E-1,-2.9804957E-1,-4.0079364E-1,9.660778E-1,-9.3729085E-1,-3.990998E-1,-1.7161114E0,-6.619534E-1,-4.0846297E-1,-3.664719E-1,3.1164023E-1,-3.9482173E-1,-1.0991794E0,-2.6404486E0,6.666757E-1,3.7652436E-1,-1.2182274E0,-7.3216075E-1,7.680996E-1,2.268209E-1,-6.2172014E-1,3.260065E-1,-3.1554326E-1,3.4571698E-1,-4.0470517E-1,2.579943E-1,1.872283E-3,3.907927E-1,1.09140955E-1,1.3562562E-1,-3.76809E-1,2.4083339E-1,-5.202814E-1],"split_indices":[0,1,0,4,4,0,1,0,3,0,0,0,4,3,1,2,3,0,1,1,0,0,0,0,0,0,0,0,0,0,0,0,0],"split_type":[0,0,0,0,0,0,0,0,0,0,0,0,0,0,0,0,0,0,0,0,0,0,0,0,0,0,0,0,0,0,0,0,0],"sum_hessian":[5.2197034E2,4.0128537E2,1.20684975E2,4.2760803E1,3.5852457E2,3.215968E1,1.0601121E1,5.0045418E1,3.0847916E2,8.931786E0,1.669336E0,1.7920341E1,3.2125076E1,1.1237329E2,1.9610587E2,1.6303158E1,1.58219185E1,3.5836942E0,1.087896E2,3.0769878E1,1.6533598E2,1.3929513E1,2.3736455E0,4.3164887E0,1.150543E1,1.47986E0,2.1038342E0,1.0676887E2,2.0207283E0,4.902159E0,2.586772E1,1.6202225E2,3.3137352E0],"tree_param":{"num_deleted":"0","num_feature":"6","num_nodes":"33","size_leaf_vector":"1"}},{"base_weights":[-1.2252221E-2,3.248229E-1,-3.6594513E-1,-1.0499711E0,4.9287525E-1,-5.130857E-1,-3.6500588E-1,-1.00888066E-1,7.497622E-1,-3.300139E-1,5.30867E-1,-1.5085076E0,2.7202454E-1,1.1752427E0,4.1059E-1,1.519611E-2,2.693385E-1,-3.4541988E-1,-5.603242E-1,1.0974432E0,-1.3376941E-1,1.25543E0,-4.6834046E-1,-1.0189832E0,8.6901647E-1,3.513457E-1,-1.8052565E-2,-3.0846995E-1,1.0426717E-1,3.9632237E-1,8.400306E-2,2.6351145E-1,-4.2863908E-1,-4.6421817E-1,2.9154062E-1],"categories":[],"categories_nodes":[],"categories_segments":[],"categories_sizes":[],"default_left":[0,0,0,0,0,0,0,0,0,0,0,0,0,0,0,0,0,0,0,0,0,0,0,0,0,0,0,0,0,0,0,0,0,0,0],"id":3,"left_children":[1,3,-1,5,7,9,-1,11,13,-1,15,17,19,21,23,-1,-1,-1,-1,25,27,29,-1,31,33,-1,-1,-1,-1,-1,-1,-1,-1,-1,-1],"loss_changes":[1.8198718E2,8.127907E1,0E0,2.8123436E0,4.76903E1,7.2181516E0,0E0,5.0357445E1,3.097927E1,0E0,7.5995076E-1,4.2565536E-1,2.5626675E1,2.3060883E1,8.13943E1,0E0,0E0,0E0,0E0,2.2190704E0,2.2697527E1,5.647873E0,0E0,2.4806604E1,2.474112E1,0E0,0E0,0E0,0E0,0E0,0E0,0E0,0E0,0E0,0E0],"parents":[2147483647,0,0,1,1,3,3,4,4,5,5,7,7,8,8,10,10,11,11,12,12,13,13,14,14,19,19,20,20,21,21,23,23,24,24],"right_children":[2,4,-1,6,8,10,-1,12,14,-1,16,18,20,22,24,-1,-1,-1,-1,26,28,30,-1,32,34,-1,-1,-1,-1,-1,-1,-1,-1,-1,-1],"split_conditions":[-4.5765963E-1,1.0191642E-1,-3.6594513E-1,-6.721882E-1,7.683506E-1,-1.3669304E0,-3.6500588E-1,-6.82926E-1,2.2243603E-1,-3.300139E-1,-6.853403E-1,-9.529108E-1,-8.491406E-1,1.0628636E0,1.0864124E0,1.519611E-2,2.693385E-1,-3.4541988E-1,-5.603242E-1,-9.077496E-1,7.125722E-1,-6.271215E-1,-4.6834046E-1,3.1779957E-1,-6.9670516E-1,3.513457E-1,-1.8052565E-2,-3.0846995E-1,1.0426717E-1,3.9632237E-1,8.400306E-2,2.6351145E-1,-4.2863908E-1,-4.6421817E-1,2.9154062E-1],"split_indices":[0,1,0,0,4,1,0,0,3,0,0,4,3,4,4,0,0,0,0,4,1,0,0,3,0,0,0,0,0,0,0,0,0,0,0],"split_type":[0,0,0,0,0,0,0,0,0,0,0,0,0,0,0,0,0,0,0,0,0,0,0,0,0,0,0,0,0,0,0,0,0,0,0],"sum_hessian":[4.4512552E2,3.485606E2,9.6564896E1,3.7394848E1,3.1116577E2,9.826725E0,2.7568123E1,9.415199E1,2.1701376E2,6.255724E0,3.5710015E0,1.90813E1,7.5070694E1,9.516603E1,1.2184774E2,2.0396624E0,1.5313393E0,1.1677851E1,7.40345E0,2.41807E1,5.088999E1,9.298247E1,2.1835663E0,2.9289028E1,9.255871E1,2.2722218E1,1.458483E0,1.7406578E1,3.3483414E1,8.678742E1,6.1950455E0,4.999413E0,2.4289616E1,3.2030406E0,8.935567E1],"tree_param":{"num_deleted":"0","num_feature":"6","num_nodes":"35","size_leaf_vector":"1"}},{"base_weights":[-1.5519901E-2,2.729401E-1,-3.438066E-1,-1.0162082E0,4.0829524E-1,-3.3760083E-1,-6.050822E-1,-9.1248825E-2,6.343257E-1,-3.0077338E-1,2.3777233E-1,-1.099115E0,3.041325E-1,1.0470171E0,3.251694E-1,-6.584265E-1,-4.624792E-1,9.711709E-1,-6.783377E-2,1.1271337E0,-3.7250817E-1,-7.941804E-1,7.1439326E-1,-3.5573885E-1,2.266758E-1,3.193371E-2,3.253487E-1,-2.476614E-1,1.9593863E-1,3.6014324E-1,6.447326E-2,9.659843E-2,-3.8614306E-1,2.5184035E-1,-3.114189E-1],"categories":[],"categories_nodes":[],"categories_segments":[],"categories_sizes":[],"default_left":[0,0,0,0,0,0,0,0,0,0,0,0,0,0,0,0,0,0,0,0,0,0,0,0,0,0,0,0,0,0,0,0,0,0,0],"id":4,"left_children":[1,3,-1,5,7,-1,9,11,13,-1,-1,15,17,19,21,23,-1,25,27,29,-1,31,33,-1,-1,-1,-1,-1,-1,-1,-1,-1,-1,-1,-1],"loss_changes":[1.2262575E2,5.2698555E1,0E0,6.0928726E-1,3.0755829E1,0E0,5.3475504E0,3.4432564E1,2.3557213E1,0E0,0E0,3.7285862E0,1.5509048E1,1.6026474E1,4.7854187E1,1.1286318E1,0E0,2.0745487E0,2.287849E1,4.933647E0,0E0,1.6083315E1,1.8638664E1,0E0,0E0,0E0,0E0,0E0,0E0,0E0,0E0,0E0,0E0,0E0,0E0],"parents":[2147483647,0,0,1,1,3,3,4,4,6,6,7,7,8,8,11,11,12,12,13,13,14,14,15,15,17,17,18,18,19,19,21,21,22,22],"right_children":[2,4,-1,6,8,-1,10,12,14,-1,-1,16,18,20,22,24,-1,26,28,30,-1,32,34,-1,-1,-1,-1,-1,-1,-1,-1,-1,-1,-1,-1],"split_conditions":[-4.5765963E-1,-2.9804957E-1,-3.438066E-1,9.660778E-1,7.548471E-1,-3.3760083E-1,-1.7161114E0,-6.688673E-1,2.2243603E-1,-3.0077338E-1,2.3777233E-1,7.588307E-1,-7.990975E-1,1.0628636E0,1.0864124E0,-1.8887937E-1,-4.624792E-1,-6.0879827E-1,7.672519E-1,-6.271215E-1,-3.7250817E-1,4.4247344E-1,8.086578E-1,-3.5573885E-1,2.266758E-1,3.193371E-2,3.253487E-1,-2.476614E-1,1.9593863E-1,3.6014324E-1,6.447326E-2,9.659843E-2,-3.8614306E-1,2.5184035E-1,-3.114189E-1],"split_indices":[0,1,0,4,4,0,1,0,3,0,0,1,3,4,4,4,0,0,1,0,0,3,1,0,0,0,0,0,0,0,0,0,0,0,0],"split_type":[0,0,0,0,0,0,0,0,0,0,0,0,0,0,0,0,0,0,0,0,0,0,0,0,0,0,0,0,0,0,0,0,0,0,0],"sum_hessian":[3.7407272E2,2.9863205E2,7.544068E1,2.775741E1,2.7087463E2,2.0562233E1,7.195178E0,8.456843E1,1.863062E2,5.8220506E0,1.3731278E0,2.3326635E1,6.1241795E1,7.876991E1,1.07536285E2,1.2933547E1,1.0393088E1,2.1348003E1,3.989379E1,7.6596176E1,2.173735E0,2.747677E1,8.005952E1,9.537748E0,3.3957992E0,2.6982543E0,1.864975E1,1.9380535E1,2.0513256E1,7.060358E1,5.9925985E0,8.523819E0,1.8952951E1,7.52125E1,4.8470135E0],"tree_param":{"num_deleted":"0","num_feature":"6","num_nodes":"35","size_leaf_vector":"1"}},{"base_weights":[-1.8362977E-2,4.3347803E-1,-6.193051E-1,-7.8682816E-1,5.745965E-1,2.5475514E-1,-8.845709E-1,-3.4000647E-1,2.234884E-1,7.6436055E-1,-2.040304E-1,-2.9545942E-1,6.2022066E-1,-9.9306756E-1,8.97054E-2,2.2437139E-1,-2.4967456E-1,-2.1973205E-1,8.8353556E-1,-1.5796069E0,5.3052837E-1,7.955631E-1,-3.4570214E-1,-2.689096E-1,-1.1073822E0,5.724018E-1,-2.6430726E-1,4.3312958E-1,-3.094676E-1,1.078786E0,7.163711E-1,-8.028519E-1,-5.550149E-1,8.352233E-1,-1.3061217E0,8.9648944E-1,-1.8211961E-1,-2.9607517E-1,4.3828642E-1,-7.424545E-2,-1.151688E0,3.032018E-1,-4.3122748E-1,-2.2778909E-1,2.6861966E-1,-1.182516E-1,3.396154E-1,-1.149574E-1,2.9215425E-1,-3.8588992E-1,1.174519E-1,1.9222526E-2,3.5497063E-1,5.2942064E-2,-6.246545E-1,2.9122153E-1,-5.407646E-2,3.239602E-1,-2.8570977E-1,-3.0518395E-1,2.3281871E-1,-3.1665713E-1,-4.3801555E-1,1.2138333E-1,-3.251534E-1],"categories":[],"categories_nodes":[],"categories_segments":[],"categories_sizes":[],"default_left":[0,0,0,0,0,0,0,0,0,0,0,0,0,0,0,0,0,0,0,0,0,0,0,0,0,0,0,0,0,0,0,0,0,0,0,0,0,0,0,0,0,0,0,0,0,0,0,0,0,0,0,0,0,0,0,0,0,0,0,0,0,0,0,0,0],"id":5,"left_children":[1,3,5,7,9,11,13,-1,15,17,19,-1,21,23,25,-1,-1,27,29,31,33,35,-1,37,39,41,-1,43,-1,45,47,49,-1,51,53,55,-1,-1,57,59,61,-1,63,-1,-1,-1,-1,-1,-1,-1,-1,-1,-1,-1,-1,-1,-1,-1,-1,-1,-1,-1,-1,-1,-1],"loss_changes":[8.564464E1,3.1460987E1,3.1609547E1,6.9356384E0,2.408934E1,1.5240215E1,1.108963E1,0E0,3.7837136E0,1.5493126E1,3.370826E1,0E0,8.858682E0,7.460747E0,5.820201E0,0E0,0E0,8.339696E0,3.0314941E0,9.463482E-1,1.3377275E1,3.9196548E0,0E0,7.591402E0,3.604988E0,4.035387E0,0E0,5.617938E0,0E0,4.509186E0,1.8993881E1,3.2498226E0,0E0,5.141515E0,4.4106483E0,1.9855709E0,0E0,0E0,7.9834538E0,4.30509E0,7.4931335E-1,0E0,2.1776993E0,0E0,0E0,0E0,0E0,0E0,0E0,0E0,0E0,0E0,0E0,0E0,0E0,0E0,0E0,0E0,0E0,0E0,0E0,0E0,0E0,0E0,0E0],"parents":[2147483647,0,0,1,1,2,2,3,3,4,4,5,5,6,6,8,8,9,9,10,10,12,12,13,13,14,14,17,17,18,18,19,19,20,20,21,21,23,23,24,24,25,25,27,27,29,29,30,30,31,31,33,33,34,34,35,35,38,38,39,39,40,40,42,42],"right_children":[2,4,6,8,10,12,14,-1,16,18,20,-1,22,24,26,-1,-1,28,30,32,34,36,-1,38,40,42,-1,44,-1,46,48,50,-1,52,54,56,-1,-1,58,60,62,-1,64,-1,-1,-1,-1,-1,-1,-1,-1,-1,-1,-1,-1,-1,-1,-1,-1,-1,-1,-1,-1,-1,-1],"split_conditions":[-6.4908826E-1,-1.8887937E-1,-7.990975E-1,-6.619534E-1,7.781026E-1,1.7448631E-1,7.8844297E-1,-3.4000647E-1,5.211123E-1,6.3399345E-1,-6.7577416E-1,-2.9545942E-1,-7.8050315E-1,-1.1947618E0,-5.919841E-1,2.2437139E-1,-2.4967456E-1,1.0161687E-1,2.2243603E-1,7.914339E-1,6.9601077E-1,-4.5765963E-1,-3.4570214E-1,5.950461E-1,-6.438846E-1,8.0029845E-1,-2.6430726E-1,-1.5345128E0,-3.094676E-1,7.7037716E-1,-6.961055E-1,1.0864124E0,-5.550149E-1,-6.6138476E-1,5.666078E-1,6.917231E-1,-1.8211961E-1,-2.9607517E-1,3.9289567E-1,9.660778E-1,6.998219E-1,3.032018E-1,3.7215158E-1,-2.2778909E-1,2.6861966E-1,-1.182516E-1,3.396154E-1,-1.149574E-1,2.9215425E-1,-3.8588992E-1,1.174519E-1,1.9222526E-2,3.5497063E-1,5.2942064E-2,-6.246545E-1,2.9122153E-1,-5.407646E-2,3.239602E-1,-2.8570977E-1,-3.0518395E-1,2.3281871E-1,-3.1665713E-1,-4.3801555E-1,1.2138333E-1,-3.251534E-1],"split_indices":[0,4,3,0,1,1,1,0,3,1,0,0,2,4,0,0,0,3,3,1,3,0,0,1,0,1,0,1,0,4,0,4,0,0,2,1,0,0,3,4,1,0,2,0,0,0,0,0,0,0,0,0,0,0,0,0,0,0,0,0,0,0,0,0,0],"split_type":[0,0,0,0,0,0,0,0,0,0,0,0,0,0,0,0,0,0,0,0,0,0,0,0,0,0,0,0,0,0,0,0,0,0,0,0,0,0,0,0,0,0,0,0,0,0,0,0,0,0,0,0,0,0,0,0,0,0,0,0,0,0,0,0,0],"sum_hessian":[3.1342603E2,1.7906665E2,1.3435936E2,1.8086868E1,1.6097978E2,3.129171E1,1.0306765E2,1.3376948E1,4.709919E0,1.2944923E2,3.1530558E1,6.7389817E0,2.4552727E1,9.272265E1,1.0345002E1,3.3416176E0,1.3683012E0,1.3891967E1,1.1555727E2,1.0575625E1,2.0954931E1,2.2844152E1,1.7085744E0,1.3098549E1,7.96241E1,7.183391E0,3.1616108E0,7.958393E0,5.9335732E0,5.078557E1,6.47717E1,3.7561164E0,6.819509E0,1.844089E1,2.5140436E0,2.1647366E1,1.1967885E0,6.303324E0,6.795224E0,3.3842773E0,7.623982E1,4.9950886E0,2.1883025E0,2.0438154E0,5.9145775E0,1.5490533E0,4.9236515E1,1.2196749E1,5.2574947E1,2.6190197E0,1.1370968E0,6.1025577E0,1.2338331E1,1.1292714E0,1.3847721E0,2.0343025E1,1.3043404E0,4.802883E0,1.992341E0,1.5115383E0,1.8727391E0,6.1487663E1,1.4752159E1,1.1260866E0,1.0622159E0],"tree_param":{"num_deleted":"0","num_feature":"6","num_nodes":"65","size_leaf_vector":"1"}},{"base_weights":[-2.5706766E-2,1.9289334E-1,-3.176936E-1,-8.6323416E-1,3.0099595E-1,-3.450137E-1,-3.121869E-1,7.787297E-1,1.165154E-1,-2.55828E-1,3.947956E-1,2.1928556E-2,9.1023666E-1,-4.3614152E-1,4.5991576E-1,8.823886E-3,1.8687813E-1,6.5145093E-1,-2.7832067E-1,-1.0034032E-1,9.5896345E-1,-3.3126327E-1,-1.7855637E-1,7.595059E-1,2.3033524E-2,2.4879771E-1,4.537642E-3,-1.1594057E-1,7.0174135E-2,1.9749999E-2,2.9917222E-1,4.520361E-2,-3.6274493E-1,2.6134124E-1,-3.5909492E-1,-4.780735E-1,1.09723866E-1],"categories":[],"categories_nodes":[],"categories_segments":[],"categories_sizes":[],"default_left":[0,0,0,0,0,0,0,0,0,0,0,0,0,0,0,0,0,0,0,0,0,0,0,0,0,0,0,0,0,0,0,0,0,0,0,0,0],"id":6,"left_children":[1,3,-1,5,7,9,-1,11,13,-1,15,17,19,21,23,-1,-1,25,-1,27,29,-1,31,33,35,-1,-1,-1,-1,-1,-1,-1,-1,-1,-1,-1,-1],"loss_changes":[5.8818047E1,2.4809956E1,0E0,1.5001736E0,1.7166174E1,2.835986E0,0E0,5.3913918E0,2.7232119E1,0E0,2.6437765E-1,6.0291452E0,2.3760414E0,9.284535E0,1.1544312E1,0E0,0E0,6.715834E-1,0E0,3.8065997E-1,1.4475479E0,0E0,1.4079994E1,1.2480642E1,2.1062807E1,0E0,0E0,0E0,0E0,0E0,0E0,0E0,0E0,0E0,0E0,0E0,0E0],"parents":[2147483647,0,0,1,1,3,3,4,4,5,5,7,7,8,8,10,10,11,11,12,12,13,13,14,14,17,17,19,19,20,20,22,22,23,23,24,24],"right_children":[2,4,-1,6,8,10,-1,12,14,-1,16,18,20,22,24,-1,-1,26,-1,28,30,-1,32,34,36,-1,-1,-1,-1,-1,-1,-1,-1,-1,-1,-1,-1],"split_conditions":[-4.5765963E-1,1.0191642E-1,-3.176936E-1,-6.721882E-1,-3.7064713E-1,-1.3669304E0,-3.121869E-1,-9.3729085E-1,8.636298E-1,-2.55828E-1,-6.853403E-1,6.3399345E-1,-2.6404486E0,7.012189E-1,7.56841E-1,8.823886E-3,1.8687813E-1,-9.872057E-1,-2.7832067E-1,6.6328835E-1,-1.7191356E0,-3.3126327E-1,5.936457E-1,-6.373087E-1,1.145533E0,2.4879771E-1,4.537642E-3,-1.1594057E-1,7.0174135E-2,1.9749999E-2,2.9917222E-1,4.520361E-2,-3.6274493E-1,2.6134124E-1,-3.5909492E-1,-4.780735E-1,1.09723866E-1],"split_indices":[0,1,0,0,3,1,0,4,4,0,0,1,3,1,1,0,0,4,0,1,2,0,2,0,4,0,0,0,0,0,0,0,0,0,0,0,0],"split_type":[0,0,0,0,0,0,0,0,0,0,0,0,0,0,0,0,0,0,0,0,0,0,0,0,0,0,0,0,0,0,0,0,0,0,0,0,0],"sum_hessian":[2.584984E2,2.140311E2,4.446733E1,1.9224884E1,1.9480621E2,5.6535797E0,1.3571303E1,5.337201E1,1.414342E2,3.2620754E0,2.3915043E0,8.074031E0,4.5297977E1,5.4099014E1,8.733519E1,1.3531638E0,1.0383404E0,5.0442624E0,3.0297687E0,2.034934E0,4.3263042E1,1.41397E1,3.9959312E1,5.1369976E1,3.5965214E1,3.7052214E0,1.3390408E0,1.0122315E0,1.0227025E0,1.8897221E0,4.137332E1,3.0931637E1,9.027678E0,4.9121964E1,2.24801E0,5.6523914E0,3.0312824E1],"tree_param":{"num_deleted":"0","num_feature":"6","num_nodes":"37","size_leaf_vector":"1"}},{"base_weights":[-3.1103944E-2,3.2041925E-1,-5.574248E-1,-6.501825E-1,4.311742E-1,2.867694E-1,-7.6340556E-1,-3.095866E-1,2.4039389E-1,5.585718E-1,-4.2314065E-1,-2.5427386E-1,6.3822055E-1,-2.6583793E-2,-9.021657E-1,1.9008371E-1,-1.9481315E-1,-1.8738309E-1,6.562104E-1,-4.3746725E-1,2.3643227E-1,7.9693466E-1,-1.7648646E-1,-2.6420262E-1,4.6109927E-1,-9.833772E-1,-8.506826E-2,4.4169903E-1,-3.00471E-1,8.579545E-1,3.6894047E-1,5.8283037E-1,-4.2912492E-1,-9.95161E-2,9.231008E-1,9.131805E-1,-3.784794E-1,-8.351364E-1,-1.4329455E0,6.244734E-1,-2.6668495E-1,-1.9387834E-1,2.3684296E-1,3.1798798E-1,1.8859841E-1,-2.1992995E-1,1.8451752E-1,2.3432823E-1,-7.830918E-2,2.8442146E-2,2.9682896E-1,3.1593305E-1,4.5059007E-2,-2.4912933E-1,1.2338187E-1,6.9612324E-2,-2.7974156E-1,-5.021724E-1,-2.6591095E-1,2.2804646E-1,3.119222E-2],"categories":[],"categories_nodes":[],"categories_segments":[],"categories_sizes":[],"default_left":[0,0,0,0,0,0,0,0,0,0,0,0,0,0,0,0,0,0,0,0,0,0,0,0,0,0,0,0,0,0,0,0,0,0,0,0,0,0,0,0,0,0,0,0,0,0,0,0,0,0,0,0,0,0,0,0,0,0,0,0,0],"id":7,"left_children":[1,3,5,7,9,11,13,-1,15,17,19,-1,21,23,25,-1,-1,27,29,-1,31,33,-1,-1,35,37,39,41,-1,43,45,47,-1,-1,49,51,53,55,57,59,-1,-1,-1,-1,-1,-1,-1,-1,-1,-1,-1,-1,-1,-1,-1,-1,-1,-1,-1,-1,-1],"loss_changes":[4.1274773E1,1.4665009E1,1.574926E1,5.04343E0,1.3373945E1,7.814497E0,7.3443375E0,0E0,2.1758838E0,7.8051186E0,1.1427503E1,0E0,3.2913609E0,5.592449E0,3.9387016E0,0E0,0E0,7.0935264E0,5.1016235E0,0E0,7.055507E0,2.1948195E0,0E0,0E0,3.6030645E0,2.471508E0,4.305257E0,3.5445395E0,0E0,1.8425064E0,1.1387953E1,1.8154151E0,0E0,0E0,5.761156E-1,4.686861E-1,1.6660137E0,4.7649918E0,1.2992096E-1,2.0907712E-1,0E0,0E0,0E0,0E0,0E0,0E0,0E0,0E0,0E0,0E0,0E0,0E0,0E0,0E0,0E0,0E0,0E0,0E0,0E0,0E0,0E0],"parents":[2147483647,0,0,1,1,2,2,3,3,4,4,5,5,6,6,8,8,9,9,10,10,12,12,13,13,14,14,17,17,18,18,20,20,21,21,24,24,25,25,26,26,27,27,29,29,30,30,31,31,34,34,35,35,36,36,37,37,38,38,39,39],"right_children":[2,4,6,8,10,12,14,-1,16,18,20,-1,22,24,26,-1,-1,28,30,-1,32,34,-1,-1,36,38,40,42,-1,44,46,48,-1,-1,50,52,54,56,58,60,-1,-1,-1,-1,-1,-1,-1,-1,-1,-1,-1,-1,-1,-1,-1,-1,-1,-1,-1,-1,-1],"split_conditions":[-6.4908826E-1,-1.8887937E-1,-1.0247897E0,-6.619534E-1,7.931262E-1,1.7448631E-1,-1.1947618E0,-3.095866E-1,5.211123E-1,6.431785E-1,-6.7577416E-1,-2.5427386E-1,-4.5765963E-1,5.950461E-1,7.914339E-1,1.9008371E-1,-1.9481315E-1,2.1105868E-1,7.48617E-1,-4.3746725E-1,6.9601077E-1,-2.11488E0,-1.7648646E-1,-2.6420262E-1,3.9289567E-1,7.012189E-1,-6.2172014E-1,-1.5345128E0,-3.00471E-1,2.2243603E-1,-6.961055E-1,6.166746E-1,-4.2912492E-1,-9.95161E-2,-6.271215E-1,7.30283E-1,-1.2156239E0,-6.373087E-1,-5.6680894E-1,8.0029845E-1,-2.6668495E-1,-1.9387834E-1,2.3684296E-1,3.1798798E-1,1.8859841E-1,-2.1992995E-1,1.8451752E-1,2.3432823E-1,-7.830918E-2,2.8442146E-2,2.9682896E-1,3.1593305E-1,4.5059007E-2,-2.4912933E-1,1.2338187E-1,6.9612324E-2,-2.7974156E-1,-5.021724E-1,-2.6591095E-1,2.2804646E-1,3.119222E-2],"split_indices":[0,4,3,0,1,1,4,0,3,1,0,0,0,1,1,0,0,3,1,0,3,3,0,0,3,1,0,1,0,3,0,2,0,0,0,1,4,0,0,1,0,0,0,0,0,0,0,0,0,0,0,0,0,0,0,0,0,0,0,0,0],"split_type":[0,0,0,0,0,0,0,0,0,0,0,0,0,0,0,0,0,0,0,0,0,0,0,0,0,0,0,0,0,0,0,0,0,0,0,0,0,0,0,0,0,0,0,0,0,0,0,0,0,0,0,0,0,0,0,0,0,0,0,0,0],"sum_hessian":[2.2112462E2,1.328122E2,8.831242E1,1.3104074E1,1.1970813E2,1.7244627E1,7.1067795E1,9.061034E0,4.04304E0,1.04474754E2,1.5233368E1,3.7451313E0,1.34994955E1,1.1451493E1,5.9616302E1,3.003562E0,1.0394778E0,1.1985666E1,9.248909E1,5.4576645E0,9.775703E0,1.2262881E1,1.2366142E0,3.8692842E0,7.5822096E0,5.4041595E1,5.5747094E0,7.019523E0,4.966143E0,5.3165462E1,3.932363E1,8.632145E0,1.1435591E0,1.0691614E0,1.119372E1,4.8714523E0,2.7107573E0,4.2789734E1,1.1251861E1,3.0796502E0,2.4950593E0,1.4924375E0,5.527086E0,2.6338625E1,2.6826838E1,6.817647E0,3.250598E1,7.0501127E0,1.5820316E0,1.0100389E0,1.01836815E1,3.7951732E0,1.0762792E0,1.6913435E0,1.0194137E0,3.4608877E0,3.9328846E1,6.3776755E0,4.874185E0,2.0776293E0,1.002021E0],"tree_param":{"num_deleted":"0","num_feature":"6","num_nodes":"61","size_leaf_vector":"1"}},{"base_weights":[-3.6507603E-2,1.279222E-1,-3.0237737E-1,-7.699412E-1,2.0727701E-1,-2.6418996E-1,-2.8754747E-1,6.6840553E-1,4.837111E-2,-2.1871947E-1,1.00132376E-1,-3.0875841E-2,7.9231286E-1,-3.7366354E-1,3.0900288E-1,4.7199482E-1,-2.4410966E-1,-6.482016E-2,8.7253577E-1,-1.0100478E0,-1.3663629E-1,5.887373E-1,-1.8288195E-2,1.9279623E-1,-9.6467575E-3,1.736066E-1,-1.6881506E-1,-2.75365E-2,2.7786046E-1,-3.0716775E-2,-3.4783125E-1,-2.9582867E-1,3.8104713E-2,-7.760367E-2,2.6333582E-1,-4.5265856E-1,6.761017E-2],"categories":[],"categories_nodes":[],"categories_segments":[],"categories_sizes":[],"default_left":[0,0,0,0,0,0,0,0,0,0,0,0,0,0,0,0,0,0,0,0,0,0,0,0,0,0,0,0,0,0,0,0,0,0,0,0,0],"id":8,"left_children":[1,3,-1,5,7,9,-1,11,13,-1,-1,15,17,19,21,23,-1,25,27,29,31,33,35,-1,-1,-1,-1,-1,-1,-1,-1,-1,-1,-1,-1,-1,-1],"loss_changes":[3.0303568E1,1.1734138E1,0E0,1.024962E0,1.0962479E1,1.6389558E0,0E0,3.3496552E0,1.2508641E1,0E0,0E0,3.0369282E0,2.300785E0,6.4187574E0,6.438034E0,4.2814767E-1,0E0,1.5188502E0,1.6330776E0,1.4596109E0,7.477513E0,9.505756E0,1.2441666E1,0E0,0E0,0E0,0E0,0E0,0E0,0E0,0E0,0E0,0E0,0E0,0E0,0E0,0E0],"parents":[2147483647,0,0,1,1,3,3,4,4,5,5,7,7,8,8,11,11,12,12,13,13,14,14,15,15,17,17,18,18,19,19,20,20,21,21,22,22],"right_children":[2,4,-1,6,8,10,-1,12,14,-1,-1,16,18,20,22,24,-1,26,28,30,32,34,36,-1,-1,-1,-1,-1,-1,-1,-1,-1,-1,-1,-1,-1,-1],"split_conditions":[-4.5765963E-1,1.0191642E-1,-3.0237737E-1,-6.721882E-1,-3.4863344E-1,-1.3669304E0,-2.8754747E-1,-9.3729085E-1,8.636298E-1,-2.1871947E-1,1.00132376E-1,6.3399345E-1,-2.296787E0,-6.82926E-1,7.522534E-1,-9.872057E-1,-2.4410966E-1,-2.0052195E0,-1.5539113E0,-3.0107716E-1,7.125722E-1,4.5356545E-1,1.1264164E0,1.9279623E-1,-9.6467575E-3,1.736066E-1,-1.6881506E-1,-2.75365E-2,2.7786046E-1,-3.0716775E-2,-3.4783125E-1,-2.9582867E-1,3.8104713E-2,-7.760367E-2,2.6333582E-1,-4.5265856E-1,6.761017E-2],"split_indices":[0,1,0,0,3,1,0,4,4,0,0,1,3,0,1,4,0,2,2,2,1,2,4,0,0,0,0,0,0,0,0,0,0,0,0,0,0],"split_type":[0,0,0,0,0,0,0,0,0,0,0,0,0,0,0,0,0,0,0,0,0,0,0,0,0,0,0,0,0,0,0,0,0,0,0,0,0],"sum_hessian":[1.8791035E2,1.614503E2,2.6460058E1,1.24038515E1,1.4904645E2,4.0205736E0,8.383278E0,3.737673E1,1.11669716E2,2.1386673E0,1.8819062E0,5.7390018E0,3.1637728E1,4.2468243E1,6.920148E1,3.7360773E0,2.0029247E0,2.7241228E0,2.8913605E1,1.0640015E1,3.182823E1,3.6880787E1,3.2320686E1,2.5859764E0,1.150101E0,1.1175168E0,1.6066061E0,1.4867989E0,2.7426805E1,1.7419132E0,8.898101E0,6.889817E0,2.4938412E1,9.40699E0,2.7473797E1,3.8114367E0,2.850925E1],"tree_param":{"num_deleted":"0","num_feature":"6","num_nodes":"37","size_leaf_vector":"1"}},{"base_weights":[-4.072881E-2,9.723953E-2,-2.9544058E-1,-7.1796596E-1,1.6388433E-1,-2.371412E-1,-2.7478558E-1,6.2128943E-1,3.2293975E-2,-2.0225541E-1,8.274662E-2,-1.5696391E-1,7.416556E-1,-2.8299737E-1,2.3729216E-1,1.6001654E-1,-2.3747768E-1,-7.255483E-2,8.170405E-1,-1.01754345E-1,-9.456067E-1,3.3095208E-1,-6.5995157E-1,-7.9122704E-4,2.632665E-1,-2.3418652E-1,4.1099347E-2,-3.8500872E-1,4.2529654E-2,1.2850177E-1,-1.3954875E-1,-3.8131866E-1,-3.6783233E-2],"categories":[],"categories_nodes":[],"categories_segments":[],"categories_sizes":[],"default_left":[0,0,0,0,0,0,0,0,0,0,0,0,0,0,0,0,0,0,0,0,0,0,0,0,0,0,0,0,0,0,0,0,0],"id":9,"left_children":[1,3,-1,5,7,9,-1,11,13,-1,-1,15,17,19,21,-1,-1,-1,23,25,27,29,31,-1,-1,-1,-1,-1,-1,-1,-1,-1,-1],"loss_changes":[2.1468603E1,7.945187E0,0E0,8.370156E-1,8.0455065E0,1.2125789E0,0E0,2.9157267E0,6.8613973E0,0E0,0E0,2.5374742E0,2.129364E0,4.93252E0,5.617283E0,0E0,0E0,0E0,1.2140274E0,5.617788E0,3.4407072E0,4.761074E0,1.9478521E0,0E0,0E0,0E0,0E0,0E0,0E0,0E0,0E0,0E0,0E0],"parents":[2147483647,0,0,1,1,3,3,4,4,5,5,7,7,8,8,11,11,12,12,13,13,14,14,18,18,19,19,20,20,21,21,22,22],"right_children":[2,4,-1,6,8,10,-1,12,14,-1,-1,16,18,20,22,-1,-1,-1,24,26,28,30,32,-1,-1,-1,-1,-1,-1,-1,-1,-1,-1],"split_conditions":[-4.5765963E-1,1.0191642E-1,-2.9544058E-1,-6.721882E-1,-4.0846297E-1,-1.3669304E0,-2.7478558E-1,-9.3729085E-1,8.636298E-1,-2.0225541E-1,8.274662E-2,6.2084895E-1,-2.6404486E0,5.936457E-1,8.086578E-1,1.6001654E-1,-2.3747768E-1,-7.255483E-2,-1.7191356E0,7.012189E-1,7.8274655E-1,-6.416194E-1,5.7386357E-1,-7.9122704E-4,2.632665E-1,-2.3418652E-1,4.1099347E-2,-3.8500872E-1,4.2529654E-2,1.2850177E-1,-1.3954875E-1,-3.8131866E-1,-3.6783233E-2],"split_indices":[0,1,0,0,3,1,0,4,4,0,0,1,3,2,1,0,0,0,2,1,2,0,3,0,0,0,0,0,0,0,0,0,0],"split_type":[0,0,0,0,0,0,0,0,0,0,0,0,0,0,0,0,0,0,0,0,0,0,0,0,0,0,0,0,0,0,0,0,0],"sum_hessian":[1.6308815E2,1.4307582E2,2.0012327E1,1.0074201E1,1.3300162E2,3.5793147E0,6.4948864E0,2.8883125E1,1.0411849E2,1.7629722E0,1.8163425E0,3.8280418E0,2.5055084E1,4.0873592E1,6.32449E1,1.9099324E0,1.9181093E0,1.6265249E0,2.3428558E1,3.3000546E1,7.8730474E0,5.78385E1,5.406399E0,1.6765016E0,2.1752058E1,7.995778E0,2.5004768E1,5.869609E0,2.0034387E0,5.194601E1,5.892492E0,1.8906829E0,3.5157158E0],"tree_param":{"num_deleted":"0","num_feature":"6","num_nodes":"33","size_leaf_vector":"1"}},{"base_weights":[-4.5797605E-2,6.705251E-2,-2.8854436E-1,1.2700915E-1,-7.453721E-1,2.7447867E-1,-2.1636316E-1,-1.0416363E0,1.0271768E-1,-6.673709E-2,5.90305E-1,4.1628942E-1,-3.9346883E-1,3.1395536E-2,-1.2369175E0,2.3128581E-1,-1.2130182E0,-7.4985616E-2,7.057467E-1,-1.6329552E-1,6.787755E-1,2.9100636E-1,-6.107802E-1,-3.9197937E-1,-4.726669E-1,2.2324443E-1,-1.1914468E-1,-4.0119815E-1,-5.8665406E-2,1.6266629E-1,-3.8256076E-1,1.5869328E-1,2.7435812E-1,2.5699887E-1,1.5455775E-2,1.7258513E-1,-1.9034235E-1,-2.6521415E-1,-2.0288989E-2,-2.2042365E-1,4.9630217E-2],"categories":[],"categories_nodes":[],"categories_segments":[],"categories_sizes":[],"default_left":[0,0,0,0,0,0,0,0,0,0,0,0,0,0,0,0,0,0,0,0,0,0,0,0,0,0,0,0,0,0,0,0,0,0,0,0,0,0,0,0,0],"id":10,"left_children":[1,3,-1,5,7,9,11,13,-1,15,17,19,21,-1,23,25,27,29,31,-1,33,35,37,39,-1,-1,-1,-1,-1,-1,-1,-1,-1,-1,-1,-1,-1,-1,-1,-1,-1],"loss_changes":[1.5221011E1,6.4987607E0,0E0,6.302507E0,3.3155055E0,9.381596E0,4.376878E0,1.8001251E0,0E0,1.4822805E1,3.5183802E0,2.5656216E0,4.6239147E0,0E0,1.229392E0,1.1455134E1,8.6971474E-1,6.3034697E0,9.3880844E-1,0E0,7.688074E-1,2.4383073E0,3.355606E0,7.287615E-1,0E0,0E0,0E0,0E0,0E0,0E0,0E0,0E0,0E0,0E0,0E0,0E0,0E0,0E0,0E0,0E0,0E0],"parents":[2147483647,0,0,1,1,3,3,4,4,5,5,6,6,7,7,9,9,10,10,11,11,12,12,14,14,15,15,16,16,17,17,18,18,20,20,21,21,22,22,23,23],"right_children":[2,4,-1,6,8,10,12,14,-1,16,18,20,22,-1,24,26,28,30,32,-1,34,36,38,40,-1,-1,-1,-1,-1,-1,-1,-1,-1,-1,-1,-1,-1,-1,-1,-1,-1],"split_conditions":[-4.5765963E-1,7.086032E-1,-2.8854436E-1,-6.5191156E-1,1.2614254E0,-6.82926E-1,-1.0247897E0,3.6517876E-1,1.0271768E-1,7.7007395E-1,2.9380238E-1,-2.11488E0,-1.1947618E0,3.1395536E-2,7.4064684E-1,2.2243603E-1,-6.875517E-1,-1.3548729E-1,-6.619534E-1,-1.6329552E-1,-8.97811E-1,2.7498505E-1,1.0710677E0,7.046347E-1,-4.726669E-1,2.2324443E-1,-1.1914468E-1,-4.0119815E-1,-5.8665406E-2,1.6266629E-1,-3.8256076E-1,1.5869328E-1,2.7435812E-1,2.5699887E-1,1.5455775E-2,1.7258513E-1,-1.9034235E-1,-2.6521415E-1,-2.0288989E-2,-2.2042365E-1,4.9630217E-2],"split_indices":[0,3,0,0,4,0,3,2,0,1,2,3,4,0,1,3,0,3,0,0,4,2,4,1,0,0,0,0,0,0,0,0,0,0,0,0,0,0,0,0,0],"split_type":[0,0,0,0,0,0,0,0,0,0,0,0,0,0,0,0,0,0,0,0,0,0,0,0,0,0,0,0,0,0,0,0,0,0,0,0,0,0,0,0,0],"sum_hessian":[1.4562025E2,1.304732E2,1.5147048E1,1.2229179E2,8.181421E0,8.569055E1,3.6601234E1,6.463441E0,1.7179801E0,4.1568752E1,4.41218E1,7.709835E0,2.8891401E1,1.0083845E0,5.455056E0,3.3624825E1,7.9439263E0,6.57582E0,3.754598E1,1.4241686E0,6.2856665E0,6.880491E0,2.201091E1,2.1780689E0,3.2769873E0,1.8413519E1,1.5211306E1,6.7989016E0,1.1450249E0,4.7046857E0,1.8711342E0,2.2245188E1,1.5300793E1,4.611993E0,1.6736733E0,5.553142E0,1.3273488E0,1.4225978E1,7.7849317E0,1.1517178E0,1.0263511E0],"tree_param":{"num_deleted":"0","num_feature":"6","num_nodes":"41","size_leaf_vector":"1"}},{"base_weights":[-4.5994E-2,4.8640132E-2,-2.812204E-1,4.122784E-1,-6.996817E-2,-2.9423478E-1,5.315157E-1,-8.312903E-1,6.414967E-2,7.216768E-2,8.099645E-1,1.213773E-2,-2.8532052E-1,-4.779257E-1,2.1313721E-1,-8.1010574E-1,6.707369E-1,9.3683386E-1,9.6439816E-2,-9.171542E-2,-1.3363723E0,3.768426E-1,-3.0992013E-1,7.1576666E-3,-3.1073123E-1,2.552111E-1,1.1325097E-2,3.0932778E-1,-2.1833891E-2,2.0508648E-1,-1.946764E-1,1.6990261E-1,-9.172881E-2,-5.5737495E-1,-1.0148167E-1,1.2895349E-1,-2.4383934E-1,5.186567E-3,-2.8686294E-1],"categories":[],"categories_nodes":[],"categories_segments":[],"categories_sizes":[],"default_left":[0,0,0,0,0,0,0,0,0,0,0,0,0,0,0,0,0,0,0,0,0,0,0,0,0,0,0,0,0,0,0,0,0,0,0,0,0,0,0],"id":11,"left_children":[1,3,-1,5,7,-1,9,11,13,15,17,-1,-1,19,21,23,25,27,29,31,33,35,37,-1,-1,-1,-1,-1,-1,-1,-1,-1,-1,-1,-1,-1,-1,-1,-1],"loss_changes":[1.0982503E1,5.1250253E0,0E0,5.3725233E0,9.237979E0,0E0,3.4655275E0,1.4527426E0,6.3534384E0,6.614393E0,1.4536037E0,0E0,0E0,5.5125427E0,5.3751802E0,9.8445916E-1,8.1044006E-1,1.4421902E0,2.0583923E0,1.9756106E0,2.0785532E0,3.326961E0,3.228199E0,0E0,0E0,0E0,0E0,0E0,0E0,0E0,0E0,0E0,0E0,0E0,0E0,0E0,0E0,0E0,0E0],"parents":[2147483647,0,0,1,1,3,3,4,4,6,6,7,7,8,8,9,9,10,10,13,13,14,14,15,15,16,16,17,17,18,18,19,19,20,20,21,21,22,22],"right_children":[2,4,-1,6,8,-1,10,12,14,16,18,-1,-1,20,22,24,26,28,30,32,34,36,38,-1,-1,-1,-1,-1,-1,-1,-1,-1,-1,-1,-1,-1,-1,-1,-1],"split_conditions":[-4.5765963E-1,-4.7196034E-1,-2.812204E-1,-2.7655904E0,6.666757E-1,-2.9423478E-1,7.548471E-1,-4.595417E-1,3.2284403E-1,-5.86087E-1,-6.02531E-1,1.213773E-2,-2.8532052E-1,9.1831774E-1,6.8610066E-1,5.4789203E-1,-7.990975E-1,8.9172584E-1,2.021958E-1,-1.6275676E-1,7.7317786E-1,-6.224355E-1,6.7484665E-1,7.1576666E-3,-3.1073123E-1,2.552111E-1,1.1325097E-2,3.0932778E-1,-2.1833891E-2,2.0508648E-1,-1.946764E-1,1.6990261E-1,-9.172881E-2,-5.5737495E-1,-1.0148167E-1,1.2895349E-1,-2.4383934E-1,5.186567E-3,-2.8686294E-1],"split_indices":[0,2,0,3,1,0,4,3,2,0,0,0,0,4,3,1,3,4,1,3,1,0,2,0,0,0,0,0,0,0,0,0,0,0,0,0,0,0,0],"split_type":[0,0,0,0,0,0,0,0,0,0,0,0,0,0,0,0,0,0,0,0,0,0,0,0,0,0,0,0,0,0,0,0,0,0,0,0,0,0,0],"sum_hessian":[1.2864941E2,1.17157135E2,1.1492274E1,2.8205776E1,8.895136E1,1.6541947E0,2.655158E1,1.2544439E1,7.640692E1,1.0495939E1,1.6055641E1,1.5953848E0,1.0949054E1,1.5996722E1,6.04102E1,4.0997E0,6.3962398E0,1.3366096E1,2.6895456E0,1.1796419E1,4.200303E0,4.6222973E1,1.4187228E1,1.0635463E0,3.0361536E0,4.712468E0,1.6837718E0,1.2205318E1,1.1607773E0,1.5507362E0,1.1388096E0,2.4913251E0,9.305094E0,2.1929517E0,2.0073514E0,4.486286E1,1.3601093E0,1.0064794E1,4.122435E0],"tree_param":{"num_deleted":"0","num_feature":"6","num_nodes":"39","size_leaf_vector":"1"}},{"base_weights":[-4.9319852E-2,2.869007E-2,-2.7310142E-1,4.8190224E-1,-4.67016E-2,-1.2956013E-1,8.166352E-1,-3.6308435E-1,1.02128856E-1,2.945983E-1,-2.3443265E-1,5.1000793E-2,9.406318E-1,2.8726238E-1,-8.5171664E-1,3.6350593E-1,-2.976224E-1,-8.974124E-2,1.7667858E-1,3.6948014E-2,3.1307107E-1,6.026002E-1,-2.6668102E-1,-3.706149E-1,-4.2223115E-2,4.5385003E-1,-4.1341358E-1,-5.043675E-1,3.8911957E-1,-9.035901E-2,2.2060649E-1,2.4695386E-1,-3.7467766E-1,-4.9156673E-2,1.6511256E-1,1.3556597E-1,-3.9172637E-1,-4.3636248E-2,-4.4061205E-1,2.5132966E-1,-1.22719236E-1],"categories":[],"categories_nodes":[],"categories_segments":[],"categories_sizes":[],"default_left":[0,0,0,0,0,0,0,0,0,0,0,0,0,0,0,0,0,0,0,0,0,0,0,0,0,0,0,0,0,0,0,0,0,0,0,0,0,0,0,0,0],"id":12,"left_children":[1,3,-1,5,7,9,11,13,15,17,-1,-1,19,21,23,25,27,-1,-1,-1,-1,29,-1,-1,31,33,35,37,39,-1,-1,-1,-1,-1,-1,-1,-1,-1,-1,-1,-1],"loss_changes":[7.88837E0,3.7229052E0,0E0,3.285326E0,4.4522038E0,1.9883795E0,6.559839E-1,9.8468895E0,6.852527E0,9.762616E-1,0E0,0E0,5.714135E-1,5.621068E0,5.3846416E0,2.9586678E0,3.8975258E0,0E0,0E0,0E0,0E0,1.59028E0,0E0,0E0,7.9876027E0,2.2272987E0,4.169632E0,6.8721037E0,2.7049522E0,0E0,0E0,0E0,0E0,0E0,0E0,0E0,0E0,0E0,0E0,0E0,0E0],"parents":[2147483647,0,0,1,1,3,3,4,4,5,5,6,6,7,7,8,8,9,9,12,12,13,13,14,14,15,15,16,16,21,21,24,24,25,25,26,26,27,27,28,28],"right_children":[2,4,-1,6,8,10,12,14,16,18,-1,-1,20,22,24,26,28,-1,-1,-1,-1,30,-1,-1,32,34,36,38,40,-1,-1,-1,-1,-1,-1,-1,-1,-1,-1,-1,-1],"split_conditions":[-4.5765963E-1,-9.29835E-1,-2.7310142E-1,-1.4413993E0,-6.82926E-1,-1.3123024E0,-9.198646E-1,3.0008775E-1,-6.5191156E-1,4.4541985E-1,-2.3443265E-1,5.1000793E-2,5.8374816E-1,7.48617E-1,1.1951492E0,7.086032E-1,7.8844297E-1,-8.974124E-2,1.7667858E-1,3.6948014E-2,3.1307107E-1,-7.337586E-1,-2.6668102E-1,-3.706149E-1,7.781026E-1,2.9380238E-1,-6.666256E-1,7.326951E-1,8.0029845E-1,-9.035901E-2,2.2060649E-1,2.4695386E-1,-3.7467766E-1,-4.9156673E-2,1.6511256E-1,1.3556597E-1,-3.9172637E-1,-4.3636248E-2,-4.4061205E-1,2.5132966E-1,-1.22719236E-1],"split_indices":[0,2,0,2,0,3,4,3,0,1,0,0,1,1,4,3,1,0,0,0,0,0,0,0,1,2,0,1,1,0,0,0,0,0,0,0,0,0,0,0,0],"split_type":[0,0,0,0,0,0,0,0,0,0,0,0,0,0,0,0,0,0,0,0,0,0,0,0,0,0,0,0,0,0,0,0,0,0,0,0,0,0,0,0,0],"sum_hessian":[1.1605361E2,1.07298805E2,8.754802E0,1.4534372E1,9.2764435E1,5.3586254E0,9.175747E0,2.9216537E1,6.3547894E1,3.578374E0,1.7802513E0,1.857912E0,7.3178353E0,1.2710958E1,1.650558E1,3.847906E1,2.5068834E1,1.1805617E0,2.3978124E0,1.064074E0,6.2537613E0,1.0408201E1,2.3027565E0,1.0841188E1,5.664392E0,3.4843155E1,3.6359034E0,1.9472242E1,5.596593E0,1.1705121E0,9.237689E0,3.4837801E0,2.180612E0,4.6146293E0,3.0228527E1,2.0965145E0,1.539389E0,1.5029361E1,4.442881E0,3.5510283E0,2.0455647E0],"tree_param":{"num_deleted":"0","num_feature":"6","num_nodes":"41","size_leaf_vector":"1"}},{"base_weights":[-5.1529463E-2,1.4828985E-2,-2.6392317E-1,-6.5960515E-1,6.573653E-2,-3.0191332E-1,-2.3894492E-1,5.454298E-1,-1.1609623E-2,-1.7777675E-1,4.0423945E-2,5.1116217E-2,2.994112E-1,-3.188064E-1,1.2060759E-1,-5.4910153E-1,2.0248297E-1,2.9492316E-1,-7.738047E-1,2.8295025E-1,-1.4262791E-1,1.09048285E-1,-2.8713647E-1,1.8586479E-1,-2.4138811E-1,-3.427711E-1,-1.025582E-2,1.5416068E-1,-2.4213897E-2,1.2907241E-1,-1.0758417E-1],"categories":[],"categories_nodes":[],"categories_segments":[],"categories_sizes":[],"default_left":[0,0,0,0,0,0,0,0,0,0,0,0,0,0,0,0,0,0,0,0,0,0,0,0,0,0,0,0,0,0,0],"id":13,"left_children":[1,3,-1,5,7,9,-1,11,13,-1,-1,15,-1,17,19,21,-1,23,25,27,29,-1,-1,-1,-1,-1,-1,-1,-1,-1,-1],"loss_changes":[5.711403E0,3.3729143E0,0E0,9.720039E-2,3.385592E0,5.265328E-1,0E0,2.7830603E0,3.2638967E0,0E0,0E0,3.0323431E0,0E0,6.9773207E0,2.443855E0,1.9022462E0,0E0,4.429776E0,3.821745E0,2.9910152E0,2.8911672E0,0E0,0E0,0E0,0E0,0E0,0E0,0E0,0E0,0E0,0E0],"parents":[2147483647,0,0,1,1,3,3,4,4,5,5,7,7,8,8,11,11,13,13,14,14,15,15,17,17,18,18,19,19,20,20],"right_children":[2,4,-1,6,8,10,-1,12,14,-1,-1,16,-1,18,20,22,-1,24,26,28,30,-1,-1,-1,-1,-1,-1,-1,-1,-1,-1],"split_conditions":[-4.5765963E-1,1.0191642E-1,-2.6392317E-1,-6.721882E-1,-9.29835E-1,-1.3669304E0,-2.3894492E-1,7.795126E-1,-6.82926E-1,-1.7777675E-1,4.0423945E-2,-5.329158E-1,2.994112E-1,3.0008775E-1,-6.5191156E-1,5.4789203E-1,2.0248297E-1,7.48617E-1,1.1951492E0,7.781026E-1,-1.1947618E0,1.09048285E-1,-2.8713647E-1,1.8586479E-1,-2.4138811E-1,-3.427711E-1,-1.025582E-2,1.5416068E-1,-2.4213897E-2,1.2907241E-1,-1.0758417E-1],"split_indices":[0,1,0,0,2,1,0,4,0,0,0,0,0,3,0,1,0,1,4,1,4,0,0,0,0,0,0,0,0,0,0],"split_type":[0,0,0,0,0,0,0,0,0,0,0,0,0,0,0,0,0,0,0,0,0,0,0,0,0,0,0,0,0,0,0],"sum_hessian":[1.0268375E2,9.597602E1,6.707725E0,5.8968163E0,9.00792E1,2.5192306E0,3.3775856E0,1.1667391E1,7.841181E1,1.2980491E0,1.2211815E0,6.1087165E0,5.5586743E0,2.3169044E1,5.5242767E1,3.1743183E0,2.9343982E0,1.001373E1,1.3155315E1,3.412333E1,2.111944E1,1.0144595E0,2.159859E0,8.068242E0,1.9454876E0,8.41492E0,4.7403955E0,2.0618176E1,1.3505153E1,5.51083E0,1.5608611E1],"tree_param":{"num_deleted":"0","num_feature":"6","num_nodes":"31","size_leaf_vector":"1"}},{"base_weights":[-4.7724918E-2,8.121881E-3,-2.5354207E-1,3.4778465E-2,-3.1271726E-1,-2.124079E-1,1.6218276E-1,-8.441294E-1,7.976532E-2,5.602567E-1,3.427916E-2,-1.0938506E0,-5.3155694E-2,-2.1866424E-1,5.2471375E-1,6.988505E-1,-1.7022018E-1,-8.472191E-1,1.7313372E-1,-1.8090843E-1,-4.3967438E-1,3.7904374E-2,-5.818743E-2,-3.190996E-1,3.1484704E-2,2.2677583E-1,-2.5548078E-2,2.7525592E-1,2.2118166E-2,-3.1304124E-1,-3.774427E-2,-3.010312E-1,9.0906836E-2],"categories":[],"categories_nodes":[],"categories_segments":[],"categories_sizes":[],"default_left":[0,0,0,0,0,0,0,0,0,0,0,0,0,0,0,0,0,0,0,0,0,0,0,0,0,0,0,0,0,0,0,0,0],"id":14,"left_children":[1,3,-1,5,-1,7,9,11,13,15,17,19,21,23,25,27,-1,29,31,-1,-1,-1,-1,-1,-1,-1,-1,-1,-1,-1,-1,-1,-1],"loss_changes":[4.203662E0,2.5302734E0,0E0,2.8003204E0,0E0,5.6606083E0,2.9604506E0,1.8518434E0,2.9874647E0,2.6104517E0,5.698287E0,4.4781876E-1,1.0971635E-1,3.845653E0,1.3305061E0,1.7180624E0,0E0,7.6659346E-1,6.419192E0,0E0,0E0,0E0,0E0,0E0,0E0,0E0,0E0,0E0,0E0,0E0,0E0,0E0,0E0],"parents":[2147483647,0,0,1,1,3,3,5,5,6,6,7,7,8,8,9,9,10,10,11,11,12,12,13,13,14,14,15,15,17,17,18,18],"right_children":[2,4,-1,6,-1,8,10,12,14,16,18,20,22,24,26,28,-1,30,32,-1,-1,-1,-1,-1,-1,-1,-1,-1,-1,-1,-1,-1,-1],"split_conditions":[-4.5765963E-1,7.275309E-1,-2.5354207E-1,7.548471E-1,-3.1271726E-1,-6.6342086E-1,-2.2888324E-1,6.8044907E-1,7.672519E-1,9.037292E-1,3.2941276E-1,-6.816652E-1,-6.7424977E-1,-6.251572E-1,-6.5191156E-1,-6.559622E-1,-1.7022018E-1,7.795007E-1,8.880994E-1,-1.8090843E-1,-4.3967438E-1,3.7904374E-2,-5.818743E-2,-3.190996E-1,3.1484704E-2,2.2677583E-1,-2.5548078E-2,2.7525592E-1,2.2118166E-2,-3.1304124E-1,-3.774427E-2,-3.010312E-1,9.0906836E-2],"split_indices":[0,3,0,4,0,0,2,3,1,4,2,0,0,0,0,0,0,1,4,0,0,0,0,0,0,0,0,0,0,0,0,0,0],"split_type":[0,0,0,0,0,0,0,0,0,0,0,0,0,0,0,0,0,0,0,0,0,0,0,0,0,0,0,0,0,0,0,0,0],"sum_hessian":[9.323998E1,8.806237E1,5.177613E0,8.6826065E1,1.2363032E0,2.9304012E1,5.7522053E1,8.669702E0,2.0634312E1,1.3165816E1,4.4356236E1,6.29832E0,2.3713822E0,1.2655054E1,7.979257E0,1.2063433E1,1.102383E0,5.341976E0,3.901426E1,3.8444433E0,2.4538763E0,1.0875562E0,1.2838261E0,2.871171E0,9.783883E0,5.6121874E0,2.36707E0,8.590663E0,3.47277E0,3.8485665E0,1.4934096E0,3.2101839E0,3.5804073E1],"tree_param":{"num_deleted":"0","num_feature":"6","num_nodes":"33","size_leaf_vector":"1"}},{"base_weights":[-5.7026394E-2,-7.040905E-1,2.869977E-3,-2.615362E-1,-2.4725957E-1,1.6333929E-1,-1.8481548E-1,-1.07474945E-1,-9.781534E-3,-9.117123E-2,3.9658216E-1,4.134715E-2,-8.9525914E-1,1.2150427E-1,-2.770213E-1,-2.3308555E-3,7.7898026E-1,-6.679115E-1,2.1225576E-1,-1.1337607E0,3.318256E-2,2.3280089E-1,-4.8610163E-1,5.490677E-1,-8.4711105E-1,2.6971358E-1,-3.0168344E-3,-6.549627E-2,-3.1545317E-1,-2.5226012E-1,4.4686764E-1,-5.272274E-1,-1.4265412E0,7.5720246E-3,2.2987811E-1,8.252953E-3,-2.2415327E-1,2.0073791E-1,-3.978838E-2,-3.4897965E-1,1.9035324E-2,-1.22400075E-1,9.6188374E-2,6.579717E-2,-3.904418E-1,-1.6842845E-1,1.9019538E-1,-3.394323E-1,8.597604E-2,-1.20626286E-1,-4.825727E-1],"categories":[],"categories_nodes":[],"categories_segments":[],"categories_sizes":[],"default_left":[0,0,0,0,0,0,0,0,0,0,0,0,0,0,0,0,0,0,0,0,0,0,0,0,0,0,0,0,0,0,0,0,0,0,0,0,0,0,0,0,0,0,0,0,0,0,0,0,0,0,0],"id":15,"left_children":[1,3,5,7,-1,9,11,-1,-1,13,15,17,19,21,-1,23,25,27,29,31,-1,33,35,37,39,-1,-1,41,-1,43,45,47,49,-1,-1,-1,-1,-1,-1,-1,-1,-1,-1,-1,-1,-1,-1,-1,-1,-1,-1],"loss_changes":[3.3579178E0,1.7460465E-1,2.447091E0,5.5442944E-2,0E0,2.6357522E0,6.0554123E0,0E0,0E0,3.9625928E0,3.516037E0,3.7017019E0,2.3058267E0,1.3446181E0,0E0,6.1816826E0,1.1236253E0,1.3046451E0,2.7744975E0,5.683327E-1,0E0,1.7596977E0,4.4200838E-1,7.4613404E-1,1.582295E0,0E0,0E0,5.776565E-1,0E0,4.6571264E0,3.4857292E0,2.2945826E0,1.7910004E-1,0E0,0E0,0E0,0E0,0E0,0E0,0E0,0E0,0E0,0E0,0E0,0E0,0E0,0E0,0E0,0E0,0E0,0E0],"parents":[2147483647,0,0,1,1,2,2,3,3,5,5,6,6,9,9,10,10,11,11,12,12,13,13,15,15,16,16,17,17,18,18,19,19,21,21,22,22,23,23,24,24,27,27,29,29,30,30,31,31,32,32],"right_children":[2,4,6,8,-1,10,12,-1,-1,14,16,18,20,22,-1,24,26,28,30,32,-1,34,36,38,40,-1,-1,42,-1,44,46,48,50,-1,-1,-1,-1,-1,-1,-1,-1,-1,-1,-1,-1,-1,-1,-1,-1,-1,-1],"split_conditions":[1.0191642E-1,-6.721882E-1,7.5100166E-1,8.074385E-1,-2.4725957E-1,8.387409E-1,6.4335793E-1,-1.07474945E-1,-9.781534E-3,4.753203E-1,5.953357E-1,-6.853403E-1,7.8274655E-1,7.992668E-1,-2.770213E-1,9.7704E-1,-6.438846E-1,7.781026E-1,5.3616154E-1,6.8954927E-1,3.318256E-2,7.7492845E-1,-8.9851713E-1,-6.7424977E-1,5.8145815E-1,2.6971358E-1,-3.0168344E-3,-7.0512986E-1,-3.1545317E-1,3.7652436E-1,-1.0339408E-1,6.7819E-1,-6.786466E-1,7.5720246E-3,2.2987811E-1,8.252953E-3,-2.2415327E-1,2.0073791E-1,-3.978838E-2,-3.4897965E-1,1.9035324E-2,-1.22400075E-1,9.6188374E-2,6.579717E-2,-3.904418E-1,-1.6842845E-1,1.9019538E-1,-3.394323E-1,8.597604E-2,-1.20626286E-1,-4.825727E-1],"split_indices":[1,0,1,4,0,4,2,0,0,3,2,0,2,4,0,4,0,1,3,2,0,4,3,0,3,0,0,0,0,2,4,3,0,0,0,0,0,0,0,0,0,0,0,0,0,0,0,0,0,0,0],"split_type":[0,0,0,0,0,0,0,0,0,0,0,0,0,0,0,0,0,0,0,0,0,0,0,0,0,0,0,0,0,0,0,0,0,0,0,0,0,0,0,0,0,0,0,0,0,0,0,0,0,0,0],"sum_hessian":[8.558863E1,6.340177E0,7.924845E1,2.0316818E0,4.308495E0,4.2791683E1,3.645677E1,1.0311743E0,1.0005075E0,2.0754189E1,2.2037493E1,2.8367926E1,8.088845E0,1.7210167E1,3.5440216E0,1.1272287E1,1.0765206E1,4.943742E0,2.3424183E1,6.4357224E0,1.6531225E0,1.5067139E1,2.1430285E0,7.0322785E0,4.240009E0,9.222438E0,1.5427684E0,2.378779E0,2.564963E0,7.835397E0,1.5588787E1,3.0070286E0,3.4286938E0,1.1600772E1,3.466367E0,1.0237151E0,1.1193132E0,5.994908E0,1.0373704E0,2.9412568E0,1.2987522E0,1.2305701E0,1.1482089E0,5.951411E0,1.883986E0,2.126976E0,1.3461811E1,1.5017587E0,1.5052698E0,1.0014706E0,2.4272232E0],"tree_param":{"num_deleted":"0","num_feature":"6","num_nodes":"51","size_leaf_vector":"1"}},{"base_weights":[-6.787772E-2,-2.5172554E-2,-2.3326446E-1,4.0153816E-2,-3.6792648E-1,-1.0268195E-2,2.0180272E-1,1.3182732E-1,-7.071717E-1,4.7126528E-2,-7.67723E-1,-1.31729E-1,5.2935207E-1,-8.8084435E-1,5.5106908E-2,-1.2280169E-2,5.7560766E-1,-3.0809504E-1,1.1488837E-2,3.8416173E-2,1.9656695E-1,-7.3491335E-2,-3.179007E-1,2.3187194E-2,-1.6825737E-1,1.9915193E-1,3.0365782E-2],"categories":[],"categories_nodes":[],"categories_segments":[],"categories_sizes":[],"default_left":[0,0,0,0,0,0,0,0,0,0,0,0,0,0,0,0,0,0,0,0,0,0,0,0,0,0,0],"id":16,"left_children":[1,3,-1,5,7,9,-1,11,13,15,17,-1,19,21,-1,23,25,-1,-1,-1,-1,-1,-1,-1,-1,-1,-1],"loss_changes":[2.352483E0,1.6909438E0,0E0,2.0409634E0,2.141608E0,2.6469498E0,0E0,1.5324894E0,1.2995806E0,1.7892532E0,9.3534064E-1,0E0,1.0957241E-1,4.5981693E-1,0E0,2.598882E0,1.737796E-1,0E0,0E0,0E0,0E0,0E0,0E0,0E0,0E0,0E0,0E0],"parents":[2147483647,0,0,1,1,3,3,4,4,5,5,7,7,8,8,9,9,10,10,12,12,13,13,15,15,16,16],"right_children":[2,4,-1,6,8,10,-1,12,14,16,18,-1,20,22,-1,24,26,-1,-1,-1,-1,-1,-1,-1,-1,-1,-1],"split_conditions":[-4.5765963E-1,6.8610066E-1,-2.3326446E-1,6.7819E-1,7.588307E-1,6.483537E-1,2.0180272E-1,7.142729E-1,8.117472E-1,6.223327E-1,1.201931E0,-1.31729E-1,1.1101174E0,5.666078E-1,5.5106908E-2,1.23374E0,5.824691E-1,-3.0809504E-1,1.1488837E-2,3.8416173E-2,1.9656695E-1,-7.3491335E-2,-3.179007E-1,2.3187194E-2,-1.6825737E-1,1.9915193E-1,3.0365782E-2],"split_indices":[0,3,0,3,1,3,0,1,1,3,4,0,4,2,0,4,2,0,0,0,0,0,0,0,0,0,0],"split_type":[0,0,0,0,0,0,0,0,0,0,0,0,0,0,0,0,0,0,0,0,0,0,0,0,0,0,0],"sum_hessian":[7.726864E1,7.3859535E1,3.4091043E0,6.2777462E1,1.1082072E1,5.9053715E1,3.72375E0,4.7282033E0,6.353869E0,5.5765938E1,3.2877765E0,1.8978866E0,2.8303168E0,5.326681E0,1.0271877E0,5.100879E1,4.757148E0,2.2801967E0,1.0075799E0,1.157465E0,1.6728519E0,1.6893834E0,3.6372976E0,4.4587696E1,6.421094E0,3.674385E0,1.0827626E0],"tree_param":{"num_deleted":"0","num_feature":"6","num_nodes":"27","size_leaf_vector":"1"}},{"base_weights":[-5.513722E-2,-6.261857E-1,-6.232342E-3,-6.895596E-2,-2.2840238E-1,2.8670067E-1,-7.983589E-2,-1.2899415E-1,3.9201924E-1,-6.5954417E-1,-3.3319911E-3,-7.103329E-2,5.2150404E-1,-1.7683019E-1,-2.513503E-1,2.518664E-1,-1.690581E-1,2.1887243E-1,2.6284578E-1,-9.362775E-2,1.3467413E-2,-1.7511134E-1,5.03084E-1,1.5413671E-2,-7.048568E-1,1.5179943E-1,-1.1550787E-1,4.650522E-2,-2.5005615E-1,2.0532966E-1,-2.0895576E-1,-2.0857556E-1,4.8408817E-2,-2.7507713E-1,3.674264E-2],"categories":[],"categories_nodes":[],"categories_segments":[],"categories_sizes":[],"default_left":[0,0,0,0,0,0,0,0,0,0,0,0,0,0,0,0,0,0,0,0,0,0,0,0,0,0,0,0,0,0,0,0,0,0,0],"id":17,"left_children":[1,3,5,-1,-1,7,9,-1,11,13,15,-1,17,19,-1,21,23,-1,25,-1,-1,27,29,31,33,-1,-1,-1,-1,-1,-1,-1,-1,-1,-1],"loss_changes":[2.1190271E0,1.456809E-1,1.5543696E0,0E0,0E0,1.2616073E0,2.550103E0,0E0,1.1940656E0,4.28833E-1,2.2352576E0,0E0,4.118657E-1,1.0625602E-1,0E0,2.3206916E0,3.1767914E0,0E0,1.2287471E0,0E0,0E0,1.9662746E0,3.3836212E0,2.685083E0,1.5553722E0,0E0,0E0,0E0,0E0,0E0,0E0,0E0,0E0,0E0,0E0],"parents":[2147483647,0,0,1,1,2,2,5,5,6,6,8,8,9,9,10,10,12,12,13,13,15,15,16,16,18,18,21,21,22,22,23,23,24,24],"right_children":[2,4,6,-1,-1,8,10,-1,12,14,16,-1,18,20,-1,22,24,-1,26,-1,-1,28,30,32,34,-1,-1,-1,-1,-1,-1,-1,-1,-1,-1],"split_conditions":[1.0191642E-1,-6.721882E-1,-3.4863344E-1,-6.895596E-2,-2.2840238E-1,-2.296787E0,6.666757E-1,-1.2899415E-1,-1.4652752E0,2.1105868E-1,7.5100166E-1,-7.103329E-2,-9.810237E-1,-1.5835783E-2,-2.513503E-1,4.0580612E-1,6.4335793E-1,2.1887243E-1,7.9073477E-1,-9.362775E-2,1.3467413E-2,8.694281E-1,-6.373087E-1,2.6671776E-1,7.8274655E-1,1.5179943E-1,-1.1550787E-1,4.650522E-2,-2.5005615E-1,2.0532966E-1,-2.0895576E-1,-2.0857556E-1,4.8408817E-2,-2.7507713E-1,3.674264E-2],"split_indices":[1,0,3,0,0,3,1,0,2,3,1,0,3,3,0,2,2,0,4,0,0,4,0,2,2,0,0,0,0,0,0,0,0,0,0],"split_type":[0,0,0,0,0,0,0,0,0,0,0,0,0,0,0,0,0,0,0,0,0,0,0,0,0,0,0,0,0,0,0,0,0,0,0],"sum_hessian":[7.501695E1,4.9865265E0,7.0030426E1,1.9548234E0,3.0317032E0,1.3481304E1,5.654912E1,1.3323236E0,1.214898E1,5.7042346E0,5.0844887E1,1.9330754E0,1.0215905E1,2.0758252E0,3.6284094E0,1.9813969E1,3.1030918E1,4.652619E0,5.5632863E0,1.0361373E0,1.039688E0,7.451723E0,1.2362246E1,2.3805933E1,7.224984E0,4.204343E0,1.3589437E0,5.4723997E0,1.9793234E0,1.1111876E1,1.2503693E0,3.4147804E0,2.0391153E1,5.6646876E0,1.5602968E0],"tree_param":{"num_deleted":"0","num_feature":"6","num_nodes":"35","size_leaf_vector":"1"}},{"base_weights":[-5.7347186E-2,-2.5055092E-2,-2.1108168E-1,1.9135663E-2,-3.687951E-1,-1.8918195E-1,4.7103167E-2,-1.19479194E-1,-2.7953067E-1,2.7911732E-1,-2.0778224E-2,2.441716E-1,-2.2901636E-1,-5.394924E-2,5.470162E-1,-6.1879605E-1,6.882342E-2,-1.09648734E-1,1.9930881E-1,8.5996434E-2,-2.8404194E-1,2.4884243E-1,-1.8918931E-2,-4.763231E-2,-2.4179798E-1,-1.818436E-2,8.221696E-2],"categories":[],"categories_nodes":[],"categories_segments":[],"categories_sizes":[],"default_left":[0,0,0,0,0,0,0,0,0,0,0,0,0,0,0,0,0,0,0,0,0,0,0,0,0,0,0],"id":18,"left_children":[1,3,-1,5,7,-1,9,11,-1,13,15,17,-1,19,21,23,25,-1,-1,-1,-1,-1,-1,-1,-1,-1,-1],"loss_changes":[1.4638574E0,1.0498326E0,0E0,1.1523291E0,9.9319756E-1,0E0,9.5328486E-1,1.7320935E0,0E0,1.250731E0,2.5863748E0,1.517625E0,0E0,2.4036498E0,1.3748968E0,4.1336465E-1,1.1373134E0,0E0,0E0,0E0,0E0,0E0,0E0,0E0,0E0,0E0,0E0],"parents":[2147483647,0,0,1,1,3,3,4,4,6,6,7,7,9,9,10,10,11,11,13,13,14,14,15,15,16,16],"right_children":[2,4,-1,6,8,-1,10,12,-1,14,16,18,-1,20,22,24,26,-1,-1,-1,-1,-1,-1,-1,-1,-1,-1],"split_conditions":[-4.5765963E-1,8.021048E-1,-2.1108168E-1,-1.2142087E0,1.2903727E0,-1.8918195E-1,-3.7064713E-1,6.166746E-1,-2.7953067E-1,7.548471E-1,6.666757E-1,5.885941E-1,-2.2901636E-1,-8.97811E-1,-6.559622E-1,2.1105868E-1,1.145533E0,-1.09648734E-1,1.9930881E-1,8.5996434E-2,-2.8404194E-1,2.4884243E-1,-1.8918931E-2,-4.763231E-2,-2.4179798E-1,-1.818436E-2,8.221696E-2],"split_indices":[0,1,0,1,4,0,3,2,0,4,1,3,0,4,0,3,4,0,0,0,0,0,0,0,0,0,0],"split_type":[0,0,0,0,0,0,0,0,0,0,0,0,0,0,0,0,0,0,0,0,0,0,0,0,0,0,0],"sum_hessian":[6.9989685E1,6.7648224E1,2.341462E0,6.07789E1,6.8693223E0,1.6189752E0,5.9159924E1,5.6010823E0,1.2682403E0,1.268649E1,4.6473434E1,3.976264E0,1.6248182E0,6.0114036E0,6.6750865E0,5.286211E0,4.118722E1,1.6754593E0,2.3008046E0,4.8428984E0,1.1685052E0,4.3168325E0,2.358254E0,2.0634992E0,3.2227118E0,2.5689705E1,1.5497519E1],"tree_param":{"num_deleted":"0","num_feature":"6","num_nodes":"27","size_leaf_vector":"1"}},{"base_weights":[-5.777368E-2,-5.5339694E-1,-2.0779215E-2,-6.054321E-2,-2.0232303E-1,3.1676894E-1,-7.093501E-2,-5.3800177E-2,2.3543094E-1,-3.3401404E-2,-2.0896046E-1,-4.8108348E-1,1.4402863E-1,-3.2040605E-1,7.296773E-2,3.843249E-2,-2.3128262E-1,2.1353939E-1,-6.858138E-1,-1.8285367E-1,1.0871831E-1,1.3194326E-1,-1.5282024E-1,-2.9398346E-1,-3.1531457E-2,9.54222E-2,-8.122045E-3],"categories":[],"categories_nodes":[],"categories_segments":[],"categories_sizes":[],"default_left":[0,0,0,0,0,0,0,0,0,0,0,0,0,0,0,0,0,0,0,0,0,0,0,0,0,0,0],"id":19,"left_children":[1,3,5,-1,-1,7,9,11,-1,13,-1,15,-1,17,19,-1,-1,21,23,-1,25,-1,-1,-1,-1,-1,-1],"loss_changes":[1.2200838E0,6.0737133E-2,1.0982616E0,0E0,0E0,1.4995849E0,1.2949631E0,1.5143269E0,0E0,1.6723114E0,0E0,7.3874676E-1,0E0,3.0322337E0,1.0476505E0,0E0,0E0,1.3318156E0,1.4374337E0,0E0,1.1192898E0,0E0,0E0,0E0,0E0,0E0,0E0],"parents":[2147483647,0,0,1,1,2,2,5,5,6,6,7,7,9,9,11,11,13,13,14,14,17,17,18,18,20,20],"right_children":[2,4,6,-1,-1,8,10,12,-1,14,-1,16,-1,18,20,-1,-1,22,24,-1,26,-1,-1,-1,-1,-1,-1],"split_conditions":[1.0191642E-1,-6.721882E-1,-9.29835E-1,-6.054321E-2,-2.0232303E-1,7.9177773E-1,-5.577847E-1,-5.301321E-1,2.3543094E-1,-6.82926E-1,-2.0896046E-1,5.9984183E-1,1.4402863E-1,3.0008775E-1,-8.491406E-1,3.843249E-2,-2.3128262E-1,7.454105E-1,1.1951492E0,-1.8285367E-1,4.1896245E-1,1.3194326E-1,-1.5282024E-1,-2.9398346E-1,-3.1531457E-2,9.54222E-2,-8.122045E-3],"split_indices":[1,0,2,0,0,4,0,0,0,0,0,1,0,3,3,0,0,1,4,0,2,0,0,0,0,0,0],"split_type":[0,0,0,0,0,0,0,0,0,0,0,0,0,0,0,0,0,0,0,0,0,0,0,0,0,0,0],"sum_hessian":[6.616999E1,3.626467E0,6.254352E1,1.6116695E0,2.0147974E0,7.4033465E0,5.5140175E1,4.6257E0,2.7776468E0,5.301299E1,2.127186E0,2.6243324E0,2.0013676E0,1.3790723E1,3.9222267E1,1.0260109E0,1.5983214E0,5.7720428E0,8.01868E0,1.1534699E0,3.8068798E1,4.6943917E0,1.0776514E0,4.866357E0,3.1523232E0,1.4449326E1,2.361947E1],"tree_param":{"num_deleted":"0","num_feature":"6","num_nodes":"27","size_leaf_vector":"1"}},{"base_weights":[-5.5627357E-2,-1.4965352E-2,-4.570172E-1,3.1453084E-2,-7.3398507E-1,-4.1785917E-1,5.4990184E-2,-8.151491E-2,3.8043296E-1,-4.568367E-2,-2.7242306E-1,-2.8100243E-1,2.2139144E-1,1.8565724E-2,-4.3657294E-1,5.724359E-1,-2.9042956E-1,7.80134E-2,-5.027503E-1,7.504408E-2,-9.474305E-1,-1.20082594E-1,7.753004E-1,-2.2612368E-1,4.729638E-2,-9.354151E-3,1.4509346E-1,-2.565086E-1,6.6670366E-2,-2.2244875E-1,2.099135E-1,-3.8742322E-1,5.3405475E-2,5.638324E-2,-1.0867387E-1,1.1600257E-1,2.6442173E-1],"categories":[],"categories_nodes":[],"categories_segments":[],"categories_sizes":[],"default_left":[0,0,0,0,0,0,0,0,0,0,0,0,0,0,0,0,0,0,0,0,0,0,0,0,0,0,0,0,0,0,0,0,0,0,0,0,0],"id":20,"left_children":[1,3,5,7,9,-1,11,13,15,-1,-1,-1,-1,17,19,21,23,25,27,29,31,33,35,-1,-1,-1,-1,-1,-1,-1,-1,-1,-1,-1,-1,-1,-1],"loss_changes":[1.0357645E0,1.9935172E0,2.8759055E0,2.2551482E0,2.2845066E-1,0E0,3.9003534E0,1.5518461E0,1.9660728E0,0E0,0E0,0E0,0E0,1.1192557E0,2.578516E0,1.6666007E0,9.020488E-1,1.4390082E0,1.1353946E0,3.4363313E0,2.116684E0,3.219595E-1,2.1920204E-2,0E0,0E0,0E0,0E0,0E0,0E0,0E0,0E0,0E0,0E0,0E0,0E0,0E0,0E0],"parents":[2147483647,0,0,1,1,2,2,3,3,4,4,6,6,7,7,8,8,13,13,14,14,15,15,16,16,17,17,18,18,19,19,20,20,21,21,22,22],"right_children":[2,4,6,8,10,-1,12,14,16,-1,-1,-1,-1,18,20,22,24,26,28,30,32,34,36,-1,-1,-1,-1,-1,-1,-1,-1,-1,-1,-1,-1,-1,-1],"split_conditions":[1.3353543E0,7.1397215E-1,7.6499766E-1,1.145533E0,7.4064684E-1,-4.1785917E-1,-6.7424977E-1,6.010094E-1,-6.5030676E-1,-4.568367E-2,-2.7242306E-1,-2.8100243E-1,2.2139144E-1,9.876291E-1,7.473998E-1,-6.9289166E-1,6.4955366E-1,8.387409E-1,5.6012946E-1,9.5333606E-1,7.501585E-1,7.5100166E-1,5.654202E-1,-2.2612368E-1,4.729638E-2,-9.354151E-3,1.4509346E-1,-2.565086E-1,6.6670366E-2,-2.2244875E-1,2.099135E-1,-3.8742322E-1,5.3405475E-2,5.638324E-2,-1.0867387E-1,1.1600257E-1,2.6442173E-1],"split_indices":[4,3,1,4,1,0,0,2,0,0,0,0,0,4,1,0,3,4,2,4,2,1,3,0,0,0,0,0,0,0,0,0,0,0,0,0,0],"split_type":[0,0,0,0,0,0,0,0,0,0,0,0,0,0,0,0,0,0,0,0,0,0,0,0,0,0,0,0,0,0,0,0,0,0,0,0,0],"sum_hessian":[6.2879887E1,5.803777E1,4.842118E0,5.541645E1,2.6213167E0,1.1039397E0,3.738178E0,4.2443516E1,1.2972938E1,1.0356208E0,1.5856957E0,1.3730732E0,2.3651047E0,3.384991E1,8.593604E0,1.0200297E1,2.7726405E0,3.1148302E1,2.7016082E0,4.7198443E0,3.8737597E0,2.403508E0,7.796789E0,1.0277756E0,1.744865E0,2.5269117E1,5.879185E0,1.697432E0,1.0041761E0,1.964676E0,2.7551684E0,2.854004E0,1.019756E0,1.1564392E0,1.2470688E0,2.6682434E0,5.1285458E0],"tree_param":{"num_deleted":"0","num_feature":"6","num_nodes":"37","size_leaf_vector":"1"}},{"base_weights":[-5.690088E-2,-2.0330278E-2,-4.204322E-1,2.0251175E-2,-6.4366376E-1,-3.2208538E-1,3.6621835E-2,-7.0737265E-2,3.2291827E-1,-3.867033E-2,-2.439734E-1,-2.4960728E-1,2.0559798E-1,-3.4041198E-3,-4.7076458E-1,-1.7015032E-1,5.736812E-1,-8.167291E-2,4.127893E-1,-2.564578E-1,-1.103866E-1,-7.512457E-1,1.8205419E-1,7.0705783E-1,1.7053434E-1,1.5949342E-2,-1.7166589E-1,-5.0896402E-2,1.9757937E-1,4.9552303E-2,-9.783347E-2,-4.998345E-2,-3.0248708E-1,2.4138872E-1,4.338181E-2,1.7084812E-1,-1.08394936E-1],"categories":[],"categories_nodes":[],"categories_segments":[],"categories_sizes":[],"default_left":[0,0,0,0,0,0,0,0,0,0,0,0,0,0,0,0,0,0,0,0,0,0,0,0,0,0,0,0,0,0,0,0,0,0,0,0,0],"id":21,"left_children":[1,3,5,7,9,-1,11,13,15,-1,-1,-1,-1,17,19,21,23,25,27,-1,29,31,-1,33,35,-1,-1,-1,-1,-1,-1,-1,-1,-1,-1,-1,-1],"loss_changes":[7.8903425E-1,1.4184773E0,1.6612172E0,1.4861034E0,1.9429302E-1,0E0,2.9161813E0,1.1208602E0,1.6383166E0,0E0,0E0,0E0,0E0,1.2284423E0,7.356764E-1,2.7008448E0,3.358667E-1,2.127558E0,9.665568E-1,0E0,3.0603716E-1,3.2664382E-1,0E0,2.1624994E-1,9.331675E-1,0E0,0E0,0E0,0E0,0E0,0E0,0E0,0E0,0E0,0E0,0E0,0E0],"parents":[2147483647,0,0,1,1,2,2,3,3,4,4,6,6,7,7,8,8,13,13,14,14,15,15,16,16,17,17,18,18,20,20,21,21,23,23,24,24],"right_children":[2,4,6,8,10,-1,12,14,16,-1,-1,-1,-1,18,20,22,24,26,28,-1,30,32,-1,34,36,-1,-1,-1,-1,-1,-1,-1,-1,-1,-1,-1,-1],"split_conditions":[1.3353543E0,7.1397215E-1,7.6499766E-1,1.145533E0,7.4064684E-1,-3.2208538E-1,-6.7424977E-1,6.371051E-1,5.721037E-1,-3.867033E-2,-2.439734E-1,-2.4960728E-1,2.0559798E-1,7.8844297E-1,6.8044907E-1,6.6075015E-1,1.2903727E0,7.48617E-1,-6.5739346E-1,-2.564578E-1,5.936457E-1,3.7215158E-1,1.8205419E-1,6.456437E-1,7.8844297E-1,1.5949342E-2,-1.7166589E-1,-5.0896402E-2,1.9757937E-1,4.9552303E-2,-9.783347E-2,-4.998345E-2,-3.0248708E-1,2.4138872E-1,4.338181E-2,1.7084812E-1,-1.08394936E-1],"split_indices":[4,3,1,4,1,0,0,3,3,0,0,0,0,1,3,2,4,1,0,0,2,2,0,2,1,0,0,0,0,0,0,0,0,0,0,0,0],"split_type":[0,0,0,0,0,0,0,0,0,0,0,0,0,0,0,0,0,0,0,0,0,0,0,0,0,0,0,0,0,0,0,0,0,0,0,0,0],"sum_hessian":[5.8993095E1,5.4560345E1,4.4327493E0,5.2133747E1,2.4266E0,1.2694935E0,3.1632557E0,4.0672867E1,1.1460879E1,1.0374715E0,1.3891284E0,1.231554E0,1.9317015E0,3.5676292E1,4.996573E0,3.9721043E0,7.4887753E0,3.07056E1,4.970693E0,1.7544947E0,3.2420783E0,2.2914982E0,1.6806061E0,5.060664E0,2.428111E0,2.478463E1,5.92097E0,1.5671467E0,3.4035466E0,1.5264997E0,1.7155787E0,1.2031586E0,1.0883397E0,3.9456236E0,1.1150404E0,1.3469448E0,1.0811664E0],"tree_param":{"num_deleted":"0","num_feature":"6","num_nodes":"37","size_leaf_vector":"1"}},{"base_weights":[-5.2625332E-2,-2.7374566E-2,-1.7991194E-1,1.2392524E-2,-3.673503E-1,-3.982243E-1,4.0649317E-2,-5.413115E-1,-3.0968657E-3,-3.1477187E-2,-1.5923585E-1,1.738927E-1,1.5047002E-2,-2.1660772E-1,-6.294631E-2,-3.578845E-1,5.9602488E-2,1.08804785E-1,-2.2360036E-1,1.0208659E-1,3.406523E-3],"categories":[],"categories_nodes":[],"categories_segments":[],"categories_sizes":[],"default_left":[0,0,0,0,0,0,0,0,0,0,0,0,0,0,0,0,0,0,0,0,0],"id":22,"left_children":[1,3,-1,5,7,9,11,13,-1,-1,-1,-1,15,-1,-1,17,19,-1,-1,-1,-1],"loss_changes":[7.773398E-1,7.6128733E-1,0E0,6.0883176E-1,3.6048824E-1,7.577318E-2,6.63268E-1,8.474827E-2,0E0,0E0,0E0,0E0,8.1085056E-1,0E0,0E0,1.7259096E0,5.8254105E-1,0E0,0E0,0E0,0E0],"parents":[2147483647,0,0,1,1,3,3,4,4,5,5,6,6,7,7,12,12,15,15,16,16],"right_children":[2,4,-1,6,8,10,12,14,-1,-1,-1,-1,16,-1,-1,18,20,-1,-1,-1,-1],"split_conditions":[-4.5765963E-1,8.021048E-1,-1.7991194E-1,1.0191642E-1,-6.5427107E-1,-4.595417E-1,1.7448631E-1,6.0773504E-1,-3.0968657E-3,-3.1477187E-2,-1.5923585E-1,1.738927E-1,6.067952E-1,-2.1660772E-1,-6.294631E-2,-8.491406E-1,-1.1947618E0,1.08804785E-1,-2.2360036E-1,1.0208659E-1,3.406523E-3],"split_indices":[0,1,0,1,0,3,1,2,0,0,0,0,1,0,0,3,4,0,0,0,0],"split_type":[0,0,0,0,0,0,0,0,0,0,0,0,0,0,0,0,0,0,0,0,0],"sum_hessian":[5.645939E1,5.497216E1,1.4872265E0,5.007806E1,4.8941007E0,2.3812733E0,4.769679E1,2.9436488E0,1.950452E0,1.2988986E0,1.0823746E0,1.1815687E0,4.6515217E1,1.142622E0,1.8010267E0,4.213734E0,4.2301483E1,1.495806E0,2.7179282E0,5.316868E0,3.6984615E1],"tree_param":{"num_deleted":"0","num_feature":"6","num_nodes":"21","size_leaf_vector":"1"}},{"base_weights":[-4.764904E-2,3.2158025E-2,-1.936751E-1,-4.6898276E-1,1.0380435E-1,2.2092025E-1,-3.216346E-1,-2.3166102E-1,2.0709965E-2,2.570359E-1,-2.3556447E-1,-1.5089577E-1,5.381542E-1,-6.470058E-2,-6.6854393E-1,3.507239E-1,-1.6812563E-1,-8.13133E-1,2.158104E-1,2.2405262E-1,-3.0698755E-3,1.13943525E-1,-1.9399218E-1,-3.089298E-1,4.198505E-2,7.782292E-2,5.045511E-1,-3.6675918E-1,-3.456717E-1,1.2933196E-1,-2.2672814E-1,-3.7628688E-2,5.6729853E-2,1.6303831E-1,-1.0830191E-1,1.9626307E-1,-4.0964022E-2,-2.697548E-1,7.346239E-2,1.337864E-1,-1.4234291E-1],"categories":[],"categories_nodes":[],"categories_segments":[],"categories_sizes":[],"default_left":[0,0,0,0,0,0,0,0,0,0,0,0,0,0,0,0,0,0,0,0,0,0,0,0,0,0,0,0,0,0,0,0,0,0,0,0,0,0,0,0,0],"id":23,"left_children":[1,3,5,7,9,11,13,-1,-1,15,17,-1,19,21,23,25,-1,27,-1,-1,-1,-1,29,-1,31,33,35,-1,37,39,-1,-1,-1,-1,-1,-1,-1,-1,-1,-1,-1],"loss_changes":[6.5904665E-1,1.3799946E0,1.1288083E0,8.394979E-1,1.7901181E0,1.4867085E0,1.3510565E0,0E0,0E0,1.9880365E0,6.578939E0,0E0,4.8427558E-1,6.538075E-1,1.7240798E0,8.675654E-1,0E0,9.632344E-1,0E0,0E0,0E0,0E0,1.6382852E0,0E0,1.0174521E-1,2.0289536E0,1.3973002E0,0E0,1.7810524E0,1.4040102E0,0E0,0E0,0E0,0E0,0E0,0E0,0E0,0E0,0E0,0E0,0E0],"parents":[2147483647,0,0,1,1,2,2,3,3,4,4,5,5,6,6,9,9,10,10,12,12,13,13,14,14,15,15,17,17,22,22,24,24,25,25,26,26,28,28,29,29],"right_children":[2,4,6,8,10,12,14,-1,-1,16,18,-1,20,22,24,26,-1,28,-1,-1,-1,-1,30,-1,32,34,36,-1,38,40,-1,-1,-1,-1,-1,-1,-1,-1,-1,-1,-1],"split_conditions":[-6.4908826E-1,-1.8887937E-1,-1.1947618E0,7.680996E-1,7.781026E-1,-1.3072715E0,7.012189E-1,-2.3166102E-1,2.0709965E-2,1.3353543E0,-6.6138476E-1,-1.5089577E-1,-5.919841E-1,-6.373087E-1,7.914339E-1,-6.961055E-1,-1.6812563E-1,1.1719486E0,2.158104E-1,2.2405262E-1,-3.0698755E-3,1.13943525E-1,-7.8050315E-1,-3.089298E-1,6.642776E-1,2.2243603E-1,-6.6067624E-1,-3.6675918E-1,-6.765626E-1,6.265311E-1,-2.2672814E-1,-3.7628688E-2,5.6729853E-2,1.6303831E-1,-1.0830191E-1,1.9626307E-1,-4.0964022E-2,-2.697548E-1,7.346239E-2,1.337864E-1,-1.4234291E-1],"split_indices":[0,4,4,1,1,4,1,0,0,4,0,0,0,0,1,0,0,4,0,0,0,0,2,0,3,3,0,0,0,1,0,0,0,0,0,0,0,0,0,0,0],"split_type":[0,0,0,0,0,0,0,0,0,0,0,0,0,0,0,0,0,0,0,0,0,0,0,0,0,0,0,0,0,0,0,0,0,0,0,0,0,0,0,0,0],"sum_hessian":[5.501711E1,3.607885E1,1.8938257E1,3.8191862E0,3.2259663E1,4.2951775E0,1.4643081E1,2.1641898E0,1.6549964E0,2.2391897E1,9.867767E0,1.1303225E0,3.1648548E0,9.094131E0,5.548949E0,2.0601704E1,1.790193E0,6.241334E0,3.6264334E0,2.0303283E0,1.1345266E0,1.6125278E0,7.481604E0,3.3808706E0,2.1680782E0,7.969365E0,1.2632339E1,2.4662037E0,3.7751305E0,5.2371526E0,2.2444515E0,1.0830216E0,1.0850564E0,3.7508912E0,4.218474E0,1.0224954E1,2.4073856E0,1.6788961E0,2.0962343E0,3.6071036E0,1.6300491E0],"tree_param":{"num_deleted":"0","num_feature":"6","num_nodes":"41","size_leaf_vector":"1"}},{"base_weights":[-5.2281596E-2,-3.0371588E-1,-4.769575E-3,1.6003215E-1,-7.0227844E-1,5.5590868E-2,-2.4020265E-1,-5.6561098E-2,3.6729163E-1,-2.3658834E-1,-6.4397834E-2,-9.360369E-2,2.6399904E-1,-6.544257E-1,1.9284612E-1,1.3477121E-1,3.770464E-2,3.3535488E-2,-5.970463E-1,5.2153075E-1,-1.22699246E-1,-2.631239E-1,-1.5694829E-2,1.7951772E-1,-2.1027118E-1,-1.0325878E-1,4.5645145E-1,-3.0851823E-1,3.4948643E-2,7.9372264E-2,6.7285943E-1,1.6606387E-1,-4.595046E-1,7.845001E-2,-1.6905436E-1,7.3007545E-3,-2.1643241E-1,-5.2194048E-2,2.0395486E-1,1.5384859E-1,-1.4167757E-1,1.0028557E-1,2.3961651E-1,9.609728E-2,-2.4362776E-1],"categories":[],"categories_nodes":[],"categories_segments":[],"categories_sizes":[],"default_left":[0,0,0,0,0,0,0,0,0,0,0,0,0,0,0,0,0,0,0,0,0,0,0,0,0,0,0,0,0,0,0,0,0,0,0,0,0,0,0,0,0,0,0,0,0],"id":24,"left_children":[1,3,5,7,9,11,13,-1,15,-1,-1,17,19,21,23,-1,-1,25,27,29,31,-1,-1,-1,33,35,37,-1,-1,39,41,-1,43,-1,-1,-1,-1,-1,-1,-1,-1,-1,-1,-1,-1],"loss_changes":[6.126921E-1,1.6196184E0,6.4224696E-1,4.0037838E-1,2.3182154E-2,1.1451877E0,1.7798309E0,0E0,7.1641207E-3,0E0,0E0,1.4115204E0,1.5872946E0,6.162927E-1,9.888979E-1,0E0,0E0,1.1060239E0,1.4852529E0,5.736847E-1,1.8314371E0,0E0,0E0,0E0,7.118949E-1,1.1727428E0,7.7427876E-1,0E0,0E0,1.0846667E0,2.484107E-2,0E0,1.681271E0,0E0,0E0,0E0,0E0,0E0,0E0,0E0,0E0,0E0,0E0,0E0,0E0],"parents":[2147483647,0,0,1,1,2,2,3,3,4,4,5,5,6,6,8,8,11,11,12,12,13,13,14,14,17,17,18,18,19,19,20,20,24,24,25,25,26,26,29,29,30,30,32,32],"right_children":[2,4,6,8,10,12,14,-1,16,-1,-1,18,20,22,24,-1,-1,26,28,30,32,-1,-1,-1,34,36,38,-1,-1,40,42,-1,44,-1,-1,-1,-1,-1,-1,-1,-1,-1,-1,-1,-1],"split_conditions":[6.067952E-1,-4.275581E-1,7.921138E-1,1.0191642E-1,8.8075495E-1,5.3033316E-1,-6.619534E-1,-5.6561098E-2,2.7837396E-1,-2.3658834E-1,-6.4397834E-2,4.1896245E-1,6.7484665E-1,8.117472E-1,8.021048E-1,1.3477121E-1,3.770464E-2,7.66358E-1,-6.6342086E-1,5.654202E-1,5.0821215E-1,-2.631239E-1,-1.5694829E-2,1.7951772E-1,3.7652436E-1,9.2311746E-1,-6.7577416E-1,-3.0851823E-1,3.4948643E-2,7.473998E-1,1.2173549E0,1.6606387E-1,7.21348E-1,7.845001E-2,-1.6905436E-1,7.3007545E-3,-2.1643241E-1,-5.2194048E-2,2.0395486E-1,1.5384859E-1,-1.4167757E-1,1.0028557E-1,2.3961651E-1,9.609728E-2,-2.4362776E-1],"split_indices":[1,3,1,1,4,2,0,0,1,0,0,2,2,1,1,0,0,1,0,3,3,0,0,0,2,4,0,0,0,1,4,0,1,0,0,0,0,0,0,0,0,0,0,0,0],"split_type":[0,0,0,0,0,0,0,0,0,0,0,0,0,0,0,0,0,0,0,0,0,0,0,0,0,0,0,0,0,0,0,0,0,0,0,0,0,0,0,0,0,0,0,0,0],"sum_hessian":[5.0409084E1,7.1545744E0,4.325451E1,3.5834837E0,3.571091E0,3.5035873E1,8.218636E0,1.3699069E0,2.2135768E0,2.5094116E0,1.0616792E0,2.0739681E1,1.4296191E1,3.9393415E0,4.2792935E0,1.011244E0,1.2023327E0,1.73033E1,3.4363806E0,8.371979E0,5.924212E0,2.5424807E0,1.3968611E0,1.8917413E0,2.3875525E0,1.36454525E1,3.6578486E0,1.8666855E0,1.5696951E0,2.5234268E0,5.848552E0,1.7556527E0,4.1685596E0,1.1334713E0,1.2540811E0,1.2107139E1,1.5383143E0,1.0149264E0,2.6429222E0,1.4524626E0,1.0709641E0,2.575722E0,3.2728305E0,1.3264085E0,2.842151E0],"tree_param":{"num_deleted":"0","num_feature":"6","num_nodes":"45","size_leaf_vector":"1"}},{"base_weights":[-4.4033792E-2,3.818665E-2,-1.9145834E-1,-4.2333278E-1,1.03306085E-1,1.7688024E-1,-3.053869E-1,-2.090411E-1,1.9650992E-2,3.3768868E-1,-8.696783E-2,-1.3975838E-1,4.8117125E-1,1.736368E-1,-4.616085E-1,-1.2453708E-1,4.4640934E-1,-2.575725E-1,3.8753173E-1,2.0104803E-1,4.943861E-3,1.5979204E-1,-6.677231E-2,-6.9898355E-1,-1.7859366E-2,5.0589263E-2,-1.1445583E-1,2.2892964E-1,2.257275E-1,-9.010662E-1,1.5173617E-1,-6.466318E-2,1.8992712E-1,-3.026532E-1,-1.10761724E-1,1.4148107E-1,-3.0734473E-1,-7.7407464E-2,1.3440049E-1,-6.092492E-2,-4.0382504E-1,1.3806988E-1,-7.7514894E-2,2.3977365E-2,-8.675057E-2,-1.9834302E-1,4.258303E-2],"categories":[],"categories_nodes":[],"categories_segments":[],"categories_sizes":[],"default_left":[0,0,0,0,0,0,0,0,0,0,0,0,0,0,0,0,0,0,0,0,0,0,0,0,0,0,0,0,0,0,0,0,0,0,0,0,0,0,0,0,0,0,0,0,0,0,0],"id":25,"left_children":[1,3,5,7,9,11,13,-1,-1,15,17,-1,19,21,23,25,27,29,31,-1,-1,-1,-1,33,35,-1,-1,-1,37,39,41,-1,-1,-1,43,-1,45,-1,-1,-1,-1,-1,-1,-1,-1,-1,-1],"loss_changes":[5.945865E-1,1.003561E0,7.8893334E-1,5.997821E-1,1.3133891E0,1.1571559E0,1.1085569E0,0E0,0E0,7.14185E-1,1.4506079E0,0E0,3.1648988E-1,7.026316E-1,1.1078854E0,3.1125373E-1,5.844865E-1,3.5276256E0,8.490928E-1,0E0,0E0,0E0,0E0,1.1464887E0,8.155751E-1,0E0,0E0,0E0,9.544351E-1,1.326098E0,1.2227861E0,0E0,0E0,0E0,1.4235488E-1,0E0,6.628308E-1,0E0,0E0,0E0,0E0,0E0,0E0,0E0,0E0,0E0,0E0],"parents":[2147483647,0,0,1,1,2,2,3,3,4,4,5,5,6,6,9,9,10,10,12,12,13,13,14,14,15,15,16,16,17,17,18,18,23,23,24,24,28,28,29,29,30,30,34,34,36,36],"right_children":[2,4,6,8,10,12,14,-1,-1,16,18,-1,20,22,24,26,28,30,32,-1,-1,-1,-1,34,36,-1,-1,-1,38,40,42,-1,-1,-1,44,-1,46,-1,-1,-1,-1,-1,-1,-1,-1,-1,-1],"split_conditions":[-6.4908826E-1,-1.8887937E-1,-1.1947618E0,-6.619534E-1,7.4954635E-1,-1.3072715E0,-1.0247897E0,-2.090411E-1,1.9650992E-2,6.3399345E-1,-6.6138476E-1,-1.3975838E-1,-5.919841E-1,-8.97811E-1,1.0864124E0,-1.3548729E-1,2.2243603E-1,5.7386357E-1,7.795007E-1,2.0104803E-1,4.943861E-3,1.5979204E-1,-6.677231E-2,-5.6181633E-1,1.1171E0,5.0589263E-2,-1.1445583E-1,2.2892964E-1,4.0580612E-1,4.6749517E-1,7.806392E-1,-6.466318E-2,1.8992712E-1,-3.026532E-1,-5.042443E-1,1.4148107E-1,7.850491E-1,-7.7407464E-2,1.3440049E-1,-6.092492E-2,-4.0382504E-1,1.3806988E-1,-7.7514894E-2,2.3977365E-2,-8.675057E-2,-1.9834302E-1,4.258303E-2],"split_indices":[0,4,4,0,1,4,3,0,0,1,0,0,0,4,4,3,3,3,1,0,0,0,0,0,4,0,0,0,2,3,1,0,0,0,0,0,1,0,0,0,0,0,0,0,0,0,0],"split_type":[0,0,0,0,0,0,0,0,0,0,0,0,0,0,0,0,0,0,0,0,0,0,0,0,0,0,0,0,0,0,0,0,0,0,0,0,0,0,0,0,0,0,0,0,0,0,0],"sum_hessian":[4.744981E1,3.0936905E1,1.6512907E1,3.145192E0,2.7791712E1,3.7703993E0,1.2742508E1,1.744069E0,1.4011229E0,1.2105368E1,1.5686345E1,1.04086E0,2.7295392E0,3.1062644E0,9.636244E0,2.277424E0,9.827944E0,1.1874191E1,3.8121538E0,1.6260633E0,1.1034759E0,1.4490025E0,1.6572617E0,5.903241E0,3.7330022E0,1.2244093E0,1.0530146E0,3.0266447E0,6.801299E0,4.1493564E0,7.724835E0,1.1384432E0,2.6737106E0,3.398122E0,2.505119E0,1.1535186E0,2.5794837E0,2.0905757E0,4.710723E0,2.1825325E0,1.9668237E0,4.338881E0,3.3859537E0,1.4777101E0,1.0274088E0,1.1792952E0,1.4001884E0],"tree_param":{"num_deleted":"0","num_feature":"6","num_nodes":"47","size_leaf_vector":"1"}},{"base_weights":[-4.351089E-2,-1.7939357E-1,4.2803057E-2,-2.0045178E-1,-4.151282E-2,3.6968017E-1,-6.2931724E-2,-3.1667992E-1,2.0840849E-1,6.2666744E-1,-1.484085E-1,-2.1917509E-1,4.0769983E-2,1.0844654E-1,-7.179168E-1,5.158544E-1,-2.534419E-1,3.253681E-2,2.226705E-1,1.4617349E-1,-2.0735797E-1,2.8873676E-1,-1.8235554E-1,-9.045792E-2,3.80687E-1,-2.772487E-1,-6.06904E-2,3.913357E-2,1.9994487E-1,-1.869678E-1,3.99903E-2,-1.7202468E-1,5.53156E-1,3.8378808E-1,-3.5548535E-1,1.9357149E-2,1.5346196E-1,2.0701523E-1,-4.614255E-2,1.8217716E-2,1.5719618E-1,-2.677617E-1,-4.3846417E-2],"categories":[],"categories_nodes":[],"categories_segments":[],"categories_sizes":[],"default_left":[0,0,0,0,0,0,0,0,0,0,0,0,0,0,0,0,0,0,0,0,0,0,0,0,0,0,0,0,0,0,0,0,0,0,0,0,0,0,0,0,0,0,0],"id":26,"left_children":[1,3,5,-1,7,9,11,13,15,17,19,-1,21,23,25,27,29,-1,-1,-1,-1,31,33,-1,35,-1,-1,-1,-1,-1,-1,-1,37,39,41,-1,-1,-1,-1,-1,-1,-1,-1],"loss_changes":[5.325974E-1,1.1569185E0,9.971362E-1,0E0,1.0822052E0,1.0292974E0,1.5630318E0,1.3452556E0,1.3159287E0,2.124809E-1,1.4202139E0,0E0,1.1655672E0,6.1440563E-1,2.334888E-1,2.2309339E-1,6.560229E-1,0E0,0E0,0E0,0E0,2.5773306E0,1.2342852E0,0E0,9.656963E-2,0E0,0E0,0E0,0E0,0E0,0E0,0E0,8.8968635E-1,1.0876775E-1,8.922273E-1,0E0,0E0,0E0,0E0,0E0,0E0,0E0,0E0],"parents":[2147483647,0,0,1,1,2,2,4,4,5,5,6,6,7,7,8,8,9,9,10,10,12,12,13,13,14,14,15,15,16,16,21,21,22,22,24,24,32,32,33,33,34,34],"right_children":[2,4,6,-1,8,10,12,14,16,18,20,-1,22,24,26,28,30,-1,-1,-1,-1,32,34,-1,36,-1,-1,-1,-1,-1,-1,-1,38,40,42,-1,-1,-1,-1,-1,-1,-1,-1],"split_conditions":[7.548471E-1,-6.7577416E-1,-2.2888324E-1,-2.0045178E-1,7.794281E-2,-6.271215E-1,8.9172584E-1,6.431785E-1,5.868089E-1,5.950461E-1,7.758468E-1,-2.1917509E-1,7.56841E-1,5.887591E-1,-5.980117E-1,7.718336E-1,-1.0339408E-1,3.253681E-2,2.226705E-1,1.4617349E-1,-2.0735797E-1,4.0580612E-1,4.1896245E-1,-9.045792E-2,-5.4792845E-1,-2.772487E-1,-6.06904E-2,3.913357E-2,1.9994487E-1,-1.869678E-1,3.99903E-2,-1.7202468E-1,-6.438846E-1,-6.619534E-1,5.329046E-1,1.9357149E-2,1.5346196E-1,2.0701523E-1,-4.614255E-2,1.8217716E-2,1.5719618E-1,-2.677617E-1,-4.3846417E-2],"split_indices":[4,0,2,0,2,0,4,1,3,1,4,0,1,1,0,1,4,0,0,0,0,2,2,0,0,0,0,0,0,0,0,0,0,0,2,0,0,0,0,0,0,0,0],"split_type":[0,0,0,0,0,0,0,0,0,0,0,0,0,0,0,0,0,0,0,0,0,0,0,0,0,0,0,0,0,0,0,0,0,0,0,0,0,0,0,0,0,0,0],"sum_hessian":[4.375557E1,1.6578272E1,2.7177296E1,2.8014133E0,1.3776858E1,6.0322895E0,2.1145008E1,6.4301014E0,7.3467565E0,3.8921113E0,2.140178E0,2.0300565E0,1.911495E1,3.4764173E0,2.9536839E0,4.340458E0,3.0062985E0,1.0631864E0,2.828925E0,1.0328889E0,1.1072892E0,8.914224E0,1.0200727E1,1.3443528E0,2.1320646E0,1.5438126E0,1.4098712E0,1.7440383E0,2.5964198E0,1.2242544E0,1.7820442E0,1.8179902E0,7.0962334E0,2.1039464E0,8.096781E0,1.0611777E0,1.0708869E0,5.9650936E0,1.1311398E0,1.0704458E0,1.0335006E0,1.3554626E0,6.741318E0],"tree_param":{"num_deleted":"0","num_feature":"6","num_nodes":"43","size_leaf_vector":"1"}},{"base_weights":[-4.2696398E-2,7.1654525E-3,-2.8619862E-1,-1.02665454E-1,3.0943498E-1,9.8875634E-2,-5.065993E-1,-2.3033852E-2,-6.279624E-1,-1.9203626E-1,5.249209E-1,-9.634653E-2,1.2501524E-1,-5.1695183E-2,-1.7919256E-1,-1.4495388E-1,1.7742E-2,-3.8555548E-2,-2.365148E-1,6.507266E-1,-7.338027E-3,4.645431E-1,-8.1710584E-2,6.019279E-2,7.164597E-1,3.8223118E-2,1.6979828E-1,7.799828E-2,-5.628241E-2,5.6123395E-2,2.4159755E-1],"categories":[],"categories_nodes":[],"categories_segments":[],"categories_sizes":[],"default_left":[0,0,0,0,0,0,0,0,0,0,0,0,0,0,0,0,0,0,0,0,0,0,0,0,0,0,0,0,0,0,0],"id":27,"left_children":[1,3,5,7,9,11,13,15,17,-1,19,-1,-1,-1,-1,-1,21,-1,-1,23,-1,25,27,-1,29,-1,-1,-1,-1,-1,-1],"loss_changes":[5.086751E-1,1.2139757E0,6.5407634E-1,1.1095325E0,2.328927E0,5.913752E-1,3.926575E-2,4.6584806E-1,1.7902899E-1,0E0,6.025505E-1,0E0,0E0,0E0,0E0,0E0,1.0756191E0,0E0,0E0,6.164384E-2,0E0,7.841623E-2,7.707147E-1,0E0,1.1602235E-1,0E0,0E0,0E0,0E0,0E0,0E0],"parents":[2147483647,0,0,1,1,2,2,3,3,4,4,5,5,6,6,7,7,8,8,10,10,16,16,19,19,21,21,22,22,24,24],"right_children":[2,4,6,8,10,12,14,16,18,-1,20,-1,-1,-1,-1,-1,22,-1,-1,24,-1,26,28,-1,30,-1,-1,-1,-1,-1,-1],"split_conditions":[6.8610066E-1,5.7664883E-1,7.588307E-1,1.23374E0,-9.66258E-2,7.1977264E-1,-6.721882E-1,-2.296787E0,4.3360516E-1,-1.9203626E-1,6.456437E-1,-9.634653E-2,1.2501524E-1,-5.1695183E-2,-1.7919256E-1,-1.4495388E-1,-9.810237E-1,-3.8555548E-2,-2.365148E-1,7.125722E-1,-7.338027E-3,-6.373087E-1,-1.1947618E0,6.019279E-2,-6.8435055E-1,3.8223118E-2,1.6979828E-1,7.799828E-2,-5.628241E-2,5.6123395E-2,2.4159755E-1],"split_indices":[3,3,1,4,4,1,0,3,3,0,2,0,0,0,0,0,3,0,0,1,0,0,4,0,0,0,0,0,0,0,0],"split_type":[0,0,0,0,0,0,0,0,0,0,0,0,0,0,0,0,0,0,0,0,0,0,0,0,0,0,0,0,0,0,0],"sum_hessian":[4.0726772E1,3.4610226E1,6.1165485E0,2.5870441E1,8.739782E0,2.427213E0,3.6893356E0,2.3371346E1,2.4990952E0,1.2520282E0,7.4877543E0,1.0410422E0,1.3861706E0,1.4063426E0,2.2829928E0,1.019287E0,2.235206E1,1.0454338E0,1.4536614E0,5.942481E0,1.5452732E0,3.4011297E0,1.895093E1,1.2736945E0,4.6687865E0,1.3085526E0,2.092577E0,4.1392956E0,1.4811634E1,1.1174127E0,3.551374E0],"tree_param":{"num_deleted":"0","num_feature":"6","num_nodes":"31","size_leaf_vector":"1"}},{"base_weights":[-3.4379557E-2,2.3431242E-2,-2.3956221E-1,7.067881E-2,-3.171112E-1,1.1039997E-1,-6.3267297E-1,1.2138613E-1,-1.2249446E-1,-2.2558357E-1,3.333609E-2,3.75923E-1,-1.632677E-1,-6.625226E-2,-2.6961008E-1,-7.173124E-2,2.6287967E-1,-2.3460899E-2,1.6686502E-1,1.5383749E-1,-2.1204558E-1,-2.4641263E-1,3.7432343E-1,-8.0694415E-2,8.0998324E-2,-1.4907436E-1,4.8299715E-2,3.897931E-2,1.5547867E-1],"categories":[],"categories_nodes":[],"categories_segments":[],"categories_sizes":[],"default_left":[0,0,0,0,0,0,0,0,0,0,0,0,0,0,0,0,0,0,0,0,0,0,0,0,0,0,0,0,0],"id":28,"left_children":[1,3,5,7,9,11,13,15,-1,-1,-1,17,-1,-1,-1,19,21,-1,-1,23,-1,25,27,-1,-1,-1,-1,-1,-1],"loss_changes":[4.8276028E-1,5.420201E-1,1.2985775E0,7.582354E-1,8.5016656E-1,1.1738757E0,2.786548E-1,7.608638E-1,0E0,0E0,0E0,4.1674918E-1,0E0,0E0,0E0,1.8662547E0,9.9392235E-1,0E0,0E0,5.5758005E-1,0E0,4.3263483E-1,4.0514493E-1,0E0,0E0,0E0,0E0,0E0,0E0],"parents":[2147483647,0,0,1,1,2,2,3,3,4,4,5,5,6,6,7,7,11,11,15,15,16,16,19,19,21,21,22,22],"right_children":[2,4,6,8,10,12,14,16,-1,-1,-1,18,-1,-1,-1,20,22,-1,-1,24,-1,26,28,-1,-1,-1,-1,-1,-1],"split_conditions":[-6.1434805E-1,1.3353543E0,6.431785E-1,7.0726645E-1,7.6499766E-1,-4.81341E-1,-9.077496E-1,-6.765626E-1,-1.2249446E-1,-2.2558357E-1,3.333609E-2,-1.1739405E0,-1.632677E-1,-6.625226E-2,-2.6961008E-1,7.718336E-1,5.804994E-2,-2.3460899E-2,1.6686502E-1,7.4983263E-1,-2.1204558E-1,7.548471E-1,5.4019564E-1,-8.0694415E-2,8.0998324E-2,-1.4907436E-1,4.8299715E-2,3.897931E-2,1.5547867E-1],"split_indices":[0,4,1,3,1,2,4,0,0,0,0,2,0,0,0,1,2,0,0,4,0,4,3,0,0,0,0,0,0],"split_type":[0,0,0,0,0,0,0,0,0,0,0,0,0,0,0,0,0,0,0,0,0,0,0,0,0,0,0,0,0],"sum_hessian":[3.922561E1,3.1294186E1,7.9314227E0,2.8177265E1,3.1169205E0,4.5764527E0,3.3549697E0,2.6155018E1,2.0222466E0,1.1714635E0,1.9454569E0,3.5587356E0,1.0177171E0,2.034908E0,1.3200617E0,1.1268396E1,1.4886622E1,1.1722658E0,2.3864698E0,8.874236E0,2.3941596E0,2.4552338E0,1.2431388E1,1.6289774E0,7.245259E0,1.3843584E0,1.0708755E0,5.3130655E0,7.118323E0],"tree_param":{"num_deleted":"0","num_feature":"6","num_nodes":"29","size_leaf_vector":"1"}},{"base_weights":[-4.4935238E-2,-1.460882E-1,5.0592005E-2,-8.824462E-3,-4.9197233E-1,2.4234518E-1,-1.1349676E-1,-1.0320995E-1,1.19910695E-1,-2.227831E-1,-1.7857502E-1,3.7795618E-1,-1.2463263E-1,-5.0251746E-1,1.6079019E-1,3.2602532E-3,-2.0011885E-1,4.788081E-2,-1.3356431E-1,-4.8107885E-2,6.8811524E-1,-6.869444E-1,5.855468E-3,3.5623E-1,-1.465048E-1,-1.2417848E-1,3.2876077E-1,3.96681E-1,-1.9157039E-1,6.405505E-2,2.284971E-1,-4.243567E-2,-2.79738E-1,5.6859875E-1,-8.417181E-2,3.1931404E-2,-2.1335684E-1,1.7583907E-1,-2.874231E-2,1.6004524E-1,1.4447262E-2,1.5579609E-2,2.061058E-1],"categories":[],"categories_nodes":[],"categories_segments":[],"categories_sizes":[],"default_left":[0,0,0,0,0,0,0,0,0,0,0,0,0,0,0,0,0,0,0,0,0,0,0,0,0,0,0,0,0,0,0,0,0,0,0,0,0,0,0,0,0,0,0],"id":29,"left_children":[1,3,5,7,9,11,13,15,-1,-1,17,19,-1,21,23,25,-1,-1,-1,27,29,31,-1,33,-1,35,37,39,-1,-1,-1,-1,-1,41,-1,-1,-1,-1,-1,-1,-1,-1,-1],"loss_changes":[3.800041E-1,8.9708346E-1,6.748866E-1,6.046228E-1,2.8965592E-1,1.0318025E0,1.3365169E0,7.623959E-1,0E0,0E0,4.051823E-1,1.1767186E0,0E0,5.052669E-1,1.145713E0,5.2396077E-1,0E0,0E0,0E0,1.4562792E0,1.4456272E-2,3.7738657E-1,0E0,1.0338813E0,0E0,1.3070474E0,4.4419533E-1,1.2828016E-1,0E0,0E0,0E0,0E0,0E0,2.8118134E-1,0E0,0E0,0E0,0E0,0E0,0E0,0E0,0E0,0E0],"parents":[2147483647,0,0,1,1,2,2,3,3,4,4,5,5,6,6,7,7,10,10,11,11,13,13,14,14,15,15,19,19,20,20,21,21,23,23,25,25,26,26,27,27,33,33],"right_children":[2,4,6,8,10,12,14,16,-1,-1,18,20,-1,22,24,26,-1,-1,-1,28,30,32,-1,34,-1,36,38,40,-1,-1,-1,-1,-1,42,-1,-1,-1,-1,-1,-1,-1,-1,-1],"split_conditions":[8.387409E-1,4.491871E-1,7.4954635E-1,7.795007E-1,7.56841E-1,-6.373087E-1,5.654202E-1,4.753203E-1,1.19910695E-1,-2.227831E-1,7.931262E-1,4.7002777E-1,-1.2463263E-1,-6.6138476E-1,6.7484665E-1,7.794281E-2,-2.0011885E-1,4.788081E-2,-1.3356431E-1,9.2311746E-1,-6.9670516E-1,4.6749517E-1,5.855468E-3,1.3480136E0,-1.465048E-1,-1.6275676E-1,-1.1947618E0,-6.141159E-1,-1.9157039E-1,6.405505E-2,2.284971E-1,-4.243567E-2,-2.79738E-1,-6.816652E-1,-8.417181E-2,3.1931404E-2,-2.1335684E-1,1.7583907E-1,-2.874231E-2,1.6004524E-1,1.4447262E-2,1.5579609E-2,2.061058E-1],"split_indices":[4,2,1,1,1,0,3,3,0,0,1,2,0,0,2,2,0,0,0,4,0,3,0,4,0,3,4,2,0,0,0,0,0,0,0,0,0,0,0,0,0,0,0],"split_type":[0,0,0,0,0,0,0,0,0,0,0,0,0,0,0,0,0,0,0,0,0,0,0,0,0,0,0,0,0,0,0,0,0,0,0,0,0,0,0,0,0,0,0],"sum_hessian":[3.7561363E1,1.7986418E1,1.9574945E1,1.3610584E1,4.375833E0,8.806641E0,1.0768305E1,1.1663277E1,1.9473076E0,1.6703941E0,2.7054389E0,7.6540713E0,1.152569E0,4.108764E0,6.65954E0,1.0647053E1,1.0162247E0,1.3696921E0,1.3357469E0,3.580478E0,4.0735936E0,2.802714E0,1.3060502E0,5.465301E0,1.194239E0,8.095882E0,2.5511696E0,2.2293267E0,1.3511511E0,1.0702335E0,3.00336E0,1.3591238E0,1.4435902E0,4.1788054E0,1.2864957E0,6.400158E0,1.6957246E0,1.3514198E0,1.1997498E0,1.219822E0,1.0095048E0,1.0474291E0,3.1313763E0],"tree_param":{"num_deleted":"0","num_feature":"6","num_nodes":"43","size_leaf_vector":"1"}},{"base_weights":[-4.9252532E-2,2.759172E-2,-1.8772171E-1,1.0104882E-1,-2.5866288E-1,1.0473996E-2,-3.5753673E-1,-9.312613E-2,1.5995573E-1,4.270766E-2,-4.5032346E-1,1.7911687E-1,-1.05396934E-1,-5.6036425E-1,3.1179978E-2,5.0185204E-2,3.819505E-1,-1.5956587E-1,-3.645716E-2,2.8031436E-1,-3.4905028E-2,-2.8425962E-1,-1.6437367E-1,2.5294104E-1,-3.4853977E-1,1.5386759E-1,-1.7231343E-2,1.4141116E-1,-4.003925E-2,7.237688E-2,-1.798039E-1,1.0867091E-1,-8.5060924E-2,-2.637562E-1,9.528916E-2],"categories":[],"categories_nodes":[],"categories_segments":[],"categories_sizes":[],"default_left":[0,0,0,0,0,0,0,0,0,0,0,0,0,0,0,0,0,0,0,0,0,0,0,0,0,0,0,0,0,0,0,0,0,0,0],"id":30,"left_children":[1,3,5,7,9,11,13,-1,15,-1,17,19,-1,21,-1,23,25,-1,-1,27,-1,-1,29,31,33,-1,-1,-1,-1,-1,-1,-1,-1,-1,-1],"loss_changes":[3.8667113E-1,5.292995E-1,4.3871433E-1,5.286375E-1,4.6127793E-1,4.8606828E-1,7.123718E-1,0E0,4.1816154E-1,0E0,3.557062E-2,1.9385402E-1,0E0,6.125572E-1,0E0,1.152054E0,3.6239034E-1,0E0,0E0,4.0364614E-1,0E0,0E0,7.9517686E-1,6.481964E-1,1.9960897E0,0E0,0E0,0E0,0E0,0E0,0E0,0E0,0E0,0E0,0E0],"parents":[2147483647,0,0,1,1,2,2,3,3,4,4,5,5,6,6,8,8,10,10,11,11,13,13,15,15,16,16,19,19,22,22,23,23,24,24],"right_children":[2,4,6,8,10,12,14,-1,16,-1,18,20,-1,22,-1,24,26,-1,-1,28,-1,-1,30,32,34,-1,-1,-1,-1,-1,-1,-1,-1,-1,-1],"split_conditions":[-6.4908826E-1,6.8610066E-1,6.93422E-1,-4.802713E-1,7.588307E-1,-3.7064713E-1,7.8844297E-1,-9.312613E-2,5.7386357E-1,4.270766E-2,7.1397215E-1,-7.8050315E-1,-1.05396934E-1,7.794281E-2,3.1179978E-2,5.0821215E-1,6.130614E-1,-1.5956587E-1,-3.645716E-2,6.265311E-1,-3.4905028E-2,-2.8425962E-1,7.30283E-1,7.680996E-1,-6.6342086E-1,1.5386759E-1,-1.7231343E-2,1.4141116E-1,-4.003925E-2,7.237688E-2,-1.798039E-1,1.0867091E-1,-8.5060924E-2,-2.637562E-1,9.528916E-2],"split_indices":[0,3,1,4,1,3,1,0,3,0,3,2,0,2,0,3,2,0,0,1,0,0,1,1,0,0,0,0,0,0,0,0,0,0,0],"split_type":[0,0,0,0,0,0,0,0,0,0,0,0,0,0,0,0,0,0,0,0,0,0,0,0,0,0,0,0,0,0,0,0,0,0,0],"sum_hessian":[3.485258E1,2.2928833E1,1.1923748E1,1.8761385E1,4.167448E0,5.9350786E0,5.98867E0,1.814849E0,1.6946537E1,1.4308463E0,2.7366018E0,4.392532E0,1.5425467E0,4.0113006E0,1.9773691E0,1.2159868E1,4.786668E0,1.6977848E0,1.0388172E0,3.3101044E0,1.0824275E0,1.3239925E0,2.687308E0,8.303219E0,3.8566492E0,3.5588222E0,1.2278455E0,2.1692836E0,1.1408206E0,1.6210061E0,1.0663021E0,7.16774E0,1.1354796E0,1.9686943E0,1.887955E0],"tree_param":{"num_deleted":"0","num_feature":"6","num_nodes":"35","size_leaf_vector":"1"}},{"base_weights":[-5.538904E-2,-2.6566222E-1,-1.1825669E-2,8.097072E-2,-1.716404E-1,4.1099243E-2,-2.227709E-1,-4.885499E-2,7.600629E-2,-9.332053E-3,1.4760678E-1,-2.1829002E-1,2.377143E-2,1.5816885E-1,-1.23349674E-1,8.7555915E-2,-2.0447417E-1,-2.7661882E-2,3.9085445E-1,1.4406597E-2,-4.6566993E-1,9.2123775E-3,-9.618439E-2,8.576295E-2,-1.3085106E-1,2.6751935E-2,1.7396045E-1,-6.575029E-2,1.05157085E-1,-2.4528895E-1,3.5246328E-2],"categories":[],"categories_nodes":[],"categories_segments":[],"categories_sizes":[],"default_left":[0,0,0,0,0,0,0,0,0,0,0,0,0,0,0,0,0,0,0,0,0,0,0,0,0,0,0,0,0,0,0],"id":31,"left_children":[1,3,5,7,-1,9,11,-1,-1,13,-1,-1,15,17,19,-1,21,23,25,27,29,-1,-1,-1,-1,-1,-1,-1,-1,-1,-1],"loss_changes":[3.101881E-1,6.6500384E-1,3.3718133E-1,1.9294092E-1,0E0,5.579365E-1,7.702046E-1,0E0,0E0,4.5621765E-1,0E0,0E0,3.6761189E-1,4.3021274E-1,6.747907E-1,0E0,1.00153506E-1,9.350108E-1,1.9763798E-1,9.460672E-1,9.366045E-1,0E0,0E0,0E0,0E0,0E0,0E0,0E0,0E0,0E0,0E0],"parents":[2147483647,0,0,1,1,2,2,3,3,5,5,6,6,9,9,12,12,13,13,14,14,16,16,17,17,18,18,19,19,20,20],"right_children":[2,4,6,8,-1,10,12,-1,-1,14,-1,-1,16,18,20,-1,22,24,26,28,30,-1,-1,-1,-1,-1,-1,-1,-1,-1,-1],"split_conditions":[6.10659E-1,-4.275581E-1,6.8610066E-1,1.5896906E-1,-1.716404E-1,6.6670537E-1,6.9495666E-1,-4.885499E-2,7.600629E-2,7.326951E-1,1.4760678E-1,-2.1829002E-1,7.086032E-1,8.636298E-1,-6.5191156E-1,8.7555915E-2,-6.666256E-1,-8.97811E-1,5.052766E-1,-6.6342086E-1,7.8844297E-1,9.2123775E-3,-9.618439E-2,8.576295E-2,-1.3085106E-1,2.6751935E-2,1.7396045E-1,-6.575029E-2,1.05157085E-1,-2.4528895E-1,3.5246328E-2],"split_indices":[1,3,3,1,0,3,3,0,0,1,0,0,3,4,0,0,0,4,2,0,1,0,0,0,0,0,0,0,0,0,0],"split_type":[0,0,0,0,0,0,0,0,0,0,0,0,0,0,0,0,0,0,0,0,0,0,0,0,0,0,0,0,0,0,0],"sum_hessian":[3.3205524E1,4.8237567E0,2.838177E1,2.6088438E0,2.2149127E0,2.3332859E1,5.04891E0,1.1034379E0,1.505406E0,2.1866602E1,1.4662578E0,1.016335E0,4.032575E0,8.699345E0,1.3167256E1,1.7263007E0,2.3062742E0,5.326521E0,3.3728237E0,1.0072002E1,3.0952535E0,1.0055838E0,1.3006905E0,3.1833951E0,2.1431258E0,1.8661216E0,1.5067022E0,6.147753E0,3.9242501E0,1.67952E0,1.4157336E0],"tree_param":{"num_deleted":"0","num_feature":"6","num_nodes":"31","size_leaf_vector":"1"}},{"base_weights":[-4.7515932E-2,-1.6606477E-1,2.7238669E-2,-3.3763358E-1,5.649241E-3,3.4312412E-1,-8.9383915E-2,-2.0045644E-1,-2.1751126E-2,2.8555247E-1,-3.7548324E-1,5.5109483E-1,-3.7229333E-2,-3.6937147E-1,1.428224E-1,-8.514715E-2,1.4660512E-1,-2.9568577E-2,4.3336484E-1,-1.6545606E-1,-2.4952618E-2,4.9557976E-2,1.8852393E-1,-4.8791108E-1,1.8069942E-2,3.709695E-1,-1.3352871E-1,1.04372896E-1,-3.5684913E-2,3.2340504E-2,1.6360375E-1,-1.904773E-2,-5.7706213E-1,-1.4111103E-2,4.7649705E-1,-9.927327E-2,9.500747E-2,-2.0963374E-1,-3.5299465E-2,1.6158078E-2,1.7605115E-1,6.636287E-2,-2.1292923E-2],"categories":[],"categories_nodes":[],"categories_segments":[],"categories_sizes":[],"default_left":[0,0,0,0,0,0,0,0,0,0,0,0,0,0,0,0,0,0,0,0,0,0,0,0,0,0,0,0,0,0,0,0,0,0,0,0,0,0,0,0,0,0,0],"id":32,"left_children":[1,3,5,7,9,11,13,-1,15,17,19,21,-1,23,25,-1,27,-1,29,-1,-1,-1,-1,31,-1,33,35,-1,-1,-1,-1,-1,37,-1,39,-1,41,-1,-1,-1,-1,-1,-1],"loss_changes":[2.9518497E-1,3.7973443E-1,8.033252E-1,6.5702474E-1,8.959289E-1,6.3799584E-1,1.100247E0,0E0,2.3232144E-1,3.16986E-1,1.3744217E-1,2.2707224E-2,0E0,4.155606E-1,6.5029156E-1,0E0,2.1732035E-1,0E0,7.514042E-2,0E0,0E0,0E0,0E0,1.9239497E-1,0E0,2.6432383E-1,2.5898373E-1,0E0,0E0,0E0,0E0,0E0,1.9057894E-1,0E0,1.7677784E-1,0E0,8.094413E-2,0E0,0E0,0E0,0E0,0E0,0E0],"parents":[2147483647,0,0,1,1,2,2,3,3,4,4,5,5,6,6,8,8,9,9,10,10,11,11,13,13,14,14,16,16,18,18,23,23,25,25,26,26,32,32,34,34,36,36],"right_children":[2,4,6,8,10,12,14,-1,16,18,20,22,-1,24,26,-1,28,-1,30,-1,-1,-1,-1,32,-1,34,36,-1,-1,-1,-1,-1,38,-1,40,-1,42,-1,-1,-1,-1,-1,-1],"split_conditions":[7.548471E-1,7.794281E-2,1.0161687E-1,-5.935415E-1,5.5098766E-1,-6.271215E-1,5.721037E-1,-2.0045644E-1,6.1323196E-1,-6.6730285E-1,-1.0339408E-1,4.3585607E-1,-3.7229333E-2,7.1846116E-1,6.8610066E-1,-8.514715E-2,6.431785E-1,-2.9568577E-2,7.672519E-1,-1.6545606E-1,-2.4952618E-2,4.9557976E-2,1.8852393E-1,3.0703425E-1,1.8069942E-2,1.0864124E0,7.7559125E-1,1.04372896E-1,-3.5684913E-2,3.2340504E-2,1.6360375E-1,-1.904773E-2,-6.6138476E-1,-1.4111103E-2,-6.8435055E-1,-9.927327E-2,1.2414292E0,-2.0963374E-1,-3.5299465E-2,1.6158078E-2,1.7605115E-1,6.636287E-2,-2.1292923E-2],"split_indices":[4,2,3,0,3,0,3,0,1,0,4,1,0,2,3,0,1,0,1,0,0,0,0,3,0,4,1,0,0,0,0,0,0,0,0,0,4,0,0,0,0,0,0],"split_type":[0,0,0,0,0,0,0,0,0,0,0,0,0,0,0,0,0,0,0,0,0,0,0,0,0,0,0,0,0,0,0,0,0,0,0,0,0,0,0,0,0,0,0],"sum_hessian":[3.179838E1,1.182475E1,1.9973629E1,5.431544E0,6.393206E0,4.862047E0,1.5111582E1,2.1091366E0,3.3224075E0,3.8307135E0,2.5624926E0,3.240234E0,1.6218134E0,6.5831313E0,8.52845E0,1.0312514E0,2.291156E0,1.1570714E0,2.6736424E0,1.0458628E0,1.5166298E0,1.0643774E0,2.1758566E0,5.0531173E0,1.5300138E0,4.4841156E0,4.0443344E0,1.1268334E0,1.1643226E0,1.1865772E0,1.4870651E0,1.1743964E0,3.878721E0,1.0155755E0,3.4685402E0,1.9297173E0,2.1146173E0,2.6543698E0,1.2243512E0,1.0261596E0,2.4423804E0,1.012255E0,1.1023623E0],"tree_param":{"num_deleted":"0","num_feature":"6","num_nodes":"43","size_leaf_vector":"1"}},{"base_weights":[-3.907965E-2,9.148033E-3,-2.5502378E-1,-7.9623766E-2,1.9151801E-1,2.9342622E-2,-4.1865042E-1,1.0484227E-2,-1.6027446E-1,-2.3888671E-1,4.4568905E-1,-1.792772E-1,-4.0845904E-2,1.6011506E-1,-1.3581112E-1,-2.119677E-1,1.1492446E-1,5.7040805E-1,1.489872E-1,1.3535812E-1,-3.880289E-2,8.762149E-2,-4.2553583E-1,5.403944E-2,1.9540124E-1,1.497639E-1,-7.8775436E-2,-7.365825E-2,1.2006367E-1,1.03608094E-1,-2.3910368E-2,2.1207193E-2,-1.9207007E-1],"categories":[],"categories_nodes":[],"categories_segments":[],"categories_sizes":[],"default_left":[0,0,0,0,0,0,0,0,0,0,0,0,0,0,0,0,0,0,0,0,0,0,0,0,0,0,0,0,0,0,0,0,0],"id":33,"left_children":[1,3,5,7,9,-1,11,13,-1,15,17,-1,-1,19,21,-1,-1,23,25,-1,27,29,31,-1,-1,-1,-1,-1,-1,-1,-1,-1,-1],"loss_changes":[3.2852527E-1,4.45373E-1,3.7306437E-1,7.665817E-1,1.0901775E0,0E0,1.2687534E-1,3.8258848E-1,0E0,1.4311744E0,1.3713431E-1,0E0,0E0,5.1592416E-1,6.118673E-1,0E0,0E0,4.9864054E-3,5.82248E-1,0E0,6.4591587E-1,2.7940458E-1,4.7518975E-1,0E0,0E0,0E0,0E0,0E0,0E0,0E0,0E0,0E0,0E0],"parents":[2147483647,0,0,1,1,2,2,3,3,4,4,6,6,7,7,9,9,10,10,13,13,14,14,17,17,18,18,20,20,21,21,22,22],"right_children":[2,4,6,8,10,-1,12,14,-1,16,18,-1,-1,20,22,-1,-1,24,26,-1,28,30,32,-1,-1,-1,-1,-1,-1,-1,-1,-1,-1],"split_conditions":[7.921138E-1,1.1037488E0,5.1025385E-1,6.010094E-1,5.3033316E-1,2.9342622E-2,6.0773504E-1,-6.559622E-1,-1.6027446E-1,7.6499766E-1,7.152079E-1,-1.792772E-1,-4.0845904E-2,-2.2888324E-1,-9.077496E-1,-2.119677E-1,1.1492446E-1,1.2173549E0,7.4954635E-1,1.3535812E-1,-6.765626E-1,-7.990975E-1,3.4593055E-1,5.403944E-2,1.9540124E-1,1.497639E-1,-7.8775436E-2,-7.365825E-2,1.2006367E-1,1.03608094E-1,-2.3910368E-2,2.1207193E-2,-1.9207007E-1],"split_indices":[1,4,2,2,2,0,2,0,0,1,2,0,0,2,4,0,0,4,1,0,0,3,1,0,0,0,0,0,0,0,0,0,0],"split_type":[0,0,0,0,0,0,0,0,0,0,0,0,0,0,0,0,0,0,0,0,0,0,0,0,0,0,0,0,0,0,0,0,0],"sum_hessian":[3.0321024E1,2.556837E1,4.752652E0,1.7576227E1,7.992144E0,1.6331949E0,3.1194572E0,1.5484157E1,2.0920703E0,2.9896705E0,5.002474E0,1.2269164E0,1.8925408E0,7.6081147E0,7.876042E0,1.628876E0,1.3607945E0,2.8725133E0,2.1299603E0,2.5737216E0,5.0343933E0,4.8405957E0,3.0354462E0,1.0473797E0,1.8251336E0,1.0356961E0,1.0942641E0,3.7223394E0,1.3120538E0,1.4866178E0,3.353978E0,1.1192621E0,1.9161842E0],"tree_param":{"num_deleted":"0","num_feature":"6","num_nodes":"33","size_leaf_vector":"1"}},{"base_weights":[-2.8732354E-2,1.4397638E-2,-2.1700643E-1,-2.159033E-1,7.086494E-2,-2.0771109E-2,-1.4235051E-1,7.1241036E-2,-1.5789837E-1,-5.5323202E-2,1.7845656E-1,-8.548027E-2,5.690908E-2,5.730043E-2,-2.5109127E-2,6.779395E-2,-1.540715E-1,-4.6038933E-2,3.125317E-1,1.8723601E-1,-2.0695813E-1,1.02998786E-1,-2.5121075E-1,4.2964363E-1,-4.601533E-2,-1.3291147E-2,1.493834E-1,-1.13338746E-1,1.7150138E-2,-1.9287968E-1,9.830848E-2,1.6520497E-1,2.3962438E-2],"categories":[],"categories_nodes":[],"categories_segments":[],"categories_sizes":[],"default_left":[0,0,0,0,0,0,0,0,0,0,0,0,0,0,0,0,0,0,0,0,0,0,0,0,0,0,0,0,0,0,0,0,0],"id":34,"left_children":[1,3,5,7,9,11,-1,13,-1,15,17,-1,-1,-1,-1,19,-1,21,23,25,27,-1,29,31,-1,-1,-1,-1,-1,-1,-1,-1,-1],"loss_changes":[2.4652404E-1,3.4464353E-1,2.7558407E-1,5.040304E-1,2.962274E-1,2.904312E-1,0E0,8.278023E-2,0E0,6.2552816E-1,3.6418048E-1,0E0,0E0,0E0,0E0,3.3857557E-1,0E0,5.030189E-1,4.6991104E-1,5.179522E-1,1.6794395E-1,0E0,1.1164279E0,2.1765375E-1,0E0,0E0,0E0,0E0,0E0,0E0,0E0,0E0,0E0],"parents":[2147483647,0,0,1,1,2,2,3,3,4,4,5,5,7,7,9,9,10,10,15,15,17,17,18,18,19,19,20,20,22,22,23,23],"right_children":[2,4,6,8,10,12,-1,14,-1,16,18,-1,-1,-1,-1,20,-1,22,24,26,28,-1,30,32,-1,-1,-1,-1,-1,-1,-1,-1,-1],"split_conditions":[7.921138E-1,6.10659E-1,1.2614254E0,-5.263293E-1,8.636298E-1,-7.266714E-2,-1.4235051E-1,2.268209E-1,-1.5789837E-1,8.0379975E-1,5.259363E-1,-8.548027E-2,5.690908E-2,5.730043E-2,-2.5109127E-2,4.753203E-1,-1.540715E-1,9.261218E-1,7.781026E-1,7.794281E-2,7.7007395E-1,1.02998786E-1,7.6499766E-1,-6.6067624E-1,-4.601533E-2,-1.3291147E-2,1.493834E-1,-1.13338746E-1,1.7150138E-2,-1.9287968E-1,9.830848E-2,1.6520497E-1,2.3962438E-2],"split_indices":[1,1,4,2,4,4,0,1,0,4,2,0,0,0,0,3,0,4,1,2,1,0,1,0,0,0,0,0,0,0,0,0,0],"split_type":[0,0,0,0,0,0,0,0,0,0,0,0,0,0,0,0,0,0,0,0,0,0,0,0,0,0,0,0,0,0,0,0,0],"sum_hessian":[2.897437E1,2.432541E1,4.648958E0,4.2339215E0,2.0091488E1,3.2516015E0,1.3973566E0,2.599695E0,1.6342267E0,9.470214E0,1.0621275E1,1.284981E0,1.9666204E0,1.3350219E0,1.264673E0,8.1363E0,1.3339133E0,4.2169795E0,6.404295E0,5.8929887E0,2.243312E0,1.2228745E0,2.994105E0,5.1800885E0,1.2242067E0,3.867982E0,2.0250068E0,1.1008862E0,1.1424255E0,1.7197931E0,1.274312E0,3.421602E0,1.7584864E0],"tree_param":{"num_deleted":"0","num_feature":"6","num_nodes":"33","size_leaf_vector":"1"}},{"base_weights":[-2.9253747E-2,-1.3629201E-1,3.944666E-2,-3.5534525E-1,-2.223831E-2,3.2230765E-1,-6.8019874E-2,-1.09952595E-2,-1.633195E-1,-1.9767448E-1,2.9978243E-1,1.4580579E-1,-1.041282E-2,-3.7956998E-1,9.308742E-2,3.4242474E-2,-3.5429615E-1,1.4073637E-1,-1.900462E-3,-7.074919E-2,-1.9378717E-1,1.7494401E-1,-6.390001E-2,9.871289E-3,-1.948747E-1,-9.205299E-2,7.444264E-2,3.1463388E-1,-1.5238471E-1,1.8210614E-1,-4.5998357E-3,-1.2306278E-1,5.6595407E-2],"categories":[],"categories_nodes":[],"categories_segments":[],"categories_sizes":[],"default_left":[0,0,0,0,0,0,0,0,0,0,0,0,0,0,0,0,0,0,0,0,0,0,0,0,0,0,0,0,0,0,0,0,0],"id":35,"left_children":[1,3,5,7,9,11,13,-1,-1,15,17,-1,-1,19,21,-1,23,-1,-1,25,-1,27,-1,-1,-1,-1,-1,29,31,-1,-1,-1,-1],"loss_changes":[2.1710293E-1,2.7891403E-1,5.785817E-1,2.1285051E-1,5.460198E-1,3.217377E-1,7.4286395E-1,0E0,0E0,3.4226054E-1,1.8108493E-1,0E0,0E0,3.657682E-1,2.9018375E-1,0E0,5.1958656E-1,0E0,0E0,3.3508423E-1,0E0,4.3722582E-1,0E0,0E0,0E0,0E0,0E0,6.1648023E-1,3.6053154E-1,0E0,0E0,0E0,0E0],"parents":[2147483647,0,0,1,1,2,2,3,3,4,4,5,5,6,6,9,9,10,10,13,13,14,14,16,16,19,19,21,21,27,27,28,28],"right_children":[2,4,6,8,10,12,14,-1,-1,16,18,-1,-1,20,22,-1,24,-1,-1,26,-1,28,-1,-1,-1,-1,-1,30,32,-1,-1,-1,-1],"split_conditions":[7.548471E-1,-6.6342086E-1,1.0161687E-1,7.588307E-1,7.680996E-1,-6.271215E-1,1.1037488E0,-1.09952595E-2,-1.633195E-1,-7.990975E-1,7.931262E-1,1.4580579E-1,-1.041282E-2,7.125722E-1,-6.4908826E-1,3.4242474E-2,-1.1947618E0,1.4073637E-1,-1.900462E-3,5.0153536E-1,-1.9378717E-1,1.3353543E0,-6.390001E-2,9.871289E-3,-1.948747E-1,-9.205299E-2,7.444264E-2,7.718336E-1,-6.7015797E-1,1.8210614E-1,-4.5998357E-3,-1.2306278E-1,5.6595407E-2],"split_indices":[4,0,3,1,1,0,4,0,0,3,1,0,0,1,0,0,4,0,0,2,0,4,0,0,0,0,0,1,0,0,0,0,0],"split_type":[0,0,0,0,0,0,0,0,0,0,0,0,0,0,0,0,0,0,0,0,0,0,0,0,0,0,0,0,0,0,0,0,0],"sum_hessian":[2.7792356E1,1.0480076E1,1.731228E1,2.8639445E0,7.616131E0,4.216074E0,1.3096207E1,1.510872E0,1.3530725E0,5.180144E0,2.4359872E0,2.6428504E0,1.5732234E0,4.001697E0,9.09451E0,1.8226602E0,3.3574836E0,1.2255472E0,1.21044E0,2.4393566E0,1.5623405E0,7.513606E0,1.5809038E0,1.8371061E0,1.5203775E0,1.4233485E0,1.016008E0,5.293395E0,2.220211E0,2.3613443E0,2.9320507E0,1.1488463E0,1.0713646E0],"tree_param":{"num_deleted":"0","num_feature":"6","num_nodes":"33","size_leaf_vector":"1"}},{"base_weights":[-2.8869083E-2,-1.8110755E-1,2.2634124E-2,5.629679E-2,-3.4754172E-1,2.6890942E-1,-4.8257507E-2,-1.1459697E-3,-4.4080845E-1,1.4406383E-1,-3.3366937E-2,-1.884391E-1,1.7213967E-1,-1.8295503E-1,8.7536825E-3,1.5140453E-2,-5.951317E-1,4.8709002E-1,-1.3552353E-1,-9.504353E-2,1.1952113E-1,-2.405024E-1,-1.8468583E-2,1.914985E-1,-2.4381435E-2,5.238558E-2,-6.9202326E-2],"categories":[],"categories_nodes":[],"categories_segments":[],"categories_sizes":[],"default_left":[0,0,0,0,0,0,0,0,0,0,0,0,0,0,0,0,0,0,0,0,0,0,0,0,0,0,0],"id":36,"left_children":[1,3,5,-1,7,9,11,-1,13,-1,-1,15,17,-1,-1,19,21,23,-1,25,-1,-1,-1,-1,-1,-1,-1],"loss_changes":[2.1976185E-1,4.9877435E-1,3.8731617E-1,0E0,1.6559178E-1,4.5057648E-1,5.7300735E-1,0E0,3.4317362E-1,0E0,0E0,9.3397987E-1,1.6592983E0,0E0,0E0,3.9344952E-1,3.6409497E-1,5.1164055E-1,0E0,3.0900994E-1,0E0,0E0,0E0,0E0,0E0,0E0,0E0],"parents":[2147483647,0,0,1,1,2,2,4,4,5,5,6,6,8,8,11,11,12,12,15,15,16,16,17,17,19,19],"right_children":[2,4,6,-1,8,10,12,-1,14,-1,-1,16,18,-1,-1,20,22,24,-1,26,-1,-1,-1,-1,-1,-1,-1],"split_conditions":[-6.82926E-1,-2.4455479E-1,-6.721882E-1,5.629679E-2,2.2243603E-1,7.718336E-1,7.66358E-1,-1.1459697E-3,1.23374E0,1.4406383E-1,-3.3366937E-2,7.326951E-1,5.911358E-1,-1.8295503E-1,8.7536825E-3,7.168413E-1,6.374956E-1,8.021048E-1,-1.3552353E-1,-9.810237E-1,1.1952113E-1,-2.405024E-1,-1.8468583E-2,1.914985E-1,-2.4381435E-2,5.238558E-2,-6.9202326E-2],"split_indices":[0,2,0,0,3,1,1,0,4,0,0,1,2,0,0,1,2,1,0,3,0,0,0,0,0,0,0],"split_type":[0,0,0,0,0,0,0,0,0,0,0,0,0,0,0,0,0,0,0,0,0,0,0,0,0,0,0],"sum_hessian":[2.6505291E1,6.0640674E0,2.0441225E1,1.8461334E0,4.217934E0,3.9445915E0,1.6496634E1,1.1224082E0,3.095526E0,2.3660846E0,1.5785068E0,1.0171895E1,6.324738E0,2.0578027E0,1.0377233E0,7.4202743E0,2.751621E0,4.3486896E0,1.9760485E0,6.347463E0,1.0728109E0,1.6214784E0,1.1301427E0,3.3374953E0,1.0111941E0,2.0279756E0,4.3194876E0],"tree_param":{"num_deleted":"0","num_feature":"6","num_nodes":"27","size_leaf_vector":"1"}},{"base_weights":[-2.5445107E-2,-1.0060419E-1,2.7417403E-3,2.603934E-1,-4.306295E-2,-2.5356462E-2,1.348046E-1,-2.2465153E-1,1.657446E-2,5.063324E-2,-4.1281444E-1,1.15676306E-1,-1.736029E-1,6.549353E-2,-4.356048E-2,-1.848926E-1,8.441575E-3,-5.6351457E-2,2.3172332E-1,1.707518E-1,-3.750542E-1,6.890808E-2,-1.20521374E-1,1.3873748E-1,-3.0532764E-2,7.871017E-2,-1.7057224E-3,1.1443268E-2,-1.6319145E-1],"categories":[],"categories_nodes":[],"categories_segments":[],"categories_sizes":[],"default_left":[0,0,0,0,0,0,0,0,0,0,0,0,0,0,0,0,0,0,0,0,0,0,0,0,0,0,0,0,0],"id":37,"left_children":[1,-1,3,5,7,-1,-1,9,11,13,15,17,19,-1,-1,-1,-1,21,23,25,27,-1,-1,-1,-1,-1,-1,-1,-1],"loss_changes":[2.3010501E-1,0E0,3.0674553E-1,2.93575E-1,2.4326952E-1,0E0,0E0,3.077259E-1,3.5145804E-1,1.3477328E-1,3.2228327E-1,2.5579545E-1,5.0963205E-1,0E0,0E0,0E0,0E0,6.5566593E-1,6.208546E-1,5.0921515E-2,3.2543766E-1,0E0,0E0,0E0,0E0,0E0,0E0,0E0,0E0],"parents":[2147483647,0,0,2,2,3,3,4,4,7,7,8,8,9,9,10,10,11,11,12,12,17,17,18,18,19,19,20,20],"right_children":[2,-1,4,6,8,-1,-1,10,12,14,16,18,20,-1,-1,-1,-1,22,24,26,28,-1,-1,-1,-1,-1,-1,-1,-1],"split_conditions":[1.0191642E-1,-1.0060419E-1,-9.29835E-1,-1.3745261E0,-6.82926E-1,-2.5356462E-2,1.348046E-1,3.0008775E-1,-6.373087E-1,6.9498366E-1,1.1951492E0,5.329046E-1,-1.1947618E0,6.549353E-2,-4.356048E-2,-1.848926E-1,8.441575E-3,4.1896245E-1,7.781026E-1,7.182334E-1,6.431785E-1,6.890808E-2,-1.20521374E-1,1.3873748E-1,-3.0532764E-2,7.871017E-2,-1.7057224E-3,1.1443268E-2,-1.6319145E-1],"split_indices":[1,0,2,2,0,0,0,3,0,1,4,2,4,0,0,0,0,2,1,1,1,0,0,0,0,0,0,0,0],"split_type":[0,0,0,0,0,0,0,0,0,0,0,0,0,0,0,0,0,0,0,0,0,0,0,0,0,0,0,0,0],"sum_hessian":[2.5237116E1,1.1955262E0,2.404159E1,2.9217672E0,2.1119823E1,1.2297314E0,1.6920358E0,4.537311E0,1.6582512E1,2.1389327E0,2.3983786E0,1.1159182E1,5.42333E0,1.0904704E0,1.0484622E0,1.3689512E0,1.0294274E0,4.7025476E0,6.4566345E0,2.0579407E0,3.365389E0,2.7554677E0,1.9470799E0,3.5877361E0,2.8688982E0,1.0340059E0,1.0239348E0,1.2012138E0,2.1641753E0],"tree_param":{"num_deleted":"0","num_feature":"6","num_nodes":"29","size_leaf_vector":"1"}},{"base_weights":[-2.4930546E-2,-1.3629757E-1,4.7172375E-2,-3.594439E-1,-1.7497996E-2,1.3554552E-1,-2.1812739E-2,-2.5985906E-2,-1.4694569E-1,-1.7481285E-1,2.689752E-1,-1.9729494E-1,1.6869777E-1,2.8093392E-2,-1.09630354E-1,1.1610914E-1,8.628202E-3,-8.628126E-3,-1.5038194E-1,2.7849263E-1,-7.194803E-2,-3.7666548E-2,4.4653393E-2,3.5270816E-1,-2.8900504E-1,1.4375637E-1,-4.4683825E-2,2.5891881E-2,1.3217176E-1,-1.6209725E-1,3.8789301E-3,-8.671487E-2,5.4633614E-2],"categories":[],"categories_nodes":[],"categories_segments":[],"categories_sizes":[],"default_left":[0,0,0,0,0,0,0,0,0,0,0,0,0,0,0,0,0,0,0,0,0,0,0,0,0,0,0,0,0,0,0,0,0],"id":38,"left_children":[1,3,5,7,9,-1,11,-1,-1,13,15,17,19,21,-1,-1,-1,23,-1,25,-1,-1,-1,27,29,-1,31,-1,-1,-1,-1,-1,-1],"loss_changes":[2.0922385E-1,2.6363742E-1,4.5851886E-1,8.1579566E-2,3.938453E-1,0E0,5.242428E-1,0E0,0E0,2.2585538E-1,7.740283E-2,4.605173E-1,4.068001E-1,8.600985E-2,0E0,0E0,0E0,7.116948E-1,0E0,4.389383E-1,0E0,0E0,0E0,3.4071714E-2,3.058603E-1,0E0,2.4001014E-1,0E0,0E0,0E0,0E0,0E0,0E0],"parents":[2147483647,0,0,1,1,2,2,3,3,4,4,6,6,9,9,10,10,11,11,12,12,13,13,17,17,19,19,23,23,24,24,26,26],